solver_type L2R_LR_DUAL
nr_class 2
label 1 2
nr_feature 2032
bias -1
w
0.3324589895727926 
-1.116026603073291 
-1.008258816987424 
0.4355245413770154 
-0.8562971717124279 
1.022429304466272 
-2.031100643668633 
-0.8645607904572196 
0.5203713974816087 
1.26039453809814 
1.474077439865259 
-0.7962854985065433 
-0.9541493943066498 
-1.312080460834234 
-0.421006216383756 
0.6395537420113164 
0.4522111101719954 
1.004581047058822 
0.7203076847381248 
0.6071597749672798 
-0.3579308621977783 
0.2268991755021815 
-0.9927591599228732 
0.3552455974318334 
0.2815243857379299 
0.923055119925255 
0.420281666263128 
0.6105562931130432 
0.9759597159339131 
0.7601637398973276 
0.2995250329388817 
-1.074106348171354 
-0.3102958602293083 
-0.4708701185462212 
-0.2822377719495973 
-1.320558402708846 
0.01126945274394601 
0.4417525126516027 
0.2143320206174237 
0.2390339772766415 
0.3671400242845294 
0.6363826361393279 
0.528504796341942 
0.4665935757381666 
0.359681415615471 
0.2630211177245879 
0.5396641659866969 
0.3608659783340426 
0.7761284783712467 
-0.6920179990716301 
-0.6261588636288969 
-0.2853525441416278 
-0.8265477292999758 
-0.6911823452681085 
-0.2500142740677597 
-0.3121610472356713 
-0.9031328019445604 
-0.6506719457958882 
-0.5232763053657769 
0.1352761754888787 
0.5958963118969095 
-1.771765801430452 
0.08110542824320079 
0.288168159371318 
0.3863719885487622 
0.6481336257685691 
0.8086946364953419 
0.5488982824969866 
0.5289058711957313 
0.45983463844166 
0.6075372471944169 
0.4152334176680306 
0.3892463760225864 
0.172351834027781 
0.1897414139584808 
0.5268652016542891 
0.7112521813141688 
0.643045674004088 
0.3611211911080377 
0.6530552357200486 
0.6226107144370567 
-0.9043373572072542 
0.04000306022166991 
-0.394957792957734 
-0.7611668942160048 
-0.8845509340959895 
-0.3673105984445216 
-0.2830212275683943 
-0.9690947711817859 
-0.668243343667948 
-0.4328936878940984 
-0.3372317737536265 
-0.3518044536896602 
-0.247897480836078 
-0.2297273194882541 
-0.2297273194882541 
-0.2089165116538929 
-0.6552459723805664 
-0.384568038186428 
-0.2913939460646845 
-0.6478320956109344 
-1.059388162783222 
-0.6246975018170573 
-0.850964437956154 
-0.5498095180799469 
-0.7404477330117967 
-0.4498152984898162 
-0.5822467604667022 
-0.2600520925837203 
0.1024536389189694 
-0.887676880471904 
-1.54990569404194 
-0.4135385118219741 
0.4033472827632564 
0.2895695368174361 
0.3717433738735868 
-0.1185561281869474 
0.2226228659148436 
0.07682785312333765 
0.4105219592521118 
0.6810875978452645 
0.8292619437260496 
0.1846788631565945 
0.6897698106074838 
0.4183033592124786 
0.6503258119907092 
0.07215002780621817 
0.1388060366073691 
0.3673704972402003 
0.3772134856397413 
0.07682785312333765 
0.07682785312333765 
0.2944888571859102 
0.1111609217220969 
0.40088816426618 
0.2857945767448712 
0.3159107002897297 
0.268392857159489 
0.3030655329935588 
0.2073046949863138 
0.07682785312333765 
0.6150565980418545 
0.8269265307733474 
0.313840049982821 
0.2969730762970275 
0.2971243478761124 
1.031214675172249 
0.5959872355049253 
0.4390573385299236 
0.1447434309204885 
0.2945809839422019 
0.9120104234187028 
0.1333969965194238 
0.5710594426397331 
0.2289187766398664 
0.2713628207655358 
0.5425626986695358 
0.5188423607664032 
0.5030355513319529 
0.1784140628545744 
0.2574113658418304 
0.07682785312333765 
0.07682785312333765 
1.194404027159667 
0.4464066710127485 
0.4653957587304892 
0.2396984384257141 
0.2573565215167911 
0.4864340049061399 
0.9786051941871312 
0.5593083696541253 
0.6343841227159379 
0.7129000249502516 
0.2700221239003375 
0.3857375055427442 
0.1789487029677973 
-0.8106336577777481 
0.9965437454918137 
0.1603236049817947 
0.7901502262676873 
-1.326152438563663 
-0.831268442834457 
-0.2555425275483929 
-0.6977578318848912 
-0.6910781352349507 
-0.4598241146540522 
-0.0400436565182455 
-0.5583695746574076 
-0.7968762716000664 
-0.3808907408559543 
-0.3758560499125835 
-0.7860604046297353 
-0.3338275880432191 
-0.395197396713043 
-0.372328037939016 
-0.5491587457569346 
-0.5762433635655317 
-0.2335638234914564 
-0.4694811473822741 
-0.3063840523238174 
-0.4793444954802719 
-0.365051404545053 
-0.2555373955898161 
-0.2746957679560708 
-0.3677660238211033 
-0.8573112728926678 
-0.4246580324393055 
-0.3533205049764715 
-0.3571449419080879 
-0.8505572624773691 
-0.6196314839213541 
-0.3870782942784445 
-0.6720598264447421 
-0.2118639030632464 
-0.4872044339388199 
-0.4468084305746816 
-0.5279350306349876 
-0.8318984331710583 
-0.521843926337613 
-0.569086969498977 
-0.3734531053182854 
-0.4308947435830041 
-0.6849421936682053 
-0.4988765501105842 
-0.2922572036677737 
-0.2540046930215288 
-0.1500176301514328 
-0.6377609667296197 
-0.3532291189290448 
-0.616524271290924 
-1.095388118886591 
-0.868546874098308 
-0.4110272998463726 
-1.229730388682737 
-0.6548814321582431 
0.1658973232564936 
-0.3895166215732324 
-0.9643217442779388 
0.3638902043248182 
0.3927849673440307 
0.3296160052213925 
-0.2338989078673974 
1.039006749646698 
-0.104028379760953 
0.1164697195046619 
0.06660724470359242 
0.3947495932617136 
0.419543578955253 
0.2687166248673695 
0.5675292122816554 
0.2913300516106631 
0.4182647615224309 
0.2591500612495666 
0.5590675504759337 
0.1692453933165631 
0.4490606002452625 
0.1470231637143046 
0.5846653479463045 
0.1597711729185477 
0.11150946933912 
0.3719332870761206 
0.3922951559485215 
0.6386802025605145 
0.5222086682579827 
0.190879465324533 
0.4652751757032354 
0.3418571311363889 
0.3898221924621467 
0.3186099310567944 
0.419984995111165 
0.4199240536702844 
0.1482457925713221 
0.2398712025975752 
0.5437649456854309 
0.2600831357379656 
0.3748504672729516 
0.5690908167533006 
0.1514612949709377 
0.181454945004156 
0.3592066236989567 
0.2719037990276404 
0.8382097441166247 
0.527404020436036 
0.676812475763151 
0.2746457953563202 
0.5911238551795369 
0.139877903003905 
0.2832394673338807 
0.3765280787375518 
0.3924686501122954 
0.4607609113197249 
0.5568101608323844 
0.2515128573748513 
0.688784209888043 
0.1389358900947357 
0.3991293496632228 
0.2381713092777787 
0.1591518004492653 
0.3271656319180123 
0.3678348830002513 
0.0754184753775978 
0.0261786933132457 
0.2723025550417796 
0.4614294627788746 
0.3630969802300852 
0.3826767960378279 
0.2630374786679092 
0.5616285094354672 
0.7530343697139865 
0.1929296078404738 
0.4765919243796017 
0.2162377702845469 
0.2758078680390539 
0.3018112320022886 
0.5025457146149417 
0.5270168082176199 
0.2174365420882697 
0.1446780317153006 
0.587130236342728 
0.6285656826791211 
0.06423503477097167 
0.5200943144992585 
0.3268598293379779 
0.2285446526823347 
0.3498514954762265 
0.4593394954399385 
0.1900790898483875 
0.3836977568404077 
0.425278175892666 
0.6597727610519576 
0.3216344785790571 
0.2833223715059932 
0.5518082315415502 
0.09482339065828828 
0.1737576045600874 
0.2766461642241186 
0.3983492785686085 
0.1480540195729004 
0.510006264486698 
0.2225168147710616 
0.4624692871362393 
0.9565139933716031 
0.4971537876417064 
0.1653051081099397 
0.4741240225311962 
-0.3721231818830645 
-0.8740302111577675 
-0.4769895564845246 
-0.1139533803749001 
0.1869794965368979 
-0.2828968267534158 
-0.03821486656214131 
1.106039364224869 
0.560120075825833 
-0.2578497245124398 
0.01195183650963223 
-0.437273631780972 
-0.3027879211493391 
-0.1559177886597819 
-0.3107383045465096 
-0.1452744103251981 
-0.3721647499235777 
-0.1513298959412305 
-0.4371567077448407 
-0.1788809887238185 
-0.2818404082422261 
-0.5374148001263034 
-0.7058738294703517 
-0.7473561098456081 
-0.2865391845853145 
-0.1258101288185984 
-0.4226885742761428 
-0.5199612152812245 
-0.2413409682379863 
-0.2141703586948537 
-0.7898986055030535 
-0.1668936702285992 
-0.7634056227117853 
-0.1253235829198484 
-0.2468579962203473 
-0.1557895803065995 
-0.540779119520326 
-0.2239820987869901 
-0.9324771084686273 
-0.07155931304338012 
-0.1293444911185361 
-0.914661495571916 
-0.2236361313650298 
-0.7864056316999822 
-0.9714721735420525 
-0.3956275931483858 
-0.4468324897351041 
-0.2917224568298132 
-0.3335248066419596 
-0.6734157943510389 
-0.3085081425035405 
-0.6055491072923267 
-0.4093187202591038 
-0.4778486396771136 
-0.7959331280097519 
-0.1102294982908681 
-0.1451171182300145 
-0.5447046537011977 
-0.2069480041759766 
-0.1631714374769694 
-0.3992239824953696 
-0.1978339867812246 
-0.1562675659893484 
-0.08153374538475205 
-0.3028326062183464 
-0.1788809887238185 
-0.4057161172620362 
-0.2599978248641359 
-0.04979594886711918 
-0.2006286643412041 
-0.211497021504195 
-0.3156838892126517 
-0.1217834585970059 
-0.5641493262758179 
-0.1564478868265078 
-0.3016381908538238 
-0.1471583068712717 
-0.3394359802865479 
-0.2036442423995459 
-0.3702353632120063 
-0.4740446215193804 
-0.233181016312028 
-0.4931288982604182 
-0.1258101288185984 
-0.1334441182170973 
-0.1924369082522955 
-0.1355405399543339 
-0.221825331544201 
-0.4247500319598411 
-0.5012469515935852 
-0.2792734949285504 
-0.05960536868734547 
-0.3831652984628335 
-0.2792747534918275 
-0.4540316173144305 
-0.1410474641801852 
-0.5209221153997925 
-0.4146098497859028 
-0.4724742910390676 
-0.3379143736366009 
-0.5530089098931175 
-0.3763170816709206 
-0.2360344296456197 
-0.4801252342706997 
-0.2899983946501233 
-0.07436517914612362 
-0.2699262734126375 
-0.131333991474515 
-0.3641917993557618 
-0.3090786619305793 
-0.184501439214683 
-0.1591221080169947 
-0.2471572520982958 
-0.3479314740387021 
-0.4429184659529254 
-0.6488477838970755 
-0.5442015256961412 
-0.1769824159557139 
-0.2120878639433724 
-0.1539819688149198 
-0.2982530941415901 
-0.5109375500362207 
-0.4725054471126252 
-0.3431670079886443 
-0.1102294982908681 
-0.3938410204775046 
-0.6668042507738867 
-0.45418382299942 
-0.04833367609372419 
-0.1455929020467464 
-0.08495155052961445 
-0.2962740921753803 
-0.1093246412290342 
-0.2783090552078404 
-0.3012975695907172 
-0.2509426917501426 
-0.1293444911185361 
-0.6354044880315259 
-0.8616810972231012 
-0.3737315051405922 
-0.3347455843770251 
-0.2335363958918619 
-0.205066561786096 
-0.5920714773214965 
-0.1027062594884902 
-0.2014225758551174 
-0.2257602448537991 
-0.6829745653866219 
-0.3951249782327859 
-0.3937095086338797 
-0.5897767275283924 
-0.5375341402312729 
-0.615025688875814 
-0.8370879203498089 
-0.1293444911185361 
-0.3461222525182838 
-0.4118632815312184 
-0.221987302305492 
-0.1483879628510274 
-0.4125414849969636 
-0.2084944539196381 
-0.3284890229841682 
-0.563216309021872 
-0.3022245659682885 
-0.4159309413344696 
-0.323571164261192 
-0.2971721803245689 
-0.451057819099867 
-0.7491862294936034 
-0.2172454763965985 
-0.2402691886887322 
-0.3658656015950624 
-0.3260160008199692 
-0.494573731631077 
-0.367094030124514 
-0.3563343909776119 
0.6518955398764115 
0.2046676683018987 
-0.08998438171990195 
0.5922108944740376 
-0.5719250545475597 
-0.4445944925148146 
0.3866442190046557 
0.6237192630517545 
0.5437899929579833 
0.6700281737816773 
0.2837687829658215 
0.368716080824732 
0.4474265244810008 
0.2801717860115547 
0.3233817317239853 
0.4209423987993068 
0.09916013976030688 
0.1179801974330818 
0.3122412690833427 
0.1428250128466619 
0.1490874700469406 
0.2984357924733729 
0.5307518968441439 
0.1463010648471694 
0.3749866459983123 
0.1096806052926513 
0.3035696199535901 
0.2242660393124084 
0.2039875169961189 
0.4051163034038778 
0.7160411641127896 
0.3680083716693198 
0.1805091947379369 
0.2903357492702157 
0.5154651972847937 
0.04628350421109443 
0.528919293006244 
0.1532560457048801 
0.03210013436162525 
0.2798840535541642 
0.4049535024660061 
0.09775517392506841 
0.2917516583545615 
0.496159697193914 
0.2054106319218574 
0.4083667098244601 
0.2774788469922626 
0.204756806397395 
0.136449413232219 
0.1205433261410418 
0.3552146304633826 
0.4217806493505214 
0.333564164938935 
0.2208090512971903 
0.01624956942865629 
0.3992840107465313 
0.711477670562213 
0.1998656529930003 
0.2017233711857517 
0.4652915890165619 
0.2283853402132238 
0.3740096280905699 
0.3641626701298776 
0.7282204801599331 
0.2417131059694734 
0.2749210243482145 
0.05984483343623363 
0.2841364537925056 
0.4657798061029947 
0.4790110569237235 
0.1604735282607465 
0.05802130278303821 
0.1718375748978888 
0.4852129657967365 
0.1569388911788839 
0.1113009053741783 
0.4075997754498805 
0.2960461229095159 
0.195036855662693 
0.1485870114734861 
0.6108174245808895 
0.6577925238235536 
0.5348475647612165 
0.1581099221089861 
0.1481385210732272 
0.4056219629867481 
0.5449413756377034 
0.2348618514134616 
0.3004671118085626 
0.4118101003935965 
0.3972936414432342 
0.3945312906989663 
0.1020005259208859 
0.1159813471496044 
0.4137533737622934 
0.169102680903116 
0.1014373035018841 
0.4981383334999457 
0.4737376670315483 
0.3247333523465491 
0.2951399915052773 
0.2258269720324014 
0.5163879299648245 
0.3053010272138162 
0.1249742249592415 
0.4523483104858824 
0.5653007030154428 
0.1174481290258899 
0.5501693029544124 
0.6465652183928892 
0.06061549710610657 
0.07089457732928556 
0.1432636737156277 
0.3716524885766627 
0.1480660370011511 
0.1818619971470301 
0.0917665781479405 
0.625657850786515 
0.2883710491086592 
0.4049535024660061 
0.1403143138740254 
0.1304939278374495 
0.2246345703882879 
0.05984483343623363 
0.02291683789457363 
0.08622008556388369 
0.4979771042161225 
0.582137778674473 
0.7732749630129988 
0.3705595350396469 
0.3969429971620254 
0.5321947206833587 
0.05622172765313641 
0.1476377456761301 
0.4255682427562982 
0.5356246574052895 
0.2825118123549212 
0.1315354959347136 
0.1267426573285001 
0.06834590230323993 
0.6664855944867899 
0.1361063391917786 
0.3657686540064988 
0.2635253584628882 
0.4098978823286842 
0.3476034307629684 
0.09221486062135256 
0.04736821052896708 
0.2306743230572975 
0.1952134824917258 
0.3491406863284566 
0.08956998665111386 
0.1672341856033781 
0.1403323790079264 
0.5065272226442997 
0.1598666484438326 
0.5266802245240286 
0.3139643743078679 
0.1489362462862891 
0.2087396429545639 
0.3885360648822853 
0.07166631159419191 
0.2230136056748999 
0.2655067189651796 
0.1292651581137035 
0.1237424709103059 
0.2562284550819421 
0.1530031741535092 
0.2557541082341916 
0.4430145207001845 
0.4287170049742052 
0.1433935063689726 
0.481857376043589 
0.2857235003707639 
0.2167216012051025 
0.188190716019153 
0.7582841707183694 
0.4609062547035995 
0.3839653735334084 
0.2453845684546638 
0.1884851591810449 
0.1341460413284022 
0.2721226026115257 
0.2082529348020932 
0.3973064405887831 
0.03932691888606149 
0.3397862884886005 
0.4949482025079893 
0.2753664361201139 
0.3695767818607983 
0.443621646589581 
0.1518562859326971 
0.118259871850825 
0.1760722288839969 
0.8608165137036785 
0.1872945297737024 
0.09583088932143966 
0.4002597427986441 
0.1764027820266569 
0.2481881610535675 
0.1413326067302871 
0.1215806971968082 
0.1886842338140757 
0.2307492814614409 
0.1994748479775778 
0.283978024086101 
0.1072307481422392 
0.1299680571473124 
0.4457065426827879 
0.2940735014801532 
0.383468541123127 
0.440109088784168 
1.117670457791159 
0.2700487565001011 
0.08085077861084057 
0.3801271584458057 
0.2396231110524153 
0.2868299991410479 
0.3052610247000721 
0.1911212177921658 
0.2294885463192624 
0.2085318097273185 
0.2197969362901327 
0.4020230634876045 
0.686814954073288 
0.4913502460155457 
0.198482916930588 
0.2749910694357202 
0.4529627119608972 
0.06354001379057664 
0.1168231589600211 
0.2781202410776306 
0.04171825728117021 
0.3192966213088886 
0.3944249889338306 
0.6925825011828278 
0.5603024685816671 
0.7597155171865242 
0.1360198466757289 
0.3283554846139383 
0.1208472516150713 
0.0645753998687171 
0.2502361608695161 
0.7717973925056253 
0.2432683818421875 
0.3706690038905545 
0.43110109908024 
0.4691777175827822 
0.5471931107301177 
0.4072903442473862 
0.4857874549977174 
0.6743037851751793 
0.1331859572613884 
1.154426452128288 
-0.4088127886219908 
0.2520655608674838 
-0.6158759315226672 
0.433210979199782 
0.267012828577972 
-0.3851936134656146 
-1.105681644959681 
-0.6459064161324657 
0.5260644636481844 
-0.5326547660290858 
0.5000469480925811 
0.2595964651289549 
-0.2282377765868448 
-0.6231734298085824 
0.2023049860473215 
0.3126879521094708 
0.8352273305659547 
0.1196127413901596 
-0.2449547048663882 
0.2496864845804484 
-0.7789398564895675 
-0.1370196353620874 
-1.045659543482749 
-0.02682338240160056 
-0.05479828344202789 
-0.2706514780283888 
0.3200954687903577 
0.3070585147550239 
-0.08274784138310654 
-0.4864501055767557 
-0.1871451099156241 
-0.1343044014698297 
-0.01049472854625441 
-0.1472485106713278 
-0.1343044014698297 
-0.1645474677721259 
-0.1909322736271512 
-0.6120814138278428 
-0.1743998298213701 
-0.4209795704576841 
-0.2343974731279406 
-0.2995857818312715 
-0.2337465659935209 
-0.2437737120186851 
-0.3363143303005168 
-1.213065856527298 
-0.2999909540602393 
-0.1670605335621224 
-0.1634897519496241 
-0.3388771188749294 
-0.2812694729691204 
-0.00721415706630579 
-0.3004590573291729 
-0.1472809081407779 
-0.02365752183029481 
-0.370888874174514 
-0.1326930468752147 
-0.2879229036209774 
-0.2542607802680391 
-0.2429144734625597 
-0.143187882929903 
-0.1784807393249814 
-0.08851063569119919 
-0.0522357180194316 
-0.1592180646607585 
-0.1153193749454517 
-0.07995344694156953 
-0.4764118804853196 
-0.3480773318269332 
-0.2062968869754537 
-0.3937538196165188 
-0.4767148200327859 
-0.401765366423319 
-0.1601311423396323 
-0.1063715332755226 
-0.1555534236958773 
-0.006057636802830688 
-0.1865377832926859 
-0.09521890183276136 
-0.2518206013674652 
-0.1140139943706262 
-0.3015759098422497 
-0.2299602598585128 
-0.1082308275125365 
-0.5211574816633118 
-0.3275903341679243 
-0.04039178988715751 
-0.3157784283607715 
-0.02374624230261521 
-0.1626440362271589 
-0.1106072545073982 
-0.3358650361087835 
-0.07404453042111622 
-0.5206300402992024 
-0.3250963578063155 
-0.01177485493525669 
-0.5526361194302432 
-0.09640168791661745 
-0.1482414208194243 
-0.943801823355924 
-0.2790441333247001 
-0.1128820319602041 
-0.3257382029942741 
-0.2945436199558258 
-0.8882001587654834 
-0.1163888211426225 
-0.09845232218948988 
-0.2141352240911492 
-0.3994234961108783 
-1.000332709584739 
-0.1525807408855608 
-0.5102250064682231 
-0.1989927671374818 
-0.5074641923772474 
-0.07614766651218527 
-0.07651901984825266 
-0.3886662374567753 
-0.2276944338739749 
-0.1343044014698297 
-0.1473524057573158 
-0.1647167598043665 
-0.2800584315345223 
-0.2794947672117873 
-0.235190873164357 
-0.4095338698565961 
-0.04837801632150332 
-0.1095025189873529 
-0.4751043488935787 
-0.08306976960368889 
-0.3142465161680411 
-0.3877924842343229 
-0.332252819571902 
-0.3336329715957238 
-0.5157611829858935 
-0.2507799095808253 
-0.163154159151152 
-0.3286891073926684 
-0.06038086225203106 
-0.6790305792564357 
-0.1290040573263052 
-0.1640800662692305 
-0.4176207179555777 
-0.4873756323132448 
-0.2679970395801298 
-0.1518129707961897 
-0.08939073010512018 
-0.337579666684792 
-0.3090701334727704 
-0.0611626043605174 
-0.07147842454992984 
-0.151133804947797 
-0.7196723852764904 
-0.3015009126894865 
-0.08271940138566267 
-0.5104315461013601 
-0.3974454840314113 
-0.4685250319892138 
-0.3304792211512162 
-0.4209795704576841 
-0.7912529504298134 
-0.06725874117313335 
-0.1183294165854328 
-0.3961891832255629 
-0.3397062240002695 
-0.1251749793384662 
-0.2041118294582367 
-0.2903563828310505 
-0.3106055079060827 
-0.06021396855005234 
-0.08601265239657638 
-0.274604924201509 
-0.3444996874134109 
-0.2208005326006498 
-0.3156101763491706 
-0.1623987426738149 
-0.4346145996661913 
-0.1479884614707893 
-0.8861059623603247 
-0.1153193749454517 
-0.4780828873925105 
-0.08813384246504812 
-0.2233657491146112 
-0.2019902597985716 
-0.1415244737576906 
-0.3842379317807435 
-0.9427440091989121 
-0.2065768382891512 
-0.05337460233157802 
-0.1550206601821305 
-0.5220189246024886 
-0.04965810407382818 
-0.2427773986101262 
-0.4922229026055209 
-0.1069497564630895 
-0.3674700626712214 
-0.5811469716610905 
-0.03261457406222289 
-0.3074084789121014 
-0.6336439962793929 
-0.4742487534769468 
-0.3019541517485904 
-0.3948694594417658 
-0.1621664500208064 
-0.5444205558754922 
-0.09377664516895561 
-0.1311650813867303 
-0.06771210661633101 
-0.2498891536398126 
-0.100939334870878 
-0.3056995232475268 
-0.3099811487547232 
-0.2235506179736594 
-0.5492097227632687 
-0.3828184264731886 
-0.4647134908731318 
-0.1044453218754472 
-0.584215948388521 
-0.2870681369310555 
-0.4334014824563855 
-0.1452206314965162 
-0.6118362872883447 
-0.2912607285045176 
-0.2266985558224408 
-0.3311477904010621 
-0.02158361877542276 
-0.1639354105325775 
-0.08489040553800779 
-0.9249002727485081 
-0.3140780920062821 
-0.06423203759007366 
-0.2723712792761064 
-0.008065134845585227 
-0.1000600844449492 
-0.6649602471439373 
-0.1183259627750747 
-0.4613756700394951 
-0.1000755541512725 
-0.2456835008929123 
-0.2087152899853479 
-0.1719631362701055 
-0.158666142834568 
-0.06716544300945659 
-0.005239052972600241 
-0.3561933584390462 
-0.05355227320013246 
-0.04667035141830872 
-0.4372534238005085 
-0.4498701297160407 
-0.8255968504740716 
-0.3251083916323403 
-0.4486496942930482 
-0.3188194462733618 
-0.08505324738869056 
-0.03097536398839734 
-0.07402211338232032 
-0.0486401088042899 
-0.4695561899665425 
-0.1959429855970277 
-0.7436794235563704 
-0.2144999011777465 
-0.5565082621603787 
-0.01931064354372404 
-0.3261930246759027 
-0.1996518092703293 
-0.01380396507791509 
-0.2581740970049852 
-0.1105247388537818 
-0.2054108087401909 
-0.3108548562092044 
-0.3946552716298575 
-0.1250239339083489 
-0.1102664650846816 
-0.316378767151747 
-0.05173788435749246 
-0.1573169396880777 
-0.6409494409583257 
-1.008154630446178 
-0.1627772119432738 
-0.3597975544968922 
-0.3375559268757356 
-0.2804374807428974 
-0.124084966742214 
-0.1092982639334788 
-0.145621349936767 
-0.2030461291788262 
-0.3201703483311008 
-0.09064108892324141 
-0.4142414428878006 
-0.2313623759456705 
-0.4087589623625335 
-0.3590886215817992 
-0.03216934254164617 
-0.5739192591686245 
-0.09575114112224571 
-0.2481814860991323 
-0.8092549991626867 
-0.145621349936767 
-0.05484909184736989 
-0.1793397503947782 
-0.1793397503947782 
-0.1328782141631452 
-0.3612585100273932 
-0.1328782141631452 
-0.3271188608421465 
-0.05198199681922403 
-0.4409266786494179 
-0.5539708653253709 
-0.1162699956806006 
-0.6630258044412174 
-0.06301667017094327 
-0.3455234507569914 
-0.1174667964523145 
-0.3209279886498517 
-0.1050609352615676 
-0.5959127201520165 
-0.4120347138373006 
-0.4334032448571528 
-0.3015533017469987 
-0.07598921121172619 
-0.1153193749454517 
-0.2283951669383551 
-0.09546946125396241 
-0.5710546475491656 
-0.3164704839607923 
-0.4302789602186578 
-0.7117258349840172 
-0.05764766603951368 
-0.1804545588466625 
-0.08377724233884346 
-0.1602856572563761 
-0.2788429601131687 
-0.1199627891624752 
-0.3627356825624308 
-0.01549276272217421 
-0.3207460756626688 
-0.1265592521392716 
-0.4003691606892947 
-0.8295291174275057 
-0.0487885981555061 
-0.4672136844606538 
-0.2412156594791587 
-0.2391329100730543 
-0.2090603147483452 
-0.1379172321048426 
-0.2290747363104294 
-0.1151446979702266 
-0.2563938280114733 
-0.09262043672891557 
-0.3418967433647451 
-0.5686860268088703 
-0.04837801632150332 
-0.246401760832935 
-0.5797665311613474 
-0.02772700372213876 
-0.3949882473361555 
-0.08009546242184699 
-0.2487698263664354 
-0.03251522538518437 
-0.119879772668628 
-0.6495210020914395 
-0.1599694492492549 
-0.112838636104896 
-0.272649148744485 
-0.004128488402625381 
-0.1128289385417341 
-0.3019901076105725 
-0.2717091216911967 
-0.2379806438200971 
-0.4445618939021815 
-0.1491976896625787 
-0.2860661440677278 
-0.5870880113369384 
-0.215000570010791 
-0.2156272885836991 
-0.3578420984152981 
-0.1937942236884704 
-0.007261932821171404 
-0.3474521493574562 
-0.06333969629984823 
-0.339404127490426 
-0.3798291467297791 
-0.5011705678828766 
-0.1483797555958426 
-0.4189644660597789 
-0.09911390755987648 
-0.3711126704679473 
-0.4372751766849662 
-0.1228611642585767 
-0.9522223504126981 
-0.4335191030743975 
-0.2137904855121488 
-0.4158062363605809 
-0.3326140507007398 
-0.08601114094462374 
-0.3934906370390048 
-0.2267287668065259 
-0.05496391483377716 
-0.0567669454616804 
-0.2098165532131016 
-0.003705351540878085 
-0.2422490292008319 
-0.3675363459269186 
-0.1343044014698297 
-0.3755878818342942 
-0.5021726030518932 
-0.3772626463122461 
-0.4652114248500491 
-0.1136121901736454 
-0.4616360089030814 
-0.19758597219148 
-0.07671597897090254 
-0.2569397263065354 
-0.2151979838997278 
-0.4984796837143852 
-0.2227846589479194 
-0.1567539924103522 
-0.2363903823316856 
-0.1709877123889695 
-0.2358225353454495 
-0.04837801632150332 
-0.7424765027415524 
-0.1734206211685831 
-0.1549322022920471 
-0.1348973993924067 
-0.0007472741344747416 
-0.4829313981376609 
-0.2567035393990969 
-0.1834840628995586 
-0.2896476130557699 
-0.219384045635091 
-0.2072556564564141 
-0.09680261163780438 
-0.4111393337494092 
-0.5836687351373782 
-0.2343974731279406 
-0.1421809602605069 
-0.03784734276379882 
-0.4975997086889937 
-0.1281284395993375 
-0.1468370303693314 
-0.2039706293530355 
-0.1032731045670833 
-0.2893668762396938 
-0.07713948246509025 
-0.2724344534276129 
-0.4589579918983658 
-0.4816236460989902 
-0.2057031918735269 
-0.3395842527629925 
-0.1406825857379621 
-0.170646757201304 
-0.09321437385660723 
-0.2978781602290767 
-0.0225062173255319 
-0.04837801632150332 
-0.04837801632150332 
-0.09942658536310464 
-0.1160438240865071 
-0.1580247345410759 
-0.2701212008323732 
-0.5482067761767897 
-0.07038934823866057 
-0.1754626979591429 
-0.3359039522608612 
-0.4034290657880578 
-0.180048159251274 
-0.08068551154048995 
-0.006102915071292001 
-0.235190873164357 
-0.1077973080701916 
-0.2072556564564141 
-0.01713803294692707 
-0.5531082038682401 
-0.2847560932617733 
-0.1162288809996819 
-0.1672158584391793 
-0.2343345953189958 
-0.1986298307385285 
-0.4070655808547609 
-0.4336892838866641 
-0.6119533535714294 
-0.3573486777466235 
-0.1895764248636557 
-0.04666066339090243 
-0.2690687099060777 
-0.4153468342965218 
-0.2046999557483567 
-0.1794764087580134 
-0.06445819190225829 
-0.145621349936767 
-0.2972167974078358 
-0.2508859216056698 
-0.5494051507861133 
-0.0630977936218802 
-0.7393017285617601 
-0.113814998027131 
-0.4302812870370677 
-0.2209231162356031 
-0.3537868269653622 
-0.09331721381353164 
-0.133887738916894 
-0.3602193201646097 
-0.1569758384242002 
-0.2768764222411898 
-0.0486401088042899 
-0.6447711700890494 
-0.1129191484137585 
-0.6510562744901625 
-0.3017537637671856 
-0.5688812324440087 
-0.06903457522286666 
-0.3104543818261156 
-0.4802109847998861 
-0.3094806991083781 
-0.2198413061659433 
-0.1546231013166712 
-0.1603429742485492 
-0.1696802419303889 
-0.04723275295410166 
-0.01583339138855478 
-0.5891367566956642 
-0.1077492631718498 
-0.1488465384837449 
-0.374117392529089 
-0.1351572534086892 
-0.2309595133360382 
-0.1476690712550355 
-0.07009291836136361 
-0.2265393526324676 
-0.3396603070173084 
-0.3654504407397834 
-0.4309053979118397 
-0.557510295092126 
-0.2270481536101555 
-0.09409892480494136 
-0.2147300697361267 
-0.02290171062997272 
-0.0486401088042899 
-0.3869631848920476 
-0.035261551671647 
-0.6258904661655285 
-0.08696079460036221 
-0.2861855850206299 
-0.01129447980965216 
-0.05844866983537393 
-0.1706173561263212 
-0.1199650096872536 
-0.2391440355933511 
-0.1512367788816595 
-0.1251006417352472 
-0.5075152563513483 
-0.2113062134016758 
-0.3291717269485729 
-0.2659820429931227 
-0.3142731320902417 
-0.1586615271827089 
-0.1804335493234934 
-0.125744189795106 
-0.7140405700814121 
-0.1678205805340137 
-0.472676666498249 
-0.5607241665623972 
-0.5863304157824701 
-0.3363733796003787 
-0.4750713577437592 
-0.2487304968969124 
-0.02194049384923306 
-0.5507483425560341 
-0.4443391167860768 
-0.4031042844618916 
-0.04837801632150332 
-0.3018613212639305 
-0.1353249268841648 
-0.6401936016776681 
-0.04684916438052138 
-0.03129839499164547 
-0.1650398001265254 
-0.3224719653777577 
-0.1881876733578185 
-0.447003746137138 
-0.5314747716043122 
-0.2817482094636831 
-0.1165618464699554 
-0.05714523202743053 
-0.1914987209270705 
-0.2076842050464274 
-0.282377910471282 
-0.2911216391784477 
-0.08170192599082313 
-0.6847289270288406 
-0.03770330283398241 
-0.04839035493122993 
-0.9237307680387232 
-0.32998770747878 
-0.1238903375281478 
-0.2210016284925607 
-0.05388279549142762 
-0.3377790472220289 
-0.08206825520144889 
-0.6764316377790935 
-0.04837801632150332 
-0.4395115973240464 
-0.1289033061888684 
-0.02211427931364725 
-0.2191078916743871 
-0.1301941941837377 
-0.1901116798846865 
-0.2274426847356666 
-0.4236850554219268 
-0.2494682107031499 
-0.1526961611604545 
-0.6427482197088169 
-0.3473218620206595 
-0.2654236023163508 
-0.6541476080469525 
-0.36677361711666 
-0.06303633267605598 
-0.0302873600921045 
-0.2294169326329689 
-0.04163060295213867 
-0.3559031110315439 
-0.4694608086488706 
-0.04124503104589151 
-0.1250151354095821 
-0.1158322762187988 
-0.7053313851887226 
-0.1458459419939618 
-0.2932045184861996 
-0.328810218972362 
-0.3073911809353395 
-0.507203691371663 
-0.716073537346843 
-0.2402572920386039 
-0.05980566627938815 
-0.04516328000121495 
-0.4391039489028889 
-0.1146452216472422 
-0.2945436199558258 
-0.1610692756420023 
-0.3906002867889619 
-0.2351779673619684 
-0.4925030943410857 
-0.2479967623678558 
-0.31659965852676 
-0.07081463874132302 
-0.3018087045319172 
-0.1481298191427518 
-0.1836931312998544 
-0.09167925413863898 
-0.103696269305353 
-0.6171862092584928 
-0.5600778269719255 
-0.3070820574629525 
0.04136317984818556 
-0.5047855366774616 
0.7960503884317247 
0.6019791600932823 
0.2719744583297676 
-0.09545836470259363 
0.09878914464147176 
1.012978550709042 
-0.1155072926885654 
0.1891204815259935 
0.01040439802093828 
0.465113554352404 
-0.4687183280440562 
-0.7723407078566243 
0.9370459133765109 
-0.522066685994917 
-0.4283716461555928 
0.3832452874324437 
-0.9103003205422087 
0.1006196805532404 
0.2686477988783224 
0.2331717841891916 
-0.1380960273066333 
-0.6901183759477307 
-0.01198850247803992 
0.09841464456812443 
0.2154784066828227 
0.4110470503711122 
0.1743014461798108 
0.09941626290351799 
0.3399789623080413 
0.2152874053120268 
0.1604770920557764 
0.06020665202372506 
0.525694428286303 
0.2891683836382721 
0.09197902786061449 
0.6110832394832535 
0.5890986425252435 
0.09370312926053738 
0.2687399221131674 
0.2821983067375763 
0.1746919108350428 
0.3331879018977556 
0.3509842086304374 
0.4040544032943291 
0.1036642142397611 
0.05169269413432616 
0.154663364362142 
0.322940102354188 
0.2527540743317838 
0.07154912985961859 
0.03299565059473931 
0.08747135475018228 
0.2935133189894882 
0.01788599699813221 
0.1347653825676531 
0.01541958595495033 
0.1015093012687252 
0.2743112297285508 
0.2397789844784715 
0.04881544881602126 
0.09980669038784401 
0.2037580649949853 
0.05272414999332713 
0.09329632212520793 
0.1080546084211305 
0.3288143039677938 
0.1535416434528154 
0.22695299629711 
0.6008915290863142 
0.2701132774179919 
0.04019118415019143 
0.04019118415019143 
0.549521342494693 
0.4320631973932068 
0.1210606365838998 
0.03352167086185101 
0.003909598124878035 
0.09914814910289176 
0.1535416434528154 
0.1756249492223727 
0.3365586194656575 
0.1535416434528154 
0.2040345204661967 
0.1162916953699616 
0.09617817993417166 
0.4580518279886548 
0.3388777068125302 
0.120564623396258 
0.1345931146153491 
0.03421675144504014 
0.1085129358150017 
0.2979897056083347 
0.1640535471469709 
0.08060441165703902 
0.1535416434528154 
0.3719660890601111 
0.1414443432618071 
0.3880213429661015 
0.3090106560466696 
0.1337646253442567 
0.07430083110385341 
0.04216178150487256 
0.1549204072252222 
0.3740116786629266 
0.193196483433076 
0.2222675609321319 
0.1859641259046667 
0.01798817115176326 
0.09821334212034195 
0.1158690605229417 
0.1542568110129068 
0.1510727362309437 
0.1527658626999553 
0.1796393181236302 
0.09260749055322386 
0.160382544391558 
0.183678825037508 
0.2219913509301678 
0.04145947978739466 
0.04881544881602126 
0.0531019802049205 
0.2188927197148467 
0.229434717944473 
0.2329341182068039 
0.04828867344238556 
0.2773837993656599 
0.3547817064120002 
0.4229554110290709 
0.1043573370377118 
0.04621413070473747 
0.4337249023886218 
0.1413846710159072 
0.24656326420576 
0.2000887456675254 
0.09164745992260739 
0.2244488438763201 
0.1080546084211305 
0.1045571797371022 
0.257356991186768 
0.08250485670219629 
0.1271309542975762 
0.2621510968834743 
0.6104205355725441 
0.04177388098869267 
0.1087747001103684 
0.134451538295595 
0.1006532043614649 
0.1100494616932312 
0.1397020906779426 
0.1907490913101909 
0.4373323522064828 
0.1764419600806361 
0.106248887684432 
0.4455419210931494 
0.2702880903923371 
0.2402488866646471 
0.3747371537679196 
0.1364492140721437 
0.08484635671399796 
0.004314627793653653 
0.3547817064120002 
0.3291043467780921 
0.1998212810762034 
0.04939934934574956 
0.2528637749815148 
0.03421675144504014 
0.143964218626288 
0.2816870529612238 
0.09898634257288468 
0.3532148303304237 
0.1519669166533849 
0.1432482682552898 
0.2475288939648494 
0.1600810643438863 
0.08539092266690285 
0.1002617580274042 
0.2687712620966425 
0.230967603804186 
0.4229554110290709 
0.0396015973832002 
0.0655995228946597 
0.2490621195514966 
0.2792526130558856 
0.2342377315564886 
0.4880946173961964 
0.2525448133492584 
0.04019118415019143 
0.2472200609032659 
0.1579207678762704 
0.2734210630403021 
0.06130977971598347 
0.1417881254819577 
0.513974213008872 
0.160382544391558 
0.1727336697825726 
0.1613783690736352 
0.2143060647400479 
0.1072972882585917 
0.3547817064120002 
0.6164371794863313 
0.2960717081473447 
0.3547460276519815 
0.1022937796528294 
0.06606932061242843 
0.09113198131058843 
0.3200713158008588 
0.374442418359056 
0.04019118415019143 
0.2280690846868849 
0.07773539266006717 
0.195254040019118 
0.1413846710159072 
0.3468097686449752 
0.05266902686982733 
0.2461615437762668 
0.2590265162060894 
0.5495651482688966 
0.02725861018403882 
0.1080546084211305 
0.6361125656359803 
0.348133258120035 
0.2065720704713682 
0.1535416434528154 
0.1446242259408873 
0.1182517845349577 
0.3547070478726275 
0.2301825568482465 
0.04809477072403588 
0.1573652842863155 
0.133622374995008 
0.06131624472155436 
0.5389777920459884 
0.1093814611991815 
0.3234708078343014 
0.009429674342596324 
0.2385216982349806 
0.3368482678416339 
0.2720433703786205 
0.08680615166747333 
0.5281923155092587 
0.1825075139447608 
0.003909598124878035 
0.2768794796263249 
0.06604747634186325 
0.2226875053057682 
0.3803949412647856 
0.3670889060684571 
0.446943002839406 
0.6016101092134798 
0.160382544391558 
0.2458356965382412 
0.3887050764860506 
0.1581352050190381 
0.2672431568308515 
0.5106357095196533 
0.1471408248886564 
0.1377245704266346 
0.04713385332927855 
0.09945683390711405 
0.0913408644075011 
0.04019118415019143 
0.003909598124878035 
0.2604042946640071 
0.04881544881602126 
0.6576002588783825 
0.3035861495982694 
0.03864938752539553 
0.4979849817897875 
0.1468090180089392 
0.1450629707881108 
0.2790856706600116 
0.0711233778606588 
0.01562978129822241 
0.09469702377519572 
0.4666532077135289 
0.0531019802049205 
0.3703510581441623 
0.8383803302615381 
0.0945683619142831 
0.2607583174174812 
0.2334405942922766 
0.1964703169835908 
0.2754039614074995 
0.2203266927245041 
0.1148194464622938 
0.1053255662273209 
0.1830648966449601 
0.1655830917630917 
0.328655647705856 
0.2649032161245544 
0.1032867553112616 
0.3454067694312525 
0.4613102571875584 
0.04475097369303251 
0.01510435813763988 
0.8338813306069963 
0.160382544391558 
0.02051858623428435 
0.3009371823942085 
0.08002521513856185 
0.07712440867910304 
0.1034074134720753 
0.08377654132367811 
0.3179814253000736 
0.07916499802736257 
0.1116982250685951 
0.3826902630175963 
0.5536639186415614 
0.4931079036795624 
0.1123759857599482 
0.3643253675023874 
0.3529636155662999 
0.1592550771391171 
0.0531019802049205 
0.5165403570633422 
0.04963918228466783 
0.01541958595495033 
0.3567334468307956 
0.534915584968453 
0.2666126516608893 
0.06353243781605557 
0.04019118415019143 
0.03551122022423758 
0.2592413191070203 
0.1429680861909355 
0.1741061031857994 
0.05047167393264816 
0.1828560756246443 
0.07943064603159022 
0.02947236177236236 
0.1265192102500322 
0.196920765742594 
0.2047676448193991 
0.2659213072562259 
0.07778897098887874 
0.156589009150076 
0.0531019802049205 
0.03024927053316853 
0.3766597115422419 
0.2440874191276833 
0.5643484599558998 
0.160382544391558 
0.4496934644826459 
0.2440768598724506 
0.2054296732714409 
0.02012808686726295 
0.0328069579209876 
0.3679956562210369 
0.1982214652107447 
0.04645287297428113 
0.09228578531490492 
0.1644721818553253 
0.1413846710159072 
0.1537562923629328 
0.2709321323782399 
0.1843862260484721 
0.1804255054526655 
0.1080546084211305 
0.03667334899420953 
0.3837517825381395 
0.6615604067411878 
0.1032686111492292 
0.231803022838595 
0.4790640198802982 
0.1413846710159072 
0.0115027136940123 
0.2668787617389664 
0.1666451068659568 
0.3020804912731852 
0.05062245019692373 
0.2210809223528845 
0.238452333739883 
0.1093814611991815 
0.2101889963090829 
0.4354692714780698 
0.3119448246876004 
0.07066037514074404 
0.3090130345417094 
0.1955536167519041 
0.3158753862899939 
0.3873981039248884 
0.2175195201661459 
0.1535416434528154 
0.2127788327278524 
0.02076516360994377 
0.678651571250021 
0.0531019802049205 
0.1974840010889865 
0.1347906467938772 
0.3615923291768543 
0.07491170851562998 
0.2870910567985417 
0.01028509518151929 
0.06852290708694467 
0.4085179065771045 
0.1227046810826626 
0.1286137770810226 
0.2256090012023694 
0.6429937729961864 
0.1665702654640243 
0.1324934184638607 
0.1413846710159072 
0.5583471563240017 
0.1681260793861987 
0.3505537945255276 
0.2142747322516045 
0.09190423922941826 
0.2141129046748247 
0.299933534311696 
0.5496027178282925 
0.001732877914896398 
0.2078252810673232 
0.1002893856863454 
0.41154304051268 
0.1320300474867299 
0.2487730036195247 
0.3521396193266755 
0.02759672503868099 
0.3371435038277751 
0.2137129802567048 
0.3308812387008538 
0.2108986861526765 
0.4794770964910816 
0.4229554110290709 
0.1430242116966662 
0.1110645212803801 
0.5368192990057797 
0.2921743627127619 
0.1963874062009773 
0.1778444706835421 
0.3547532859030332 
0.3714418808048086 
0.6129132010666943 
0.0176573472873978 
0.09466464542581585 
0.02166532117147817 
0.72710970664737 
0.04093629806663943 
0.1194723176983262 
0.1395046935847293 
0.08577364663856921 
0.1822276991662996 
0.3434169565337276 
0.4052743779768207 
0.04919403618424859 
0.1627764992785231 
0.046825979936491 
0.09881929146432505 
0.2100304971667834 
0.5499621432465832 
0.04960048859910503 
0.1704846206883979 
0.06131624472155436 
0.1535416434528154 
0.1889675357129905 
0.06776939772158416 
0.07676533979096877 
0.07242359304064222 
0.4748020816617213 
0.06115410847479743 
0.1055888875482542 
0.223360044364273 
0.0531019802049205 
0.1707748254465969 
0.3570967428007152 
0.01541958595495033 
0.2578758091251426 
0.1482532711136174 
0.3173085781847642 
0.07248284511583654 
0.06817921928919676 
0.4212645739120712 
0.1552281840952173 
0.003909598124878035 
0.3615084438542333 
0.09399909408407477 
0.3095306003062881 
0.3788749726976299 
0.2172296000763116 
0.09721511820861885 
0.1482464122247477 
0.3245886915900399 
0.02642197058651309 
0.2731827755409952 
0.1146997567934077 
0.1535416434528154 
0.003909598124878035 
0.1495189420107393 
0.08484621640073051 
0.3066127827744415 
0.2079374156073386 
0.1504383522665974 
0.2532522621281393 
0.2845217078909413 
0.003909598124878035 
0.06522784967050223 
0.4693753406198273 
0.1265140204967015 
0.1892343786963311 
0.1080546084211305 
0.008980583832094219 
0.3145924459854775 
0.1338086696736651 
0.1579918860823726 
0.09988349322824677 
0.2373952176803478 
0.2063359672175408 
0.06558185928603498 
0.1846229629250136 
0.767040498436744 
0.1306292040533655 
0.03758146388058219 
0.05020049277293714 
0.4169772728343232 
0.1413846710159072 
0.160382544391558 
0.05276088065996915 
0.1074918904981541 
0.1359093345967727 
0.1219326812947601 
0.8222392766489269 
0.004773822881661694 
0.3152153245589748 
0.04164192177322566 
0.368003104781702 
0.2856381207859191 
0.2247843973387108 
0.3290212970016504 
0.1662939860220616 
0.01541958595495033 
0.1600013496565833 
0.08090550868895699 
0.160382544391558 
0.04881544881602126 
0.216591815118066 
0.3181893812837575 
0.2552446790337414 
0.09151552648101539 
0.5218856757085398 
0.1682486400970621 
0.1910207064678704 
0.3792429948226371 
0.5356799554220617 
0.06631598411868377 
0.2427313607057177 
0.05671949385205841 
0.3527617136495646 
0.187187985547462 
0.1080077531749998 
0.09535296517714365 
0.1840011013744427 
0.1184517724919159 
0.1227457693990649 
0.05469987079335142 
0.2137459685203422 
0.383886068014038 
0.675720814830951 
0.381559976478109 
0.2653085034275271 
0.08687836836780198 
0.1532019050715947 
0.3121587384934148 
0.2298282059640217 
0.2849568483433093 
0.03758635967657488 
0.03204959996991419 
0.0822662139027162 
0.1080546084211305 
0.1252181268005467 
0.1736298188967454 
0 
-0.4279065136157588 
0.1057008434305948 
0.2138279786948568 
-0.08482517225051758 
0.004687505275077579 
-0.4553182394008273 
0.05029437909437037 
0.2647990379980736 
0.3671587148025556 
-0.02444890597213298 
0.2029478857056956 
-0.3869770691425906 
0.2473745730612706 
0.3461793641390028 
0.02240434910741932 
0.001860021278643583 
0.4845586338330234 
-1.130640069956652 
-0.6460814361238199 
-0.1828789435864768 
0.206681857565835 
-0.09750378331511422 
0.3224027389275609 
-0.4945839455126584 
0.09848033724934525 
0.1030514476772118 
-0.09839683378630698 
-0.07835548322666146 
0.6431194263818956 
-0.6355369912603612 
-0.08128330445729647 
