solver_type L2R_LR_DUAL
nr_class 2
label 1 2
nr_feature 2606
bias -1
w
-0.6081348198095977 
-0.1675976026403207 
0.3615753456341361 
-0.3177679720294601 
-0.003591145948442267 
-0.3783986742803034 
0.1295690172729468 
-0.05443448802968948 
0.2116269815791379 
-0.07015384515391064 
-0.06091153206461143 
-0.3602902991411495 
0.2366221550202819 
0.729909029402029 
0.4724668945958619 
-0.01163443725134135 
0.4273899197299103 
-0.3170617134303886 
0.09487623608512735 
0.07625614514923533 
0.3692513857928439 
-0.1349949427818287 
-0.4079773356235344 
-0.3897507532146205 
-0.5198814510509998 
0.004646820382011464 
0.08407787185439325 
0.2665471715519375 
-0.1087322549963614 
0.09680862009615439 
-0.01230187392794766 
-0.06096802653137091 
0.1487094931370965 
0.01257333469813889 
0.0272250709043915 
-0.3352803152410096 
0.8585186110438133 
-0.2566009315083765 
0.2122152300105678 
-0.2355890528702481 
-0.5334321731704134 
-0.5354697310718738 
-0.08552534109233922 
-0.3333591094852254 
-0.2092788407898022 
0.1045157949960042 
0.1198113021350903 
0.189947417117978 
-0.2938631659088586 
-0.2496221881754601 
0.2319715541521475 
-0.03880764599029848 
-0.2224818601980901 
-0.2708999854521872 
-0.3542731490316145 
-0.7184760588740271 
-0.06443934220114284 
0.367818378251115 
0.08238370081368077 
0.0974043857155 
0.06403733280947467 
-0.06235951050408801 
0.2302213211485251 
0.4652624362468519 
-0.5101707790416401 
0.07786033134020584 
0.4477074205878913 
-0.1904469072471894 
0.07786033134020584 
-0.05753658184362339 
-0.3090603531088431 
0.1051277204778358 
0.1810035127760596 
-0.06857220114583434 
-0.06857220114583434 
-0.778564147743094 
-0.1105928999418431 
0.01401868017601848 
-0.4070461457099896 
-0.3143768634546048 
0.3366311113439983 
-0.1804815409726938 
-0.08198630742560117 
-0.4793772935682232 
-0.1438282792961966 
0.01097882157458628 
-0.890781695294199 
0.1822538491313849 
0.0005571160737782067 
0.3326255413971881 
-1.139578934414109 
-0.1846288785928542 
-0.2010180745535024 
0.3079994487293948 
-0.6644749618971937 
-0.01039513976500999 
-0.1438282792961966 
-0.23333974311069 
-0.5540505988887375 
0.01251782510493727 
-0.1777631143638239 
0.3138524852670293 
0.2961073069664313 
0.02716581772344561 
0.02463078002569531 
-0.009758884935982806 
0.2522185293966999 
-0.1594340876731527 
0.1672741866058188 
0.5062720630714352 
-0.2858550496773522 
-0.06444505578308654 
0.2800862670236605 
-0.09543544563860498 
-0.0707368472187198 
0.3014018767832478 
-0.1595125274116868 
-0.244901471891221 
-0.04726777732168892 
-0.8204572145492346 
-0.4075580563227958 
-0.3234702697434918 
0.7723242661401464 
-0.03866871576531404 
0.09683231618437234 
-0.07486929850217192 
0.07884569337289671 
-0.04447595773696876 
-0.3897838607217128 
-0.2144285363606672 
-0.5365110842487865 
-0.3348202731274998 
-0.2486184693397413 
0.2081699149415893 
-0.3247436018986087 
-0.3937062834489322 
-0.2052564129070882 
-0.3552543766056567 
-0.04855164734053996 
-0.4036684733227232 
-0.3937062834489322 
-0.1376622573885863 
-0.3787270001606908 
-0.2052547845232295 
0.6010300062988145 
0.35704261853556 
-0.1575722018968614 
-0.2500916645872879 
-0.6686288723936353 
-0.4082842370613598 
-0.1438282792961966 
0.3040680180048995 
-0.03278221698726501 
-0.2557048046048738 
-0.2557048046048738 
0.3243792639201136 
0.3243792639201136 
0.1789957153307825 
-0.06843093018805499 
-0.3102597519278709 
-0.2804443764298561 
0.4469566280156421 
0.2979017691683314 
-0.009457324132171732 
-0.3813434629530176 
0.4302169354760627 
0.1034092399519651 
0.2298567700120429 
-0.1442161808106055 
-0.1777822665255489 
0.4902164114541255 
0.1736255375040184 
0.1268694735205454 
0.09239683477919009 
0.214748856477422 
0.1999616922307473 
0.3302063450234982 
-0.5325715755463795 
0.04102719754729575 
0.2969097076623729 
-0.5604570309772531 
0.1107386612001321 
0.3043332598830874 
-0.2270052853929659 
-0.3410817936788472 
0.1702892809599397 
0.2283394744567479 
0.03230413335661903 
0.2889217402017053 
-0.2106750349784486 
0.2298567700120429 
-0.0451335471826143 
0.5802530760885524 
0.4147198303236673 
0.1227035856853955 
0.02087117988567 
0.2675496710364282 
0.1534765025316249 
0.01735618184067971 
-0.1625694499528888 
-0.2427703128110897 
-0.9190970891820584 
0.04546654054706298 
-0.439986736517126 
-0.2851985269854847 
0.2530038087868476 
0.6497335368507798 
-0.04486468288043816 
-0.03595714485411384 
0.4010364514761084 
0.3716178205077771 
-0.2026136383805368 
0.0688991923041461 
-0.1305508342677988 
-0.4538197719974347 
0.1487126427624609 
0.191215656989504 
0.09838635077931812 
0.1265107963108213 
0.3374337774575387 
0.1728349058165465 
0.4763001212909726 
-0.4478374390395929 
-0.1981111987346957 
0.1186256899706171 
0.1583525424873075 
0.0755876644451042 
-0.1217530231327045 
0.1509207601138537 
0.3525566261382319 
0.243223987565289 
-0.04758899992658198 
-0.2442607850068614 
-0.1552130900929968 
0.02652492272828284 
0.3607156885846682 
0.3607156885846682 
0.5289468009329884 
0.06136171496886696 
0.2091925958815778 
0.09730124624023534 
0.2234299610163469 
-0.2305834864858689 
0.1597058619858361 
0.3003802164268731 
-0.1764825329219838 
0.1139921485809781 
0.1275630676817444 
0.09428548578979068 
-0.01784837902280698 
-0.01784837902280698 
0.6058665240615737 
-0.3020289126190205 
-0.1292943344458214 
-0.2805180766619905 
0.2895815115328299 
-0.1163491794594057 
0.01805965439527017 
0.4682738200176777 
-0.01784837902280698 
0.3391910781897776 
0.04154630441244376 
0.6252990934890201 
0.8417970949235754 
-0.02063233739315174 
0.3191175574493871 
0.1018895627695735 
0.4685064622260223 
0.1132682872275898 
0.01269440009793963 
-0.1163491794594057 
-0.676865015969045 
0.26152709069672 
0.5248693267435832 
0.4172746454580328 
0.390267623379723 
0.1454357321269754 
0.3283423188955023 
0.264215125600439 
-0.5251111899245839 
0.1517265817827819 
0.9751342447554896 
-0.04389322722294116 
0.05011825080475411 
-1.177092368655148 
0.219690364350651 
0.3135015538787191 
-0.05746458484519845 
0.1403771274257244 
0.1770447077684489 
-0.2558895576969567 
-0.06651440509766203 
-0.4628449572167946 
-0.1399330320734988 
0.3603717936258674 
0.1331422399650863 
0.1401450367180612 
0.2228766928467615 
-0.3098346703381678 
0.2162213683586786 
-0.2028104037701018 
0.1573270805962975 
0.2430753654044802 
0.4968647780891227 
0.5180994071660149 
-0.5256817901201467 
0.3216132740917336 
-0.2221774784712666 
0.5002411509643655 
0.04581896447070952 
0.4532738376020291 
-0.7446165234387119 
-0.1277850967475082 
0.5570624303792396 
0.5294768390272301 
0.129696635306042 
0.06966103243482272 
-0.1635840643202056 
-0.1431338115215327 
0.3666909097832632 
0.5636809699043434 
0.3900208118523965 
0.4619298900078334 
-0.2863209706244198 
0.01517891543943422 
-0.05833049474646755 
-0.2031923377284954 
0.05505826503390985 
-0.2787439094512238 
0.1515093270523532 
0.3258223142053079 
0.1033375723742118 
0.1267040112126388 
0.4979138489074513 
-0.1984842108757911 
0.7133235301500325 
0.2470761000433231 
-0.1382514663112237 
0.1028127213839546 
-0.09961012115079902 
-0.3334238699051213 
-0.1810805852208104 
-0.250097306124888 
-0.09484918048818966 
0.35959504629464 
0.06851642303984816 
0.2979920514423121 
0.1152869285521017 
-0.03320035462159796 
-0.6250128109541884 
0.1029524781955165 
0.3798145675968686 
0.3426657169134686 
0.1487126427624609 
0.1487126427624609 
0.3751904474391718 
0.09708296738610524 
0.05089528968867555 
-0.1194720943389994 
0.2298567700120429 
-0.3294734996629393 
0.3530378448696673 
-0.5700730270177087 
-0.5244603322961277 
0.2974464713616827 
0.04798096711950675 
0.2791820882281721 
-0.3775263450112073 
0.427206081293616 
0.3165508915687356 
-0.3412365887203742 
0.2983299797762065 
0.2324910164610565 
0.2636842646104474 
0.4158133672863261 
0.03887044910239026 
0.199971868768596 
-0.2750273775272927 
0.583666241505165 
0.9135679469553832 
0.07706529453160027 
0.5212153164038218 
0.03604970364178192 
0.142233086415385 
-0.3718556462308804 
-0.1270018556113996 
0.3163945602148675 
0.270636756708093 
-0.4370581241821233 
-0.2848973959996113 
-0.5969873731681157 
-0.5355041636733118 
-0.3394187561002733 
-0.2120418046723868 
-0.02573465493403358 
0.6565498460318713 
0.1224184110066815 
0.08247441679209276 
0.5519421588767275 
0.3706994341979275 
0.08947975519704128 
0.6914844307064789 
0.2191826041330378 
-0.5371939408605346 
-0.2413497865553333 
0.01677597745796383 
-0.2335272131111563 
0.05865520315146558 
0.247256530315198 
-0.01536845534596035 
-0.2238404703199297 
-0.2463313206204021 
-0.2779270843013466 
-0.2983304026271656 
-0.6100095507838602 
0.3786218915678224 
0.4218331817091789 
0.2088107505369129 
0.05594229036130242 
0.5148537229105065 
0.05351531261154192 
0.1405608457799425 
-0.08939906310825191 
0.6144421159915865 
-0.07669563974714072 
0.1859935940365611 
-0.5671643669470077 
0.01918551821036899 
-0.07417996386964973 
0.1808700636253191 
-0.2380013426405646 
-0.3076144327410577 
-0.4031150739320435 
0.2710789467288686 
-0.4008382564003133 
-0.3636537806021705 
0.07971549397457239 
-0.3521392281585857 
0.2014910788226473 
0.3362723270396749 
0.05055997164503069 
-0.2924772038864293 
0.06948150897128649 
0.02776766506033596 
-0.1893393652872552 
0.4306419384353959 
0.01778608532067389 
-0.3515582136190762 
-0.5018390614176134 
0.07267314637613473 
0.1024532718202898 
0.0340288186601041 
0.202946596182731 
0.1475579420313264 
0.1497376094117874 
-0.3279091566826888 
0.06955485961192801 
0.2282679465121308 
0.01278051025190094 
0.2523148269190877 
-0.1881280003013526 
0.154843347575548 
-0.2331270432985192 
0.3760461851847206 
0.0359765052747657 
-0.06749380668699775 
0.7388208601827063 
0.1198113021350903 
0.5119461441277111 
0.1675250138418863 
-0.3385933625298729 
0.1458137619953308 
0.2851084140355583 
-0.01137699467819347 
0.05392072263634495 
-0.1562742343727104 
0.1357191947483232 
0.130640695359811 
-0.2409604886624298 
0.1460853019653801 
0.2343375890991393 
0.2573006669631838 
-0.3418048462227065 
0.04294598666787284 
-0.4783630128678184 
-0.2642593213968077 
-0.7919733099290154 
0.1332593723171804 
0.08293806131452969 
0.8063239837560643 
-0.0336438213308353 
0.04411613387932891 
-0.1942181045717652 
-0.163838637467055 
0.412924013127858 
0.732957200798424 
-0.5420171352287435 
0.2320632627537316 
0.06664117373422586 
0.422014182090302 
-0.1925650704671324 
-0.1409813683164555 
-0.7837341665435504 
-0.1818739805040115 
0.3686713177667004 
0.2804300732357964 
0.150071057785112 
0.09730251412049458 
0.3373622883672318 
0.03604970364178192 
-0.1928081984213547 
0.149274617274875 
-0.1986195695751454 
0.3741192668384658 
0.2961353406939382 
-0.6559878010164635 
0.7056892046721517 
0.05017961142589428 
0.04895754927668193 
0.332096491430264 
0.160551754151829 
0.2368554544076714 
0.0900773858978664 
-0.1934598455676289 
-0.5551297433704983 
0.08350503690159145 
0.03593456888672417 
0.1365855068174323 
-0.1695615389160456 
0.1378385874944978 
-0.09133814656210394 
0.03381006940095905 
0.4348263471249186 
-0.02728580823762319 
0.09003455489523933 
0.3819585166932297 
-0.1884319907048516 
-0.2601632791527053 
-0.1539379735699745 
0.1254599461019476 
0.1977909835540168 
0.06001030081147987 
0.1044924388218213 
0.08882595471624663 
0.09339449285341334 
0.1749167299374349 
0.08496055724305568 
0.0924645997141345 
0.3373622883672318 
0.3887653563452922 
0.1129685004979672 
0.1940464323198995 
0.1152303084223719 
0.1944526562781397 
0.2134674047482596 
0.3399987177843549 
-0.09466562324027229 
0.2654946830896204 
0.08623277647259039 
0.2839378184450514 
0.04606803009299103 
0.5033199918980074 
0.3210467317106072 
-0.7191855472391916 
-0.09435462783545509 
0.1006951810595219 
0.3437677685832128 
0.1098007505066458 
-0.2398233557245088 
-0.3365706383752332 
-0.5478813800887691 
0.187979133178865 
0.2379538760976771 
-0.660261913486182 
-0.3508281119456921 
0.3502838843375436 
0.6950961782858122 
-0.3762284575243716 
-0.3058408499757104 
0.2830169117917762 
-0.07955932187230515 
0.1245549918004935 
0.006716116689483045 
0.2396967583909274 
0.02220774933217893 
-0.03271674317269756 
0.4287243277303062 
-0.01756943296845307 
0.4078954405824116 
0.469716014984995 
-0.2170544695310226 
0.09086512402718269 
-0.4407453007159567 
0.1992830103748992 
-0.3044813637755522 
-0.0009157972921732482 
0.4968612240215155 
-0.00634471397626752 
-0.4560747530164963 
-0.6612940044417172 
0.01410779620769368 
0.2020298812920001 
0.2435797052108954 
-0.1415940004815318 
0.1808461812721305 
0.07505085081902627 
-0.1900991337588837 
0.04904903892186026 
-0.01725182819803316 
-0.47618900051686 
-1.090537780637377 
-0.1135824099848383 
0.0658834672714155 
0.08360893905932496 
-1.664966921080397 
0.2272207017835914 
-0.5535917121888567 
-0.291749244774296 
0.747011200657877 
-0.5023700799933154 
-0.1715367900589024 
0.0900773858978664 
0.384415782371595 
-0.2896837468313943 
0.03604970364178192 
-0.848066304522636 
0.2422966529466163 
0.06982672177265201 
0.8309936879656577 
0.04294598666787284 
0.6740615551283985 
0.1083924180325196 
-0.2592018818986682 
0.1798006294423976 
0.1624172711398209 
0.4189169724151957 
0.1343932774402366 
0.1028127213839546 
-0.2338959999380523 
0.08850450214806165 
0.348352273606111 
0.02785926804768426 
-0.5530207392563071 
0.3892891757602052 
0.2161080511970202 
-0.001576940717343833 
-0.06817878459376929 
-0.1056186639380461 
-0.0352960437933062 
0.7026308378706614 
-0.1018954870845634 
-0.5375729716433695 
0.195948039531299 
0.1386411280481927 
-0.1808637443852282 
0.1487126427624609 
0.06509612459745902 
-0.3049643849451777 
0.06383798349360559 
0.3619285226430312 
0.500537426097926 
-0.1521176214424905 
0.006624600829273701 
0.2099839320541541 
0.09616288138565901 
0.3951057988137198 
-0.08838996954214608 
-0.2750890576292864 
0.1243049953754796 
0.2737794538586028 
0.2505211491534439 
0.1035451893170283 
-0.1376298030712778 
-0.2311353470176484 
0.2527690533465093 
0.2344905850472938 
0.1482471196474293 
-0.8059064839932338 
0.4813170220159449 
0.3792281990079396 
0.241277757859546 
0.2481147483462529 
0.2716100624529655 
-0.2071099810398292 
0.1100656650904552 
0.4351932924349198 
0.4105944737740266 
-0.2837279610360781 
0.06843755973205101 
0.1320829871498095 
0.3763578214209197 
0.06798864917704695 
-0.5590149051629622 
-0.4019145165199263 
0.09111286619761372 
-0.0528708359138765 
-0.409356741765386 
0.3260376662020998 
0.351250435812149 
0.4054924855668418 
-0.04986223071473463 
0.1818963367112798 
-0.3722784910964795 
0.01735618184067971 
0.2088223267253367 
-0.4814152310577711 
-0.2683926202367555 
0.09372032888670723 
-0.02625712627841158 
0.5593351029349667 
0.1879137590817925 
-0.05981715793577664 
0.392240665729889 
0.6455472062660685 
0.0597161200075055 
-0.2523322384325867 
0.6064228920289954 
0.07714804766528949 
-0.2976762891461017 
0.5342582854522804 
0.6241982294578874 
0.1859818479390646 
0.1074712262176158 
0.1008755937107719 
0.1938202687297041 
-0.529330216634195 
0.3547820779260446 
0.08702433337275137 
-0.01935637261281866 
0.1161194633422678 
0.08948691131075678 
0.1778494083608074 
0.2530850564416046 
-0.7155143085712619 
0.04331641807320222 
0.1299506998429749 
-0.04815358570284699 
0.1028127213839546 
0.1469694633851989 
-0.1188444502167994 
-0.2364523912154625 
0.1133024391173908 
0.03413215929864352 
-0.3160419439713076 
-0.08510917568538212 
0.2324395488902121 
0.1645771906802257 
0.04578553396473877 
0.06069888583063925 
-0.8754214734046397 
0.1342664924783927 
-0.2178150719438452 
0.2082227817330114 
0.8089822356160987 
-0.02728580823762319 
-0.2754452604599945 
0.1289104400127108 
0.1269107923128013 
-0.09053568242915655 
0.04893105757524659 
0.8231928405657283 
0.08049862794417068 
-0.8387928370439975 
0.03293712624119595 
-0.4213605612471819 
0.1760749892347377 
-0.09909873088796256 
-0.4046214067500003 
-0.3169105260206325 
-0.1738375277860206 
0.3886099662301711 
-0.3690695110304902 
0.01677597745796383 
1.000853331180293 
-0.1995073096549308 
0.2159708264595094 
-0.1822485786630501 
0.3089594732588444 
0.5692981138333896 
-0.7593197737704824 
0.2341259245726574 
0.5460888036942608 
-0.653561099150526 
-1.023074136303131 
0.1509226092986847 
-0.5558183190519112 
-0.9930897630267995 
0.4108903327226054 
0.127911276000277 
-0.4308688319754062 
0.1049179059273685 
0.529525427512185 
-0.2867602113682466 
-0.1363287575125577 
0.284435981140179 
0.2191134902680657 
-0.388705559066665 
-0.1821374792792657 
0.1768137491389909 
-1.841020875099392 
-1.609819656510481 
-0.5122822562188729 
-0.626566954088019 
-0.3136844964310041 
-1.353048938546583 
0.4929279513626541 
0.7364733698348775 
0.2130246575214241 
0.09671424950897754 
0.05515067139244897 
0.05731510702776469 
-0.04955379103772264 
0.6427553909740662 
-0.2368345189712956 
0.1898053353118571 
0.5927196958409804 
0.381540157073348 
-0.2937651056740377 
0.2592422114234912 
-0.2892800207629033 
0.04755969905961446 
0.2539487964646089 
0.6831696121199065 
-0.05334484674092539 
-0.6391884676788846 
-0.4205505291439794 
0.09846287258639891 
0.4911613742212446 
-0.1308522526393123 
-0.431852561936146 
-0.5325724106535439 
-0.8383972308037817 
-0.1695606034906989 
-0.1498410094047644 
-0.152682705587408 
0.3371907978560755 
-0.251146267491924 
-0.3259673776863031 
-0.2147106872746043 
-0.04140735041023282 
-0.1575722018968614 
-0.4148539990452003 
0.5352129881599554 
-0.2945727987891935 
-0.1506904312275246 
-0.8737183460166808 
0.4104778634311744 
0.8936934925868478 
0.7376029494492116 
-0.09459160190050819 
-0.1748716698875491 
-0.1527319774310426 
-0.4818813044953098 
0.06537848725673814 
-0.3397220165822728 
-0.2282829769965667 
0.1512040858805459 
-0.01395382089560381 
0.1043044782009438 
0.05929301697427537 
0.3557426556667742 
0.4494362729082598 
0.1966161418293622 
0.2544691614060824 
0.1086178375593207 
-0.4551315901757975 
0.05017583250500621 
0.4361796136316145 
0.3821621284950755 
-0.6428980475692412 
0.6122160681279664 
0.05929301697427537 
0.09157004806352642 
0.1711695838568854 
-0.3659258517296236 
0.3212274794862971 
-0.1282351691652694 
-0.02464808244644139 
0.09072669570060858 
0.4130793955138676 
-0.1995039915783971 
0.2720401223951625 
-0.1271268494752039 
-0.1797011260145823 
-0.3700131865707055 
-0.1907793096830343 
0.09759189540502081 
0.2522003295427692 
0.3564339697243348 
0.1901702268658027 
0.1650412659588217 
0.1013172918346153 
-0.07642692558284378 
0.3121689844569581 
0.05617424791563042 
0.04614970248862758 
0.2364364066796773 
0.3970688382808384 
-0.2850940581775568 
-0.06536295709204096 
0.2644875259505397 
-0.1260822254373714 
0.06941134851025174 
0.3943095945243389 
0.02056692078369946 
-0.1764825329219838 
0.05711105187242337 
-0.4214813739106463 
0.4713994625758367 
0.1617228527188338 
0.03076357933084202 
0.4027268662709482 
0.1870725683239581 
-0.4716635569484141 
-0.1640983285453218 
-0.05077454952284199 
0.4017785397492178 
0.1702200758483555 
0.2508949787671448 
-0.1399900298364054 
-0.1061718678827701 
0.1222855152087928 
0.5612552986092598 
-0.1264424546253616 
-0.02086282970326328 
0.2456060686739913 
0.9748321418717703 
-0.2633897979971184 
-0.03460170125401626 
0.02981437786859554 
0.4461870843937378 
0.275098477838055 
0.6316281409800207 
-0.3490112436320734 
0.855236611630529 
-0.1017988778906402 
-0.3076548550483046 
0.8204737935218452 
-0.406539650386287 
0.2979621764754307 
-0.3281720367169804 
-0.2974944799844574 
-0.2184890725343862 
0.539657446546181 
-0.4597299798867378 
-0.2295288587203578 
-0.1569902349950256 
0.2120727337471996 
-0.4637557293371528 
0.6813418827655567 
0.5398717711960807 
-0.106417357888025 
0.03738368129779075 
-0.2480113943838691 
0.1952467903632181 
0.09168605132608462 
0.3223069941889541 
-0.6900321067445163 
0.272735044116183 
0.8415859937073813 
0.1501006437663454 
0.1564262342434638 
-0.5335028061594901 
0.3442616251091814 
0.1242442020260246 
-0.3510878204958893 
-0.1968773892244196 
-0.5332431898976803 
0.1944360582378073 
0.5581334822768203 
0.3218403177570363 
0.02046159261963684 
0.1144532691900487 
0.4528123560716426 
-0.6803041219385544 
0.195695677733267 
0.2362467921138787 
-0.1820474857228035 
-0.1453153844765556 
0.1674814969189183 
-0.3049761991073874 
0.4999777199895421 
-0.4153432916970176 
-0.185388136926865 
0.01257333469813889 
0.3966987985523036 
-0.05687309652635571 
-0.4937270859095558 
-0.1307662567283711 
-0.02141980389905257 
0.4924813296733364 
0.3153005497847998 
-0.2589807875300014 
0.2647615659813197 
0.3226901553413402 
-0.6785878474087875 
0.09853487377156241 
0.3110904762148287 
-0.1813387526731535 
0.06283904257504835 
-0.4225061650430487 
0.01257333469813889 
-0.1662192035309211 
-0.05021017383037799 
-0.2083469124117157 
-0.2847024542554341 
-0.1770156615520087 
-0.2832247874738409 
0.2194584894575349 
-0.2403586503666776 
0.9158869710151691 
0.4061731127996315 
-0.8754823639281806 
0.002046655751304484 
-0.8002015910444145 
0.1495934212545348 
0.255774117835975 
0.1840645842714044 
-0.5277758969592108 
0.3896601302157958 
-0.267442231853406 
0.2018806454726634 
-0.1873084760175174 
-0.2551927907162488 
0.3458153535218057 
-0.1714429618008201 
0.2463652929825233 
-0.4679406242603315 
0.2620501122407979 
0.08754537757916174 
0.06477281842733856 
0.2547113168392461 
0.2814099140599575 
-0.1165124362173344 
0.249442844569644 
0.4536991610220298 
-0.3045930053109144 
-0.08067491737514206 
0.8034488074721895 
-0.2363458888855378 
-0.008621342188048871 
0.3249237661887237 
0.03499240494006593 
0.3550022188055955 
0.1359159189714714 
0.5333706564436799 
-0.7798028478164141 
0.1203104887160089 
0.0531999434614068 
0.09502257128716586 
-0.02461178562520773 
-0.3102295746789299 
0.1240034541366701 
0.06343321297195262 
0.04310763490312611 
0.2328734560274354 
-0.6792734755666078 
0.7439660686746532 
0.2686763476759769 
0.06911533411428721 
-0.7678546012238536 
0.4837826405166918 
-0.07126336874701392 
0.07418575260806733 
0.9347291547354215 
0.04924956556830555 
0.2009037274771409 
0.1248179502750554 
-0.2684159337654017 
0.4816316444687163 
-0.5214667648189729 
0.1152734584734376 
-0.1271791166871192 
0.00742068177600936 
0.3118707859568703 
0.1049515409361293 
-0.546148014950097 
0.03621867244969413 
-0.5646097725994389 
0.1198113021350903 
-0.9634911225317561 
-0.1105251361511504 
-0.5901049538646114 
0.3422519388916082 
-0.4263618558626329 
-0.4647432549448657 
-0.2646726986349181 
-0.3077625870489292 
0.06954529308404858 
-0.05582342273793335 
-0.04401333636906376 
-0.1244200361052278 
-0.186104334819621 
0.09549364856837003 
0.1026143359819956 
-0.1423157480129519 
-0.0772078927974371 
-0.8022938468263914 
0.06499322038333288 
-0.01109904186101751 
0.3640358562725141 
0.1095068940260925 
-0.2288477238766392 
-0.07635075669670825 
0.1773261915487952 
-0.2194270592103146 
0.2389333734586766 
0.2620293210803854 
0.3750538910690535 
-0.1399743036159603 
0.4562888653557944 
0.3351403186094823 
-0.06497212728557841 
0.5497539211414606 
-0.2305163934991933 
-0.1273505471861137 
0.1662624452254768 
-0.6562014890740227 
0.0796994886206668 
0.4670277685860544 
-0.4666574161804346 
-0.03015650823442524 
0.2237922668735255 
-0.2652074423146798 
0.2114367555629956 
-0.08686464665983083 
0.1259967739519079 
0.1198113021350903 
0.4855081065162455 
0.07843349171961793 
-0.5822935316429393 
-0.4407301395558925 
0.4695060586780689 
0.1601773098542731 
0.1367106803306274 
-0.1160176173583719 
-0.2795738067423559 
-0.6572888522302546 
0.09057914925020245 
-0.3695078925666142 
-0.2512603761112026 
-0.06073700182010675 
0.1603428601838096 
0.09032207680919301 
0.1486750288076222 
0.3466945248376187 
-0.1873813423251702 
-0.2264038798271288 
-0.4313679538021757 
-0.2563778444358508 
-0.08253408666784111 
-0.1641742772117075 
-0.1122807240421107 
-0.07750682991887647 
0.02111677603038892 
-0.1379019548146089 
0.676233228948975 
0.05288482908241207 
0.03403275746051357 
0.5392633425754426 
0.01257333469813889 
0.06913033012161417 
0.07139064989006114 
-0.6007471896294003 
-0.3743316803794 
-0.2417753889300551 
-0.135925803424137 
-0.6756896954514453 
0.169568066952525 
0.5346848008392185 
-0.1624177000972115 
0.2712368735173033 
0.2914326393236286 
0.03778773492127939 
0.01168590833376003 
-0.1436466585427399 
0.531973303017993 
0.54338813567251 
0.1926316077104569 
0.01234576195374873 
0.1535215526846667 
0.04895754927668193 
0.1323988276884837 
-0.09921523796574695 
-0.6406095742094031 
-0.3029957625998076 
0.2383629249008253 
0.1427201486695944 
-0.3236858448031161 
0.0189558089106169 
-0.7376738283956167 
-0.1639325893433875 
-0.518595694083318 
-0.4229995533510366 
-0.05685271147594495 
0.04294598666787284 
0.6058442018175442 
0.322079324560868 
0.1236467170147007 
0.1633858097750559 
0.2522072829365 
0.2167615861884674 
-0.2419050456338667 
0.1253392271820022 
-0.5292009014297291 
-0.149916849352208 
-0.1010685161520246 
-0.04657410536842095 
-0.04150158348047618 
0.2712173753740773 
0.4895484670986017 
0.1800198492407194 
0.1946616710166845 
-0.3085953673628022 
0.129851003809938 
-0.1391517441273189 
0.07510102069308923 
-0.066782955658899 
0.1277847261488962 
0.4196451549579539 
-0.3427474679602488 
-0.6034203685857016 
0.844889775672756 
0.008947892828871007 
0.3648351876561649 
0.1045157949960042 
-0.5179278827561253 
0.1874091102931346 
0.04161911710880187 
-0.123835691633779 
0.5725256115093156 
0.1706555034063302 
-0.02105589027651223 
0.1361184360934304 
-0.1635479466890714 
0.2685988197052196 
-0.3184455581493408 
-0.03637736686727926 
0.1566910328724807 
-0.3516811290292038 
0.08566498399276541 
0.3402000807672506 
0.3405736311560341 
0.3009645838859235 
0.1194940988237602 
-0.1789754261975794 
0.5603497460509623 
0.2359631896632818 
-0.06347103174111159 
-0.620934217492378 
0.396997433043904 
0.06567828350010369 
-0.06659590387517267 
0.05181071489966246 
0.5098544302539829 
0.4749567412220112 
-0.8286869428205227 
0.6113843706074559 
0.1415793919811168 
0.04002877193993194 
0.4253867560241343 
-0.6239140112910909 
-0.3756822988105804 
0.7891760038538092 
0.1635179010058883 
0.2787583840375708 
0.1247876521048811 
-0.3762025472141681 
0.2050559921162646 
0.0731001434136269 
0.3369698056470414 
0.2107040131106502 
0.1610648944222805 
-0.1240969252726953 
0.2712724494348753 
0.1840340984712198 
-0.2646885534843015 
0.507077077201893 
0.1311048482508479 
-0.3210077695616714 
-0.2056038111435389 
0.06697953506189752 
0.2502686215077581 
-1.224161734224157 
0.2991106765507491 
-0.02954093444757365 
0.2715453287477743 
-1.27882733196041 
0.5578381292917926 
0.1973258384638753 
-0.1137211151857744 
0.1590978729534846 
0.1319550464940323 
-0.002325427077305112 
0.5323717348892801 
0.1263702885459895 
0.6712195566907597 
-0.9234529384136626 
-0.2536235942148254 
-0.1119761857510562 
0.09722618246353601 
-0.3151856022247292 
0.2904364488717964 
-0.4639781633833967 
-0.2394148357336181 
-0.1010364441526559 
-0.5776574894557774 
-0.5655874144915309 
-0.8600217533045602 
0.1028127213839546 
0.1596277324951018 
-0.5479299936672557 
-0.1376296204524878 
0.3424040094287217 
-0.241389698970968 
0.04400071163567403 
0.01257333469813889 
0.05694658961537681 
0.09350829630218506 
0.04246526480181219 
0.9524345739941966 
0.1537816923655122 
0.1017815195223892 
0.1198113021350903 
0.2596729565492364 
0.3968523642600929 
-0.08432164448106053 
-0.1071771867372288 
0.06483553424062136 
-0.2061865695934479 
0.08412275116445508 
0.06469095933316552 
-0.3781020590079806 
0.06157148930273529 
0.08280445205081578 
0.0900773858978664 
0.3872144272297772 
0.2240818464357914 
-0.08576449374845244 
0.1831336187238916 
-0.395849549004973 
0.2537994065873099 
0.2049643994835652 
0.1688753176386534 
0.0900773858978664 
0.1663150554401954 
0.101560635772052 
0.218340689225949 
0.0338260394095152 
0.4948446467332802 
0.6768078938053366 
-0.09195023723071931 
0.02809258103214682 
0.01735618184067971 
0.6070057071258109 
0.304573934121661 
0.01677597745796383 
0.2185265417797954 
-0.6406409694007406 
0.1511119321328801 
0.1015491215061202 
-0.4697613257263376 
0.3710685490611927 
0.2091562586140115 
-0.1494328784577879 
0.0900773858978664 
0.2098487197573943 
-0.1706260425631232 
0.04481823786949174 
-0.1513170596167145 
0.446397788157341 
-0.6712243343524589 
0.6491001712766178 
0.1869265374585264 
0.005191160112133798 
0.3789684983798632 
-0.1470838779167833 
0.3766780329586178 
0.4845631741277339 
-0.6463663821574839 
-0.6317746063407704 
0.01888018177723323 
-0.601335967319502 
0.2347625841264094 
0.03645332454606342 
-0.05299430349635324 
0.2502872703445111 
-0.170444446073166 
-0.270536193197409 
-0.2928125158979523 
0.4291028331125146 
0.2875220712224225 
-0.2843547376488355 
-0.7962876577341012 
-0.1375734337921781 
0.07464808044167888 
-0.6342224912141773 
-0.2051848977289486 
0.04660043952192756 
0.1453562625952416 
-0.09043081223070164 
0.09255178502428912 
0.3244090560285747 
0.01610400598342838 
-0.2294215934624518 
0.5525151091094188 
0.1490849907565024 
0.1230276868554844 
-0.620606356837214 
0.04078612549267815 
-0.4960332935596245 
-0.09708159821177867 
0.2300850066094232 
-0.1417506042402495 
-0.5631391399542858 
0.3595748688102154 
0.2351784958062166 
-0.5898144858574375 
0.3212234097558614 
0.3978648587668919 
0.2778559969424551 
-0.3276186609849296 
0.04214156280671699 
-0.3331523107158023 
-0.8262022791393381 
-0.05185645500686298 
0.1862998980936242 
0.1487126427624609 
0.0477147039332286 
0.2357084274465995 
0.3254231398131182 
0.1836959885427137 
0.06662351822325069 
0.2678454884480446 
0.1425640393113138 
0.03052857701660222 
0.2655085894867976 
0.03790209915689918 
0.2114803342625838 
0.1117942181560908 
0.399113181464948 
0.2257867893160061 
-0.1084461792748463 
0.06691369845082255 
-0.08735642724225307 
0.01735618184067971 
0.1590210936057975 
0.4577779456110914 
0.4599825926034218 
0.1505624445678869 
0.01735618184067971 
0.3801585975648927 
0.1128854540414775 
0.1698923124744037 
-0.2247394533661478 
0.1238758384664153 
0.2506864035456023 
0.4318090392384301 
0.5541878201667148 
0.1947993855441346 
0.2327103497482565 
-0.3432764759854531 
0.5021184058879078 
0.4885467681687056 
-0.379097908101352 
0.2955390193990811 
0.1376462275903885 
0.01257333469813889 
-0.2564928173003078 
0.4998919759620593 
-0.02728580823762319 
-0.4861025256907308 
0.08794475400411349 
0.1065909445757432 
0.4310245375513074 
0.3120946403734787 
-0.01134099088029489 
0.572313013502833 
-0.5416841969243733 
0.1450040879318162 
0.6666281527502959 
0.2573456660484987 
-0.140512428609341 
0.1486461962482003 
0.2118958553383224 
-0.6344866181730292 
0.05610148351843365 
0.2677022696679632 
0.02911889149717052 
0.3048946900449226 
0.461246942172228 
-0.8621731860527154 
0.06283904257504835 
0.03642931721107053 
-0.07154336907212167 
-0.2412516156219118 
-0.004533264752343095 
-0.3018283813174817 
0.3537092037429022 
0.4055027744951734 
-0.1205053305514452 
0.7460647572002481 
-0.02728580823762319 
-0.1948958230209064 
0.1343247892570032 
-0.1396744255837859 
-0.2697738198388011 
0.10766054169836 
0.1960280153733632 
0.04896990299222975 
-0.3278825867892272 
0.128323738781422 
-0.6756373527860818 
0.09028003517178013 
-0.6471037689198308 
0.3056543684161296 
0.3607156885846682 
-0.3643897939036747 
0.0884933595873284 
-0.5010690349158484 
-0.1617463506366685 
0.1743818336397183 
0.05819062416625005 
-0.3641338195624183 
-0.3586051903199821 
0.1099583336818234 
0.007221012943822343 
-0.2291999759695063 
0.09592475013137783 
-0.2563947020626302 
-0.01829226960350977 
0.7332122175005114 
-0.2287859675170273 
-0.1845039727602992 
0.3905649374738242 
-0.5841332717353589 
0.128922895309848 
0.01257333469813889 
0.2298567700120429 
0.4950798492813224 
0.2105596056535896 
0.2669929367788554 
-0.254158161577928 
-0.5735466959013049 
-0.1096291232996766 
0.03217310315774856 
-0.5419455214558235 
0.6258245877930417 
0.03710084034045164 
0.3250037058080894 
-0.5630432990980818 
0.2788629625812662 
-0.8386559495433918 
0.300089117178674 
-0.2793871399500907 
-0.2111190901718064 
0.3546368697534725 
-0.1047442556343168 
0.08833624741741972 
0.5380249051146022 
0.3374522071010529 
-0.2037979388743267 
0.07696618572212384 
0.2137203091426545 
0.07232442701502759 
-0.01073614073665397 
-0.5388962491941731 
0.1449605184266911 
0.06903597636917737 
0.02336634069835316 
-0.2722284709499566 
0.2162455768894743 
0.06069888583063925 
0.3374599417155688 
0.03755468483174842 
0.1314735406279337 
0.04294598666787284 
0.003229806290189631 
0.3736087428072468 
0.05971775855282497 
0.0008014647869603978 
0.2642331852841784 
0.003679637181976533 
0.01425439681292036 
0.01679813979771789 
0.02005819565579163 
-0.8432339570485401 
0.4653826894426215 
-0.07693027433071273 
-0.1183456405895305 
0.0900773858978664 
0.1081280502413888 
0.04294598666787284 
0.1263444786520003 
-0.05821085332064704 
-0.2225125041884665 
0.9938076500690903 
-0.3361752971516433 
0.2439726462504517 
-0.1419032514064505 
-0.3411224935153547 
0.3432311180721533 
0.01677597745796383 
0.2346386361740847 
-0.6669897134432488 
-0.0006578181228569183 
0.1520796118490107 
0.04000626324558648 
0.5309656816233437 
-0.3465068852172746 
0.02930299978055605 
0.1201804940267618 
0.0465370155895872 
0.1768475904215116 
-0.5448607906814118 
-0.3292813618115442 
0.1055787418477129 
0.2665887754244917 
-0.4690847551613414 
0.1456705775641061 
-0.1494139885990458 
-0.0271540661685265 
-0.2986217758003974 
0.2322302931895436 
-0.6799414574545473 
-0.0706673606452375 
0.2483644487116824 
0.5273318732695309 
0.4016761101438245 
0.2711838631261455 
-0.3253650436329272 
0.188591388718821 
-0.02016277934011752 
0.1590007322900651 
0.003817571934957683 
0.4172996315217249 
0.8492051681969381 
0.1439590011674621 
0.1768620910636435 
0.08888457943602826 
0.4510922443231096 
-0.0556524909974769 
0.625148438523784 
0.1083282978725461 
-0.007826532021583689 
0.2318812910193793 
-0.4041331258234791 
0.2298567700120429 
0.3993398029420139 
0.1720961427949963 
0.1760189856277842 
0.3191095441357413 
0.01235226053353233 
0.09941810066179631 
0.07936311814339722 
-0.3275991760797038 
-0.2840669507038082 
0.3766118376904936 
0.2530038087868476 
0.7278713035918136 
0.03818437001898374 
0.04397326800930466 
0.3567888432048197 
0.09225391529343623 
0.09610271894710037 
0.04053968098565502 
0.4830796244820868 
0.05125529113821593 
-0.6150285488889489 
0.1028127213839546 
-0.09245263744827978 
0.175252646493907 
0.1230505079037618 
0.7859311243164671 
-0.2596640301401035 
0.1837285814568409 
0.1109140354990292 
0.1906067593701727 
0.5436773435651836 
-0.4077325435208216 
-0.1512424217415035 
-0.1407052235707414 
0.5231833155745659 
0.0819062028863628 
0.4196757552813678 
0.4029846922154536 
-0.09248450064031123 
-0.5723391861913126 
0.3478046956845389 
0.3787949914653427 
0.4206642506118594 
0.32670052265666 
0.04745017442686968 
1.208502473784345 
0.06954267053216579 
0.02355829948946895 
0.07226750896929278 
0.4315368055153566 
-0.006548654886118938 
0.05929301697427537 
0.03638061460886806 
-0.5706499145627573 
-0.03248440822146871 
0.06283904257504835 
-0.00343605603217043 
0.2323838129011581 
0.3376347266788127 
-0.1433758844402011 
0.2132082149431528 
-0.005851829844233339 
-0.1763123411028345 
-0.7609294888982416 
0.2205633230908722 
0.1851378047613222 
-0.2289510897524328 
0.0900773858978664 
0.3238073006310205 
0.02413322891080099 
0.09684033894738395 
0.6465306509740501 
0.06483700481033192 
0.2906974073706812 
0.1019125724237988 
0.2915127356864997 
-0.2958776253573757 
0.3779130939908361 
0.3952427221761093 
-0.2642997121184029 
0.06283904257504835 
-0.06664772615308465 
-0.2786657561538612 
-0.4770541471311457 
-0.1390400878442356 
-0.02728580823762319 
0.6120248143748427 
-0.2290160213234812 
0.1765956152487228 
0.5434036561293436 
0.04069351861377851 
-0.07251257343167011 
0.2135275395452461 
-0.3711891302940733 
0.5859993079665247 
0.05924596505491543 
0.459934201642997 
0.03387837485514832 
0.1834824728339995 
0.2148744880746477 
-0.04031183640908805 
-0.4458356578227327 
-0.4572358876736001 
0.2769917321578496 
-0.08659345001398662 
-0.3983515243200312 
-0.16745140232714 
0.3505784284172242 
0.06961398163533572 
-0.2218618345350469 
0.2303379280987773 
0.2388361158911263 
0.007852979257569616 
-0.1645971493386418 
-0.02728580823762319 
-0.8189654935099807 
0.2070881143710485 
-0.5272704155581347 
-0.2449332429351613 
0.3425199864433804 
-0.3673465930613865 
-0.4778811738909541 
-0.5312142738565104 
0.07985088663528552 
0.1192857442479407 
-0.1267325218995295 
-0.07694630099767071 
-0.1215331788119603 
0.2571397972473807 
0.006154590745717002 
-0.1711974492957069 
0.2439726462504517 
0.134872096884413 
-0.1611567188810022 
0.06578702026952518 
0.6373551897455703 
-0.4095950200215493 
0.222096213823843 
0.1045706776411685 
-0.2382460886865745 
-0.03258802208984626 
0.2759829053913264 
0.3595342870187106 
0.4067180737165627 
-0.02728580823762319 
0.2697154234384461 
0.8292521973530233 
-0.3682518971985594 
0.8195731976246772 
-0.1659315872519036 
-0.4948186328778307 
0.04294598666787284 
-0.2206844915379564 
-0.109282301656777 
0.3468020590915835 
-0.1646966325105688 
-0.6073040115040697 
-0.5500310380437742 
-0.2802888146522258 
-0.3151332818360823 
0.2418555448579675 
-0.5508419877754434 
-0.8849050907236231 
-0.2636992680502851 
0.3022051546479624 
-0.2739142139969695 
0.1244607980876883 
-0.09175848154478754 
0.08356133804205489 
-0.5763056257535683 
0.03793299979661331 
0.2780991436594915 
0.1114684716268799 
-0.1508670673765874 
0.2661893377288134 
0.3469885187699537 
0.008682306655579649 
0.4075309839433223 
0.03764201441254662 
-0.07500092469000365 
-0.08002687503561851 
0.03093568762731164 
0.007339596180522734 
0.03849844813456498 
-0.2378570634115609 
0.1999646587119387 
0.2497506917677922 
0.1512437954983753 
-0.2867996792347784 
0.03942179457530377 
0.6031727312402637 
-0.281316490451331 
0.01459540496808209 
0.4623346207693427 
-0.3201866495086707 
-0.1604816472330332 
0.09975241831534656 
0.2079422836129002 
0.06688715027042913 
0.177832435197871 
0.2520592457240132 
-0.3459023363171908 
0.03930356682517352 
-0.08425018316973421 
-0.06293780200755506 
0.1198113021350903 
0.2447030262661499 
0.08737146737393815 
0.1189195136382046 
0.2568229340141842 
0.1103004443252213 
-0.5063649832823954 
-0.26182083226439 
-0.4933681781414015 
-0.3470256907229032 
-0.1123433561312492 
0.7369101178286411 
0.01921965239251561 
-0.2793393689278503 
-0.1921313425946098 
-0.3467885600908011 
0.04643974412623659 
0.2038568496099262 
-0.3822601752091064 
0.6848457702592612 
0.06080985577218179 
-0.1637074768310787 
-0.1602695537677346 
0.3352563268041753 
-0.3939881832221225 
-0.2976990998275565 
0.05239511417709448 
0.3337179718622261 
-0.4509364189697213 
-0.2179335380365865 
0.4143094919828634 
-0.05874417947881523 
-0.2809662171350464 
-0.2824046687717569 
0.1267832769602494 
0.1717564212017529 
-0.4223467566651457 
0.0845395119259066 
0.3791296706719305 
0.2640894346358807 
0.1382187410987298 
0.2402421932727568 
-0.0518202422896458 
0.8436810274387921 
0.02547062651084721 
0.1113679490560572 
0.1198113021350903 
-0.3361752971516433 
0.4656965449689904 
0.01735618184067971 
0.2198206751503751 
0.5630998868119828 
-0.5810184845222802 
-0.5053669138191724 
-0.4369467092978422 
-0.04158781035761248 
0.07329219467146088 
0.579380975659839 
-0.2289850933697072 
-0.1119837951183983 
0.433015839918326 
0.3788301727633215 
-0.6575134832973043 
-0.2294253929649235 
0.2671993915135124 
-0.4881459231333968 
-0.2598966829578969 
0.328289371899915 
-0.7854122108011201 
-0.555901481886429 
-0.09420886908203005 
0.2992854237156293 
0.06069888583063925 
-0.268190890744298 
-0.05397036284554863 
0.03409576674624836 
0.03267042270460223 
0.2362727573398328 
0.1243452261351 
0.06946498535627656 
0.1887917167255423 
0.1231282156369159 
0.2718093124502267 
0.3147237614444534 
0.06978304653697691 
0.3417053773968435 
-0.3978433898632436 
0.1446951277494779 
-0.5610025118378109 
-0.007437151634540401 
0.02402045002585925 
-0.3313259799731559 
0.8382382878992836 
-0.4784699747799184 
0.1116260480753323 
0.7441748515302598 
0.2174367221453249 
0.2736615933781184 
-0.341559585193182 
0.109687406171183 
0.1203539813049705 
0.1793883790912333 
-0.343392983261383 
-0.3240838367902333 
0.2568429164877099 
0.1524251389514135 
0.08461191940192395 
0.1704210871699132 
-0.4424806611327538 
-0.181208433599275 
-0.1641282739773212 
0.2773575824334233 
-0.471131391931565 
-0.09462582744713534 
0.4311798809376155 
-0.8322366864192994 
-0.1047051331406948 
-0.6073442879911417 
-0.2815473869193538 
0.183708552391658 
0.3809550867171966 
0.1524957782554047 
0.167314415976174 
0.5957575733034557 
0.4778090523613487 
1.047937899898332 
-0.396384891696605 
-0.3681108831281603 
0.3316736573665935 
0.1551609536545285 
-0.1096346702673927 
0.4525912606248298 
0.08593518805436902 
-0.05830375793371716 
-0.06981310298256567 
0.3354236507592617 
0.1028127213839546 
0.2861184839483052 
0.1028127213839546 
0.3146672291793159 
0.1943639704117818 
-0.2886377659010557 
0.7166166606151322 
0.4387815924813889 
0.361780844544686 
-0.2043344217462408 
0.3532153250610127 
0.195695299093173 
-0.1011187097475547 
-0.5752299973126162 
-0.3525132066253223 
0.4010920120017215 
-0.04424056834210607 
-0.09886563721870544 
-0.7033630899141323 
-0.2347806608170897 
0.230253721760825 
-0.4901560405886992 
-0.1584141560231451 
-0.3054024783080278 
0.03981796712126413 
0.006832411513490943 
0.1950916648937307 
-0.1742280373845047 
0.1487126427624609 
0.01735618184067971 
0.1990968534644432 
0.3551777542746113 
-0.451306484344174 
0.1028127213839546 
0.05929301697427537 
-0.2347373137010811 
0.2685838641297706 
-0.06886843975135837 
-0.06620814804135931 
0.05914786317065236 
-0.07054336175714426 
-0.9794097519185288 
-0.1989717014610856 
-0.2306333812485504 
0.03387837485514832 
0.1538166985656476 
0.09790992792786621 
0.4670282609586219 
0.1198113021350903 
0.3572234391983643 
0.4076918396941402 
0.0900773858978664 
0.3567871154398995 
0.2796516363899357 
0.08321689670322618 
-0.1635635999901354 
0.1566587666887281 
-0.3192757477497879 
-0.2679692319478453 
0.1489616892272828 
0.05742369340592208 
0.1587680968704042 
-0.2479333673747428 
0.420090140936458 
0.2303379280987773 
-0.09437041101884723 
-0.2926350219914532 
-0.7710798895904555 
0.5083163172244449 
0.2511726615547568 
-0.2519167958300803 
-0.3212002025512 
-0.6453243860333329 
-0.2740739677824587 
-0.5524935157055787 
0.2158720681723889 
0.1196687281567338 
0.3380429214534361 
-0.1877262727568806 
-0.1423157480129519 
0.2505925159442158 
0.0987375640253888 
0.05929301697427537 
0.07900870373726397 
-0.2194310131783966 
0.3581301330418096 
-0.1978829075133879 
0.236668554279951 
0.7410537679970475 
0.02792568485153179 
0.03464418576109725 
0.03387837485514832 
0.00204331733003096 
0.06071615641951868 
0.5787174918996855 
0.1862528537300111 
0.1080168025062004 
0.3050764365124695 
0.01415634001156721 
0.2449477327864141 
-0.6046866836638269 
-0.625620072479246 
-0.3845650714855432 
-0.5921883341788465 
0.1544707179522565 
0.1413704878200785 
0.526377928667746 
0.1642889237894052 
-0.045676355257558 
0.05668209761623759 
-0.3272352135483443 
0.9347407462862163 
-0.02314718481081667 
0.09583531559679344 
0.4275249989935819 
0.1074478112735041 
-0.3385944376199151 
0.06051006373365763 
0.156610064714766 
-0.5002767420014072 
0.266991428595285 
0.8223331835770071 
0.2320662724639547 
0.2140314460879438 
-0.02615909926781447 
0.1353423073998289 
-0.2843615167830447 
0.2840572539127047 
0.425043439143684 
-0.2013345238774953 
0.4054731986360326 
0.7235040238035058 
0.6357644893497014 
-0.2023618187343912 
0.03935181178679677 
-0.1163397391491096 
0.08432940030176594 
-0.03680911944374614 
0.3202806508269639 
0.1356919686426162 
0.3865381916623246 
-0.12507457841648 
0.3207228197178805 
0.1693251709580756 
-0.1382050498212605 
0.8694326743045219 
0.5502359240580738 
-0.1326006543619011 
-0.7850767230107374 
0.3288253353767913 
0.2334371275820544 
0.1285836426674166 
-0.5858085941761942 
0.2696230566163749 
0.07578991780581777 
-0.03328618432003364 
0.07501127232927506 
0.3640335839437033 
-0.3146772820601249 
-0.1790600451997814 
-0.3218936110763174 
0.02104215081164919 
0.04294598666787284 
0.1432288826440071 
-0.1113698777670953 
-0.2594876157094606 
-0.002896786364424508 
0.4309832869938547 
0.2590745473305429 
0.1285554296649223 
-0.2387629112577684 
0.1198113021350903 
0.118777740917754 
-0.2402111936385985 
0.2299150028096663 
-0.1340541532115256 
-0.1075042595713341 
-0.03925790000823598 
-0.6656152369904916 
-0.3360270194496955 
0.1028127213839546 
-0.006928618659670946 
0.0762034201152911 
-0.2943020858334349 
-0.5457507036414623 
0.1174406771227109 
0.05763538602698651 
0.0353409411997503 
-0.2083208840454081 
0.224591854996126 
0.3427187851681712 
0.3096994751141496 
-0.5857208938305897 
0.2921562200845072 
0.1899717142270504 
-0.5025631128712134 
-0.308018613208795 
-0.5574362075242163 
-0.1715780395734211 
0.160017753770079 
-0.2547137681924801 
-0.5355726613483887 
0.3847353006435469 
0.1038641245062653 
0.04849111248783158 
-0.8145146686924054 
-0.4509165491011566 
0.2472436201135834 
0.05194329926182768 
-0.2300083903311422 
0.1709832255001033 
-0.2537690549979996 
-0.3270290627843686 
0.5295490014214116 
0.4300460604083529 
0.4098887544101604 
0.3591068439373011 
-0.6597325559815696 
0.8135597969336024 
-0.01149199196610519 
0.1302601436609112 
0.2352023523254693 
0.05796514665954624 
0.2194021388329683 
0.1457587080518275 
0.6301254253168442 
0.06069888583063925 
-0.01182148759675382 
0.1962495774929104 
0.332930407112309 
0.01257333469813889 
-0.383617486651773 
0.1475493985825306 
-0.008780262960267902 
-0.1575722018968614 
0.02295407541861607 
0.3500667377543406 
0.1159364440442659 
0.1329500390957113 
-0.3147989964934153 
-0.4531007502100696 
-0.05685271147594495 
0.1742844723523311 
0.3541646899074037 
0.2631547564861478 
0.286274683408783 
0.228846064119869 
0.1198113021350903 
0.1045706776411685 
0.4241939682718954 
0.4349277304975948 
0.05522818785831046 
0.5121531303927607 
0.7416287345374669 
0.3440502873068401 
0.3223733228479969 
0.1203550704529102 
0.3638243326871469 
-0.5805372339400855 
-0.08953203406881535 
0.05517989414909924 
0.05007740582806108 
-0.09502154542622018 
0.1622425716054117 
0.2159535975913829 
0.2705820344213073 
-0.2337511200521555 
0.4110726770060673 
0.12481328306478 
0.1193206061265349 
0.2116676356132202 
0.08762332507700199 
-0.06779884870398842 
0.1153102523767827 
-0.7500083907562142 
-0.1255020516457006 
-0.3508281119456921 
-0.01723353207998995 
0.2024811281648054 
-0.1116004311664039 
0.1753705075222072 
0.3989139854103214 
0.1615137492779475 
-0.266888226790049 
0.3727246761298598 
0.2620121821800207 
0.2861506738607172 
0.1016987162707029 
0.1559711868822813 
-0.1575722018968614 
0.5155780419133125 
0.0900773858978664 
0.2417092887926967 
0.07713252311535508 
0.05797109043294829 
0.6323662416144295 
0.06283904257504835 
0.5054704765305431 
0.03659915782782577 
-0.002826553437823666 
-0.3343799527354195 
0.04628265077653778 
-0.3944962471481794 
-0.2918169902592253 
-0.178995795726247 
-0.2909284963687232 
0.2258896286019531 
0.1299027542298689 
-0.3092242843685113 
-0.9253405725361666 
-0.4491276336160504 
-0.1472537035721613 
-0.3724738862156547 
0.149477731870239 
-0.01307006080874849 
0.03947713055386402 
-0.4859478257932337 
0.1392847548556842 
-0.8552341154475908 
0.4644048849780921 
0.3906733512488397 
0.4497424976506443 
0.5077576237899666 
0.07813772454337073 
-0.2119494209846549 
0.08981698880973549 
0.3735503062881463 
-0.1108108286943853 
0.09429350831560932 
0.0366773638800155 
0.06283904257504835 
-0.3045875613227986 
0.8247930491329779 
-0.1755739481423586 
0.01677597745796383 
0.05273799749831016 
-0.2076804200166153 
0.1057290044822567 
0.07986409747998224 
0.03624628472786375 
-0.02684757389694408 
-0.2903208189978893 
0.2005468665477472 
0.01735618184067971 
-0.2091196226127067 
0.307914125321231 
0.2990706261291264 
-0.1355916821249225 
0.5871394908305627 
-0.3876862629828165 
-0.3468209570081788 
0.08416714395814681 
0.003506769114794976 
-0.4870670083437632 
-0.3729216604125443 
-0.09459160190050819 
0.1165495691311367 
-0.2587920213623006 
0.1437912299471595 
-0.3585418362200304 
-0.2646119230477301 
0.05013202585196321 
0.006105625617792774 
0.105182496761816 
0.3739873273301842 
0.1091887342073275 
0.9076970360778235 
-0.1638200803203566 
-0.518015287531582 
0.02378925353157244 
0.25719562078011 
-0.2924794550287813 
0.3882994527433152 
0.2603825138678596 
0.1346481591776751 
-0.04544610102684661 
-0.1855715864979624 
-0.1534710485078152 
-0.2210837311864195 
0.191688028950136 
0.1504266894382569 
-0.6998044763999556 
0.4899229896637126 
0.4321335081236116 
-0.3196438728919731 
0.07735078185558851 
0.1602718383441606 
0.05929301697427537 
0.05054641085602527 
-0.09447577611631268 
0.06496966865084089 
0.5608996149319445 
-0.4255366632659585 
-0.5968752138064789 
-0.3616790441252661 
0.07890448679945664 
-0.4549554338445975 
0.07753346742140274 
-0.3579925901150651 
0.01871792052662264 
0.1159364440442659 
0.1028127213839546 
0.2286343270452884 
0.1651774885436507 
0.7794276116059209 
0.01735618184067971 
0.02442020143463039 
0.3457999768662959 
0.1846458223614239 
-0.1529779910140643 
0.3039486657035093 
-0.4981776762950012 
-0.1653727014421281 
0.1012367405087142 
0.3246056418125924 
-0.3873655323343003 
0.3475669147452776 
0.6904510647980879 
0.1536412163523014 
0.384644438661069 
0.2317989786521486 
0.2387765354307906 
-0.323407313632109 
-0.2311353470176484 
-0.3296663697136762 
0.1962329029402067 
0.1421848945521077 
0.3983974805292302 
0.1537647563753126 
0.02507951217357394 
0.1452217123293668 
-0.02389090704636489 
0.118045883703346 
0.2176605737487095 
0.1536812102050025 
0.2313613336006779 
0.145452017291511 
0.2342916109823137 
1.139565841842584 
0.05739785482563414 
0.09976307632515045 
0.727622353995325 
0.09879654918188839 
0.1159414442818457 
0.06869236439952625 
-0.5550349394461404 
0.3582027769073634 
-0.6404116705777806 
0.3813220146529893 
-0.0119486028954713 
0.1849029540046021 
0.08675362201158679 
0.6597097952829889 
0.1324722157874821 
-0.03009740806405273 
-0.8597268706456336 
0.07959281700028126 
0.4011080525385221 
0.5118943772076859 
0.1898819540553968 
0.3772335072630104 
-0.03535008804632714 
0.5466016818906735 
-0.1179833995160457 
0.03569175098629061 
-0.0718277032647504 
0.05560231785271551 
0.03864175690989351 
0.2262854916008106 
0.8662565787621717 
1.184969306054662 
0.8718362833208568 
-0.3996969500460424 
-0.2547545970108391 
0.009249800915609958 
0.4326319158672065 
0.03628827940688408 
-0.09971350858060851 
-0.266010605693636 
0.5814859598836846 
0.1728981507398859 
0.3881580570338326 
0.306250106131514 
0.313585037101811 
0.202726005155674 
-0.4086978482845277 
0.1198113021350903 
0.1198113021350903 
-0.875024465497679 
-0.2708942646406169 
-0.3253100295405865 
-0.134412628562978 
-0.655111059322723 
0.1233569169756631 
-0.07978660897724638 
0.01257333469813889 
0.5185784830171725 
-0.1029225205424114 
0.5389163438784045 
-0.08441860477005322 
0.1028127213839546 
-0.06358220744592627 
0.4066163318206821 
-0.2065571604403398 
0.06059721816323689 
0.1045706776411685 
0.04107231004307411 
-0.8840251482809848 
-0.1428340736918525 
0.5787715759629182 
0.8044028902714531 
0.05173313124457858 
-0.123803790521561 
0.05929301697427537 
0.1628615999368133 
-0.3247053393174393 
-0.05685271147594495 
0.0550816336260631 
0.3493876301858488 
0.2301896906164865 
-0.1706298978375177 
-0.1729961854001556 
-0.2427701131394744 
-0.2213805453914721 
0.1979456783899138 
-0.2641295418169586 
-0.1379234369662174 
-0.3287799826715199 
0.00368728673085789 
-0.3874753704367978 
0.1549515042972029 
-0.08390662837614409 
0.259039002762716 
0.249329822752392 
0.1210237860806339 
-0.2958798376078206 
0.08034618922489709 
-0.05021017383037799 
0.1216818126582993 
0.09595155509475731 
-0.3981951508204219 
0.1882995481594101 
0.1028127213839546 
-0.2153033889131844 
-0.5069571956118144 
0.3047970646506271 
0.2084158915986369 
-0.2642974275562915 
0.2792524551723663 
-0.2102103014367279 
0.27135465397562 
0.2375559846240068 
0.01677597745796383 
0.3552704595519599 
0.2948476619035886 
0.01257333469813889 
0.4709189190906071 
-0.002745518943504942 
-0.1384400487443793 
-0.02018527760035841 
0.247748966797055 
0.2468429435876216 
-0.05021017383037799 
0.05797708635426349 
-0.01237068398303949 
0.28136682301596 
-0.07921844184251833 
-0.1587377118944779 
-0.3167553714242692 
-0.3060304330240879 
-0.3217904254191533 
-0.02407490531481548 
-0.1565951707578633 
-0.2356221980084537 
-0.03766660911794877 
-0.3292000585527601 
-0.1219226448360025 
-0.1219226448360025 
-0.08202111044667859 
-0.2501730313021696 
-0.08202111044667859 
-0.08944975472419754 
0.4113985927894096 
0.1537641754174794 
0.08394316137749629 
0 
-0.3666410906379742 
0.06000675755337906 
0.357657005091502 
-0.04181503537460892 
0.03348267498304457 
-0.5989292634229055 
0.02938024756919104 
0.2361270587631298 
0.3201584492167746 
0.03456930430356525 
0.1869804926282158 
-0.4141844990908409 
0.2971843758969062 
0.2945070510333145 
0.01861659656077616 
-0.0147181092253202 
0.3990962141596199 
-0.940636988905903 
-0.5415407747464699 
-0.2059826638549817 
0.1675291864000451 
-0.09068837105559151 
0.2916969957332904 
-0.4939986697129724 
0.0731598254691516 
0.09427355825995493 
-0.115554310461432 
-0.1078610963090483 
0.7699178569246047 
-0.7787505191205461 
-0.1203091863145963 
