solver_type L2R_LR_DUAL
nr_class 2
label 1 2
nr_feature 3956
bias -1
w
0.4199524123373736 
0.03480515198650189 
-0.1437479411440817 
-0.1351024399259298 
0.008324923847032933 
-0.2660191033067781 
0.2448805282864066 
-0.01867658494619135 
-0.3182485664771259 
-0.04297010126189681 
-0.001149207452063903 
-0.007109069335187949 
-0.00268583329394466 
-0.001181666461694028 
0.04326559159440598 
0.001156129323276267 
0.000807643178946909 
-0.001417791202419618 
-0.01301149304008181 
-0.01544929700610824 
-0.004997581576813402 
-0.0007632959139110792 
-0.001391401124286065 
-0.008595338094019472 
-0.003353742112058411 
-0.00353404016830044 
-0.03012218323883692 
-0.002711037105810048 
-0.08730038365069551 
-0.003450439563169562 
-0.2152708355451941 
-0.01416709369812503 
0.2423787330912969 
-0.0005702861430953818 
-0.00166486741195851 
0.3692319819464074 
0.0009496348952945591 
-0.1080002811484086 
-0.0009965165885076409 
-0.001243100372382822 
-0.02689013895003593 
0.2412368554922771 
0.002283089662902614 
0.001077961250459042 
-0.006697133548667082 
-0.01018743130895968 
-0.02238329742777577 
-0.01481165202805186 
-0.003746474225898205 
-0.00132382241623489 
-0.008905467278123184 
-0.001021468286577792 
-0.0005657026190849586 
-0.1915132181216959 
0.086422739097436 
-0.004271476959918459 
-0.3258350517754821 
-0.003721478908568215 
-0.3249985952312987 
-0.1215416784640045 
-0.007476768966008565 
-0.00288994909064063 
-0.01804570330672904 
-0.06674618767858918 
-0.1116347904187028 
-0.224345356602887 
-0.003340554915964812 
-0.006791129143005665 
-0.001715532995883203 
-0.001973391030300768 
-0.002908918522870288 
-0.17020726537493 
0.02841501736653908 
-0.001421512220215712 
-0.3571738614791158 
-0.005289588813413288 
0.03944278021886785 
-0.03623720347919091 
-0.0005550852974988557 
-0.1064568940056598 
-0.002813029460043464 
-0.05076372552468501 
-0.002673211579908236 
-0.009063888898425281 
-0.01758949706965497 
-0.005790603959341552 
-0.001051389071049538 
-0.05199877638136771 
-0.007531572458164314 
-0.002986047928726511 
0.2532294394465246 
0.03972200683425467 
0.01052565173490847 
-0.01603837415489416 
-0.001918107367744091 
-0.01472306298730437 
-0.2142707521519768 
-0.225866518124814 
-0.003314695781534664 
0.0129669887103189 
0.02191533794070598 
-0.1087820384324817 
-0.003317037573392296 
-0.1876793577931606 
-0.002587204131861724 
-0.0006400913189069237 
-0.001122838352915144 
-0.0007594002495429975 
-0.002874132720927002 
-0.001915761482784638 
0.04376180327456001 
-0.001123386576834837 
-0.0001641864119043097 
0.03084384726865655 
-0.0121442688151116 
0.04322062160808599 
0.001843279886779095 
-0.002438274853782828 
-0.5695889633471842 
0.352438494938163 
-0.06125898456269513 
0.004779556569701802 
-0.02376402784835849 
-0.003591054174640851 
0.04761439350428473 
-0.2756995023395141 
-0.2533902756699139 
-0.1154487930958524 
0.002780577799832307 
-0.4150395331363136 
-0.005003248552426834 
-0.009483534043437297 
-0.004021102002080735 
-0.3780064734081778 
-0.01038799406355758 
0.00109269742584412 
0.008950712998995521 
0.1453320922390881 
-0.256852100086599 
0.3952793941072421 
-0.07061126290018312 
-0.3060770240898849 
0.2397071691760998 
-0.09981383846459069 
0.1156731008932567 
-0.0053219373194403 
0.3604802127785197 
-0.2237193481004111 
-0.001420112127911209 
-0.004251948428436305 
-0.01592185225285441 
0.455149741631336 
-0.005402489524597338 
-0.2420443652627171 
-0.04812934618933468 
-0.0007632959139110792 
0.03151740863338638 
-0.02838234785468055 
0.1026490493173766 
-0.08941834387970853 
-0.06414008660489616 
0.02421298922712147 
-0.001815026537842418 
-0.0007632959139110792 
-0.02011569404803418 
-0.001815026537842418 
0.3444837209154692 
0.2216332881772828 
-0.03650458537934834 
0.0009424987414901117 
0.0675767124658799 
-0.2299872175019462 
-0.03276332455578872 
-0.4237312042672765 
-0.003716391986913166 
0.5161446780353955 
-0.1024437813242441 
-0.009724220281958188 
-0.08701208400966738 
-0.02381284196887321 
-0.009599300761221898 
-0.01978718388346002 
-0.03694709854659888 
-0.01772634267315748 
-0.01214312837020765 
-0.01234061827259689 
-0.05782074759759209 
-0.05414280968245652 
-0.01338004268242531 
-0.007102356643323034 
-0.1223413543779797 
-0.6496210996459435 
-0.8212999253708386 
-0.02471147208514266 
-0.2416297265786776 
-0.1989176675186767 
-0.2649701645783983 
-0.001420112127911209 
-0.03125079786777926 
0.1781822963453736 
-0.09805594891180741 
0.0002215943604488091 
0.01554056924060527 
-0.08492900415859013 
-0.02604533600631834 
0.1265547862058709 
-0.3221846481917443 
0.1651811638567235 
0.2457682030593879 
0.2785853308950411 
0.2196532205784777 
-0.04577092771571709 
0.2649134656258181 
0.2351811038231922 
-0.1030234009718007 
-0.04951402106515154 
-0.3307884532626088 
-0.2480911646899825 
-0.06178863026008081 
0.02281031100086296 
-0.1967737523797132 
-0.003602654895775906 
-0.1040575892600618 
-0.2273448254494663 
-0.7355826665033722 
-0.13680033199182 
-0.04192822207354349 
0.0002215943604488091 
-0.01416709369812503 
-0.04666951489213309 
-0.01211855417204571 
-0.02568794171136632 
0.1732714877227803 
0.7062769000860871 
0.3223902383976373 
-0.3533797663745231 
0.1868802014729225 
0.3470758780882989 
-0.2412430670877469 
-0.01593855239214133 
-0.04678846901884695 
-0.7640518734382843 
-0.02832156728500291 
0.1559154614945667 
-0.202438814046463 
-0.2187772212040139 
-0.02394837372090077 
-0.5933328274156193 
0.07895074894710405 
-0.5115146140053823 
-0.006005604154082599 
-0.03952863579835096 
-0.6831835243437787 
0.0898975811100336 
0.5243667849455906 
-0.1063629349003892 
-0.1063629349003892 
-0.03173143067143557 
-0.03197308269774871 
-0.01942184589245788 
0.1964132034026341 
-0.6210068490733454 
-0.007887391879112745 
-0.07744921590824794 
-0.2268159525985646 
0.02747077480232493 
0.4449225917916334 
-0.4215064498393405 
0.02956933226931897 
-0.1756141485287876 
0.1640253712554915 
-0.4695091482590776 
-0.0536942919898529 
0.004934748596935564 
0.02598269495227022 
0.2124879761792277 
-0.2915218921872241 
-0.1188298184684332 
-0.03810193950238949 
-0.08789619480018834 
0.1506126682699253 
0.009755114787219113 
0.2517930916714044 
0.5753169438300088 
0.35655577698664 
-0.118900577389149 
0.1836565941157049 
-0.7446072622468534 
0.05674164137613092 
-0.01563807803109698 
-0.09732007649918692 
-0.09942654461270099 
-0.00589741575705999 
0.009106098520993986 
-0.04207949085316655 
0.2553921620796271 
0.001320744275371009 
-0.004173569777945488 
-0.0246143584407235 
-0.02647530087950114 
0.03213387353951657 
0.01497207012289882 
0.01097424839337528 
-0.05777425504466172 
-0.009668970993131172 
-0.4560686050243499 
-0.21096352983413 
-0.9174735459892405 
-0.017452679785509 
-0.1181751504568586 
-1.43619499448288 
-0.3392001508356335 
-0.1048743775283862 
-0.3633519625396454 
-0.1246689906243806 
-0.05440305705590175 
-0.001646372643123013 
0.09721275685765668 
-0.02076519672750869 
-0.4467901830356416 
-0.05069782838999205 
-0.06226762942970805 
0.2466125177632695 
0.04826002799890301 
-0.02734975236303555 
0.02539934195341505 
-0.05194558704117155 
-0.2178744531242665 
-0.002357388214754333 
-0.4122354645684216 
-0.1171893795619673 
-0.01369417524878205 
-0.03004592436855317 
0.4677434616548926 
-0.5046909045597465 
0.0835184299913893 
0.398266469586693 
0.1014829880851387 
-0.09081889965034817 
-0.7027810242456813 
0.1018797942244556 
0.04815088575706186 
0.01175922666927311 
0.1284917901060464 
-0.3166545365756566 
0.1361574086563939 
-0.1535081796920253 
-0.07998222988303744 
-0.3545506196429593 
-0.001171973430224517 
0.1711277937084653 
0.350312313116479 
-0.1049799365101785 
-0.275564371333513 
0.1773599376647754 
0.02373982353057041 
0.03679992878113329 
-0.00513193264440776 
0.002086450527624232 
-0.0186189286274495 
-0.2344684160157743 
-0.2175378403145569 
0.00412085051075967 
0.3128260982680918 
-0.1885898947888267 
0.0003732112560728781 
0.00461284594361041 
0.1303258747212446 
-0.1372666367315881 
1.461407491980268 
0.08958183056938081 
0.03836908751860335 
-0.02482960483131847 
-0.00566123455573024 
0.8154775989241508 
-0.0219656519582227 
0.07622377220790359 
-0.5971103339421526 
-0.3102088649246217 
0.5659233018753495 
0.8060515653291283 
0.1278690134987234 
-0.01762557650798477 
1.040896769660329 
0.03980327168129528 
-0.03330511964392424 
0.1961854134326752 
0.04179804313031826 
0.1563035506713386 
-0.4501285741989519 
-0.03599501618107169 
-0.03091655440332471 
0.3606803362557374 
0.5630599964926444 
0.007058292839420848 
-0.5172774841000402 
0.9922973583306329 
0.9754511703249654 
-0.1520876290737011 
-0.0009171957056009737 
-0.5412062763308693 
0.6119348279224428 
0.1788262770927392 
0.0007589792342666245 
-0.411085870986687 
0.02258588582156003 
0.6795637172762857 
0.3838728130396379 
0.440656587467141 
0.116537268957228 
0.000345118864922036 
0.833037775994494 
0.2473299252253189 
0.004204263087471597 
1.70017516435238 
0.2605163948076076 
0.4270810453456343 
0.2214362164400441 
1.352084845170402 
0.2675809714961461 
0.07363606379093068 
0.3257968689907103 
0.01544814178728105 
0.4563207252147833 
-0.3738965399643799 
0.05157229344359895 
-2.533186842911734 
0.9919105591203309 
0.1796246497556374 
1.259389899737969 
0.4147615648953728 
0.001825475244501366 
-0.02497326161878889 
0.2506649469567901 
-0.01214592312815121 
-0.2307061368216027 
-0.214391386188773 
-0.07245652183572797 
-0.03646725794223839 
-0.002018710547746565 
-0.07868514430166065 
0.1136851768592458 
0.1609055679497398 
0.001561390933445946 
-0.003716391986913166 
-0.1797379261060808 
-0.0270070268573439 
-0.003112625848755538 
-0.03192763943575914 
-0.001383004182453665 
-0.06833987823567969 
-0.02282629021400746 
0.1992823218489728 
0.007217384669974414 
0.2792093793087043 
0.1174599027147294 
0.09801149844115926 
-0.3188080429522148 
0.04336150424602922 
-0.1508670121372327 
-0.2536296606121397 
0.06623992926798507 
-0.004718797811124071 
-0.2533979843543225 
0.004300573045651027 
0.7880469493714994 
0.5839159217139625 
0.1059141431482802 
0.004947313188450555 
-0.3399264299282558 
-0.1481243865770671 
0.1121142257364575 
0.06237086425215281 
0.582674148518778 
0.02846316105453707 
0.05216348132914288 
0.04689191645267258 
-0.2163310717345816 
-0.003340319617304979 
-0.1389037428246437 
-0.1045075581216514 
-0.007883522360290801 
-0.001445216813498469 
-0.09217857363913834 
0.2862035039263876 
0.997073258385322 
0.01106172174277312 
0.2607502365214829 
-0.1258145523818043 
0.002124314465595222 
0.3976707872537826 
-0.3530197583293744 
0.009744324935430399 
-0.03570387281935921 
-0.1313310128928029 
-0.263317012078909 
-0.03061215444581336 
-0.02057637088547697 
-0.009910344649214977 
0.3471551905263859 
-0.2046660740045613 
-0.006841445499598343 
0.03267208535438846 
0.4978398578067318 
-0.3159885894793323 
-0.003307405888958402 
-0.05997560478781636 
-0.2663103303322362 
0.07951763047787816 
-0.03742145472790777 
-0.2149297399970871 
0.004100864851153057 
0.0003365649201147399 
-0.2927829682095982 
0.5795242702134202 
0.6737926176292997 
-0.2231977395370708 
-0.03909091646883403 
-0.1751136890612052 
0.00514287048688384 
0.03389601529065609 
0.2630784775718384 
0.07142855221985187 
0.1103453384930002 
-0.00589741575705999 
-0.00973998681933856 
0.1299283689871837 
-0.4892763834507281 
-0.4700213525897234 
-0.0130368647485374 
-0.007162150562524656 
-0.002836127411943596 
0.07570500606695302 
0.5855703352816367 
0.03973270731991503 
-0.1204187444928897 
0.1818134110917453 
-0.6003965063042257 
0.03993310411831698 
0.09583204322333011 
-0.004118037667969119 
-0.5813693510832559 
-0.007084069459584814 
-0.3106888719131505 
0.2551800545433662 
0.04826002799890301 
-0.1422969713349597 
0.5951859807820055 
0.04826002799890301 
0.07517910976047426 
0.004394918177187793 
-0.01730339326409842 
-0.2956214822983262 
0.009258171395698773 
-0.04693277885016383 
0.02897326543773036 
0.005498082640962345 
0.04970858233036321 
0.293593038279031 
-0.01475330964001156 
-0.02283372288283207 
-0.01499466819184748 
-0.06491915481468169 
-0.01628585983369386 
-0.01711613996600418 
0.08847905315510933 
-0.00485012161183825 
-0.00283379365402575 
-0.2251011102089931 
0.307825113259746 
0.1514023431855565 
0.0023005948915669 
0.2986496088029788 
-0.5468590334424336 
0.02531301153780297 
-0.0177964699694915 
0.01277552790355936 
-0.006614157731123675 
0.3957407179062877 
0.02660667342319816 
-0.1191042001404704 
-0.05855430160251533 
0.4680359032614027 
0.5368494806540326 
0.03777491550512595 
0.0004549486610025058 
-0.7204492323346962 
0.2160261903588649 
-0.0185981518580312 
0.6676004127939175 
-0.0009651427637594671 
0.08130788076928724 
-0.8243248074498797 
-0.007505959472052451 
0.07805593223710536 
0.2312061308995999 
-0.1867311808268213 
0.2222282038950041 
-0.07726260422131283 
-0.8461602682738075 
-0.07048435595683804 
0.09338613024112022 
-0.1450672589389365 
0.09267823467755569 
-0.007977786895092362 
0.0191419652082157 
-0.3318347884534056 
0.3855023484818013 
0.5113969651643282 
0.007375230054325766 
0.3156371295975781 
-0.025869309424056 
-0.2445105829502406 
0.376544007731462 
-0.002494097705703987 
-0.001086060047495991 
-0.07903551339008902 
-0.1078008196108 
-0.7144836730406812 
-0.2107066491916641 
1.203963433871426 
-0.0103982027790369 
-0.006080908881992291 
-0.006092023556895395 
-0.04911145196790768 
-0.02984639276105531 
0.09468098527406188 
-0.1284356295658338 
-0.01581962304272126 
-0.2457841331745423 
-0.2389468761970278 
-0.2776154635485369 
-0.02659147329635979 
-0.05421983095860952 
-0.1614365519648607 
-0.1028684849517316 
-0.06678876669878124 
-0.001860891112771153 
-0.2227094820542634 
0.6291339958082551 
0.3560137265254389 
0.6275988385691707 
0.0772154368575001 
0.8482092914863844 
-0.0127210205013642 
-0.06754633146360237 
-0.002949247963865491 
0.1330097544134481 
-0.05290671784790579 
0.005651382280759463 
-0.0661315975767994 
-0.1530365426926453 
-0.2941550323781916 
-0.1217916880291907 
0.2654865443535802 
-0.02052101288805625 
0.6410986926600042 
0.1378696717020461 
0.1092454628797277 
-0.3668391731399222 
0.2224762642988943 
0.2950275489035126 
-0.2753776120791141 
0.1300827747572415 
0.2357704393999188 
0.03858726326484768 
-0.09607488363216572 
-0.02656957595225784 
-0.134320327540727 
-0.008896474912507391 
-0.01483981296635343 
-0.0415773038993254 
-0.002842971004183563 
-0.06915408036061103 
-0.4307305402903758 
-0.05779032312083381 
0.7058274017965314 
0.1034159691113738 
0.1819374013108573 
0.0581464674851029 
2.419032321490711e-005 
-0.03114420129578341 
-0.2160205515494037 
-0.2203189144046811 
-0.003459091538105681 
0.009628925806678679 
-0.6275198561564512 
-0.4492392085296247 
-0.02151776060673842 
0.1466526309896874 
-0.6455346396130436 
-0.03078610653552766 
-0.01895557519666116 
-0.006114670231444319 
-0.02549766890677403 
-0.007743733909635423 
-0.6883617408649078 
0.00815708704018708 
0.09785359206026849 
0.02632167406780145 
-0.04196054058205596 
-0.01141213841016579 
-0.04859998810379677 
0.01963038364409322 
-0.1111198270346274 
-0.07486964790195545 
0.152129819208323 
0.009636631740424858 
0.2022565879323986 
0.9935804018995942 
0.1826768144324996 
0.2581899811873886 
2.291014670906304 
0.2073773783004324 
0.0008744079256011464 
0.7644254152609085 
0.2952519058217295 
0.01326272411766249 
0.411324552810953 
0.4007026420329489 
0.05230935329735499 
0.1629753821710421 
-0.04192064433812084 
0.03439704739293877 
0.4567797817166975 
0.09072009542659393 
-0.1226505127594991 
0.1433252922160551 
-0.002399954316976986 
-0.2360056071331605 
0.01339778386432881 
-0.1237431119188617 
-0.01601359401170099 
0.417526327556543 
0.008259546726859277 
0.1646810442859019 
-1.261729207080028 
-0.007357336589224168 
0.003424316518305839 
0.5312155567002663 
-0.06323415754461186 
0.9490793894090399 
-0.001649897300663116 
0.08232062532762996 
-0.09194959493001817 
-0.02831395357475605 
0.3702191557378885 
0.0007978892824921105 
0.1481127974384288 
0.001448457567294936 
0.05557661562098387 
0.0002522466802830856 
0.0004617226092574254 
0.1059067830451088 
-0.005131133742710353 
0.01727022538792321 
0.3885765621568517 
-0.0007997655061549281 
1.07044008841737 
0.03371291605082089 
0.2652671008350493 
-0.8427361708426548 
-0.08395165321194818 
-0.2161299124705085 
0.09015411240787634 
-0.131557715602301 
0.3673140937939953 
0.162403577318099 
0.008944532883330055 
0.08935562326224771 
-0.02840903785536592 
-0.07296890673642678 
-0.02902065222904416 
-0.208348269189175 
-0.06707853010685771 
-0.009129038926104591 
-0.0007997655061549281 
-0.008251389363811854 
-0.05879132782395879 
-0.1467044180637236 
0.04327506680791571 
-0.05705086519403447 
0.1137482000143915 
0.1324064873883052 
0.008941668630436415 
-0.1557992693526341 
-0.6287639880083552 
0.1035131553382862 
0.01479600987778194 
0.1013210376039758 
0.2829378463315329 
0.007447171410248952 
0.005579501320314094 
0.05674970255984116 
-0.02586503237837025 
0.015945722142508 
0.08025114013311725 
0.0723717162798288 
0.08686245290976248 
0.08331226056073189 
0.05117739852762333 
0.0245228677497186 
0.1150879469503557 
-0.007108252321692205 
-0.0274210918720589 
-0.008174723941390523 
-0.006826174835753217 
0.2574003661195897 
0.06760577816202497 
0.09640210502285469 
0.02173979836805894 
0.4392744851673281 
-0.1458153884577368 
0.3093315919136285 
0.07575312673375678 
-0.3483479307618924 
0.2339745571915651 
0.3852282876993958 
-0.08729220649164944 
0.1131360976935692 
-0.2717888394369089 
-0.06548109149800119 
-0.131205884785338 
0.01468670121503124 
-0.02700496220656208 
-0.1745164065208437 
-0.09534793253030234 
1.826081842426429 
0.04761137629724885 
0.2562571643885653 
-0.003930949138291191 
0.2182197927872481 
-0.2600261626966636 
0.09234232417941461 
0.3445660103255685 
0.0914093405057789 
0.1559428439115562 
0.006863873070340655 
-0.002705784531832277 
-0.2242083223853213 
-0.215215351032395 
-0.01292310662818491 
0.05410522930803379 
0.09389877940584095 
0.3832451220578947 
0.1732865590540792 
0.2311939863114161 
0.03723578985909726 
0.1186285962645255 
0.04759985459807833 
-0.004374376972550569 
-0.1654249317970287 
-0.04444445332627234 
-0.03368790415310141 
-0.1636659702325932 
-0.008394884481096425 
-0.0474954324370348 
-0.1354272678901419 
-0.05458954863267201 
-0.6788773287966962 
-0.002468462355066101 
-0.105412771470808 
-0.02286958061198898 
0.1554750940142043 
0.00950687743713732 
-0.05959226346546019 
0.04728354299126081 
-0.009710099110056098 
0.1428836523062129 
-0.02843346151600777 
-0.004666397993171439 
-0.03745611272825547 
-0.006769740503196821 
0.205867174129015 
0.5973303159573222 
-0.1190976064006662 
-0.2496286580801645 
0.3260248584627179 
0.005496810027146002 
0.03746582519147573 
0.5266804744183316 
-0.06729946130195541 
-0.05047432420402778 
-0.3033294214584015 
0.0971151971397302 
0.001045288824489763 
-0.08910559736528494 
-0.02325368314970405 
-0.003014102305241692 
0.3581496700948501 
0.004904270690234143 
0.1024346900361965 
0.1238411584648007 
0.1547261694047135 
-0.0007176659015971671 
0.2870967412382477 
0.06805224805700394 
0.02288092578139113 
0.009954225718141689 
0.1944794080922951 
-0.08918303201676145 
0.001736013264798304 
0.008332118378708628 
0.1197097289146993 
0.1721215287099179 
-0.03106841104252663 
0.00368140053309645 
0.08599062536921445 
0.3527333876500515 
0.6165732427416599 
-0.04942618029844766 
0.006620779093413996 
-0.1088461886359086 
0.008046272135825644 
-0.5756033601038428 
-0.01838576275289263 
0.02811184787964643 
0.04147162237301996 
0.03323561078347224 
-0.7785545368724476 
0.03269721086261122 
0.08538547547346854 
0.5108381597093527 
0.02431887701069754 
-0.003074806516378252 
-0.006426883783457512 
0.2663418299756635 
-0.05490654481110252 
-0.4749730904699069 
0.7382030798669598 
0.05675011798633617 
0.007460951343403383 
-0.06532345400991915 
-0.08921521274194549 
0.1445385556391515 
-0.01429534215102016 
-0.001957394353024165 
0.2235368312911837 
-0.1106662019778886 
-0.2092102769450897 
-0.006564971870064449 
-1.073230836752426 
0.06611443744416765 
0.1538198747780557 
0.007828983518975329 
-0.1336293248697669 
-0.3086939988482088 
-1.450121860145716 
-0.02568794171136632 
-0.02169593454407673 
-0.549277294721553 
0.03996356664876426 
-0.1185663207588949 
-0.01978292350321686 
-0.02871747208062101 
-0.3922403113915859 
0.1372515725182918 
0.2234692103292417 
-0.01702420676028507 
-0.003218585740540486 
-0.01161049674421851 
-0.006619546056584315 
-0.001705983235622119 
-0.003319197968172833 
0.1801554694879059 
-0.02739877777739469 
0.4728119020673648 
0.008088197914199746 
0.4194564274864963 
0.1547325213739973 
0.5442786843777939 
0.9730752068648547 
0.005426279748298836 
0.1472970770174842 
-0.208201396600237 
0.006594245843410174 
0.01478338062915995 
-0.0139148728218474 
-0.04971279230290164 
0.4803594608367135 
-0.07558676381055152 
-0.235240110559654 
-0.03654745603561281 
0.5015994223372823 
-0.05155019342628806 
0.2237614107091242 
6.653660583029204e-005 
0.1156469969020763 
-0.1860204755165176 
0.07451287856968666 
0.001013966505547064 
0.04452659602586501 
0.01336754366491847 
0.01624200190025771 
-0.07912269632760677 
-0.03012218323883692 
0.008758735060487277 
0.2257223515049546 
0.008517197897732799 
-0.03710366862291513 
-0.3753119831215765 
0.006771217931546814 
-0.03157718960322917 
-0.04829095442342805 
0.00103346502523059 
0.006370794294002181 
0.139421785653213 
1.268864822766712 
-0.004993686325299465 
0.01247254134700858 
-0.007882356856979342 
-0.1445513249602146 
-0.07444262626156936 
0.02638236926016223 
-0.05468236542754654 
0.1581185516071688 
0.1900146781406296 
0.1969299578614492 
-0.378696914313674 
0.005628367271771072 
0.6089236525137542 
-0.0116874955257711 
-0.3948409201311833 
0.111251419122621 
0.005587715050106383 
-0.04442734668224881 
0.01753808542894721 
0.1670119746186616 
0.2688234157613571 
-0.1409284377557611 
0.0003582251163148258 
-0.3138935087553296 
-0.01279077039738416 
-0.2456191114554954 
-0.08124804176238495 
-0.002916801337917503 
-0.0838286472135602 
0.1367106474609683 
-0.01093904081530255 
0.7982230801447038 
0.06605822224678816 
-0.12406693197844 
-0.01116117092354189 
-0.0008584564176346073 
0.1477092652794304 
0.1495661252350489 
-0.07983727755047959 
0.4362828677816026 
0.2963465659266568 
-0.02112249512880628 
0.07344655559259321 
-0.01431776159428481 
-0.03318539346967873 
-0.1118595270263676 
-0.006106870425558177 
0.2526659646801939 
0.01248583239718299 
-0.3364913343241107 
-0.1916149596532478 
0.01262035359967169 
0.09710629977287902 
0.06938039041477892 
0.1774912070626753 
-0.06094208455010786 
0.01342230286976061 
-0.06611390779793214 
0.0695980587186433 
0.3911008451318873 
-0.03567128056068392 
-0.02406624518958627 
-0.008241627716627117 
0.1161930096736971 
1.440518561621551 
0.3862583145765672 
0.1136630221442091 
0.08746504526576465 
0.02511505077485699 
0.05969434927256496 
-0.1766538921017243 
0.01717383982905018 
0.1603094318541748 
0.03683728346415533 
0.1117440721170782 
-0.0007997655061549281 
0.007139729341818152 
0.001363151986042514 
-0.1105033989579084 
-0.07930109874677338 
-0.007677108961631728 
-0.006150754436167286 
-0.09665308962435276 
-0.005259023420298078 
-0.1923761219480079 
-0.08675895843949678 
0.7535864144466814 
0.09359278753563782 
0.01962300145799178 
-0.0900584571619199 
1.343779801313541 
-1.170935695696985 
-0.01244055938006043 
0.1844204717256036 
-0.02321160244161162 
0.1349316162186148 
0.5711750159726244 
0.09486801617221316 
1.145797732764026 
-0.04969271121437771 
-0.8398255316979456 
0.00590494676788194 
0.02903879611270111 
0.5960723301721135 
0.2772319048862451 
-0.009242496854577328 
0.1517325391901857 
-0.02551985527931649 
-0.007368219906715632 
-0.009648007826310204 
0.09562269216060793 
0.8611576585340255 
0.01930491556804959 
0.5837136730954189 
0.2747485900900925 
0.05243247423300925 
0.5087219507787953 
0.1669111716583662 
-0.1342197336596701 
-0.0001615361979810796 
-0.07376692790822681 
0.011637080391537 
-0.00604259807178659 
0.02324916934263828 
0.0144597520714525 
0.0001433075450690441 
-0.249807105828949 
-0.07621036488330207 
-0.002784502111073009 
-0.260953696433253 
-0.02287399708268405 
0.1503959153773348 
-0.2593550666314811 
0.1614202158001365 
-0.05461563236497963 
0.01774020301274674 
0.1172987683267445 
-0.01850624310444198 
0.01190339333239015 
0.3785119535113889 
0.8103891547878841 
-0.03012218323883692 
0.04701512302345285 
0.1845716429670384 
0.2472308616035628 
-0.00540824515592005 
0.06550285881558832 
-0.01657947888057449 
1.016421668940521 
-0.2095823335441303 
-0.141382060803001 
-0.02975529133698891 
-0.005059245861020899 
-0.1404307643715713 
0.1519424154412145 
0.03271646602064846 
0.2657605892155803 
0.09030961973292566 
0.07255721151698673 
0.05405512747361699 
-0.3008895211822104 
-0.08683509652558452 
-0.002025367098322455 
0.1599583793513536 
-0.1432086101545649 
-0.0430110651346042 
-0.002629132878067329 
-0.03101110483895067 
0.162403577318099 
0.04124209201093716 
-0.2634580423231267 
0.05341727037040528 
0.1351734445228264 
-0.1045632248542922 
0.03594044185500498 
0.07274453671608859 
-0.4130761373396996 
-0.002578515422032026 
-0.05882270610126047 
0.1740733854852742 
0.4141392508094073 
0.1212462930829353 
-0.05906363485825789 
-0.008352249906641553 
-0.02788485873209306 
0.1317092872386137 
-0.03192634202963861 
-0.00339999471071231 
0.08791232655805263 
-0.02070405252306289 
-0.04265463879246745 
-0.3939291814873243 
-0.05579385931582426 
-0.01221431339621851 
0.2578137345366921 
-0.03619971378762676 
0.0100649294725068 
-0.7918869234622169 
-0.6174285927697194 
-2.264746567749893 
-1.101662192947798 
0.09055292820718211 
-0.1141294744043446 
0.1120285802358993 
0.0516267792825857 
-0.8951579572836532 
0.3337542900813496 
0.001992274649556217 
0.02837443973754326 
-0.3349104632262031 
0.2011780282472965 
0.5170315018511753 
0.02570945561654727 
-0.04772851165618845 
0.7599799013617801 
0.05032394971518184 
-0.1110037525135619 
-0.3061198753837308 
-0.05877121576575489 
0.4232514355066138 
0.5853446737969663 
0.03524785353779358 
-0.2152620814757798 
0.6459323201810125 
0.3283488970413818 
0.004415021777387953 
0.005632538676036502 
0.001958392882642257 
-0.01212576240842579 
-0.01647855606045416 
-0.05105661516729075 
-2.23015782826928 
-0.1699882868150678 
-0.2301889309718077 
0.04455523445904266 
-0.2361037773988122 
-0.285243712392547 
-0.02163275306531051 
0.02312593063887476 
-0.6015309199110133 
0.003627904142504741 
-0.04745096305161718 
-0.01411936906465511 
-0.1147938086117356 
-0.8053078087588887 
0.04651790185534583 
0.001261339507155335 
0.1174846523131041 
0.001985031768272267 
-0.04481613623926064 
-0.009049350828190427 
0.0325165678613312 
-2.840558451406476e-005 
-0.1368296236013862 
0.05369961639627176 
0.5947235123689169 
-0.1377112417514226 
0.3144405741802678 
-0.1109243294471037 
-0.1034033570930461 
0.003307187958068237 
-0.01550949677218781 
0.2240478563629071 
-0.06471703962799177 
-0.002803373328159014 
-0.1003927988596544 
-0.1058693049588029 
-0.0008887323011011739 
-0.004235361741850044 
-0.008362141145556008 
-0.01219489949994187 
-0.0668475175730434 
-0.07679903184524758 
-0.1428180265567961 
0.05349384793128717 
-0.516470246949003 
-0.002430946075085793 
-0.0644645927176556 
-0.07564599068660199 
0.09001096648937595 
0.001963585948685984 
-0.01441206440615891 
-0.1535689397646529 
1.302538389624057 
0.1720172461097211 
1.362875083396666 
0.8299318788846279 
0.001535047370889458 
0.07722319888729318 
0.01587552549003016 
-0.2170537998672582 
0.165542765058033 
0.272421116451815 
-0.1085899181363411 
-0.6603601599707594 
-0.01772882008183135 
-0.4463879367308635 
-0.008480019286016651 
0.3298393995684636 
2.1989898585158 
0.03366296951301215 
0.03449547102770031 
0.06200134096697467 
0.003733848689988577 
-0.06566390350203695 
0.09631876102167923 
0.2632721438817884 
0.601047381016614 
-0.04253373285371154 
0.0004432344036030078 
-0.03785520654306844 
-0.2538529451524595 
-0.07280268686369903 
-0.009722982210935849 
-0.06549856922881356 
-0.03530338019902946 
-0.5125424933317094 
0.01931180521551561 
-0.5028788134885401 
0.06795566779613152 
0.1649733431648231 
-0.002745722967223961 
0.1042998246168284 
-0.141914608565698 
0.02457473571935075 
0.07968623415513049 
-0.4501285741989519 
-0.1911313993847832 
-0.1711748104925694 
-0.005592654659943758 
-0.0935633949808532 
-0.5791119283543006 
-0.3922007999535267 
-0.007041441236031778 
0.5799456971550819 
-0.2624166481968527 
0.2508155709805399 
-0.1858629817391733 
0.02492055718139559 
0.01566143267844805 
-0.1087657173953895 
0.3366752953473501 
-0.02889690040522465 
-0.005767819986739394 
-0.05365943124603286 
-0.4535671216421212 
-0.05672549817578409 
-0.0721644032331565 
-0.008517344194374308 
0.03703472055688506 
-0.0004576115378256987 
0.02946465084676584 
-0.4422185976696419 
-0.05389229351131825 
-0.2170839568223962 
-0.125436544678645 
-0.2519939736570647 
-0.05182973906733103 
-0.03266464636491289 
-0.04204340609565073 
-0.03151881032210382 
-0.05759945185734995 
-0.4063275579043169 
0.006082963284732707 
0.1085465572013194 
0.04388701527130088 
-0.04742994254466545 
0.02660404031138465 
-0.0229231516677777 
-0.04508804032501465 
-0.001071470084875866 
-0.02568794171136632 
-0.06422366794321084 
0.03365882620224688 
-0.01999366077971196 
0.1580294685668763 
0.03418208364983433 
0.1289180879862255 
0.5167657961512698 
-0.005706810786081212 
-0.03946885777175733 
0.4521316214767228 
0.005204509966151579 
0.0073915465740643 
-0.5610664083167598 
0.1416624343308081 
-0.1569544624333657 
-0.3374321661793562 
1.05674777658217 
0.6995411785962428 
-0.0722834703918953 
0.04429317649496697 
0.1193989530066743 
0.09843081646915418 
-0.743808034944663 
0.2200221092842785 
0.1997790431724404 
-0.0771335265817735 
0.6192319755710477 
-0.5105858808253494 
0.3774604316552103 
-0.1848300823490633 
-0.1522934266653558 
1.383736203669427 
0.1336905923744078 
-0.4426396698892829 
0.003963774656552439 
-0.2360358166382185 
0.3267428681974093 
-0.08906259327648528 
0.1584367462792301 
0.6753915098484491 
0.1893546820440061 
0.8984818767824987 
0.03745336362637562 
0.01640622420711549 
0.2141862596404465 
-0.02723419943129219 
-0.06227774592684102 
0.2569131655575691 
-0.006967119300054098 
-0.3290654338139659 
-0.2062202054080413 
0.08677326476485073 
-0.0296219441818406 
-0.005824500234333029 
-0.1767155923403635 
0.9785599411273135 
-0.1520554192640323 
-0.1371440306514148 
-0.02335562554797555 
-0.05714246082998459 
-0.07033917580902596 
0.174642408843315 
-0.2198640401422569 
-0.2310747946762778 
-0.002320404719780714 
-0.002680189166497697 
0.2711179915053497 
0.3105007770766323 
-1.041116187633163 
0.3588518948950468 
-0.2974307188115542 
0.004241875785780985 
0.5575680114532949 
0.3265984703229207 
-0.1246709888395558 
0.1106805339857477 
-0.6501400050121291 
-0.0009374862574373817 
0.2001719967997381 
0.2021156469006894 
-0.3297419296697665 
0.05739193310549601 
-0.6048546012527942 
-0.8397963942771716 
-0.357016594188344 
-0.3147841623612201 
0.1883365532418939 
-0.2282199962176481 
0.4845629056345308 
-0.005338927634410254 
-0.3903784176059338 
-0.2738538844535739 
0.003049198503424287 
-0.004475883673183204 
0.6977853140967777 
-0.04247819967235685 
0.001665888804131698 
-0.02345844772789826 
-0.2819160944782174 
-0.005174009274752255 
-0.03491609076626196 
-0.0156486847366581 
-0.01207583060046034 
-0.1346741289914566 
-0.1757536760249711 
-0.04011496813439967 
-0.0297941233391311 
-0.04761437649933149 
-0.009012967529291965 
0.1868603311760943 
0.4254354515713277 
-0.00688330952880645 
-0.1682006054679716 
-0.05540218728794874 
-0.003938730488172319 
-0.1073762265255498 
0.1922579606389167 
0.006840062638128116 
-0.1672293593688224 
0.03413521841360137 
0.2119306122092315 
-0.2594107218571723 
0.1914830663860345 
-0.6758217356118749 
0.2309975216265556 
0.2126347035886349 
0.06138429647820275 
-0.02394494607229849 
0.164085841773867 
-0.04260754574845625 
0.1688538858499423 
-0.2993161273273366 
0.06236188122480278 
0.5156295787731006 
0.1587406273963546 
-0.5756096706816377 
-0.01115539295948894 
-0.002147654655540524 
0.1206589552424879 
-0.7940569661825722 
0.1900583137885226 
0.003886904019023864 
0.7289616308335364 
0.008931281489582346 
-0.1306129192778171 
-0.005118695001827372 
-0.00928921648190767 
-0.1078578272471215 
-0.03000071368830484 
0.06767128199676313 
-0.2286842295943934 
-0.01340627895964263 
0.2118038098430632 
0.5266035081101068 
-0.1084601181018439 
-0.4759102581356299 
-0.0168412293291928 
0.01239045674629852 
-0.115142784899184 
0.02748834114864212 
0.1867840817975396 
0.05699054711423036 
0.3799346161679335 
0.6623494421364549 
-0.02838344984760964 
-0.006569217150057724 
0.6825902321371792 
0.007432653628215383 
0.2348066991286025 
-0.09215121252470246 
-0.03012218323883692 
0.2757695552947606 
-0.3094378689034469 
-0.003277257171794995 
-0.02530891561799824 
-0.06742932668586728 
-0.02744302833399152 
-0.006668837795888355 
-0.004063050153051921 
0.02538229213060624 
-0.03368790415310141 
-0.03368790415310141 
-0.3291779696872906 
-0.6038897442010367 
0.05838370243480389 
0.1415748319390434 
-0.1137622182886619 
-0.04418898127156384 
-0.02683238639592033 
-0.06007463925299011 
-0.01433779893674375 
-0.04712697355144901 
-0.4139644580390102 
-0.007719025099662074 
0.008567779121382794 
0.004776511574026449 
-0.1654224272626308 
-0.03257320180561675 
0.760969706566562 
-0.261190013538293 
-0.04564386393397037 
-0.1255681851425197 
-0.01012817885165962 
-0.01547418556034353 
0.3173055474364727 
0.06790944518222195 
-0.0444489699650677 
-0.04894946632691455 
0.05069828756121702 
0.6651450116248938 
0.07109636546204988 
0.183500592473862 
0.3297348442078739 
-0.2451878601398113 
-0.0574992270239638 
0.03069472748553993 
-0.02999227955653903 
1.302312205450166 
0.086719737265501 
-0.02735632293902137 
0.01839378510426804 
0.001138280660934206 
-0.04849838888675944 
-0.07077649617259131 
0.107185568083189 
0.1769158885741744 
-0.124433129902025 
0.1109702516349528 
0.2883773845631206 
-0.1535114846834849 
0.0714532899733405 
0.04286584492690809 
-0.02309704600142386 
-0.3739371965555058 
-0.191888307696468 
-0.006131924393647503 
-0.001012931439739736 
-0.003888239115529327 
-0.2175945308599967 
2.419032321490711e-005 
0.7553666439290691 
0.3640579814116387 
-0.5796952208674473 
-0.06633737726806886 
-0.009132706246150594 
-0.0670065715459572 
-0.2247621433622732 
0.001896756220108462 
-0.02885258065656745 
0.007264367637275598 
0.05439993890653203 
-0.1408711306642995 
-0.05828425021904114 
0.02852394981244182 
-0.01263331576371434 
-0.006224871746865449 
-0.0679720158787202 
0.3777783293063753 
-0.01592185225285441 
0.1653673725761239 
1.851546269803047 
0.13103243625757 
0.2152991150072736 
0.08970749280627866 
-0.009678256820815448 
-0.31459673556861 
-0.02699301777966898 
-0.5657912872564624 
-0.08663232478508851 
-0.1126462169554072 
-0.07584835647059587 
-0.03464329086860708 
-0.04497739572994887 
-0.01563834989678621 
-0.05919499723730128 
-0.006448017958427337 
-0.07413141844659466 
-0.04598164682322811 
0.02204979832167824 
-0.205628010154796 
0.05784157364238081 
0.006670022897487286 
0.04070829682390745 
0.2340420090853336 
0.006670687311139536 
0.1192692684378683 
-0.1153652449161594 
0.5891443348489778 
-0.7195623701034553 
-0.4557504515874022 
0.03153350559923139 
-0.005368060598377263 
-0.06360175278597509 
-0.04030951036472994 
0.04648883457886117 
-0.08641445755523164 
-0.01059164436637571 
-0.430449352236379 
0.05268587180352763 
-0.5128771446998002 
-0.1407547650414578 
-0.00430186586859209 
-0.1471201927622385 
0.09466849655830804 
-0.02044530926983709 
-0.0191689639015304 
-0.02568794171136632 
0.02899974376938169 
-0.01586617775365113 
0.1408411356123634 
-0.09833565472499824 
-0.005890077365347336 
0.004298129181428252 
0.03533347106748619 
-0.09550697797103952 
0.1089575894874504 
0.3945639951249488 
0.05124645228833889 
-0.49137728230047 
-0.199605903419026 
0.008698913406625694 
0.1728016988939969 
0.0003996253169980422 
0.06638417474646899 
0.5172633250219243 
0.0003504178950642929 
-0.05917566076175272 
-0.0009437630639613365 
0.7399319645408461 
-0.2291051876400511 
0.1722012187255432 
-0.003982437542526016 
0.1713025052808655 
-0.01636220633578987 
0.388936024050444 
0.09732195346336146 
0.01545683627341739 
0.1123443370532356 
-0.01413029676144391 
-0.007311694957270624 
-0.04577520711252027 
-0.05767643507725095 
-0.01471941979274866 
-0.04473336168736854 
-0.05177089458420748 
-0.2934906411167029 
-0.262968641378059 
-0.840492173991428 
-0.0062902422111533 
0.09347347928628874 
-0.2241213632663887 
0.0001146634286015089 
-1.648093561309728 
0.06689790621550701 
-0.2001359725724623 
0.05760691491827751 
0.004527231000303124 
0.02860496712752948 
0.0103219797315124 
-0.01458220084361167 
-0.08418478661497378 
-0.03604496704428456 
-0.01013759630254708 
0.007841818044284354 
0.2644720122860721 
0.1080195973065782 
-0.6609376488830205 
-0.1022615365673174 
-0.00795872335743834 
-0.06277084547378863 
-0.1370084243698942 
-0.07603256288642953 
-0.01803216545631153 
-0.004280555275950009 
-0.2254622409807797 
0.2971067215121152 
-0.09336707311220091 
0.00784006376789579 
-0.4184785368566281 
-0.04452785634291069 
-0.8519506816241522 
-0.1846633250507324 
-0.1808933589739306 
0.1301379969620116 
-0.4071767843367994 
-0.6539708456413167 
0.2011860076990911 
-0.03790609812032317 
-0.04399950286563292 
-0.04610993325933187 
0.01514113742528088 
-0.006100139443720507 
-0.0841629201722101 
-0.09841421465347712 
0.0006139098838717247 
0.001499765482078685 
0.01398699080444717 
-0.1570400914947063 
-0.006866653018708873 
0.2522115312573385 
-0.3471314196428696 
-0.006126782635819958 
-0.2327989810676844 
-0.04521005410569132 
-0.8891205523992379 
-0.02034473476178388 
0.05445188989896803 
0.007034752926253407 
-0.02774613201402481 
-0.0937801788551738 
-0.002575771214661908 
-0.0008897540982702415 
-0.2530254256760651 
0.03370421421711999 
0.1835842462771654 
0.04950325433497332 
0.1903522058652756 
-0.1349370782144304 
-0.1048029928072494 
-0.04785562776254682 
0.2968549931398811 
0.1211822748740735 
0.9346513229979732 
-0.2101492142242513 
-0.005429916920887646 
-0.2053862461357044 
0.06518765835094426 
0.7700768317901792 
0.5981481752897651 
0.01592209844794834 
0.2752436993643261 
0.01441827353366721 
0.04110577818261368 
-0.1016132366844019 
-0.09770727152028286 
-0.03061333447448964 
0.03914850634262156 
-0.5903386607345698 
-0.4971626079165628 
-0.1520815146532784 
0.04258709978830958 
0.04517045171304421 
0.1411455073673196 
0.04922793753214951 
-0.02429286456930031 
0.0848806369004018 
-0.02568794171136632 
0.3626522022956528 
-0.1061793018738677 
0.002993909408908012 
0.870712166422146 
0.06705213040336211 
0.0947178395222303 
-0.002120653993482869 
0.3163484441705198 
0.8444834579717295 
0.01575164332497377 
-0.1790739748073776 
-0.01120282016521326 
-0.02668111571848299 
-0.009387411410858703 
0.03233275628113708 
0.565045760947139 
0.3578651782220216 
0.05354089334090652 
0.3558053557117179 
-0.01076635624373092 
-0.003210924485505136 
-0.036112385871654 
-0.003908273296342644 
-0.03174482579390741 
-0.02092431245882515 
-0.33136239508701 
-0.2959530376456975 
-0.05887715979683068 
-0.04090001292884431 
0.2663035452216839 
0.01216625754879057 
-0.1405575332391392 
0.1818674328380155 
0.8308132677188358 
0.2029063745780861 
-0.9889446451277205 
-0.05468847193655099 
-0.2205509622617378 
-0.0820449317956115 
-0.002040886415935981 
0.1673838109078362 
-0.002638772051528469 
-0.03534819602524975 
-0.01458220084361167 
-0.3162111707091457 
-0.6831990581766214 
0.2080849045071631 
0.08794224766597034 
-0.0342443022524575 
-0.1537205442539103 
-0.007548282974589294 
0.037967574116382 
0.431889089993063 
-0.04015115538712667 
0.04583055258695577 
0.1805451977704372 
0.08378444504696091 
-0.02735658015892578 
0.161752543652634 
-0.2102243007862362 
-0.1040444731190172 
-0.3354637176861562 
0.09952929571903341 
0.03641465046112333 
-0.01733377839290896 
0.07106595740059216 
0.03945252416900441 
0.003165785256485416 
-0.417010273075454 
-0.1898405245766587 
0.287737102966139 
0.07242624438227124 
0.2168422254902128 
-0.0777387071991596 
0.005608569425536063 
0.09682023389465692 
-0.0738437769999041 
-0.002979831213713025 
-0.002584594820763889 
-0.4890301290856924 
-0.04598845203978529 
-0.01629918700115166 
-0.6732902458525676 
-0.01655999761491919 
-0.005467577809667104 
0.04882091315803158 
-0.26763984871784 
0.2653489982873356 
0.07621183579431674 
0.04162754832501126 
-0.4678750859869122 
0.2108600966382331 
0.3849964044582299 
-0.01195807880839752 
0.2464719181621864 
-0.00425702811280902 
-0.009839831401556852 
0.2251073742122748 
-0.005821929669070108 
-0.07114966720709361 
0.081876543485911 
-0.2049336254081311 
0.1193118815314551 
0.7539394042057996 
0.1412397313404053 
0.106982875262953 
0.03405790781997051 
-0.5479062883186417 
0.006205948467834228 
0.1280939821708317 
0.3298049529457813 
0.04178289313300177 
-0.2283363612898602 
-0.00094503828104791 
-0.02254498730656692 
-0.3399405235381648 
0.6701492670264941 
0.2420077035055851 
-0.002659493262945127 
-0.04566284502156679 
0.003658945268761003 
-0.6007015919232664 
0.004537582250330717 
0.4951137677424775 
0.01681970124459249 
0.004194495434632951 
-0.04142052613759669 
-0.01106295893917206 
-0.4313450287689197 
0.1076336965342331 
-0.01098393729774276 
-0.001921422417662062 
0.07221782280447131 
0.1488707269738384 
0.3257148909554064 
-0.00900671433829274 
0.03223082944460402 
-0.299311820517465 
0.2623434085577485 
-0.02731012088739566 
-0.02276231513464058 
-0.02307464977648093 
0.5744598738790691 
-0.07883785910516543 
0.155950904439638 
-0.008293741965032155 
-0.01671378431984166 
-0.5884179105969531 
0.05424293497440101 
0.01070033419510722 
-0.005301804762485134 
-0.01832777990712491 
-0.4468841273606495 
0.01838282257591855 
0.09944253586688068 
0.006509788563917938 
0.08355462150624615 
0.3630282549233383 
-0.4306427555263893 
0.05030207718090994 
-0.000844759230601841 
0.1974896337075462 
-0.02317480619833134 
0.003164317881731338 
-0.8611025576550551 
-0.02695892113992579 
-0.01112085134313816 
-0.1589318793294353 
0.0464544806436949 
0.05173544172075488 
0.009433265819400521 
0.08465535324863546 
0.006203501421944124 
0.01680237559534801 
-0.003451766481584522 
-0.03127485169013174 
0.03294909357301761 
-1.020459258117434 
0.005682782515349039 
0.06634195084032431 
0.02371638366562289 
0.2787432842866751 
-0.01021106966812319 
-0.3629183851019651 
0.0004357437879953469 
-0.3635755542105674 
-0.7428184270427574 
0.01506265459742616 
-0.003391282371914167 
-0.006764941292018972 
-0.002779714964219212 
-0.001021159845457623 
0.00586416660854744 
0.2031178125802022 
0.1724505315620636 
0.003311701776613656 
-0.5337155034720209 
-0.02257460252640495 
0.1554477031340478 
0.1433367011110337 
-0.01640342781854852 
-0.1012287999869605 
0.002300819344348147 
-0.4409989971498821 
-0.4649219263952117 
-0.1117437697587984 
-0.1273263500106314 
-0.2160087089610808 
0.08208081073427336 
0.04045016625878296 
0.01745462654979935 
0.2163744948084886 
0.01236000560725478 
-0.2344493791284963 
0.2955914974316447 
0.2102124994255995 
0.09160500382000796 
-0.003812209470753262 
0.008409912356203694 
-0.06732147166668173 
0.4792247326411095 
-0.6093997705916612 
0.1052261687671129 
0.0006378337819240127 
-0.03119631652931818 
0.04942031110555268 
-0.03949345405331611 
0.176696709699694 
-0.1287131564408456 
0.02173036285821111 
0.02952859358041261 
0.06192841477855988 
0.0435076038299003 
0.2753249563705421 
0.009292708807377882 
-0.03534281460472778 
-0.5371739700011953 
0.853485308963829 
0.253276782306597 
0.5941063454944597 
-0.0007997655061549281 
-0.007609525734871502 
0.1056349924304186 
0.01597693160230702 
0.0113794235075505 
-0.06666679846243247 
0.179868190363295 
0.3495498131573457 
0.1487389306455726 
0.391227946359839 
-0.0007632959139110792 
0.003876150481945407 
-0.08918303201676145 
0.17873039431458 
0.1148486954542316 
0.1110026087733528 
-0.00589741575705999 
0.1320184651749445 
-0.005442355767417328 
-0.1370457391145417 
-0.0007632959139110792 
-0.02718831368109663 
-0.2813534208367182 
-0.2987707744249343 
0.1802305066105977 
-0.2729591092935288 
-0.4104662068440331 
-0.2490142227363414 
0.02149865215727499 
-0.004718697486861044 
0.08956183514896836 
0.09191211912617449 
0.3654556277076707 
0.1644891664187851 
0.005369751327198789 
0.1600186384515741 
0.4230720878857324 
0.7076239521336651 
-0.1225400579235827 
-0.002295515356051746 
-0.9056854594416982 
-0.3224770079498339 
-0.02550303146559006 
-0.09339334786744039 
-0.01758958343059444 
0.04784711319627112 
0.006723482202890089 
0.288534096195465 
0.2583383838658209 
0.1416322793046018 
0.1009028174545917 
-0.01779182078407082 
-0.05453390424568096 
0.1417242498627893 
0.5180909569760752 
-0.1375080848694948 
0.08300432123570266 
0.05620124501211959 
0.0143819614828013 
0.06464789832595765 
0.5519091321893137 
-0.1834850474235356 
-0.006163576443950524 
-0.02537113096074466 
0.4090410906466514 
-0.02645764506161105 
-0.03451397174094164 
0.05933392385688874 
0.2757037954172704 
0.01262099326070092 
0.0806281567738812 
-0.03047160153499385 
0.06886342204518701 
-0.2254536443346857 
0.05148470864208327 
-0.5061913638920246 
0.02301314842898897 
0.4305650333882284 
-0.006638978765360561 
-0.01807811663675801 
-0.01802221394784601 
-0.5590488371994113 
-0.02239197174643812 
-0.1328607147171531 
-0.003701522436791748 
0.2772607472346502 
-0.04740620976875841 
0.344673780330099 
-0.08139968353414187 
-0.01012817885165962 
-0.01361577474285784 
-0.1270016320720148 
-0.03265285900367264 
0.03627513485534503 
-0.09744204423638625 
-0.2080907127524514 
0.01056487103999206 
0.06905594429125762 
-0.01344061350058678 
-0.02284194187881106 
0.8261829189364892 
-0.1642404021903526 
-0.08536772987110133 
-0.01657699901090728 
-0.07796379706080184 
0.0188131665963922 
0.7662782466728347 
-0.06564976413232983 
-0.01225945229166331 
0.6809070465598388 
0.005062537272988004 
0.15239001825542 
0.05440372898259077 
0.006179298877451609 
-0.02743365502156617 
0.2364122976379731 
0.04271081633093375 
-0.005245104367549679 
0.01373948682138005 
0.4066090691545792 
0.2636632171619929 
-0.1361303575498839 
-0.8220603201178104 
0.364847322105781 
-0.003318610266560167 
0.1443223941925415 
0.08984067694121377 
-0.008238477124291814 
-0.05751679712618441 
-0.0003669075305615982 
-0.005536385953538481 
-0.002846069839254629 
-0.6617855800768967 
0.0658598885165648 
-0.03185279024215608 
-0.05004593116328899 
-0.01306080987407443 
-0.0333195392569882 
-0.001651034401858215 
-0.01825938547918946 
0.1372823001091013 
-0.4873702894254375 
-0.2143846234772744 
0.6625624232830466 
-0.05446980308124111 
-0.4794875854976822 
-0.01171235010441789 
-0.07236929945221819 
-0.002732807989744159 
-0.01152848543057377 
-0.1025404759710607 
-0.2416031450262358 
-0.2584643226886854 
-0.2968621517088304 
0.2175899257436248 
-0.4334054532742411 
-0.2301217193681296 
0.2781762784750557 
-0.001576371283941829 
0.08436373794599743 
0.006353323672309453 
-0.2095154306515641 
-0.05791558206316472 
-0.00347639327412093 
-0.07979165334681446 
0.007285556050138469 
0.3584729503718303 
-0.03330511964392424 
-0.04946745459403203 
0.06738317230780602 
-0.3261137784815418 
-0.06898329274930505 
-0.001654089892491098 
-0.03012218323883692 
0.6112263523586126 
-0.9150743047731733 
-0.07024211046016532 
-0.145476700126056 
-0.009749698005736246 
0.01470104585457563 
0.016200464236945 
-0.839638901401274 
-0.04553576821586412 
-0.2531964505483269 
0.0830980787375047 
0.448269660746741 
0.07500945356420656 
0.182705447212614 
-0.2385350027453183 
-0.007959400636473674 
0.2267484994649631 
-0.002071238588369647 
0.4308146398552188 
-0.009615571932859906 
0.0002005279807090617 
-0.002676417156878017 
-0.1687542269628985 
-0.04567245524342881 
-0.2503176499225679 
-0.1843688642260865 
-0.06807136754253808 
-0.0360429470823911 
-0.09712544745380733 
-0.005851845756534739 
0.1682427044433003 
0.3935998091134351 
0.0417307346312115 
0.05815694377336994 
0.1179370956982497 
-0.03876797514335658 
-0.008412623013293772 
-0.4282692218936186 
-0.01898924614293517 
-0.008329098560179816 
0.103996407344245 
-0.005190101763323728 
-0.0199933141999508 
0.07609966367826299 
0.07519500703456564 
0.01672915749931856 
-0.02093127614201391 
0.322877966296254 
0.01168323135294935 
-0.01196806963143597 
-0.0007997655061549281 
0.2752805033069081 
0.1540112373821625 
0.05360814629528318 
-0.008636948768156617 
-0.05493849020579591 
-0.004271174023883034 
0.4236764430017521 
0.03138012410178594 
-0.05993428886813319 
0.01016454916718181 
0.03090778079417238 
-0.00456926143524989 
-0.006052056739003775 
-0.006890384936099905 
0.04298407640358697 
0.2877281720230484 
-0.8727927698781134 
-0.3148467687138065 
-0.4005125088944218 
0.1129463148366068 
-0.4006286256241734 
-0.03159122982646385 
-0.1470087016834397 
-0.01030096870014248 
0.1826430979596328 
-0.6690654835605274 
-0.03012218323883692 
-0.07014631991623459 
-0.00147901353408133 
-0.2973586183054046 
-0.01895531616026521 
-0.04179754468663276 
-0.6950868442900535 
-0.01810108234122482 
-0.05336465286081957 
-0.0199357926044112 
0.1845407216745534 
-0.1551286752064173 
-0.02026132691581357 
-0.01144103300266806 
-0.009941821607748445 
-0.1117271157786108 
-0.1351631757009012 
-0.002395429383367268 
0.007177900889970924 
0.01514909747866771 
0.03663488956154251 
0.615449127654137 
-0.06762184768729951 
-0.00513374225423381 
-0.07929544142223478 
0.09888111480635003 
-0.08858057964849217 
0.2448442726868499 
0.001115380722086836 
-0.0577885258172883 
-0.1911109741906057 
-0.1079632186462494 
-0.02086186919435176 
-0.3177292071218145 
0.0194667434991621 
-0.002431247063905359 
0.2683576641865923 
0.08553671899851073 
-0.03124298091897695 
0.02680009580118635 
-0.0005027446438101126 
-0.01767110262939019 
0.01638571520072425 
-0.0009837952662613593 
-0.04294521143412652 
-0.2670070283310624 
-0.2472591550088967 
-0.01844301341097602 
0.02716929074939053 
0.331204658910678 
-0.0107315900860135 
-0.6227297212163451 
-0.5826127290499769 
0.2428567602756863 
0.6282205695429177 
0.2909452351230584 
0.002023948039347719 
0.02519614301432169 
-0.02272479640447108 
-0.1474793637934875 
-0.1285023998265936 
-0.3920261775078271 
-0.1263589823281805 
-0.07384253615021634 
0.03385172792010039 
0.09013806473870377 
0.1761944944869006 
-0.6736151560389393 
-0.04430996710687338 
0.06726326078743174 
-0.4669414288737542 
-0.02884052244633426 
0.03448137659772099 
-0.5493583089483536 
-0.1278368452800104 
-0.1093817530286628 
-0.3636622721861226 
-0.004613871497843057 
0.003025792042557161 
-0.1395834190846642 
-0.007446855320311086 
0.05108980846603822 
-0.03505559955090853 
0.156545427409616 
0.04098767869276618 
0.3789953609222948 
0.3263110786394689 
1.074342040900771 
0.1237782819444815 
0.2464678442318541 
0.3568699389060641 
-0.01276710290044993 
-0.03036680821790791 
-0.5192443542418701 
0.07818743144158651 
0.04486963340127027 
0.3560536594472394 
0.2583383838658209 
-0.5567571251672997 
-0.06885990939638025 
-0.8887619069722001 
0.01023047989301702 
0.1245955862800725 
0.5256053032230893 
0.1424380760725224 
-0.002072182089906782 
-0.1527202678534056 
0.2995318237032622 
-0.1287573265494685 
-0.04368283290147828 
-0.01251722722556332 
0.009109855897107366 
0.2578180416951751 
0.01819391878058886 
0.08529484863702919 
0.2731933767853135 
-0.2944472112861622 
-0.03976444216485214 
-0.006839267641779227 
-0.6433809388342888 
-0.04273768860046561 
-0.01052434959864556 
-0.2604116448817661 
-0.1895307492590852 
-0.06514749190757449 
-0.05729723262634907 
-0.03893542971110909 
-0.0127476374758764 
-0.349896593241375 
-0.0166205880282687 
-0.006885198260320708 
-0.003378857118507969 
0.2646255798140311 
0.9478642794370055 
0.01160415569597938 
-0.03029177009147585 
-0.02581623332187709 
0.5208362972067959 
-0.03330511964392424 
-0.01736783510990607 
-0.1518122808997878 
0.6492940539948905 
0.2913699451694514 
0.05472522786535956 
0.0410071717398018 
0.06559178636640979 
0.7900502696904131 
0.1534217458779059 
0.1773184648641521 
0.06207240468133088 
0.02051394448487583 
0.01017270818255574 
0.324153811638154 
0.6719803161985717 
0.9211695031154028 
0.0002215943604488091 
-0.275352016530637 
0.04316108912879853 
0.04236458111607422 
0.03039400787276604 
0.035786306503544 
-0.06188080598063642 
-0.007478632933563417 
-0.1735709392734694 
0.04215009620899712 
0.1306488234642657 
-0.001854118700740716 
-0.007409356269043431 
0.07677840186386813 
0.1691689394580662 
0.006009043904021977 
-0.5499594895756208 
0.3679676479854588 
0.3955201935887578 
-0.01227557519925018 
-0.01043494901312423 
0.1753893130988015 
0.04804127147648513 
-0.04317491176912213 
-0.002441513861783623 
0.1903524751684216 
-0.1599429469314684 
-0.1489393067823706 
-0.1047916992746559 
-0.2089760251417131 
-0.001045371369939499 
0.03181385155041576 
-0.0524889016501982 
-0.4444238159109498 
0.008454253162723873 
-0.105487646070645 
-0.2026626742015948 
0.4746952138638242 
-0.03005532282645206 
-0.02958995649616975 
-0.003539525063783709 
-0.05405812773168584 
-0.02350928592827381 
-0.01722626530464991 
-0.008959790493979797 
-0.03155743859592861 
-0.02003593029460877 
-0.00890952181422301 
-0.0007997655061549281 
0.01350880343122501 
-0.06036077330418371 
0.8350302099917926 
0.224152650495158 
-0.105412771470808 
-0.03748439506018901 
0.199363549659044 
-0.001576371283941829 
0.1324147492919014 
0.3187134011583487 
-0.01484543576418511 
-0.06793031266290489 
-0.02338037889190139 
-0.02907332861476995 
-0.1732655183570798 
-0.02540543126715875 
-0.01681358771119483 
-0.02711829898720961 
-0.1137156420473726 
-0.3324430462373237 
-0.002167645158240577 
-0.1083801821352035 
-0.03878021545694897 
0.003996299452881953 
0.160272795227091 
0.05054366800191387 
-0.2396709855120476 
-0.00182905202813729 
-0.1516272639675251 
-0.07872036727711974 
-0.01642303837061869 
0.1977257916179961 
-0.03597225350726873 
-0.04621953319302941 
-0.000882560257296211 
-0.002150122822966346 
-0.09511723418850276 
-0.06533309702879914 
-0.1636427669224547 
0.03827138435940339 
-0.07732784172019012 
-0.0005944137853174567 
-0.07749610182820482 
0.03975674050604737 
-0.009788410328139544 
-0.002405450493331585 
-0.01742773881808678 
-0.004462705219316056 
0.3631492971503327 
-0.009897806321877145 
-0.2549100410551627 
-0.1602348316404578 
0.03384853273220089 
-0.1944091702966066 
-0.00589741575705999 
-0.0391207870369564 
0.0002215943604488091 
-0.009400491195000214 
-0.08342721776201237 
-0.04228829643752199 
0.006358497396489637 
-0.003900293704487148 
-0.01148207967972535 
-0.00147901353408133 
-0.2691409906252866 
-0.1397118239910073 
-0.07742140297638138 
-0.1702297089720566 
-0.01309957988945675 
-1.624366097308919 
0.4971092449599283 
-0.003074032305148584 
-0.00815072019805046 
-0.009698442967199183 
0.376322094984189 
-0.005693342021618007 
0.02273441633901282 
0.069946503917623 
-0.02981538597033605 
-0.181533956215569 
-0.1249060016356694 
-0.2202991340885472 
-0.004338785881022004 
-0.003659747962032614 
-0.05635611901842697 
-0.01255833108758707 
-0.02309707734624437 
-0.009253319466859875 
-0.00253933815012326 
0.6561276047086191 
-0.1265387785787167 
-0.05018067870066867 
0.3030883652328518 
0.01097216320397372 
-0.01223879663547006 
-0.01029649147672904 
-0.0135406951298796 
1.834133724933083 
-0.01092747376019594 
0.6953762916768931 
0.5316126827433209 
0.4353714029069394 
0.1261166082433416 
0.02106096328968064 
0.3762776602421475 
-0.02957982931434736 
0.0363672046248367 
-0.04349878690263193 
-0.1404085458529931 
-0.006583968852436286 
-0.008671087889061261 
0.3636494036595249 
-0.1527937473747761 
-1.592177608501391 
-0.2992054264484616 
-0.110998167148616 
-0.01615601488362912 
-0.07836199286193193 
-0.1049527793897228 
-0.006916933933940335 
-0.07280264971532327 
0.05000774130170092 
0.1257854199783215 
0.004209393513478982 
1.614452455781845 
0.09475823138628796 
-0.001623605914024716 
-0.005820895704233524 
0.01651640019051607 
-0.09987687945782521 
-0.03482314531894534 
-0.06040008021500578 
0.2933488459973736 
-0.02916401253390941 
-0.1979951252950244 
-0.006488879289659804 
-0.06719423995676185 
-0.1867454857885102 
-0.3162114527851872 
-0.07006303476237454 
-0.2915141397953098 
-0.3655131391168179 
-0.02433699077191553 
-0.03006081488237489 
0.1233460825830334 
0.005062688848754739 
0.5443372618983404 
0.2724774965128657 
0.01750735947909517 
0.08922886808924786 
-0.03890701990575112 
-0.1022777993639415 
-0.006585957773496776 
-0.2643170076396542 
0.0002794244065497728 
0.0309998770191986 
-0.2345467184303797 
-0.0004497060623863406 
0.1825009348393612 
-0.08965204514823356 
-0.002167645158240577 
0.04758677840481959 
-0.005157463317613503 
0.01859533132838925 
-0.2841243990446276 
-0.01800230992028564 
-0.00246283640881288 
-0.2080981563449103 
-0.01894351536169529 
-0.03368790415310141 
0.278809800999473 
-0.07702165519258364 
-0.01625626298263258 
-0.1264246041687393 
-0.0005627381624778145 
0.1564709498060726 
-0.01219152960104203 
-0.00147901353408133 
-0.08934490037331266 
-0.3923742437531895 
-0.03727531403722368 
-0.04594901436416263 
-0.01928712507067169 
-0.2416250381087021 
-0.1500697978324723 
-0.01332260314403516 
0.4048525199962349 
-0.01128669228356165 
-0.366228410773308 
-0.2121265245871325 
-0.07240862587660181 
0.01165623532883235 
-0.00435650026309957 
0.6682712460975513 
0.2177228921976952 
0.07477258335182248 
-0.001355121813319192 
-0.04066886070084354 
-0.2102726197605788 
-0.09878516387495767 
-0.1460492507998278 
0.08173696121226662 
-0.1236049327195879 
-0.003710413252097816 
-0.003307405888958402 
-0.1444924074563467 
-0.07279809346400265 
-0.04483991440315629 
-0.1430074905059243 
-0.1095820833843586 
-0.01752177078414375 
-0.075885750728861 
-0.02208198981301509 
-0.01574027864752208 
-0.1768146007577409 
0.5534064020084026 
-0.003170547070367147 
-0.08379294620184277 
-0.03058489715894005 
-0.04670533666830285 
-0.08608339705282428 
-0.1539045692460975 
-0.0130507424779761 
-0.1653707084559496 
-0.01509609670386831 
-0.007241131943387978 
-0.001468347632635938 
-0.0006024320421389661 
-0.009537108724060158 
0.1330004414533847 
-0.1462885521830643 
-0.04955495759289827 
0.004718437674379929 
0.0318146742444491 
-0.01701976981384889 
-0.01596489167138152 
-0.04495609217565307 
-0.5518707969516077 
0.1991664770414805 
-0.1685637976480753 
0.1773599376647754 
-0.02265700471402045 
0.3016857797239216 
0.1091668408346217 
-0.3629643955095059 
0.1470258270310016 
0.01279466473860781 
0.1571456757479502 
-0.2829289862360804 
0.3997654827021143 
-0.005909151392640822 
-0.3620415944723679 
1.512566991171075 
0.05854432313221579 
-0.003520344109230548 
-0.04049271154798433 
-0.02788800455791463 
-0.2665743483118924 
-0.1584435080585707 
-0.08918303201676145 
-0.3500572099617806 
-0.001075846860764528 
0.01450862803091816 
-0.1412155098894953 
-0.0003290518779288338 
0.04675267086960572 
0.0002215943604488091 
-0.1345659914277134 
-0.3377301430634586 
0.09721457089083109 
0.1623618228904976 
-0.1549765418445768 
0.3860320919597865 
0.06702017867227975 
0.02232345782536696 
0.007904739271750505 
0.0340585546186979 
0.01275402225810432 
-0.1639219307470741 
-0.02185907970709877 
-0.02590508424205874 
-0.001430040771201337 
-0.1139135324233156 
-0.3388177946372594 
0.2649248360367323 
-0.3277997802899142 
-0.1012661905271977 
-0.01508967511012305 
0.1604698934709204 
0.2029310953519189 
0.1317627362652162 
0.007777891008252926 
0.001410640290082709 
-0.04663671910372511 
-0.005107247339356816 
-0.02680796915611742 
0.1440266252352857 
0.0003985873507877648 
-0.02042777756569051 
-0.03752207483306615 
-0.01280470321422104 
-0.04942025161476758 
-0.07252544680052885 
0.2555936121393512 
-0.1124664110817836 
-0.1583350235653658 
-0.002313244021615722 
-0.005313572935122698 
0.3183377217057902 
-0.129160920275698 
-0.07387739164148437 
-0.005146971625369657 
-0.4474035550923056 
-0.00589741575705999 
-0.4148834202254734 
-0.003187258257046265 
-0.04262761685368931 
0.007169163781931965 
-0.3913486408067938 
-0.1664581869827321 
0.1664056390302446 
0.2519239960139329 
-1.622597361256068 
0.09900600284608543 
-0.03488891256380113 
0.3184270825683088 
-0.02640798077099144 
0.004778817790630874 
-0.2697451643885011 
-0.003339423613476894 
-0.003339423613476894 
-0.3148968112363159 
0.7263470247509763 
0.5766029655313412 
-1.176443922849165 
0.3753222000964754 
0.0003862660715728047 
0.04982316714277006 
0.09585515092197505 
0.06262464067245084 
-0.2968597929691705 
0.01051178565418705 
-0.1274337329175289 
-0.04454357723576195 
0.1361707466459247 
0.6973341624474396 
0.3139221387673478 
-0.7718093152821143 
0.2115745959500008 
0.4289528364917318 
0.1354052129366154 
-0.2928540008948801 
0.203959836473859 
-0.1552565526894466 
-0.1486383351219649 
-0.1680294269096444 
0.4156751860994469 
-0.003256092885958729 
-0.1895597117861312 
-0.06227752924441282 
-0.09527093397703161 
-0.01516734002093845 
-0.005346456176101247 
0.1184937320529892 
0.01329325553538199 
-0.1495149841731073 
-0.126405644578889 
0.3115433350413538 
0.6593787093786291 
-0.1305967010972189 
0.005650664152854556 
-0.04936768382780989 
0.07700228670256161 
0.6440581807781086 
-0.1224992409756922 
-0.05848630966959242 
-0.05227905072511545 
-0.05211750659422219 
0.003971375573801969 
0.05728900590522859 
1.873159309439356 
0.4665306791131168 
-0.004913552681609403 
-0.001338188842656842 
0.03638834944461628 
-0.08410283650122548 
-0.6204029939679533 
-0.002568342978639841 
-0.00780212129891479 
-0.04475669280379806 
0.1340665146837261 
-0.1649631787376585 
-0.00581595237389095 
-0.0007997655061549281 
0.3138923903719493 
0.04065576529877207 
-0.2570094459517562 
-0.02264751538087732 
-0.2997023488284923 
0.00151307552586286 
0.150335385018798 
0.8730638644956689 
0.1910692286553564 
0.6381845845496448 
0.07373942936737328 
-0.06719725873367921 
0.2088014768717087 
-0.09576919067256599 
-0.4114226182813163 
-0.006679763502544091 
-0.007336771295076414 
-0.01206025004298366 
-0.2890623377728371 
0.05998091409143203 
-0.005819475185049229 
-0.01037405981058803 
-0.2552000578730407 
-0.03405921468546701 
-0.043014826044131 
-0.08813448594866716 
-0.009827540280763349 
-0.03579706768303732 
-0.08445631418719792 
-0.006298737783028927 
0.8466961515201837 
-0.1195889440043243 
-0.002109451370349449 
-0.145960505369847 
-0.004518413667467449 
-0.05103125919082321 
-0.01417759269194081 
-0.04635010636691277 
-0.03700679233019287 
-0.001681744420694615 
-0.3554452695428202 
-0.009858771842166806 
-0.008709442463733778 
-0.0060919637693787 
-0.08536609737459444 
-0.02738683921319924 
-0.01384003462697091 
-0.199735328455063 
-0.00955772132967591 
-0.09484403756659823 
-0.4603906173973215 
0.1054517024802389 
-0.01731230854806684 
-0.02050847038003297 
-0.05891199618689966 
0.239161891324488 
-0.2559116430231382 
-0.01205346089414123 
-0.1431253022501739 
-0.006325558399904042 
-0.002167645158240577 
-0.03464053944208428 
-0.0007974481424781809 
0.08698139849148784 
-0.03012218323883692 
-0.6311612282836149 
-0.01450516636282034 
-0.008416286248663682 
-0.006153127745397167 
-0.03143865459069864 
-0.06031724825017865 
-0.003116882585237045 
-0.0009353193864967795 
0.03291956932343755 
0.4581973065557493 
-0.01079251502529738 
-0.03811222564725956 
-0.01596608863477972 
0.1037854231088754 
0.09553734403373279 
0.01802352194094158 
0.04413527477916042 
-0.09591000670608743 
0.1521801925256508 
0.3528943782421765 
-0.005348642998566125 
-0.7013631144681964 
-0.05566355649980705 
-0.003137601794664629 
-0.01650257417751113 
-0.01406385072734038 
-0.3189963122666463 
-0.1219448004673032 
-0.05883368852687359 
-0.0514084529627628 
-0.07282922704441527 
0.04349338793405014 
0.02475803863005132 
-0.04745008160659094 
-0.3526044467493832 
-0.0474983170391769 
-0.2095592059481256 
-0.02067282160725757 
-0.03904693995489417 
0.1203328851738282 
-0.02375305091178263 
0.05501435371687329 
-0.1469332839627009 
-0.1015738203958155 
-0.03366679202103501 
0.4141635410891573 
0.2902717733452475 
0.06890795877058124 
-0.05414797303159075 
0.2030453187906173 
0.1795663769622181 
-0.207101330152426 
-0.02481125993269125 
-0.2708429122521806 
-0.003785801295598294 
-0.05593441192639392 
-0.01511612886871847 
-0.03012218323883692 
0.4193889332594638 
0.01475849195393979 
-0.2542984536695177 
0.07323427980568127 
-0.05265275978539669 
-0.02565019990756005 
-0.2887019872074003 
-0.006335339508957414 
-0.01653609236186068 
-0.07095024690873639 
-0.04505405360294951 
-0.1103341493217396 
-0.07602690285251491 
-0.2451097511446699 
-0.02929228504840409 
-0.08900153567061189 
-0.006715398754516253 
0.08496145509086493 
-0.01012817885165962 
-0.007049393135788577 
-0.06656641477638289 
0.0180119230932791 
-0.02724882237826082 
-0.1108090326744543 
-0.01265581069590271 
-0.01784892066222612 
-0.001270497108190442 
-0.4082673375055259 
-0.02859031453483471 
-1.000366729614286 
0.3834510144924369 
-0.5446429258293286 
0.5190218730243686 
0.008070844512701026 
0.06626021997100931 
-0.2357576305475328 
-0.00644715908129831 
-0.07925842859614617 
-0.03441696944792072 
0.3742814942861347 
0.003841439499661508 
-0.03090602498362734 
0.05987608989095881 
-0.06376355222168403 
-0.04387088765358562 
0.04737164146409956 
0.3352522557807204 
0.240395158300871 
0.01498065566829707 
-0.03334591804174799 
-0.05492756379915385 
-0.06577529971459978 
0.05799162484858588 
-0.07763239053571813 
0.6173290235418905 
0.2192053877472576 
0.1459087357958467 
0.01457639325617748 
-0.06386160510107346 
-0.1715153943425954 
-0.0165301209906192 
-0.02496357700593877 
-0.08113189155793614 
-0.1225275129283515 
-0.1970476690656301 
-0.02344731201283094 
-0.02048549976324082 
-0.08264702375476835 
0.4995781519658249 
-0.002985209753986168 
-0.009645696653036516 
0.09503047995779249 
-0.007817994421262117 
0.1831856361586638 
0.2027998767309596 
0.1141515592253218 
0.06361716765936075 
0.1171283256243588 
0.1092977557813629 
0.4361046999532303 
-0.3403388400629167 
0.01084485882655473 
0.03099493683690838 
-0.05724901085818989 
-0.6863777971448096 
-0.3813302345870092 
-0.5107853297839189 
0.2807300733105263 
-0.008175312122219669 
-0.1194511663156101 
-0.1089367929436914 
-0.007387635616177717 
-0.2324622174536772 
-0.06556520400916779 
-0.0821037047025089 
-0.7277539048995976 
-0.2167663089317441 
-0.07527967039770528 
-0.01422967042619059 
-0.2138488178336071 
0.01241126870541989 
-0.002654095491423819 
-0.2663673350383926 
-0.0003555836885125421 
-0.0497962767627625 
-0.2535752158128666 
-0.1953999235034184 
-0.01093693182478898 
-0.1778272169615447 
-0.07429082729635544 
-0.006286105886093761 
-2.742459022896108 
-0.09470364626793579 
-0.01180278871206411 
-0.03461171688591397 
-0.2633981319710614 
0.0115491519058069 
0.03932478678948183 
-0.06217861249217762 
0.115654030641089 
0.8267219713473391 
0.0008878702781925374 
0.03705665896916939 
0.6122254089129112 
-0.1194281152605042 
0.004555282550381616 
0.01766160322072942 
-0.01737360298744893 
-0.1979111219493762 
0.2461010883074714 
0.2581806877057592 
-0.007436402292414679 
0.02344363852912873 
0.03164918412820914 
-0.003471650934217083 
0.05386974609926305 
-0.01663267867300067 
-0.04344759943552788 
-0.1967226571986869 
0.3691135786146709 
0.001127860077676221 
0.03519138856693301 
0.0001243887796881157 
-0.00589741575705999 
0.05821863158806258 
-0.0334854887098312 
-0.0577425927069998 
0.03357818645157307 
0.2524287628066543 
0.1095696556063596 
-0.008896474912507391 
0.01774826426752836 
-0.2759930100338636 
0.2098824421973773 
-0.02772067881806092 
-0.01362227542320375 
0.06898201951306368 
-0.01608754412123193 
0.4140605430215841 
0.005406006974107318 
0.05065849910779657 
-0.2693276225174576 
-0.6150280491084952 
0.3563065936558245 
0.09966056557659586 
-0.06914748770285957 
0.0194454411240622 
0.6677881391053923 
0.01973632872312703 
-0.03768670349584581 
-0.006997157377897582 
-0.02954065945864996 
-0.0928151344273946 
-0.5416419612564859 
-0.03691061193417092 
-0.3712791880831034 
-0.1718176207605503 
0.2445718485037246 
-0.03130719187205083 
0.02214185883998234 
0.09271430128569075 
-0.1787342334890908 
-0.3479594666879082 
0.009488115622295703 
0.3354378954932019 
-0.1081480163588054 
-0.04493233890332845 
0.09046755847911261 
-0.02292946933082657 
0.6688814259131632 
-0.02454724119035773 
-0.15100265178963 
-0.1206067554129866 
-0.004067376679904651 
-0.03611046874636417 
0.1356627943744371 
-0.06944937366350404 
-0.003206197116181725 
-0.01333922625581661 
0.03186931775194259 
0.3065220323299178 
-0.6247666663118741 
-0.3383086775784839 
-0.1746545926539096 
-0.403144361806592 
-0.04486847822365242 
-0.3584352739967305 
0.07020922645127663 
-0.07457519833241934 
-0.01206025004298366 
-0.3441271056509366 
-0.1177957453852828 
-0.003982437542526016 
-0.3598262302377523 
-0.003315858218349891 
-0.0007914912640938946 
-0.005195717994814659 
-0.0143168154579837 
-0.03413152225888973 
-0.006931997353654844 
-0.003876330135703615 
0.214401541053056 
-0.06072815355658585 
-0.002486282606321309 
0.2539318782987282 
0.01007765730946221 
-0.2422657739613575 
-0.03012218323883692 
-0.04350116028300401 
0.07476645656772141 
-0.01882713491237096 
-0.06767838955863133 
0.01035578742198907 
0.04989057400409777 
-0.128136709185132 
-0.01179543209483917 
0.06364281055977991 
0.2391841561172008 
-0.01901143461243807 
-0.04996519376390652 
-0.1202997893067783 
-0.07298789497885642 
-0.1089199949769739 
-0.003328767775109041 
-0.05988452873523016 
-0.07652393026992377 
-0.01150526224263975 
-0.2378814114704428 
0.03178021492239308 
-0.07008463271281581 
-0.08682340519301134 
-0.3116537777274044 
0.1189944878538231 
-0.02981962386449006 
-0.1735243632059302 
-0.04398558278370143 
-0.002310368825987771 
-0.05532201224336099 
-0.01690754607488063 
-0.03381950418068477 
0.1110567935011773 
-0.3757168399889388 
-0.4679975489536511 
-0.01477391987720696 
-0.05356506763184836 
0.2028589877448037 
-0.08189799573847677 
-0.179367531382721 
-0.01514136294303806 
-0.01042289419800677 
-0.08639597032877454 
-0.005488207466187479 
-0.009920871747460106 
-0.007160056888292737 
-0.00172475597635863 
-0.009579331843114441 
-0.01197752217758737 
0.02620274109141052 
0.5818489062130393 
-0.01357203462002411 
-0.1256859737008401 
0.1553996026476327 
0.0120469295506168 
0.01425749653111431 
-0.06677207144292194 
-0.1794540045000794 
-0.2534122807913239 
-0.04594108035758539 
-0.06230126122452321 
-0.1606133046673661 
-0.1699097514382631 
0.05539953413324818 
-0.03867519975804012 
0.1020962680572202 
-0.007427735481705369 
0.09831232287679348 
-0.0008141540156286158 
0.03568045464384249 
-0.006112958309850093 
-0.3882903812270828 
0.1163628827129103 
-0.02050323534916156 
0.3548965895765193 
0.2524950921017009 
0.03908925686436674 
0.2549066202193868 
0.009065626329193154 
-0.006031012960357865 
0.1157709821239058 
-0.1335684602686705 
-0.04211628153532472 
-0.02443246435406199 
-0.2744289695868327 
0.001241735801368064 
0.09430858478858757 
0.005243290484377518 
-0.01799092280994688 
0.006149909724346639 
-0.008887195749646649 
-0.007095692288487679 
-0.04812934618933468 
-0.108774267774826 
-0.1914824154531068 
-0.3630760128054739 
0.2190537633964068 
-0.004740394843745126 
0.1849352308133141 
-0.04974123213749269 
1.544154724890969 
-0.0003149148097447265 
-0.1087617884298977 
0.1016430139007482 
-0.008246341488846341 
0.6934936628801325 
0.01103867246133028 
0.007762110563348536 
0.2757456670117567 
-0.01858938042865929 
0.1122614160279497 
-0.3031965210129238 
0.2398811175303004 
-0.199472845965882 
0.003408919562364418 
-0.006139067783373137 
0.0424746892632564 
0.07163082545098329 
-0.02693038077764877 
0.07156312903920299 
-0.05466102685510189 
-0.01589986944459325 
-0.05020060231631682 
-0.004251948428436305 
-0.08557146243226077 
0.4188833027667562 
-0.05671328168072049 
0.3952284568686159 
-0.3379867064738233 
-0.04217851003847872 
-0.1099811522436464 
0.07949257888624942 
0.0008877989368930129 
-0.5901800957681556 
0.02781419061020655 
0.0698506947520324 
0.2100293764181609 
-0.5996063559114224 
0.01068246149310464 
0.1630864537119473 
-0.001903478675440886 
0.0050983201313777 
-0.002487177448027299 
-1.109756996068166 
0.03939775446843306 
0.9937311766577781 
-0.04160167273313559 
-0.00770916986868731 
-0.03908921083014177 
-0.0426027691995625 
-0.2315854247665981 
-0.1738907006513148 
0.02296897516180801 
0.1411513756679791 
0.03313892369226864 
-0.2108816212684033 
0.01673433083678168 
-0.004827479848007641 
-0.003572529538237305 
0.4221675672669821 
0.01159528959744592 
0.01839260841301767 
0.1329411305312948 
0.01615049964184385 
0.6326567140669812 
-0.0005063767143085461 
-0.001444169226325293 
0.04098861601362137 
-0.160600951387896 
0.05893441502013794 
0.08772013794343736 
0.02950772566269133 
0.1709588145531125 
0.1037792513210958 
-0.04844736500736856 
0.0479775593624054 
0.2019342368098509 
0.01717730247550064 
-0.0002509067997151444 
1.289912576415802 
-0.01434870918703888 
-0.07429524870714079 
0.08628920197965256 
0.2010864562557427 
-0.03556502230353924 
0.1266567814880584 
-0.5072287706346234 
0.2657996552067929 
0.1073068375360553 
0.01939600851900217 
-0.08064741506030244 
-0.01014579711859131 
-0.02852131982879053 
0.04048237128012915 
0.01493056488836399 
0.07892895970238255 
0.1948440548250104 
0.1717865639577842 
0.01324039614269695 
-1.565579367873171 
-0.00162930387215718 
-0.3424388057935902 
-0.1436139548092854 
0.07010327974436911 
-0.2310604592726255 
0.003100877708622375 
0.2870758519341874 
-0.02096666065675196 
0.02056812827729209 
-0.07466945218072263 
0.003015739500083054 
-0.03021026995753931 
-0.5983925576615531 
-0.002200581495528866 
-0.2737834566750181 
-0.005028452373686527 
-0.3171904637189605 
-0.07672415549639491 
-0.06760464093880429 
-0.06569148410635167 
-0.006073047796406843 
-0.01458220084361167 
-0.2351618419513527 
-0.3086565730478308 
-0.2245653117331545 
-0.4935378815694496 
-0.3415557498977651 
-0.3087220283972402 
-0.3078796894903297 
0.002588427209923678 
-0.1031658532741794 
-0.02594205908736189 
-0.002402032292859496 
0.02075249037002159 
-0.4288749423035855 
0.001994853129943699 
0.007768877666272744 
-0.01168305572629644 
0.006197609096321805 
-0.1684769491166221 
0.02223251600672317 
0.01638156712937501 
-0.01458220084361167 
-0.02887861250604918 
-0.1522772246899182 
-0.1345107879183314 
-0.1780285123940965 
-0.07275411011396224 
-0.02098774870927221 
0.255213169944583 
0.4149131186144722 
0.05294817738660126 
0.001145324671621017 
0.001158092213825306 
0.196025041413111 
0.0002502052881830633 
0.3998827371747198 
0.04834430724786702 
-0.01694735413133233 
-0.01156672048244577 
-0.01416494075653656 
-0.04163713497275349 
-0.1751916235737644 
-0.04212400871771165 
-0.002696682889714937 
-0.005136816422132024 
-0.004928036321948342 
-0.2698047938917276 
-0.11380865258851 
-0.006916135958590534 
0.03457158803749239 
-0.04835555710944541 
-0.003618949031785748 
-0.04950930966356113 
-0.005749088640580613 
0.08297559330422116 
-0.01747326770438622 
-0.1136905958019057 
-0.0297952219976113 
0.02962884325465518 
0.07477258335182248 
-0.03308990653023898 
-0.3975051377241604 
0.2784730267496354 
0.1731093069691486 
-0.2224146149896922 
0.002389592344305148 
0.001509287889599908 
0.1172792597973429 
0.4045221908200606 
0.3183261609441998 
0.02949221569718506 
-0.03557253116808357 
-0.08026260320224234 
0.008723084946992121 
-0.02540666163660569 
0.3200082608696352 
0.09414768827503003 
-0.2154471463523351 
0.005809100184120272 
0.4416502752596958 
-0.01470690022441554 
0.02707127285581715 
0.3296093711274634 
-0.06463933464130495 
0.1869834512736436 
-0.1229218497897399 
0.01206633693735619 
0.01300529115570215 
0.6859346080439857 
0.1047231396334803 
-0.002071238588369647 
-0.004148483234424307 
0.1093625921345757 
-0.05587334783843447 
-0.03088787312565471 
0.2128112197485779 
-0.09799034573043815 
-0.08106530420218132 
-0.06052940162647837 
0.01540782476129669 
-0.005373609394018588 
-0.3479567034492644 
-0.06822945204576401 
-0.1126562272171302 
-0.03012218323883692 
0.09546674685791363 
0.07283136714279104 
0.0167529307657208 
0.02818207984010478 
0.114677577092813 
-0.8957700156550299 
0.06539233449408335 
0.004579986290475651 
8.747331573417679e-005 
-0.0349770263959774 
-0.3767495643394015 
-0.1771044809944862 
0.0180028908047212 
-0.09471743090169051 
-0.4262934502655502 
-0.01839692213569857 
-0.05153301748628211 
-0.1344301147869003 
-0.08158433456693051 
-0.0616495823590553 
-0.03676730275314403 
-0.009096983537947303 
-0.02625953883668555 
-0.007362537410000272 
-0.04073012506852726 
-0.003448569238815433 
-0.02676107741407514 
-0.003945837274546799 
-0.04978727174934895 
-0.1821432486847296 
-0.02137163551397204 
-0.07513442485490295 
-0.01458220084361167 
0.04670286633071515 
0.03292867683656461 
0.04335248675543865 
0.01093246754203622 
-0.5695242942600965 
0.1138827968710565 
-0.2481017236156745 
-0.02573347405095241 
0.02505990711836441 
-0.01279841508999909 
0.693900407526508 
0.03169499742279763 
-0.00632299084139708 
0.08357181298698432 
0.002105396836815343 
0.1123532664189068 
0.000121312518529732 
0.2432462634522918 
0.1080213400814773 
-0.003307405888958402 
-0.004144502671575238 
0.0180802751110428 
0.2383485914935355 
0.1907143437485925 
0.00946433118527993 
0.07482718383381171 
0.01110165860283993 
0.1142428335947547 
-0.6668500373872343 
0.3424456860789632 
0.01143178314165731 
1.166734861757782 
0.2363290814627995 
0.4937914478526443 
0.3772503327845742 
0.6365518958403119 
-0.6763204529504269 
-0.02393769909360292 
-0.02623913254777514 
-0.02637425564962259 
-0.007260939030937231 
-0.1525573805410391 
-0.3259504980119241 
0.1121527463432845 
-0.0007997655061549281 
-0.0510482149253237 
-0.3540670149467139 
-0.0007997655061549281 
0.003197896084631314 
0.05339683938667357 
-0.3835331240501359 
-0.03213305461558789 
-0.02352925114586195 
0.4294720585047279 
0.05870880925142968 
0.002193664930355083 
-0.02126873763619978 
0.03422526491964761 
-0.6300474346284293 
-0.03827587400102581 
-0.006826565512098748 
-0.08773428267264008 
-0.09391376422776308 
-0.004928279003263009 
-0.004419853069286463 
0.1182054342160105 
-0.005478137711652752 
-0.00135952445854733 
-0.005155985730083437 
0.1063759962557732 
-0.3043474710270713 
-0.07472429097997836 
-0.01322919395143628 
-0.04762193507144084 
0.1201883083897247 
-0.0727577286119007 
-0.01175208443001062 
-0.06768743874737157 
-0.03455711423915966 
0.2759675287205676 
-0.07405560349402492 
-0.01917420159778135 
-0.002495847811026249 
-0.3740668086111468 
-0.01307332346704565 
0.5515475327703813 
0.011729376149573 
-0.2629750403109972 
0.0110006110889893 
-0.03686414537545897 
-0.02698988569150033 
-0.1134884831542316 
0.3929971323229651 
0.03795448742033029 
-0.01654501422079686 
-0.0004746059682258884 
-0.04377222899699301 
-0.02593170566459067 
0.4095647769432832 
-0.1266094023454008 
-0.003052070020379992 
0.4563851987414191 
-0.02880665312254262 
-0.06489326344397273 
0.06569371268080503 
0.06120228347902752 
-0.1038975115389984 
-0.08984410213050149 
-0.04900499255585659 
-0.0248869836181917 
0.0973765285568213 
-0.001312781676978764 
-0.03932548982346116 
-0.004232722980253971 
-0.005949067137010287 
-0.1850945181272383 
0.08744123670360239 
-0.002639739873876785 
-0.02782732157967907 
0.01352729234407534 
1.119923034954594 
0.1565647417107531 
-0.06538595858783708 
0.2097533913352417 
0.190029701328446 
-0.03213326957652395 
-0.1000058346716568 
-0.5065660589126566 
-0.0431578461315735 
-0.2562683742757266 
0.06548892810758872 
0.3678652882712792 
-0.3437147219441313 
0.7403441620706576 
0.06996218169273234 
0.06377012795920745 
-0.002147654655540524 
-0.03254752684008426 
-0.005988642075380295 
0.2647640646559569 
-0.4476938970121322 
0.01283635862768934 
-0.07818053365663191 
-0.0003035757924558053 
0.2272776776407627 
0.4112930219885111 
-0.08175892284429151 
-0.01185010975862459 
-0.009229527711171779 
0.08432220798638448 
0.2216756922958753 
0.5856525018572247 
0.0842046453196366 
0.06293648381961836 
-0.2611986126517352 
-0.162738002265632 
-0.1028018133400349 
-0.01650014703868005 
0.623240721553982 
1.295846162091675 
0.7596083002543477 
-0.001342749789602523 
-0.03495384561232419 
-0.1349791477824261 
0.08264208836998374 
-0.008296498628506224 
-0.06971443343704911 
-0.08115246729636012 
-0.006292701986038731 
-0.1990090219935196 
-0.3309033708612696 
-0.04251561976840083 
-0.06766646738609614 
-0.01133171965896821 
-0.07595700135019015 
-0.00438036522886308 
0.01704872412484769 
0.07040448831083571 
-0.003645953633654882 
-0.5773346224763966 
0.3153006522309272 
-0.08666308799145485 
-0.07120424179562288 
-1.163850639919697 
0.1574985492736243 
-0.01359001098936838 
-0.0148528077723469 
0.0946630334360099 
-0.08101051425480564 
-0.05104793979837841 
-0.03554520015241409 
0.1976120141826587 
-1.262452638552888 
-0.009576469232977057 
0.661429298357158 
0.4162360265773606 
0.01920342753286779 
0.3761858722067417 
0.362826758499346 
-0.04661302992876354 
0.04451936231347447 
-0.02711373573097883 
-0.8160365402635657 
-0.4857139704957671 
0.01716176346499115 
-0.08482038898549049 
-0.07132550768776295 
-0.0413232445270644 
-0.07449266445959389 
-0.02815148082257984 
-0.4281095728314759 
-0.001142146125921111 
-0.29643878350961 
-0.4338537777090892 
-0.4162429813501503 
-0.009172447269280808 
-0.004823154856011308 
-0.2556369379788622 
-0.3498245107123168 
-0.001238094966304212 
-0.02282629021400746 
-0.0007796660436628657 
0.01549152209975445 
0.04378714269205634 
0.05930939205931554 
0.05308137122930908 
-0.04273478513425848 
-0.09881299142310715 
-0.6287802377062638 
-0.4571249115045789 
-0.07848723916446054 
-0.0490089251626849 
-0.07318898524914697 
-0.01026461543090002 
-0.4872098303923239 
-0.01650115804735082 
-0.3651745748880731 
-0.004123595886082299 
-0.01507673515131945 
-0.2104877668567591 
-0.005609221667954882 
-0.1368839653251215 
0.3617991672341963 
0.0510555621426425 
0.07790853855287247 
-0.1253590220991637 
-0.03361943627751567 
-0.158532474988177 
-0.07202927349697286 
-0.01160471945903288 
-0.2445757047173723 
-0.2481644882883785 
-0.0005786871303534212 
-0.008743796321814984 
0.03626349770828313 
-0.006954425695095642 
0.1162020460454842 
0.05894888428659359 
0.7719714922896632 
1.146681765284718 
0.2631615579854507 
0.8195767389248666 
0.6330495120740436 
0.192441597905418 
0.7084944763715343 
0.1691773356609948 
-0.2740985161040581 
-0.004305200338178552 
-0.1411915419657732 
-0.07131267178919315 
-0.04160084669153101 
-0.1524587420765815 
-0.04743389948174313 
-0.2788039122807225 
0.001495905771422508 
-0.3583743356531375 
-0.08386047922293098 
0.02706741333545468 
-0.01070186356022964 
-0.1857040316318773 
-0.01174809843707968 
-0.01424613789414355 
0.005568243437562216 
-0.3600468049698007 
-0.01047140340070279 
-0.2433388107608984 
-0.05972422438841767 
-0.08699165576742603 
-0.1971404092343614 
-0.002122309983384006 
-0.008601590521510157 
-0.02435804806571167 
-0.008325712039357289 
0.07745596948918244 
-0.00233220884550042 
1.520109211768768 
0.1426938154985185 
0.5245723314392867 
-0.01036159600028299 
-0.1378761696341976 
-0.01312613920162811 
-0.01454744005576914 
-0.002107113181772281 
-0.02712509086604672 
-0.1173214180428467 
-0.01295612838077476 
0.02382198906463989 
0.5285051218096016 
0.1640512620394099 
0.2352424951547335 
0.05009778579092809 
-0.1149296591679448 
-0.003817120945666691 
-0.03416566236983819 
-0.0004835601596633515 
-0.06379990200469596 
-0.004795551586648839 
-0.001197431853387136 
0.01620687425308959 
0.2746975006371163 
-0.3252511032995193 
-0.7072920686641457 
-0.01225871763524596 
-0.002187226245200893 
0.1950635658972532 
-0.5712418946269857 
0.6044061246351806 
0.4853690854484572 
-0.1492002207624525 
-0.1211098764904898 
