solver_type L2R_LR_DUAL
nr_class 2
label 1 2
nr_feature 4032
bias -1
w
0.1958760197438338 
-0.04283181220393317 
-0.08773130770831354 
-0.1741485169066449 
-0.1672560480822363 
-0.1118110697960661 
-0.3902995699610052 
-0.4359457680314599 
0.1535387607407444 
-0.4023214304232692 
-0.01242047444113533 
-0.02159475281639165 
-0.0013888590539221 
-0.01198961567891379 
-0.00818346991217918 
-0.00256559727975959 
0.01946169617972914 
0.001692902981215389 
-0.1585055757508894 
-0.005441826143690308 
-0.01756173196601552 
-0.01752148213495972 
-0.003687414002511978 
-0.0006072346269137268 
-0.01227333535861339 
-0.002255567577369365 
-0.002686642300869655 
-0.07031569772851642 
-0.004714100702517135 
-0.2073647182398191 
-0.003131894902605191 
0.1897217421195627 
-0.0007868372060430542 
-0.00145053802681708 
-0.004940533521945763 
0.3799332944029351 
-0.116548492838743 
-0.0006983295280640588 
-0.0005433328465425697 
0.001203511430904406 
-0.006706750465181189 
-0.002870101939761858 
-0.007723695696570994 
-0.01635268563540845 
-0.009489116167198546 
-0.001246836609172989 
0.2175491840255214 
0.1298386468881936 
-0.1645543549115524 
0.003623960521418071 
-0.00906254338123629 
-0.002491087997196545 
-0.1231563582943352 
-0.05970436340405177 
-0.02083877017908414 
-0.1633240650572992 
-0.0396976882524914 
-0.01097051427820408 
0.006171861610674726 
-0.003950886657189871 
-0.00700039099460816 
-0.0009990411028392727 
-0.008114332385159262 
-0.2750122334199021 
0.02251970717991599 
-0.0004879163820430601 
-0.3810150148525274 
-0.006909905819829434 
-0.003750105784463037 
0.05020424306069945 
-0.03739904489124474 
-0.0009888540409140859 
-0.003186105816880915 
-0.1524129530755395 
-0.001173628079969548 
-0.03163751146402809 
-0.001349992052843966 
-0.006940962321831687 
-0.004303077616486978 
-0.01790868483530089 
-0.004958134612834368 
-0.03928990763983807 
-0.009381345465760308 
-0.0005413934739813142 
0.04285623973468788 
0.02049871981401908 
-0.001470285834142401 
-0.4061660960797722 
-0.01075349885374615 
-0.1875229250777926 
-0.004799064826961778 
0.07764369106029234 
-0.07099421454892116 
-0.0008407089358331921 
-0.1015875489514306 
-0.007242545597318851 
-0.001340570556637769 
-0.001760780830967791 
0.1251657292088934 
-0.01097051427820408 
-0.001155071546797047 
-0.01448498343630801 
-0.3435954045584798 
0.0460413545681666 
0.0008793760524506638 
-0.001602930432657637 
-0.472298993243228 
-0.07506413348567298 
0.3622760355001343 
-0.04893807489250851 
0.003967776194513823 
-0.003886064497709709 
0.02343902903150449 
0.1147658261325616 
-0.2521833973265254 
-0.1573990030182353 
-0.2960981934048293 
-0.4122336843813513 
-0.01379116412934473 
-0.0254090372399271 
-0.01550056857113478 
-0.1008966774968674 
-0.02526174051058449 
-0.01277157046770517 
-0.01097051427820408 
-0.03741716891896808 
0.3246568527738003 
-0.0006752559196544691 
0.4741841163320154 
-0.04751036676528107 
0.2406482314557242 
-0.2315343032774561 
-0.1895241942668312 
-0.0210684114027828 
0.008924884219884924 
-0.004505575855130214 
0.05342017248028174 
0.5872734077630839 
-0.2529081794534425 
-0.005557540563442584 
-0.006632551584880912 
-0.009760834500724985 
0.276060044674241 
-0.5386597566661689 
-0.006181439324002542 
-0.1553870332382163 
-0.06451070265414954 
-0.02484401599855697 
-0.0006752559196544691 
0.05620438542807383 
-0.4312547459968277 
0.1460267091679183 
-0.1825395746369425 
-0.01980061423812649 
-0.08277418760888343 
0.1085526475427769 
-0.01681819628102597 
-0.0006072346269137268 
-0.01097051427820408 
-0.02154385280702929 
-0.06360641012100116 
-0.01681819628102597 
0.315823753769552 
0.147375789894317 
-0.04425870814594726 
0.04886375360934971 
-0.01144466936646258 
-0.5485257595932996 
-0.001620088943008956 
-0.2736627278588337 
-0.0210684114027828 
-0.1218868662031211 
-0.05811297280919243 
-0.03177238288380394 
-0.00798811148648873 
-0.007311672950251812 
-0.008824470791500873 
-0.02358117213514003 
-0.004212645975236417 
-0.06364641714052602 
-0.07831454324242225 
-0.002100348307428441 
-0.155339083899604 
-0.09117979472626761 
-0.5372933372977664 
-0.5161784049840333 
-0.1316286923073686 
-0.1672393256483333 
-0.2892960514950086 
-0.23912558619948 
-0.005557540563442584 
-0.0950784700099378 
0.01325449917491832 
-0.07964265378944706 
-0.0222402054366008 
0.2274999264953583 
-0.1361390443367956 
0.1277200603903318 
0.2625418921433679 
-0.03713906526986404 
-0.9412148294488343 
0.2524007723726228 
-0.04200187342822136 
0.2209342582587263 
-0.1106752988085842 
-0.006854020827786174 
-0.00812771648707558 
0.2043212496010002 
-0.01735787056982963 
0.2611218715065878 
0.2370417963250375 
-0.061135592916997 
-0.0210684114027828 
-0.302864126329248 
-0.2585056461490108 
-0.1078912502332437 
-0.1846949291253258 
-0.192605810647716 
-0.8324638262273397 
-0.1319168980831951 
-0.5272331702355206 
-0.341520474632084 
-0.0003613510539245689 
0.0003447578020749705 
-0.003131894902605191 
-0.04468905031653415 
-0.01498924271706469 
-0.03791877757430819 
0.8061690509022694 
0.4159112323091423 
-0.358999561778742 
0.258691901109204 
0.3063564295124454 
-0.2107868441305694 
-0.0210684114027828 
-0.03080208196264473 
-0.05315201185912004 
-0.8648103368688453 
-0.03752302680056401 
0.3910175291641531 
-0.08955461975718124 
-0.1072317035004345 
0.1528403698531628 
-0.7264822391417866 
-0.7029650169607985 
-0.0129234855165327 
-0.2247698336805142 
0.1351389676360906 
0.5878750564371809 
-0.02801723126753207 
-0.02837733106628014 
0.1063378893389995 
0.02650824984679395 
0.09772536400356728 
-0.3733631046949678 
-0.001994329762434808 
-0.04748316102447422 
-0.1244556767453465 
0.04951081908713554 
0.6619008159869486 
0.3139297340035039 
-0.1074344739522323 
0.0561477334800807 
0.1284923048422354 
0.09780671785730009 
0.06799665189028935 
-0.05492166059272667 
-0.1821837201114853 
0.008129796761946431 
0.0275216284780866 
0.2555192500506571 
0.006389399064837461 
-0.06982805599224165 
-0.2496102356893044 
-0.01509744876156041 
-0.1206914229584599 
0.1396930128472058 
0.3079498737627701 
0.3355568951830197 
-0.4867726101615313 
0.01242364710128942 
-0.1406783069829858 
-0.03041515249776068 
0.00733392469833948 
-0.02687769435368578 
0.1118759145186379 
0.004508166404260112 
-0.1013829858185945 
-0.002814115379640459 
-0.05539857048215964 
0.0002474649747143852 
-0.01211753842022112 
-0.06955054922451404 
-0.03672246778540173 
-0.0104348942812064 
-0.4231541921985372 
-0.2674587653190748 
-1.544112371032986 
-0.1931044813622258 
-1.28786622053066 
-0.05754600667499193 
-0.2374270714561568 
-0.0109546891186011 
0.1806826968425193 
-0.01530471382166108 
-0.1243917060027092 
-0.04554404182606697 
0.1298883064654438 
-0.01306653718703242 
0.06170311761345947 
-0.3599511482554481 
-0.08929047551427352 
-0.0374315256894042 
-0.3612456443557043 
-0.1152920367043194 
-0.0482562222256503 
0.02528985972135972 
0.4472789992089042 
-0.01603040639020285 
0.4047608286638518 
-0.03981921906653525 
-0.006872808859081887 
-0.4656377908823202 
0.3042096837534151 
0.09359983140851964 
-0.1015731206210518 
-0.4698276502347478 
0.09811564842186837 
0.4683301833388658 
0.1351166347305586 
-0.2486166828809568 
-0.2255828846000303 
-0.05815573770411136 
0.1202492169247016 
-0.3624851858941362 
-0.09181386269097167 
0.0432511835295863 
0.08253881690477824 
0.4121091472220308 
-0.1520637895885719 
-0.3020526337920946 
0.175575400317481 
-0.0003212476501412309 
-0.0088523287599085 
0.0471412105900849 
-0.05022150904220877 
-0.004022422554719211 
-0.2843370085611218 
0.3661729854692578 
0.2041958078794431 
-0.02177818528354137 
0.149558540675698 
1.297759494786916 
0.07807082828555026 
0.01625229213614512 
-0.01979205537574272 
0.7242073110843609 
-0.0426172694232208 
-0.1098316294913814 
0.08319210407249458 
-0.7541184905881291 
-0.4621360105928812 
0.06124858208548979 
1.041323298203308 
0.1795449714127792 
-0.002761749414069201 
-0.1410484324802658 
0.9034550075118857 
0.1204862568478043 
0.04977291746968388 
0.216199179109046 
0.06795232383883622 
0.1781063797331748 
-0.02489984586150191 
-0.02952522807579118 
0.2691033345924947 
0.02767725131947397 
-0.2774016704022393 
1.33891345055215 
0.101306055404236 
0.8569092003395743 
0.09977868812458215 
-0.01181552503731713 
0.09937832042972647 
-0.3982380400806035 
0.201077068793868 
0.1858146714910987 
0.0009636257571219258 
-0.547016541970115 
0.03977691724964882 
0.6280258575657879 
0.1344863350006686 
0.2256407828058656 
0.5593548963070691 
0.1568854882955142 
0.1305513533772161 
0.0179454400316727 
0.7494767570771626 
0.2517553927676955 
-0.1026752324731425 
0.003387792245432975 
1.313729601198399 
0.02575873873070294 
0.3606928141669512 
-0.1027005770993774 
0.9189435874455508 
0.9463309915365007 
0.4294728763336871 
0.01184411608337848 
0.05368795062106038 
0.06933751065508981 
0.01751072380795983 
-0.06803356518712686 
0.03300628911178263 
0.3178018222949646 
0.3617164712461169 
0.003471156050322049 
0.05345953997014568 
-2.679070086022748 
-0.03832804335269381 
0.962154510736607 
0.08158607823038257 
0.1058320798433425 
1.199470825764829 
0.4269759312942488 
-0.006440807185138784 
-0.03437887623175212 
-0.009073626679608468 
-0.08862833979458122 
-0.04972855438159406 
0.3267338580671416 
-0.1504342915225021 
-0.02777953734771119 
0.080364436166591 
0.4165623698862155 
0.1222790388267038 
-0.001620088943008956 
-0.3046106317234305 
-0.09644481925657485 
-0.08264929766943843 
-0.005972631442380037 
-0.007116257298877543 
-0.006371786626618006 
-0.03073628251666228 
-0.02660114327745494 
0.2797353775605735 
0.01600353915165268 
-0.0168712577922748 
0.0004959322606938996 
0.3301461293310836 
-0.224213198198146 
0.07062039280117603 
-0.01304926720812891 
-0.02249514662210414 
-0.347610160324648 
0.003536893370636203 
0.8529549625567966 
0.4825267963815562 
0.006655514420240958 
0.004954599135070781 
-0.3238363545534855 
-0.05589504487307921 
0.1073131876641628 
0.06212675971846895 
0.5660475204439647 
0.04215621993117541 
0.0372296645025531 
-0.4150202402200898 
-0.009992038519424734 
-0.156866179893598 
-0.008693025666414712 
-0.001484524321786522 
-0.02154057876872 
0.152497669411568 
1.155996751755077 
-0.01745959433467085 
0.0001111013287479789 
-0.01097051427820408 
0.01555915436779249 
0.05023024016044349 
0.3782361060577011 
-0.5067239756170836 
0.01746342438518722 
-0.02578279142606998 
-0.08512360901224463 
-0.1443187799905361 
0.0212617667290866 
-0.01088718825334201 
-0.009576202153689279 
0.1094702531779511 
-0.3533365181262974 
-0.003644448854610863 
0.1239922967083487 
-0.001530796013685461 
-0.2636718325787638 
-0.003814928247287895 
-0.05013439223666558 
-0.3679548963743791 
-0.02464632610269379 
0.1307343169511194 
-0.05474866639517337 
-0.09589699096023252 
0.001489349962549612 
0.0008263466567281588 
-0.1461688852990342 
0.1964184755508089 
0.6206098095237488 
-0.2170489183320149 
0.1201565724331389 
-0.03791877757430819 
0.3198014867364881 
0.2057873054414356 
-0.1494712357598818 
0.006197410712735127 
0.0207622162489923 
0.2514741370543663 
0.2328319811881386 
-0.01930099618099406 
0.141302891584929 
0.001420850445282919 
-0.5071576283771568 
-0.015323851800196 
-0.0480587195541489 
-0.00341958052531344 
0.04133690156718621 
0.2546899260362849 
0.1112011324349764 
-0.1125263851432665 
0.306108258443511 
-0.5589385262789994 
0.006920977023989296 
0.06270985787161865 
-0.009280039488434172 
-0.1119669237466606 
-0.008169155800710199 
-0.209142491882443 
0.179695756045744 
-0.002590672704632007 
0.06170311761345947 
-0.01677331626343457 
-0.1588453254756897 
0.7333138022761602 
0.06170311761345947 
0.0396865117314236 
0.004982505868203744 
-0.017284565167131 
-0.02245158423657201 
0.02066447338781385 
0.001077408125015063 
0.07437879024494644 
-0.03585038736065527 
0.2276065788303581 
-0.01561637984105742 
-0.02644191005832887 
-0.1765334613591973 
-0.06757993123335943 
-0.007039058198883184 
-0.2016569053063277 
-0.001230571097793664 
-0.002295746260104466 
-0.4815005114274383 
0.2956795389647973 
0.03245397740695025 
0.002211626414409043 
-0.1572716217627834 
0.02263013380886841 
-0.03933191943833884 
0.01419091333683988 
-0.006230429778291477 
0.2096370106675942 
0.1209629897994113 
-0.1041091284319491 
0.5790735128534922 
0.6527894643762729 
0.03196114333404877 
0.0005743908258963374 
-0.1616338986755558 
-0.3316910712780357 
-0.01796642396193819 
0.3434855445098841 
-0.07510942555765057 
0.1305175712142813 
-0.9557392335521489 
0.08132369813415019 
0.4465826822795505 
-0.1924112099571822 
0.3472253381228134 
-0.02614950297200654 
0.0423721658589406 
0.1101922146907657 
-0.2085850247671279 
-0.3855283560670138 
-0.01053180089748804 
0.006802988055374843 
-0.6567167710548539 
0.4514450066378009 
0.4743864605121577 
0.02021337327608478 
-0.234708596768566 
0.03437889951311805 
0.2693165053956042 
-0.003065562774485934 
-0.2649183147231878 
-0.03068475618855941 
0.6940221104333095 
0.3366099163820119 
-0.0878688432570619 
0.6805434994769068 
-0.3092007400924171 
-0.06206469629339675 
-0.8161830405640638 
-0.1464805298520144 
1.1385774519739 
-0.03396299890819365 
-0.01476338569172332 
0.3393746506583676 
-0.007683240352924863 
0.2545284627618213 
-0.00012498477739274 
-0.04829774169381405 
-0.07890845171475108 
-0.03521679238174963 
0.03112278631332546 
-0.2290955764968189 
-0.00470461115615588 
-0.04122510411018067 
-0.1887736908655167 
-0.2356801805506034 
-0.4269508570993558 
-0.08157286964996 
0.03795987371993338 
-0.07953900302542687 
-0.04940553764207828 
-0.006841883102257865 
-0.06562315359333877 
-0.2124873970785632 
0.3487715817800428 
0.7477667203116378 
0.004871158790349845 
0.1423068013123532 
0.3631291880164863 
0.8783996203691308 
-0.01632394185099692 
-0.07359235920044302 
-0.07173881657440742 
0.1288436597618341 
-0.02330855039575851 
0.3642027100242812 
-0.04945364747882598 
0.1312769560436694 
-0.01199906506323921 
-0.03421903022912713 
0.2933387028205766 
-0.05740497169124328 
0.4687546610971872 
0.1264765365597569 
-0.01866709559988709 
0.233383183525567 
-0.4868093526927296 
0.2880241757325124 
-0.2400388548684507 
0.2645433429086577 
0.0004187899081100915 
0.2767403256632076 
-0.07401993775494768 
-0.01360759503274945 
-0.1188220405418436 
-0.01919871626180686 
-0.02214832953712775 
-0.02347085769927516 
-0.007800938550766991 
-0.08428583834585916 
-0.4105239885348139 
-0.06311964226722168 
-0.03320486127378516 
0.6914743927318455 
0.5505003894744123 
0.4188977128815352 
0.04757057506998315 
0.0004095072060088405 
-0.01798851037952364 
-0.2021706401762889 
-0.2795168638926709 
-0.02290396231422463 
-0.05773105518203589 
-0.004507975972037902 
-0.1671264391519333 
-0.1665488351205038 
-0.03345226890266799 
0.1136519112288066 
-0.1888845290723561 
-0.9879318167104877 
-0.08832932763680736 
-0.03088371697418255 
-0.02529796433524613 
-0.007621529279312449 
-0.02188682312192164 
-0.06655878444882268 
-0.004114049488379476 
-0.3082875774643062 
0.1231319183350886 
0.009804120722516201 
-0.06416324159644382 
-0.03593019257908487 
-0.1319764375778756 
0.04035368364314697 
-0.1006803996790587 
-0.07780595571707404 
0.0002349546096106177 
0.160768848652723 
0.2110983773986777 
1.026045625421083 
-0.1714870062509585 
0.3817141209782149 
2.469633848292275 
0.3803886951023944 
0.0005455367026427333 
0.1239840755300945 
0.001945267350106125 
0.008217902375434464 
0.7690614010767536 
0.2861560994777857 
0.007859425591213441 
0.2371963242297383 
0.5792784995666158 
0.4227146819624059 
0.07239431404981297 
0.1670364999866641 
0.0192711420126047 
-0.06221503061033844 
0.6349205170066594 
-0.00540097939479271 
0.05688508103504914 
-0.08953786814930907 
0.01948879801074169 
0.1840609988244527 
0.08171529988110828 
-0.004016892072109123 
-0.04005317470471317 
-0.2280475246457621 
-0.06995548646482473 
-0.1382898504194969 
-0.03131062401169021 
0.1628599447966367 
0.01114419637393385 
0.08531190346181344 
-1.415668954278576 
0.8933175171506274 
0.005643384753056835 
0.07915066648748954 
0.3382351896075542 
0.0540313825774132 
-0.02611225232763553 
0.1126923581955686 
-0.4219993372130345 
-0.04965986623531676 
0.1156463889475939 
0.02013305779396236 
0.1829727408450804 
0.002165245906634168 
0.01072937326369933 
-0.01291302417107939 
0.05148163750970351 
0.0364068128926086 
-0.1714869406633063 
0.6964748000354945 
1.044071203561098 
0.03997683755194684 
0.2935562693814725 
-0.7786873330207748 
-0.09111461042584142 
-0.0891422874406166 
0.07035494810321731 
0.05155674545151811 
0.4750918052229632 
-0.01723378446007197 
0.1962461311461623 
0.04625626910567156 
0.1540719986337736 
-0.2594879239807192 
-0.04363120285957391 
-0.04564311884256485 
-0.02234299450994758 
-0.07677962680863752 
-0.05198684404569364 
-0.007955060951000577 
-0.0219302231570566 
-0.1134238899268895 
0.05040312975361781 
0.04517265484124151 
0.09978674041448102 
0.1293230286403344 
0.008223316284859413 
-0.9223800015971893 
0.2283162527297713 
0.009060966559997498 
0.09219598155729188 
0.01644077594423232 
-0.003318767432020365 
0.1200178538757934 
0.1539230951472423 
0.008621144909066505 
0.07291406669942324 
-0.01346479770518243 
0.03115312729099404 
0.001758362932757194 
0.03704387387532438 
0.03097661801980092 
-0.03742071803592038 
0.1065667861380912 
0.1191834544156555 
0.01448728630871424 
0.01524757587937699 
0.09903071378535296 
-0.00490072469184319 
-0.01273551190141588 
-0.02246820695099309 
-0.0007872541804598884 
-0.2697241678754141 
0.06539014089792866 
0.04771523812815329 
0.04010927957636759 
0.5008522718041799 
-0.2633293350605106 
-0.1761569545274772 
0.2602014480362442 
-0.0801947102250232 
0.08713238322332523 
-0.3252671223852597 
0.05808114270033918 
-0.219636470318754 
-0.08539362613068506 
-0.07955553082910503 
-0.03175282835011874 
-0.2584170300520358 
-0.089025824193413 
1.749204047194724 
0.2543317738422762 
0.2185096079591485 
-0.2184523244861553 
0.1526473125169616 
0.03883178560818743 
0.3363204026820759 
0.009613380514220372 
-0.006836703265975381 
-0.2641395698070304 
-0.3213563837307281 
-0.01068654591171223 
0.03066912234769961 
0.2791601574304081 
0.3554277752195713 
0.4001574895362335 
0.2680866912957335 
0.04684018171311987 
0.0533283260276968 
-0.2177008029329668 
0.0510778427518093 
-0.009092009318201668 
-0.161046768355921 
-0.135160926491859 
-0.03518196196241225 
-0.08443766400960458 
-0.02230686377911078 
-0.1334100563939447 
-0.02399705165587279 
-0.6821990573627933 
-0.296201603963231 
-0.002330651820323606 
-0.1635329315594036 
-0.01110832974619106 
-0.0210684114027828 
0.007868560410987165 
-0.06430043403402974 
0.1358737711920056 
-0.0001649389480545755 
-0.0115813805361384 
-0.004319785161512474 
0.4650677605756893 
0.3224600499624866 
-0.08110625077899883 
-0.2167826183732446 
0.009208754837502881 
0.002540786740015395 
-0.1259167576116878 
-0.04042558022392635 
0.04945995105809423 
-0.3521931681621667 
0.07410296009687846 
0.001021121546215583 
0.03056994870817534 
-0.008939875537585493 
-0.1041186456375475 
-0.07928459424082505 
-0.004625306621167991 
-0.07331072899221797 
-0.00189587520145522 
0.1296385740826103 
0.008289640336885968 
0.000403004002514587 
0.06321875791020765 
0.05125172030138913 
-0.001056479392022387 
0.4237443566077366 
0.02970906375276869 
0.002154441419865497 
0.3857266237758739 
-0.1059716482750576 
0.002284356872144207 
0.1953644541868161 
0.108734624026553 
-0.01432522452581824 
-0.02739943544832194 
0.003485288515174954 
0.06926762880471514 
0.2582752668991769 
0.1967005129362494 
0.6964244584153518 
0.002518841222609887 
-0.4976075884964228 
0.01813444588071507 
0.5155605477410719 
0.2893524333711597 
0.07746602069344227 
0.02624174844052285 
-0.4197656110472749 
0.0710475213346316 
0.003934129808745727 
0.06966904888489703 
0.3761853298606818 
0.009350521832130553 
-0.004267502042554959 
0.01869024355799534 
0.2297449437917301 
-0.07040268400029459 
-0.5666328035844818 
0.7587368703873603 
0.09526039952162725 
-0.06176147262586267 
0.2092491881292093 
-0.01948994615030538 
0.0509742697330082 
-0.0575979862564547 
-0.09891435229648687 
-0.1721683852767634 
0.2567434179710001 
-0.8375843439078499 
0.06536622248118507 
0.1974922281133364 
0.01261228645680849 
0.1318069440942616 
-0.01800769514013337 
-0.2174021526470833 
-1.316122709377532 
-0.03791877757430819 
-0.4755743107889535 
-0.8310303528308327 
-0.09810577699905032 
-0.02172178565912676 
-0.01976500905787128 
-0.3255115282095055 
0.08976348950209057 
-0.5136000435874201 
-0.2067763389110759 
0.005905705851721298 
-0.003286911415035716 
-0.2879361923241091 
-0.02019861315152743 
-0.01381024347270286 
-0.0144554389875876 
-0.008772343267899729 
-0.01030541139843723 
0.01229366629115437 
0.4661427046358955 
-0.01267416350663829 
0.5027762315775031 
0.2374491758471085 
0.1863172847417488 
0.755151555343574 
1.021657778712944 
0.01108883435490006 
0.1445516470670914 
-0.007910095337580352 
0.008466657108425467 
-0.006049714155778764 
0.107810684861333 
0.003576648906836891 
0.006612276996621063 
-0.06326505655058412 
0.07370147670258226 
0.4196817309517281 
0.2013196442569852 
6.991699845202286e-005 
0.05431071501343326 
0.4329911027838374 
0.04898605455107449 
0.02138592517354944 
0.06600800374908319 
0.003581387732043302 
0.318730535694829 
0.06620190009011662 
0.016530853327109 
-0.04049305379506901 
-0.3799306852630768 
0.05856364715887297 
0.09896467349523996 
-0.05002639449674758 
0.0005113710675891333 
-0.2026486806507126 
-0.0009683086992959105 
-0.3606194364993477 
0.00787238658667249 
1.490522987818696 
-0.009153218191069495 
0.03118736562679112 
-0.01604463301892487 
-0.07682467260738372 
-0.03412828380897715 
0.1404499306206862 
0.08678986053963846 
0.1414276951695559 
0.1359363552997216 
0.004900251665038045 
0.7852514517708316 
-0.02034203248542002 
-0.06193310433116292 
0.03305928805859475 
0.08171850669657868 
0.008595483649373462 
-0.02372082649529881 
0.05103920172326478 
0.1985651432327458 
0.2799511235056014 
-0.03627137988396777 
0.1220307776456022 
0.003739348180969205 
-0.2705453041403237 
-0.02673247642535266 
-0.2426396889511172 
-0.07395042040075094 
-0.05794469462647178 
-0.00012498477739274 
-0.1161322455979451 
-0.1131148449737361 
0.3685957617140317 
0.006548240663348413 
-0.1255387962987919 
-0.006415219035901804 
-0.001571831988933628 
0.1938817553872347 
0.003822079437241844 
0.5947689620837622 
-0.04961320180879704 
-0.07406322919742284 
0.3815607904282656 
-0.001729149122491483 
0.4290394930431986 
0.2189806987606907 
0.2857552561750146 
-0.06723177740801779 
0.09322429160138414 
-0.004760426177278935 
-0.01097051427820408 
0.0004081288657798096 
-0.02008273869137424 
-0.0136062734458535 
-0.2073902458120717 
-0.007532089676346441 
0.00153727758682721 
0.3346195370057241 
0.06238075992430855 
0.05191596404691694 
-0.06223429780772374 
0.02022390462220277 
-0.3922131539092986 
-0.04137159454165609 
-0.02354520822824768 
0.0129581981967234 
-0.06055408545593599 
0.03197636101462126 
0.071335958974897 
0.5041870689023043 
-0.05940680528315319 
-0.01028451375706924 
0.2508398193241091 
1.437226680944563 
0.2737454419328751 
0.22627393823701 
0.04032134022442706 
0.06175350491231111 
-0.005872351978662859 
0.004015870554351228 
0.1525783832769329 
0.1828737995903022 
0.000202920893465151 
0.07205114208516168 
0.0008934221094916317 
-0.0344936590549448 
-0.06463346458929643 
-0.02208579027303869 
-0.005535194778404202 
-0.09300457063270065 
-0.2724492719636912 
-0.2996422451681898 
0.7497341195243167 
0.05006098398426029 
0.2473171265764552 
1.350538342089429 
0.0008236086951432454 
0.5962402358547692 
-1.23107385905883 
-0.01505532968181628 
0.3497943279011028 
0.1195267576406789 
0.09638823552333459 
0.5898989018526378 
0.7484461952747807 
-0.05218902483264971 
-0.5663176472745675 
0.01332338743204311 
-0.001544693420257371 
0.06970265742941934 
0.541285138863294 
-0.07165906835922972 
-0.2230020275831489 
-0.01848421096349153 
0.03061298532898272 
-0.04835155198675242 
-0.1178143700337588 
-0.006542632272266284 
-0.02117337331242584 
0.1329408366261251 
0.02025321513928492 
0.5501484827280506 
0.05531888207070008 
0.2278009651392817 
0.1318339581204074 
0.1660557573951523 
-8.901787774871737e-005 
-0.02781800548377076 
-0.0007483951611663453 
0.04312614590953554 
0.03015545810170955 
0.0003993226909047298 
-0.05065706019690568 
0.04438341614499635 
-0.257501625450249 
-0.008078058318036808 
-0.005019189044697375 
-0.003532528179005586 
-0.1550818715373457 
-0.01336625336916198 
0.02057549240788737 
-0.4215756442274289 
-0.04416006627270846 
0.04209859474468054 
0.1374993108110972 
0.06766436793242307 
-0.02852902522756718 
0.2258125906518365 
0.04635239154278639 
1.070937095268929 
0.1374297142111012 
0.1885510428192065 
-0.01169620596151278 
0.2435360145977884 
-0.04571882776292596 
-0.02528844480425737 
-0.02312444687213372 
0.004223000334222863 
1.204018665915779 
-0.2336782413458763 
-0.02358114208537977 
-0.0033455422395851 
-0.1721314545234187 
0.4897750657475586 
0.04966462238422655 
0.01440856028183005 
0.05296815499880266 
0.05205521222189116 
-0.04490842672900373 
0.08955502823494249 
0.1400525595610623 
0.154985743064037 
-0.0277398081262797 
-0.004301279638433471 
-0.03166662753327158 
0.2226177451249909 
0.01103702968294451 
-0.1826991990197331 
0.1005455774423452 
-0.3291829740067054 
0.006608169142686594 
-0.3296956814928639 
-0.002408225673568842 
-0.01396595918213711 
-0.02901936599555003 
0.1953154589993865 
-0.1191926871026856 
0.3914463745767755 
0.108543667393486 
0.2237640410067694 
-0.3462254052419763 
-0.01381468337063093 
-0.05464912940634074 
0.3621486090806156 
-0.02280381254106404 
0.01361713607760502 
-0.005770578925879362 
0.1815387631071901 
-0.03494716311430915 
0.1609590479817417 
-0.07429361907746371 
-0.006867801510990859 
0.08791946857499679 
-0.03866522231006109 
0.0123624359852302 
-0.5851132912571723 
-0.6192430487389548 
-2.499330481572886 
-0.9051484495651816 
0.08216313580941966 
0.3714023576397617 
-0.1558229508859904 
-0.5754823606708415 
-0.1860338134287987 
0.003614707677670083 
0.03397192064943517 
0.06132913791519134 
0.1099508898502805 
0.3798252205204795 
0.3593818545340146 
-0.01211743062776862 
0.8409395222787859 
-0.3480388217329597 
-0.07383749219361868 
0.3886237309343889 
0.7221454064309298 
-0.359220003289364 
0.7383181767719405 
0.2171347810525698 
0.002543662096883735 
0.0007058623005174944 
0.002459433908187355 
0.001924719792222899 
-0.01913917847213433 
-0.009610252780713554 
-0.03995919660572446 
-2.281638364143081 
-0.2699076281529855 
-0.1915436895127445 
-0.003937344075029617 
0.03100407132722135 
0.2011998345682777 
-0.2089385298351855 
-0.1444448239345705 
0.04023876796780306 
-0.513802311359073 
0.00275008910476604 
0.1185272253674764 
-0.02772472738888552 
-0.07560148391848096 
-0.8393597213723535 
0.09323853759721638 
0.01313416844307015 
0.001161493908444834 
0.0538546981179803 
0.05932482590918504 
-0.590478300688447 
-0.004177079157560831 
-0.311254125169438 
0.007409806571608696 
0.1846687630188016 
-0.3455167229356312 
0.5626974945477131 
-0.1518417780059066 
0.2148061484009283 
-0.1058460429824836 
0.006864683497356455 
-0.00597019353519937 
0.2249471763686282 
-0.03586290204155328 
-0.06117611734759219 
-0.0003366518045553064 
-0.1043327483598356 
-0.0863329393378314 
-0.001243657743047995 
-0.02004257564137995 
-0.02779368000726805 
-0.0006001585044875955 
0.1672273564085713 
-0.0001649389480545755 
-0.01065612924068269 
-0.03565192515521277 
-0.03442409318776244 
-0.01512803618555805 
-0.3729004756916647 
-0.4178441255555416 
0.1172157413041012 
-0.4210278855830318 
-0.003668577287778646 
0.001244382627058195 
-0.1184608624251268 
1.398724444813194 
0.2127601350796305 
0.1048586757302399 
1.413093682634262 
0.7681682959945561 
0.1345846493733512 
-0.05726574427658779 
0.1872492656822605 
0.4273546971413906 
-1.090482936438607 
-0.004337983964852038 
-0.5130200822824429 
-0.3220309233912644 
-0.01627728612562535 
0.1982962381022312 
2.102757038478094 
0.2053449218898056 
0.05876350400475884 
0.0161994899978547 
0.03355391072450053 
-0.08789569575810144 
0.09400967432372558 
0.1735745931436959 
-0.1264151787056715 
0.001491444134339254 
-0.04006355623864538 
-0.1911233152886949 
-0.1200681583375431 
-0.1171282333563125 
-0.005526217740011932 
-0.05620227523562184 
-0.08735449084570372 
-0.2735499397732971 
-0.6471226100572163 
0.07470028767582541 
0.1837992617052239 
-0.006189496225435684 
-0.0225618779336517 
0.1449843794823024 
0.05926307910801957 
0.06710012499741128 
-0.05795743149415425 
0.09031349561310892 
-0.1455026912470078 
-0.1052758608724592 
-0.01367366414987279 
0.003297962751688748 
-0.4366568158148047 
-0.03414694088384126 
-0.01203284087257527 
-0.01170625739571555 
0.529019641630215 
-0.2325173385575134 
0.1163941511506344 
0.05767843981056477 
-0.04477149860743469 
0.01838129877193295 
-0.1991825238826832 
-0.02362902876030762 
-0.01738878451839554 
-0.02870762977703041 
-0.01325132837088709 
-0.04276505095336038 
-0.5383104609628984 
-0.1128482611480219 
0.01104492597873818 
-0.005012675465310123 
-0.1600297882670638 
0.002959741651119656 
0.0001053846264797349 
-0.0003596631357449216 
0.02300171426378463 
-0.09168818505817276 
0.0007084111333951558 
0.0009030812211744509 
-0.02750761288420883 
-0.2488570997559269 
-0.03867103984432804 
-0.05425548005068837 
-0.01132011566305873 
-0.1249979760999032 
-0.4719436468658749 
0.01793730515310137 
0.1125907978296048 
0.0002867813678845972 
0.2865913929239807 
-0.02331110175890817 
0.04272289067888072 
-0.0183038800122651 
-0.1134664562598506 
-0.02385712859469144 
-0.001911114967231095 
-0.03791877757430819 
-0.09239233732918191 
-0.02959185886423543 
0.2025266903047487 
0.02563554950133885 
0.1938343710745911 
0.4880853626671985 
-0.120928700653446 
0.4076822836720954 
0.006051356250127355 
-0.007652957931032881 
-0.189070741581565 
-0.595545552489253 
0.2405881083885202 
-0.1469097305989291 
-0.2385762020760138 
0.0008815397879037516 
1.214791431577256 
1.011289711617713 
0.1041160157230983 
0.1325728525718692 
0.07491972041184358 
0.120064715684067 
0.04490265023401045 
0.7197751201682442 
0.08010106551880467 
-0.8459887057110759 
0.3017313630777945 
-0.4079761007139779 
-0.1693732917668097 
1.153867911871553 
0.07073304776873632 
-0.6081700368824664 
-0.235801795469348 
0.3011602955083976 
0.05921364340076165 
0.6513501069003905 
0.1489632964579785 
1.030228938614616 
0.04644314549376766 
0.009184669850096772 
0.01566658195026831 
0.3469124527715096 
-0.03279184014716333 
-0.09680018675946304 
-0.07460754319151176 
-0.006884240385208686 
-0.2349236251542176 
0.06826989543976678 
-0.0202296664844825 
0.06887354497919405 
-0.002542465052902886 
-0.004675459598243528 
-0.1606190979309905 
0.5787335411257698 
0.1084145421054194 
-0.2432603227858078 
-0.007222742490814639 
-0.0176203875291135 
-0.06313683928196702 
-0.0347900200018903 
-0.06725156979837163 
-0.1700191515188954 
-0.1157666781613771 
-0.007364263539428483 
-0.001453083616746546 
0.3397242217866931 
0.3014074004376272 
-1.057418533304297 
0.3820661258419993 
-0.2532063272266847 
0.0004402188322965657 
0.5538946754390444 
-0.07073069060230132 
0.2675912618544711 
-0.03066343585135891 
-0.0006949498378517775 
0.2121327410368272 
-0.4293114841080542 
0.0313179533696927 
0.09916609422176967 
-0.2987950647718735 
-0.8428793066971557 
-0.02400030024698731 
-0.003360101587018179 
-0.5164034043608934 
-0.3534313406226549 
-0.2095128514710924 
-0.1170911272916001 
0.1376944996401157 
-0.2441842698630212 
0.3467027677165916 
-0.5382527062692568 
0.001570696771208454 
-0.01120062564376091 
0.727801776627239 
-0.02071879421333562 
0.04577585714759279 
0.001847277375800044 
-0.5857993848277855 
-0.009463069021837078 
-0.02557017028920297 
-0.01509368025161624 
-0.01047346138283914 
0.1346542683489056 
-0.06512582220116031 
0.144142104143729 
0.3406507637489844 
-0.01226371373523939 
-0.2218012780449793 
-0.3043747977528506 
-0.004092145694835507 
-0.04758790835046306 
-0.1310205672942786 
0.006747181131681646 
0.5876210131641964 
0.1954940379341306 
-0.2040086631628849 
0.04200463121924634 
0.06268603383915083 
-0.3906704785663352 
0.1637679965380111 
-0.0365309062083002 
0.01322374139201235 
-0.5295962553917232 
0.2397906362014196 
0.02696628408723259 
-0.020570046515438 
-0.4124140132886501 
0.06752761923006702 
0.2499387871773858 
0.1631848815334259 
-0.3382011823881824 
-0.6762021302798354 
0.02349286711540815 
-0.6727535205300202 
0.02485350461564896 
0.0009212211703662363 
0.5753065801093931 
0.01713792233623386 
-0.2186691404556731 
-0.009331990009027335 
-0.007277277181382233 
-0.08678935470091058 
-0.03485822236981107 
-0.04185734408364565 
-0.02331720462044347 
-0.046652976435838 
-0.05691607159182881 
-0.1105580667924435 
-0.3377976654963692 
-0.0746039623922751 
-0.09550846095543601 
-0.01454528057390318 
0.1297139320785206 
-0.03705414949214701 
-0.02585430231244897 
-0.01410400865852974 
0.06921477162416781 
0.007577063315726626 
-0.210260917809627 
0.552487416488423 
0.2328089810834784 
0.06691960702084855 
0.3361702052558568 
9.254864653615711e-005 
0.5503329007821737 
-0.03298969586529717 
0.3105272395956658 
0.01159298279749982 
0.3518242727049372 
-0.09351977594889926 
0.4707140561966699 
-0.3431754474625084 
-0.005089649170740322 
-0.1148833479313964 
-0.04766598882275182 
-0.1152721078881706 
-0.1079016431348444 
-0.008134847054278957 
-0.01135448360363367 
-0.3204139067627236 
-0.7991615561476204 
0.00208940076029819 
0.03299748183063449 
0.2781216370370217 
0.003981051401636853 
-0.06338116179417694 
-0.01326340875772305 
0.09538663116942694 
-0.01775407267664104 
-0.05196448223398679 
-0.04816312609994965 
0.2318022943852036 
-0.1492345982104465 
-0.4602159610144149 
-0.03648378098282806 
-0.6276237593776776 
-0.7350781231799788 
-0.02054083617148005 
0.02142767626197936 
-0.02208026731667802 
-0.332978338437642 
-0.0300718808259848 
0.1584758122758642 
-0.1416608340269096 
-0.05745804809092613 
-0.09612394040655009 
-0.02017063208011512 
-0.01439943572567722 
0.3431021481949184 
-0.007316226916038245 
-0.0409707373562825 
-0.07947394180470328 
0.01406129416634554 
0.04966629289922946 
-0.006636478061307736 
0.758752283528468 
0.03440706155334221 
0.2816119691063951 
0.2657232120845693 
0.2188480495446808 
-0.1544935728568777 
-0.2309724062112239 
0.01910791103692592 
1.326895416582794 
0.1460084922776131 
-0.07734596981789724 
-0.009906222899322531 
0.01569328989601586 
0.0002733394966714305 
-0.007502622174482223 
-0.03740245676375367 
-0.1500212604884158 
0.1349441455743925 
0.1961135967344702 
-0.00724024677134665 
0.1052076839181492 
-0.2776387585807886 
-0.1340933536824089 
0.09994842142174146 
0.1954552721604296 
-0.03967811371812073 
-0.3453349587707482 
-0.241557595540405 
-0.01885965284179556 
0.0181101328053074 
-0.008402739566555129 
-0.2305214232404559 
0.0004095072060088405 
0.194313828196266 
0.3467961977525938 
-0.4813657367880754 
-0.08025688218314485 
-0.06528609950297611 
-0.0719839723191647 
-0.2846177798170923 
-0.006153300012243059 
0.1800053586878773 
-0.1704135105231002 
0.00904489116912854 
0.06825406855042202 
0.1411973301508911 
-0.1410974565057525 
-0.04291686037890831 
-0.03710534288861794 
-0.02033429605914476 
-0.07413998588758375 
0.3702896147130997 
-0.009759583245548464 
1.392010312194192 
0.1454762662124421 
4.966059269051205e-005 
-0.02365312177607261 
-0.04593607613031162 
-0.01357477404252079 
-0.3330337227138799 
-0.1745229450180236 
-0.08079230372778036 
-0.5542028053433363 
-0.06132811423463924 
-0.2606390678381302 
-0.002409052495990035 
-0.02672861428967516 
-0.5163990434162138 
-0.04020655113086537 
-0.01482421601127423 
-0.006733645011405318 
-0.06981550722495342 
-0.04247265046695187 
-0.2298538484267981 
0.01149660462520644 
0.1953690501727724 
0.2257217406356444 
-0.1056108353974241 
0.005617811533110238 
-0.02490433366566662 
-0.003316221896220206 
-0.5776717218999258 
0.690803066528055 
-0.4642221350259241 
-0.009801246802803797 
-0.2432354838032971 
0.03011170447347146 
-0.004113377744536228 
-0.0672280170880937 
-0.08399037585436117 
-0.008991691226820975 
0.09217212319574626 
-0.01267211391224933 
-0.3658026562291488 
0.3019522939730565 
-0.7252715950024113 
-0.2367302042656239 
-0.234708596768566 
-0.006279235473257645 
0.3933135358086995 
-0.01688779215114739 
-0.0113053586025149 
-0.02403954843007173 
-0.03791877757430819 
0.04708045712376313 
-0.02359886370277036 
0.225780713994916 
-0.1381572525821094 
-0.0205798068471079 
0.004694307296550287 
-0.1358989911642241 
0.09143790019216341 
0.3983152264466872 
0.1046856347012813 
-0.1897249027664641 
0.01203878891109974 
0.2721448260830824 
0.1829736647335821 
0.03947956906011942 
-0.6141647078953887 
-0.02038945599400021 
0.1372849308198846 
0.452407923404573 
0.5695393345658664 
-0.06482879676271577 
-0.01089430882954989 
0.05258786145785693 
0.625888216071553 
-0.4361568111807289 
-0.008399955593821654 
0.1624151940473302 
-0.004538181206229463 
0.07903057706247155 
-0.01625193781599246 
0.8477240049374499 
0.03568030385018143 
0.1055189489895279 
-0.0146973966980283 
-0.0362127063030951 
-0.03438328234766568 
-0.008380111639313442 
-0.04589754193842387 
-0.3563198519112208 
-0.2172362150540104 
-0.9552512270043982 
-0.003380207336333404 
0.1763015602629453 
-0.213924132798175 
0.0004768280392283277 
-1.540151471533231 
-0.2146190784409476 
0.04765739076275061 
0.0358596327067805 
0.001216471831776096 
0.005117990601122897 
-0.2720920689429218 
0.0007709112946950562 
0.01571444468127343 
-0.001129775388545384 
-0.216000255495103 
0.2030909393237634 
-0.5431789972376848 
0.126096585614746 
-0.04874013881333655 
-0.01901367290409516 
-0.005021090656043791 
-0.01197764308766532 
-0.06726601421799977 
-0.05687077828355298 
-0.1506810996330429 
-0.002824036112031314 
-0.2785269844643312 
0.05084407168363107 
-0.5751385088890682 
-0.01348399680079086 
-0.9047897401675014 
-0.262749124331229 
-0.1941335367293672 
0.2311932240890199 
-0.3614545226081478 
-0.8048703707171488 
0.09991475480271381 
-0.2942173031134865 
-0.05583243710572474 
0.01161852113401358 
-0.006931255727582131 
0.09789606703655306 
-0.02500316590835913 
0.02709988309738777 
-0.002348823862247817 
0.1295388311853812 
0.5991327573622149 
-0.1828136635971891 
-0.00276328020028238 
-0.4660859240711076 
0.2418747506931456 
-0.2591818532593277 
-0.008029781343603505 
-0.1105880849405044 
-0.01201756653539735 
-0.8701330769194283 
0.1168337419139797 
0.3603730043521407 
-0.01882522110266836 
-0.1038731203407351 
-0.017334664686154 
-0.001364366665293599 
-0.2068164377804357 
0.0207362522634153 
-0.01142453104901065 
0.1494368666727873 
-0.009801246802803797 
-0.01607426628387012 
-0.02030411382942191 
-0.0604842521403977 
-0.04683188542647684 
0.2287964338873817 
0.01023056802505913 
0.2416507222811498 
-0.1384251050640668 
0.9255347823619112 
-0.1632301441955664 
0.4829725638239925 
-0.002961036815724203 
-0.3070394848428575 
0.03761605049435713 
0.7725510585561451 
0.01198437190073423 
0.3418401272970751 
0.0150932634341904 
0.09495212390313071 
-0.1722621551722025 
-0.01392848883586063 
0.0177086253641531 
-0.679994590645236 
-0.4840848883675848 
-0.1818106792245222 
0.06980837173137283 
-0.0670185688010934 
0.06833348070341909 
-0.01706936972908375 
-0.000192851349516857 
-0.03791877757430819 
0.1052335072481857 
0.7681698974663384 
0.02315230936986118 
-0.03913217504471547 
0.1926634837544742 
0.9692938957945524 
0.08162352762018388 
0.3601327471676508 
0.03197549016413118 
-0.05630321741353541 
-0.01439775492247131 
0.02686557507074633 
0.8176166051150653 
0.4374227677473476 
0.162668758300201 
0.06578177952933917 
-0.002655552959134018 
-0.006801670405038403 
-0.03435678300748228 
-0.02746922152965227 
-0.07368336711125342 
-0.3369493935570154 
-0.003954883459230416 
-0.1554891948795094 
-0.02820622319451779 
0.2640996646118174 
0.1604539733710425 
-0.08858004411295292 
0.7969935059577891 
0.2754034942018532 
-0.7470762198886684 
0.01806890338756094 
-0.2217958557578634 
-0.03993781931132408 
0.2564598431843154 
-0.01221615167791013 
-0.06785334295647492 
-0.4560952985829088 
-0.490711217545826 
0.090504228209663 
-0.06230581223393919 
0.009487577431005 
-0.03354956559716001 
-0.009130239614849761 
0.01660506619317189 
0.3644384525092368 
-0.03573305699748391 
0.1812632021032479 
-0.009541899452017631 
0.1204113400445043 
-0.04011352994930496 
-0.1839527198758083 
-0.02995101869459028 
-0.7166946040785799 
-0.1065489036213987 
-0.00417270855277592 
-0.2529343577179879 
0.1540164657835551 
-0.03535160954678125 
-0.01737430559700416 
-0.02591499600237883 
0.0216773925318724 
0.001844499811080676 
-0.2374178373755075 
-0.05433568792003836 
-0.0350009872328203 
-0.0424813374878971 
-0.3129130687688859 
0.2039123272239081 
0.1118106381423622 
0.008416102375020258 
0.02477989551024371 
-0.1609098277550574 
-0.004338168186095017 
0.04583958749001799 
0.008133558074709592 
0.01629918394238402 
0.00768542164846842 
-0.0847055777571861 
-0.2238608433260995 
-0.005266074214847 
0.2375583559619574 
-0.001761997683928166 
-0.5125194849480181 
-0.5409929385200248 
-0.08230012258118213 
0.3320380234733225 
0.04645756570654044 
-0.03814927001795127 
-0.01261018639424399 
0.09355482580004358 
-0.2339411568114501 
0.2283562391702774 
0.04999622916294857 
-0.01684420202032546 
0.2143949936773937 
-0.0137346857148104 
-0.001998130716059767 
-0.02255178754376534 
-0.02418226862511453 
0.236560017233658 
-0.004809982958817571 
0.04932875098971379 
-0.1245089225067841 
0.01360306780647359 
-0.2831653606103966 
-0.08523368033293549 
0.4787911911661399 
0.05426888762978692 
0.09837522085365576 
0.1293140791287563 
-0.3072993084271704 
0.01100853355128091 
0.01635657476048642 
0.04101882954679061 
0.4977432148793364 
0.004668047053045536 
-0.0247772741297312 
0.000323372191715505 
-0.1970024381085261 
0.24091864008892 
0.007420616168464934 
-0.422899379057449 
0.01481484088772446 
0.7016549525409388 
0.0204051121841605 
-0.04270178599799179 
-0.006981081667557179 
-0.02749074892753485 
-0.7886011549686931 
-0.2350601200412216 
-0.07926780128415915 
-0.005822473843585993 
-0.1066146551941594 
0.09165467933658475 
0.3884107697700606 
0.1354119530799844 
-0.2752683253286894 
0.2514031237103117 
-0.07366759013549516 
0.6395339066882716 
0.2691534870038785 
-0.04458510388142364 
0.1487105839665864 
-0.007883152645619396 
-0.3828739734885683 
-0.002418973402226802 
-0.7408866246880101 
-0.05673789589680434 
0.04505110946531366 
-0.234708596768566 
0.006031503525986766 
-0.5675840744614862 
0.05185071211433399 
1.176937074239931e-005 
0.1462213846972972 
0.06007519579254594 
0.3442123790888358 
-0.3674975082522007 
0.0436355169098625 
-0.004520273719117959 
0.1454963670534916 
-0.02252870146744152 
-0.0549685477238102 
-0.0007989631504250573 
-0.6064027978808197 
-0.006998720896689307 
-0.178553064106163 
-0.4696411993370913 
0.0292720407619226 
-0.05426396727070201 
0.003982722067056335 
0.176657879895846 
0.0272836610663092 
0.05554819919986664 
-0.09798274687661043 
-0.03884192344565283 
0.03272941472699021 
-0.8253079484416539 
0.008946627934937041 
0.2561951490663188 
-0.01484915172315105 
0.003915598207149633 
-0.6887766670174744 
-0.2835816436976035 
-0.4485990971435926 
-0.5823575868558152 
0.01846078850147434 
-0.006009081735459725 
-0.007974482364020884 
-0.0008082155375966979 
0.2110082835790629 
-0.005933344940744036 
0.1388458571991836 
0.00688332480544455 
-0.5963815928697059 
-0.01978150593026996 
0.1426323572219635 
-0.01470878813398687 
-0.1953020552422162 
0.006979445775045845 
-0.5512016122535397 
-0.6820176783162736 
-1.184744910155714 
-0.2612742311391029 
0.0988370401111595 
0.01838594774930186 
0.02725682869327997 
0.2138927520262723 
0.150296281547178 
0.01923594456687613 
0.06219518221473661 
0.02036153128905364 
0.01092952484281237 
-0.4850805698247927 
0.0001720512256697947 
-0.04362687773331114 
0.09662887773271399 
-0.02920982463038701 
0.002956731697706064 
0.2065393750872416 
0.03506853144677608 
0.01494894971487512 
0.004126837056611216 
0.06448718780109536 
0.01554638379856363 
0.1383639863689553 
-0.08560447738682966 
0.2489246306658699 
0.01344270704067116 
-0.03852189245512611 
0.06636303104641839 
-0.1780702357080455 
0.7877557083792897 
0.3167907705944977 
0.07288567401828454 
0.006281135858711368 
-0.2061881456817182 
0.3025295862704869 
-0.07873164104363056 
0.3718868158568346 
0.1536307680929779 
0.04548019803847962 
0.1944827308218261 
0.4782242109578961 
-0.0006072346269137268 
0.2943231264817993 
-0.005553703037417174 
0.005986845141234485 
-0.1059716482750576 
0.3925396462248655 
0.1001732958281709 
0.1869827103148652 
-0.004203328379968453 
-0.130098182431222 
-0.0006072346269137268 
0.09329555087768716 
-0.2888885615107978 
-0.3046972895195315 
0.1938836278698648 
-0.04832474538591201 
-0.4634868333733495 
-0.6932955806637806 
-0.3740762389166806 
0.0298484039411872 
-0.005948113614157385 
-0.01079488387320756 
-0.1222319685389846 
-0.02995478237816772 
0.1736447377042402 
0.03674113735693475 
0.1718459422096641 
0.03731505071729613 
0.0008897135824555951 
0.01075774462592857 
-0.287835716502503 
0.4154712807820563 
0.5472040652474787 
-0.02292214314402824 
-0.4109483771091457 
0.1410068007177248 
0.284852611073331 
-0.7736603696889741 
0.06154767826243686 
-0.316570191673253 
-0.004430337898318432 
-0.135106920564282 
0.04862988202210555 
0.0365977598857857 
0.2905670070607764 
-0.556188441222857 
0.4946565514639204 
0.1366832778092975 
0.1702675301791674 
0.4594912618986968 
0.01072067321360607 
0.2485876514263302 
-0.03098973331205992 
-0.06579867651358777 
0.1147185501219158 
0.5363233096867114 
-0.2452891249631393 
0.137917780721696 
0.01399746541279911 
0.07944332890058649 
0.006403734247960112 
0.07866729928332572 
0.5715355239704343 
0.05158276988893659 
-0.01467808843823354 
-0.02561221267399089 
-0.03967085529207476 
0.06098905434928296 
0.3179728125189072 
-0.01322160378095979 
0.220440874022773 
-0.07848240139518749 
-0.02938981596381835 
-0.004915251931593303 
0.05977587338038599 
0.3331536661072293 
-0.0256912306793268 
0.01270444337359896 
0.1128511857024859 
-0.01495795334516986 
-0.02399478714262761 
-0.2044742536647665 
0.001939506903456712 
-0.6429624282623203 
0.3983715224670537 
-0.007532785036513454 
-0.04100578212361149 
-0.08344342627364426 
-1.000062807663525 
-0.02217768164587627 
-0.01466064191610807 
-0.1820085492561835 
0.2344265714371761 
-0.1049646416050755 
0.1861471582682218 
-0.08076647468660504 
-0.007776421464994347 
0.1999074971290514 
-0.02017063208011512 
-0.03051553413230221 
-0.09724462827319158 
-0.1172886192133836 
-0.2583345728858756 
0.4944137157915884 
-0.1932245186424792 
-0.006073755025020308 
0.06538046273270225 
0.4911437039216366 
0.03831818445431576 
-0.02103725783534809 
-0.01478556910579542 
0.8543355571254615 
-0.1821806691876325 
-0.08296123010551029 
-0.007473719019307781 
-0.01017945498006218 
-0.1517313005539458 
0.02813064772396811 
0.7898532999748654 
-0.3056971744979693 
-0.04181651392432934 
-0.01493144892179989 
-0.006720433474212334 
-0.1042795915326475 
0.4719162776352822 
0.005574460615639139 
0.1954652864129181 
0.08776404435384747 
0.006446592040674707 
-0.001359290118761256 
-0.02795911416772381 
0.3357516001595107 
0.04252230070245115 
0.0288286679507785 
-0.005885592724991683 
0.3190872075777626 
0.05786017259897414 
-0.01400791709823442 
-0.6270099441935224 
0.1017418206358862 
0.3424528575816713 
-0.003367701972171052 
0.01558020386545346 
0.09485107017810336 
0.04856663423704932 
-0.009505509752611503 
-0.0350063610673533 
-0.1026886753688588 
-0.231017960867432 
-0.006874256670793347 
0.04630947593285534 
0.09083824710164637 
0.007019191508790891 
-0.004506992957425593 
0.0782316685930665 
0.4440733710357488 
-0.03510203655436591 
0.2397133222240827 
-0.01833145179579017 
-0.07658873955574386 
-0.03225928339513752 
-0.05610402400119129 
-0.01312609226240862 
-0.04208323273320907 
-0.0008022288475592002 
0.3857930091049782 
-0.01347903386142203 
0.3193461231948292 
-0.451616254813102 
-0.188993455307348 
-0.1044542021615909 
0.8359478548125311 
-0.06654496946811092 
-0.7793332413070595 
0.1838097090135861 
0.002380293873001116 
-0.09343302409505487 
-0.03902651446189739 
-0.0157379006167487 
0.6010273349207914 
-0.1348864392558379 
-0.0210684114027828 
-0.01381929512546638 
-0.09980877542835805 
-0.003424117136025523 
-0.01482045742639987 
-0.1592998796791202 
-0.1243161383421961 
-0.04055457792815174 
-0.2416708566564898 
0.1301665387390066 
0.2697821849538508 
-0.002793587236516 
0.06803238756352584 
0.1224734677878154 
-0.2261215444596751 
-0.0122857844144771 
-0.01117455242412414 
-0.07340873689767773 
0.06346385994092277 
0.3059565341742375 
-0.01408826173351692 
-0.0463072848296114 
-0.008574138873614579 
-0.02873597369145826 
-0.001040650653676661 
-1.258196937401997 
-0.0773496712972324 
0.1079108122853857 
-0.07524314271003915 
0.03053667748285827 
0.02097806973805282 
-0.8598007376378263 
-0.008566955150953038 
-0.03499726539864788 
-0.1079204798765611 
0.5075175679101063 
0.09083734266499682 
0.001171188099398982 
-0.1419810635416334 
0.2291561510967973 
0.5844774737726292 
-0.01670930750300767 
0.06921661824718041 
-0.00334133868942731 
0.1616012206791443 
-0.07872047895981421 
-0.2232796262268016 
-0.0167659581517537 
-0.3262841434420061 
-0.1850585672571687 
-0.02980667528609747 
-0.0634778014014382 
0.006625421330702539 
-0.4643468576168213 
0.1659517832587151 
0.3184668056556885 
0.01164973357093541 
0.1000931841242483 
-0.3095233275900219 
-0.03329394141536465 
-0.007132938071483124 
-0.5681560161599698 
-0.02524002683334775 
-0.01397752160944097 
0.1328285052340316 
-0.00562406744273136 
-0.02308405690499804 
-0.07406179907598476 
0.03987803463255166 
0.005169701310087206 
-0.01184551769856504 
0.2836257933713008 
0.009676114814024243 
-0.002721229613424163 
0.1172138936824205 
0.02065692628834278 
-0.04090784390066842 
-0.002119909484500462 
-0.002833957730413235 
0.06367494066434556 
0.01909929092723152 
-0.211100550601113 
0.001643640631749176 
0.02065408534300661 
0.08127977940960098 
-0.002446147779133668 
-0.03148632647703584 
-0.0078082717588764 
-0.01443921436648433 
0.3237403289744055 
-0.6333691860331308 
-0.523004170561884 
0.2247128413026575 
-0.4520633685554946 
-0.009678112644797305 
0.1949227839262749 
-0.3909810211303388 
-0.1029437551811547 
-0.01099556335681614 
-0.2318011816779147 
-0.0294033006709679 
-0.04506538787784058 
-0.825040276442306 
-0.05642911026655634 
-0.04694703506856675 
0.006744851175567851 
-0.2072770288465398 
-0.02415898649163988 
-0.05858140087089676 
-0.01929548868610344 
-0.06960319683440429 
-0.2517840357089177 
-0.005719502648177452 
-0.122823937768741 
-0.03569267757665681 
0.007677553485029216 
0.04988039987189606 
-0.08694532222814394 
-0.009113935058169251 
-0.007861441919210729 
-0.09098652133429939 
0.06945108932738443 
-0.09806205949914044 
-0.06608596339575422 
-0.2531494603883222 
-0.05981316208522416 
0.04407050900615726 
0.02740932535538113 
0.3047865903263245 
-0.03766780033627593 
0.0712860325487848 
-0.1317910296225137 
-0.01805684482465089 
-0.01845507580910285 
-0.006171355131393785 
-0.04276650520763666 
-0.26818760580407 
-0.4999954366169918 
-0.0008077645114091667 
-0.03381917296968481 
-0.4597776425345739 
0.4269972959136789 
-0.4126330643199895 
0.1863475858366454 
-0.1472509494596607 
-0.134617763056956 
0.4355785157490296 
-0.003222166450829409 
0.1454376642812878 
0.1141337350801322 
0.03093829309329977 
-0.03437605433582682 
-0.2367435766074972 
-0.1366611425951839 
-0.1846402479352344 
-0.2733677250499964 
-0.2612685146824687 
-0.02927336767632393 
-0.07691551495946206 
0.1269065573058228 
0.2814687255873849 
-0.7362312270740234 
-0.164720063948346 
0.05738538448749509 
-0.4738130648325139 
-0.0191810946862717 
-0.7719906380722685 
-0.09161743524335628 
-0.140802665155988 
-0.1270037056509576 
-0.2352156681590316 
-0.004523609800249396 
-0.1402144348851065 
0.03706589214088608 
-0.03093465121222413 
0.147538972281709 
-0.06155660424738514 
0.4224299383882142 
0.1439407222545079 
0.7627005867837626 
0.1357805276090568 
0.004176261068662462 
0.1537429688834303 
0.29749126230871 
0.01707544757380489 
-0.008580553301261463 
-0.01880345901299467 
-0.003248956097692103 
-0.6078034942905536 
0.04871983227932718 
0.1841305109690554 
0.3034833155404483 
0.1366832778092975 
-0.6504059465609369 
-0.06222997517776201 
-0.1223091132522074 
-0.6029962865297984 
0.01425545071241638 
0.02808901670293274 
0.5154665364389087 
0.4787200820790612 
-0.005340246315930546 
0.02520770988626791 
-0.1166719895954158 
0.3001005608399069 
-0.08402618931279897 
-0.01509662115320766 
0.02962407749195184 
0.2597363705245324 
0.01521123323257182 
0.1037065195270941 
0.3872259130655432 
-0.1956739169627234 
-0.00721450231981528 
-0.7287916312339933 
-0.02972027910700582 
-0.02333599229187011 
-0.1103390634174005 
-0.05080356648097562 
-0.003872841954275608 
-0.4581774644131597 
-0.1612924154348307 
-0.09038902639317004 
-0.07381514323574927 
-0.01304087134707294 
-0.04902241684757659 
-0.1045174532257705 
-0.07331072899221797 
-0.3011584340762624 
-0.008804667742861046 
-0.02329775662211215 
-0.005871244788467435 
-0.006099402205602738 
0.1244230629366789 
0.01693631332098362 
-0.02188974739936093 
-0.00521046415396666 
0.3738765390113362 
-0.009115148514635591 
-0.01843164086934991 
-0.1632458693431246 
-0.2353216692027863 
0.5735128951160299 
0.2545353861963453 
0.08240874278237684 
0.4652787866616306 
0.05735130198366527 
0.8096087129006787 
0.3190346504782171 
0.2254243387599136 
0.07540968035086051 
0.02568422602884585 
0.0005447630460711245 
0.0264052501271125 
0.2388485923468278 
0.2803613465949443 
0.8271869847212787 
0.07118303638095933 
0.0003447578020749705 
0.2735312164534044 
0.2110393937674541 
0.0001236980906508415 
0.02647761471857345 
0.01884440801496971 
0.04223187066685769 
0.1043682157205583 
-0.01879665487848314 
-0.03186289614892765 
-0.01332782104577584 
-0.1012813593668414 
0.03268875764209057 
0.01270008145701119 
-0.02141577462406405 
0.1366021151525753 
0.1084885825292656 
-0.5270971268237156 
0.4541900925032781 
0.2921490709088002 
0.3340592554739708 
0.01893997309125397 
0.1897549552226092 
0.1134927677476666 
-0.07496910542639995 
0.1355611751336781 
-0.2970815413768096 
-0.07291915617571251 
-0.001142530377211631 
0.03967466974583339 
-0.1670433839888457 
-0.2245959317583773 
-0.395092448293334 
-0.280677374250258 
0.01397304775042181 
-0.1131861369095942 
-0.04210937236397178 
-0.2069019990459897 
0.6002039341069715 
-0.04294228695526984 
-0.003282343776489513 
-0.0140898271885934 
-0.222242491707228 
-0.02009358601918966 
-0.0215420281872255 
-0.02241256478398499 
-0.05898634832699018 
-0.006043520427651905 
-0.04185436356263948 
0.7012078265886492 
-0.1635329315594036 
-0.04769439228293787 
0.2166474723382578 
0.0410636436025683 
0.3410382588206174 
0.2084544442377957 
-0.3584487037746181 
-0.09397737103904796 
-0.01112550441622599 
-0.1327766031453716 
-0.3241390193148266 
-0.1221544297381644 
-0.007764240143472336 
-0.01354464354541867 
-0.021843074071471 
-0.1193351198689077 
-0.0001082067400327427 
-0.03661887673358104 
-0.01186990162699925 
-0.1062960987985269 
-0.1688784871074866 
-0.009796374823935772 
0.09218292222006605 
-0.230265532696671 
-0.002253032372222496 
-0.1682294588718819 
0.256532790146585 
-0.03610474523031899 
-0.007051643426599707 
0.04837584650288983 
-0.09205772529210037 
-0.03129298546982391 
-0.1122020861187708 
-0.004030047345150031 
-0.2111348991691526 
-0.05988487544620993 
-0.007511935093436789 
-0.02258853904027787 
-0.0009438034040730003 
-0.04225666067924652 
0.05476329833022271 
-0.007425145576013544 
-0.01081632494721421 
-0.001544742457132424 
-0.02294265778147018 
0.3412517807981421 
-0.01176870729552564 
-0.1155299562682529 
0.0636924566325041 
-0.07483578133419189 
0.0003447578020749705 
-0.02212319527750144 
-0.08899970344715527 
-0.04082820390958573 
-0.01099556335681614 
-0.2772620250234981 
0.2864583286350821 
0.01346155650089935 
-0.1861892270827884 
-0.08603184896350168 
-0.08690098772427045 
-0.2844525844373033 
-0.01234710399614087 
-1.695290565513981 
0.5920292525181339 
-0.006680132210208318 
-0.02982343731566752 
-0.02535487724889806 
0.3890852158963861 
-0.3988041468441945 
0.1081470018506748 
-0.03912137467733384 
0.09040099527761666 
-0.1350319197760619 
-0.009344035272873965 
-0.2171840121548992 
-0.005252909012708879 
-0.1819106020860069 
-0.002082130591107645 
-0.003113725594793141 
-0.07547263501044811 
-0.002952083366959457 
-0.001716103372631059 
0.5453976445020041 
-0.06989815573738324 
-0.103273037766226 
-0.06511889674775831 
0.45567360637051 
0.004814208770258139 
-0.01656439691951358 
-0.01929174713395938 
1.654937154735412 
-0.005649927787150113 
-0.01710952323431761 
0.4038901657173029 
0.4847799158535279 
0.6478510601248971 
0.3673913580664747 
0.0603127943289371 
-0.01305172285817313 
0.06854104276848798 
0.08462060940692365 
-0.004698934542178058 
-0.003972742870720718 
-0.1115196811678416 
0.3231909129203809 
-1.356844647841513 
-0.2816338439566222 
-0.2111348991691526 
-0.3654488665690899 
-0.0658563017419412 
-0.06669579271126441 
0.1009831737979555 
1.6952342294211 
-0.1593448689950587 
-0.00230734048631119 
0.01788870801103438 
-0.0868039301341578 
-0.02516695309444272 
-0.06057776532935392 
0.5285874805156101 
-0.02685277067348573 
-0.3353273542305454 
-0.006779175736862049 
-0.01667100658148978 
-0.1971335696829652 
-0.3197665901602434 
-0.03716548694754968 
0.09796065301467119 
0.003563697857929505 
0.690545454394085 
0.2130852593209854 
0.3921232503601466 
0.09472209960234967 
-0.04180939820197356 
-0.06169678011397264 
-0.007098753062822097 
-0.1617168827193296 
-0.2151325985274707 
0.730075317312185 
0.4296374467827879 
-0.006660996738075618 
-0.008276275587287458 
-0.004855736001636202 
-0.005460155395357736 
0.02990556749413791 
-0.2601280373252967 
-0.04828145759706595 
-0.002637765192953582 
-0.01895168374438724 
-0.03391636224104567 
0.3510086712227137 
-0.001102122163019467 
-0.08965498881755983 
-0.03754117334125169 
-0.1101984732342883 
-0.0003200939421704666 
0.2586424554216102 
-0.01099556335681614 
-0.1015263096574868 
-0.009412470293313983 
-0.3467842298029801 
-0.07088535899298078 
-0.0118160953937164 
-0.01292672673876746 
-0.2386817884456237 
-0.07219799003942888 
-0.01124047794099286 
0.1369210560035486 
-0.01023719130032919 
4.552570948376786e-005 
-0.02587737774583049 
0.2463577100588032 
-0.3968578977692457 
-0.2317822039605768 
-0.05919152832561284 
0.1529782085416516 
0.03008927574436974 
-0.03483691311505691 
0.325943499201984 
0.2990737775445781 
-0.01383668394392251 
-0.01293520217689518 
-0.08469659896769748 
-0.4830370965247502 
-0.1296640284069777 
-0.2034082948891873 
-0.07573785972555926 
-0.005504086790632596 
-0.003814928247287895 
-0.1416497254117103 
-0.05185705445386409 
-0.02188607624719832 
-0.02293531142878145 
-0.2299375460039281 
-0.3561603767350734 
-0.03010451928107684 
-0.05961211026507945 
-0.4533988006799694 
0.2319878632669299 
0.3706951484412665 
0.028659775784217 
-0.01540296069825635 
-0.02819236133830844 
-0.02604323993314436 
-0.05143021182049345 
-0.1148841625501277 
-0.1598788708226408 
-0.0154811862259839 
-0.009010656250197389 
-0.004204180487208777 
-0.002330651820323606 
-0.001441605623277989 
-0.0126390920701402 
-0.01124355341612076 
-0.06549102131183544 
-0.05884326452136356 
-0.02865902589793157 
-0.02537641217572704 
-0.02381865520479623 
-0.1048992837519378 
-0.1276386500008837 
0.04601557413758452 
0.175575400317481 
-0.01871477193358219 
0.01024647773253742 
-0.008963444939752145 
0.3371650585715926 
0.02255307524660431 
0.02486700582090846 
-0.1723576722763755 
0.4499594395851043 
0.02377647619773015 
0.1558789205920119 
-0.01097051427820408 
-0.4536696072371106 
-0.2154809701267915 
-0.01247820784981884 
-0.5162323644799716 
1.445510834613356 
0.05539580820748086 
0.01837613847032486 
-0.0009966592094684157 
-0.02693994160613866 
-0.1870186961245935 
-0.1881903797167691 
-0.1059716482750576 
-0.4024770820764022 
0.09497411195861165 
-0.0004445225347826712 
0.0003447578020749705 
-0.2485078127048565 
0.2089857688819991 
-0.2053687859456104 
0.1146768768766462 
-0.234708596768566 
0.07053818352610913 
0.0291709748613892 
0.03040826292479949 
0.2298842861757116 
0.01498538791385941 
0.06151167733068166 
-0.0136913690430633 
-0.0357505497917444 
-0.05798096524902864 
0.04645756570654044 
-0.3549960791762515 
0.343161007918118 
-0.00301178883519579 
-0.2246386475232728 
0.1855307753954288 
-0.1390188412528829 
-0.02240946492371232 
0.1337822642211541 
-0.01833851406796846 
0.2709079966660045 
0.003027897914030147 
0.002613765570065837 
-0.0657091080735204 
-0.01233151183471855 
0.187665255085363 
0.0005206294937499596 
-0.0264659015655951 
0.1715512991395696 
-0.129272859123549 
-0.04132761555591216 
-0.4010597258526001 
0.2441991364418277 
-0.07908199567961749 
-0.3105296511076557 
-0.00249132062360631 
-0.001708656222757973 
0.2429345062744064 
-0.1293348040410632 
-0.0003123993864832728 
-0.08284137003552416 
-0.002619851913702893 
-1.089206715807585 
-0.2825980432294876 
-0.02819273727295709 
-0.0002908226900462213 
0.002183451320920058 
-0.5714078646773826 
-0.2258450115021435 
0.1149909354529411 
0.1144233769772129 
0.307505690932952 
0.007995915184073537 
0.470152493350532 
-0.03350418639527308 
-0.3816121836670822 
-0.01202987027563675 
-0.01202987027563675 
-0.1097753420819625 
0.6052338575020455 
0.9355462591258169 
0.1221903854075541 
0.06837221388351863 
0.3110256045606893 
-1.260302612683247 
0.4459358801626142 
0.0003091924487565529 
-0.006598591557876514 
0.0771423639599572 
0.01290775866960272 
-0.1572818275391983 
-0.04727608948472248 
0.9778743911026805 
0.1737730434873516 
0.2237295132736075 
0.3399921675598408 
0.5481512557307852 
0.05697575197969216 
0.1522817142956723 
0.2768393510985507 
-0.1518101814471818 
0.2437179889335558 
-0.001882415383306366 
-0.01619582702969079 
-0.05027800476998152 
-0.08583644147245294 
-0.01444019650396201 
-0.001536895285062647 
-0.05716482702920839 
-0.06848440790941135 
-0.1972663518051031 
0.2725245807753233 
0.4532916627767986 
-0.2251931182645896 
0.007861668855156233 
-0.1195738051330499 
0.008781841971862119 
0.1009369434117983 
0.2768078966930263 
-0.1980051568589314 
-0.04277382666287617 
-0.06251823274151938 
-0.05307415576032844 
-0.01410189752125098 
0.05004199725000574 
0.5287200815570652 
1.712965207976311 
0.3329747143702928 
0.002522348969928059 
0.01435567137839847 
0.2489898097556089 
-0.0100287726639745 
0.01597210899905514 
-0.1179328007383832 
-0.9382970853681325 
-0.03411555611911471 
-0.009109026581427079 
-0.01742270054410716 
0.3246598598110944 
-0.1349021804787819 
0.02736937417618987 
-0.01116583907146136 
-0.01016794071494354 
-0.5539021945646742 
0.0005747358293771205 
0.0637390852236613 
1.047197471978141 
0.2626306480784386 
0.8000610648341309 
0.03112532525120138 
0.06677861766106896 
0.107810684861333 
0.09104274315882943 
-0.1245421271177386 
-0.4750954337491313 
-0.004890443594609461 
-0.01764703632860013 
-0.05004256709036042 
-0.3571962673886953 
0.1484091563024541 
-0.006194192155376909 
0.7805676255153828 
-0.01147190617407376 
-0.01748142188965436 
-0.02347067130080292 
-0.09688167693739297 
-0.08523490774259221 
-0.01203976799318845 
-0.00316493251410377 
-0.02783671956173408 
-0.08691962772827476 
-0.0189269328095727 
0.6895612999179673 
0.3064319879544186 
0.0004759344429447049 
-0.004115994577832152 
-0.137901496852566 
-0.009209564385320092 
-0.003611156613050079 
-0.002626561091922514 
-0.1266789060331403 
-0.00392483752625716 
-0.3730500263645775 
-0.0008548343567717053 
-0.08796802028411882 
-0.01085222614868536 
-0.0494405194226397 
-0.2817114236155169 
-0.005697781194172081 
-0.1454800201468887 
-0.01341177922343126 
-0.189887228213355 
-0.5919179304177034 
0.04869076607811113 
-0.234708596768566 
0.1153454279795204 
-0.02431271218088954 
-0.0744164264360911 
-0.2972906013291651 
0.2085603795275512 
-0.0003407040579943524 
0.002454798631865169 
-0.004855736001636202 
0.0220188839764483 
-0.01693472915262086 
0.5526130969181536 
-0.05276734279109823 
-0.05016085717861595 
-0.001059694025295916 
0.1368916411899656 
-0.1363332349647977 
-0.0118392409672865 
-0.008844456057523769 
-0.008527188444418405 
-0.01929700160600523 
-0.06882657341213057 
-0.004273444600940865 
-0.01668416741222356 
-0.1794762960962812 
-0.0007049415325737778 
0.1035522057350614 
0.4674238716301093 
-0.006073755025020308 
-0.3313589403582343 
0.162297664072157 
-0.03629983359479588 
0.06637289258699876 
0.1207661012592365 
-0.2295683446537739 
0.03293839608759501 
-0.004103822211500201 
-0.07741811139602749 
0.3185834919273831 
0.2207719038325162 
0.2161112242551883 
0.0718928485027826 
-0.00359924048092257 
-0.7627351828709366 
0.04427462177419473 
-0.2424588161774508 
-0.09292548367574885 
-0.01172436563438765 
-0.03183334570854758 
-0.0201588838573137 
-0.2744248992787192 
-0.07710450378954738 
-0.07822371028435696 
-0.006790088049978736 
-0.06983634671443201 
-0.06709491008267639 
-0.1940670726190932 
-0.2422814932220073 
-0.05623905413670913 
-0.2700905461383951 
-0.04972066450833705 
-0.01425838753032993 
-0.007434938282134334 
-0.01238060877985142 
0.246664118290854 
-0.06126886268454365 
0.3825366574126024 
-0.145593466477258 
-0.1042795733827208 
-0.2003041564373775 
0.2549550906431372 
-0.0464678014016128 
0.0805367484362938 
-0.03396602086381396 
0.06159938484792638 
-0.2765460013315707 
-0.3923686713936179 
-0.007613628750886191 
-0.2854508176399484 
0.003941317757355589 
-0.0188537385514973 
-0.02569686298676721 
0.5149084879571491 
0.02903289770234846 
-0.4969992839246579 
0.02988155336476201 
-0.09053911478465647 
-0.1745193150351873 
-0.0137288956244064 
-0.01405157669585024 
-0.00775276750282229 
-0.06378579112788135 
-0.3899622585542422 
-0.3125121710705849 
-0.1095060574331082 
-0.04617795828795432 
-0.08285667101091045 
-0.08843341445418888 
-0.01495402662131469 
-0.05805027841688232 
-0.0884461271045171 
-0.0003970687139564338 
0.07967227657561352 
-0.1425501202706737 
-0.02017063208011512 
-0.010877152184966 
-0.03411433175911743 
0.1080312634691417 
-0.02239450845845227 
-0.03097571252339912 
-0.02887899754653305 
0.08557374602079035 
-0.1363594635986786 
-0.04032632576644565 
-0.5012992390109314 
-0.03879963102694346 
0.1832528595165498 
0.3457987506639713 
-0.4091681663188896 
0.02582847622265469 
0.5574532698869581 
0.01803408077311806 
0.01527031698387158 
0.03072216153065763 
-0.05009868125166393 
-0.161574100197152 
-0.04545329544694973 
0.3937724711031921 
0.04739669691659625 
-0.03818503136987386 
0.0274337571944859 
-0.1156571242147116 
-0.06119831020096726 
0.2037607942308354 
0.015568865229439 
-0.247673848712959 
0.03217642749129584 
-0.01097051427820408 
0.08333823029377532 
-0.05667253793847244 
-0.001544693420257371 
-0.06800909915150681 
0.7383124851963747 
0.1408241052338599 
0.07194982396410696 
0.2571899542390685 
0.01853733950666313 
-0.06363826577002787 
-0.2958859763181483 
-0.01361347685544742 
-0.01726751801635432 
-0.01721141357067084 
-0.07045884231226796 
-0.2880866643983717 
-0.02800826963837647 
-0.023045844946816 
-0.08991314598673898 
-0.007891958825078163 
0.04344848772460293 
0.196236874259243 
0.277615859393014 
0.1760796839421296 
0.0006095915400747273 
0.2016114684802536 
0.2006510537619547 
0.3342973197943436 
0.1909712297135291 
0.406100227060613 
0.171244049891653 
-0.202943041342106 
0.2068007219919024 
0.01187341660878238 
-0.002115475278708786 
-0.001658376434181975 
-1.090498107746546 
-0.4000276971392954 
-0.474927508615493 
0.4327224433181506 
-0.001044118998322055 
-0.2372603125280967 
-0.001024761625434174 
-0.006534313220861656 
-0.1044733741083007 
-0.06372638819098678 
-0.01801230829152763 
-0.001975090630937417 
-0.008078058318036808 
-0.02200905803229794 
-0.5982718004851781 
-0.0009003483571393779 
-0.03857839318801021 
-0.2451345814235208 
-0.006697028086549795 
-0.1710143315105416 
0.01392141856832988 
-0.006011401524606626 
-0.1631837128507535 
-0.01108994744224238 
-0.3030344532857557 
-0.1918456663492522 
-0.04991569310648492 
-0.1527620444396762 
-0.01752685977070335 
-0.1454418708304038 
-0.005432551666248443 
-0.01329152098466493 
-2.424421759629109 
-0.01707270833060479 
-0.06429704116822016 
-0.2786684022878924 
0.01286932461667684 
0.07497268231940378 
-0.06391264031251204 
0.1879969216479482 
0.7175274210562731 
0.001239527511796267 
0.1136959081714497 
0.3499479576939923 
-0.1529951026902429 
-0.006808912582010651 
-0.07998789303701258 
0.2836432088836053 
-0.04662396152741261 
0.02673015129520275 
0.09666539035985679 
0.02599277986897607 
-0.005707804123799876 
-0.0214464078285309 
-0.1965801495302514 
0.4377231973540726 
0.02810497150736872 
0.01669767130403841 
0.325092973849149 
-0.006631871213451844 
-0.008236791906765266 
0.006571036835075714 
0.1942819677714542 
0.1352729511457918 
-0.01919871626180686 
-0.4696951612986401 
0.2367618480523303 
-0.02978493230616236 
-0.01331062967101593 
-0.03982391283740869 
-0.4824795949556083 
0.2656101672040546 
0.07414380929096794 
0.1581248352869946 
0.007710945925033879 
-0.04078569398703565 
0.05097011923204976 
-0.9025019374942133 
0.2453183617633319 
0.01721666772258132 
-0.01293520217689518 
-0.2234112291502292 
-0.1153494099922127 
-0.5158115451390681 
0.5696565092155196 
0.1681723965047824 
0.07924558981171472 
-0.02212415635358777 
-0.1135417794138869 
-0.5519066459098991 
-0.2915590153502166 
-0.4295937333329303 
-0.01268775354810973 
-0.09475240524122856 
0.2474885236934947 
-0.04243441237133431 
-0.198882332324555 
0.04548657611126886 
-0.2096634656403812 
-0.2687642424731587 
0.01332632380443296 
0.3473554639075805 
-0.07733048203628919 
0.07066917328193381 
-0.01739781103542663 
0.6194318233170213 
-0.02388446678565273 
-0.166045083027525 
-0.004337286704157151 
-0.01412495267688187 
0.105118600826564 
-0.0377428001760514 
-0.01061157961155487 
0.03352528294817795 
-0.5805865974266328 
-0.2135750376454139 
-0.01139071075494731 
-0.1224891658418727 
-0.2605871722563392 
-0.01600240146324243 
0.01512922792685757 
-0.2482965359710168 
0.1156686516007413 
-0.07616588372934549 
-0.05004256709036042 
-0.06714524646068952 
0.08428938197700234 
-0.2490550036379201 
-0.02189120538026336 
-0.004538181206229463 
-0.02027454050164902 
-0.04250002604373057 
-0.02698171005442689 
-0.0138443276349298 
0.1216654583881692 
-0.007642944399240185 
-0.07331072899221797 
-0.03659394091229366 
-0.00807120691385381 
0.06427837885008571 
-0.002938456732505916 
0.2549560750998489 
0.001881342418744713 
-0.08866960639459899 
-0.007308868532946716 
0.0797632229436499 
-0.1119580437054787 
0.06766778333807502 
-0.007954503964005833 
0.05753813833722976 
0.2213269581147671 
-0.05274703104693382 
-0.1520844731443463 
-0.1060134409828062 
-0.0976531366528365 
-0.002004323414179543 
-0.1994733022147166 
-0.06554860979535972 
-0.01026173179306149 
-0.7771333820934042 
0.07977470145696183 
-0.01821801201145389 
-0.2828808373098571 
-0.09663708985743297 
-0.1298133359934795 
-0.03539255670367978 
-0.02808610025460832 
-0.1834314815692167 
-0.02356295508492499 
0.1612366124900034 
-0.3841488902523252 
-0.7949465898566029 
0.1353730219229828 
-0.03287170496576813 
-0.09095121274908126 
0.2483010549505645 
-0.07195598200828217 
-0.1751885777640995 
-0.01604175827639283 
-0.01866781142860913 
-0.0883020679937314 
-0.01106406265810342 
-0.06381893309628098 
-0.009558306570715418 
-0.06556576752735258 
-0.006993726592815736 
0.01496824531139379 
0.0004800847261636306 
-0.05329208582949269 
-0.1810183766184149 
0.07784765066921601 
-0.02719003571618683 
0.01643183299100052 
-0.4237934967659117 
-0.1066548622024788 
0.02698226039410073 
0.01066351260116739 
-0.4029462441318764 
-0.01817469850713887 
-0.06385355843149437 
-0.107388664231267 
0.05817420135842435 
-0.1573481760889283 
-0.01557043779194019 
-0.04328079805236341 
0.107828754142156 
0.002171570327349632 
0.07086347552653709 
-0.009946499680217559 
0.332541684211112 
0.1216738085826856 
-0.01961019087472172 
-0.07420604325077466 
0.1251640592482742 
-0.01491586181636439 
0.4829582260920692 
0.2841939132923663 
0.04473220974622202 
0.3154643719003394 
0.003464153792094486 
0.05520971933360632 
-0.02172414910757945 
-0.1844530497885847 
-0.001639527104783502 
-0.02291141554494963 
-0.02690139781373229 
-0.2475128782881864 
-0.35911736781433 
0.101713819671394 
-0.02331804600502744 
0.03632879199789801 
0.0132427753120012 
-0.08214502488725589 
-0.00254437729470537 
-0.06451070265414954 
-0.3016242777891858 
-0.375806470862217 
0.09292740688416586 
0.1975899736974306 
-0.00704643610833974 
-0.05153615267080836 
-0.05742469556089066 
0.09329555087768716 
0.1140826898020166 
-0.001162220319619517 
0.05143324936072042 
-0.03927335981286347 
1.609787056506583 
-0.0004282626330778249 
0.0001509128380469509 
-0.1491824665373829 
-0.01253775394235508 
0.09132880015782223 
-0.027805630123628 
0.670863102172614 
0.02307601437847437 
-0.0484562787020954 
0.002892621107048685 
0.3359585335833324 
-0.02174693443951009 
0.1337657732553015 
-0.2601430412228796 
-0.2462099167217274 
0.005111926949502562 
-0.005928875128755915 
0.06444541009402428 
0.1306111922181824 
0.04786145632277195 
-0.0185028184715928 
0.4463047483437643 
-0.006632551584880912 
0.5355510721844683 
-0.06346920646365302 
0.4144274771087645 
0.001441508463384041 
0.03936065074843297 
0.04892886199291771 
-0.4010758467127796 
-0.04869295778659435 
0.1897586826892118 
0.01004537382237811 
0.001226630799124709 
-0.4059586207755786 
0.0379875499072156 
-0.2375228064539632 
0.2454914959875525 
0.1035919324581966 
0.4531607772660178 
0.002202496783884565 
-0.009108983989409319 
0.006904424750774876 
-0.02043935100048902 
0.04375045540101141 
-0.00907180107661075 
-0.9879173202561028 
0.9784863999178421 
-0.2594515166397381 
-0.009801246802803797 
-0.06099096353479969 
-0.01343670842200945 
-0.03276084871708166 
-0.3406123648138212 
-0.2517463181598039 
-0.01908924378992432 
-0.002660768828837368 
-0.007271332723376904 
-0.3210449952220328 
0.05474156915600285 
-0.2378661505732057 
0.05636064589519006 
-0.0070461751301738 
-0.01398352295765484 
-0.002192056479985128 
0.4023243728093288 
0.001458319137951684 
0.02186135013263534 
0.4399047212706265 
-0.003250551936954629 
-0.04990314098181375 
-0.0004919471707656794 
0.112521942881861 
-0.1047206394523873 
0.06523556178254721 
-0.06310204532809706 
0.1196197899877585 
0.09422847644596717 
-0.01328416609227045 
0.0335627955304361 
0.02763813325314791 
1.159401030084864 
-0.01643552851644274 
-0.110915753147201 
-0.003821664858071376 
-0.0300619402923144 
0.1108937736687177 
0.2124014681372207 
0.0001509128380469509 
-0.1208209769196612 
0.06899025186336505 
-0.362113593157351 
-0.09600698525163086 
-0.06118646589789013 
0.3320598194010778 
-0.3546122649855736 
0.03338161226858785 
0.1646721784295064 
0.2359645369254502 
-0.9082704816832888 
-0.01987216972275227 
-0.3169925929280265 
-0.1270062932897414 
0.01166535619719596 
0.02694033467450689 
0.0003910891480481926 
-0.1838318146607357 
0.5693493330838764 
0.01325482890290112 
0.6994185931965908 
-0.005770255690565178 
-0.01024704681493249 
0.03628127465673918 
-0.08200353816754731 
-0.03136362121600188 
-0.5645424582001699 
-0.2857214517244873 
-0.04797133237082352 
-0.0270227886155307 
-0.1000930617512821 
-0.01289714744622274 
-0.02572944665592221 
-0.008984729449157791 
-0.1627008372416962 
-0.2502526826748657 
-0.1777530380641533 
-0.2165916882502161 
-0.3496669030726627 
-0.3492130689365836 
0.3633687202262661 
-0.1133118696504817 
-0.06660375976245153 
-0.0009176381244747585 
-0.1406634331056498 
0.02378834600574118 
-0.1231271943350549 
0.001430646635840659 
-0.02669910649440124 
0.1009019932565145 
0.002158047061274654 
0.03999400238220159 
-0.01764730823368853 
-0.7021940129148513 
-0.01155910670761244 
-0.2044163621442844 
-0.03774068250341865 
-0.01453188150814067 
0.2440617509971493 
0.6250451910457998 
0.04924317089296985 
0.005385102448668833 
0.01091034784753739 
0.01888877578566674 
0.0001530395953976199 
0.5915489916145359 
0.03822830525294471 
-0.02937494602704884 
-0.006768995782415264 
-0.070573939618612 
-0.3019295005581125 
-0.09083788442762135 
-0.005559043426213836 
-0.3467034793012608 
-0.003230418299765354 
-0.00489543599072081 
-0.04704731134636832 
0.02984574445156525 
0.03948139313913258 
-0.0001649389480545755 
-0.05187857258285878 
-0.01049139549637258 
-0.01588270025851386 
-0.1905335727264329 
0.001348575483340647 
-0.01009812972045494 
-0.02692110527790617 
0.09487902542627433 
-0.2040571172187189 
0.4912778353314941 
0.2755559599465016 
-0.3527908326794462 
0.03838863511302249 
0.04331674622987732 
0.04991367925170851 
-0.1383886495097575 
-0.5040279577967295 
0.3976629648459892 
0.1157278306433117 
-0.03742163237379113 
-0.05309609408445614 
0.007053601816543438 
0.1665190091179052 
-0.5227087101839549 
0.3594518412830945 
-0.09464486286367074 
0.154907729206386 
0.3400090408055289 
-0.08836607050441275 
-0.06364940539275624 
0.07824505808503085 
0.01940191181202629 
0.4834542707712524 
0.1828203289835331 
0.004114234358376661 
-0.004642769588090769 
0.02866827672959831 
-0.0313582214804498 
-0.05956366044430211 
0.05532820119514909 
-0.06785912733188079 
0.04980567231944193 
-0.2152833265742687 
-0.06259716767998005 
-0.05761949285512786 
0.1226857751148613 
0.4125217556523233 
0.03801465209993792 
0.06813842220214304 
0.00466890425908929 
0.0214931697060392 
0.08035987733998345 
-0.8467878421919897 
0.02494850078159975 
0.003430191876409495 
-0.03183714302614973 
-0.6595627882677975 
0.1620468615299819 
-0.1017259741457382 
-0.8622870013584546 
0.08682267583639831 
-0.3182228077239643 
-0.4333408247307726 
-0.002252747938634343 
-0.0199301149646612 
-0.05023764194707837 
-0.1710309685730942 
-0.3221250897681896 
-0.1212166223340363 
-0.007968763924205629 
-0.0001649389480545755 
-0.02932297215235819 
-0.01467808843823354 
-0.03726206817819062 
-0.08606789037938933 
-0.01955025210570981 
-0.02485644782757771 
-0.007476154800769466 
-0.06799673557827722 
-0.09550077864274624 
-0.07791719270229351 
-0.006147660330501723 
-0.01843965856706223 
0.03742640805038319 
0.07391197783213591 
0.02241748777459619 
0.01317970731995492 
-0.4763803573664664 
0.107775924295533 
-0.3191618189076944 
-0.1507649710066999 
0.01622647686791423 
0.1038877552680639 
0.5701937513503259 
-0.02367921763352829 
0.001491647637068579 
0.1141768911589397 
0.1054603042574849 
0.04415310463561294 
0.002332602318069822 
-0.0210684114027828 
0.04100202282784889 
0.1620026839897104 
-0.003814928247287895 
-0.08122118608589643 
0.1239012419131957 
0.06421137446162381 
0.0033953730706339 
0.122770139104645 
-0.6669825891226465 
0.1818051825327602 
0.005509685945442946 
-0.02469379843611089 
0.9323719843402403 
0.0004906599793711837 
0.1968033806013209 
0.72857946384614 
0.0005200387975248219 
0.7846089396016698 
-0.08159936781924727 
-0.009030584490292285 
-0.02738998929830466 
-0.03187059300625021 
-0.01097051427820408 
-0.009094457873855233 
-0.1609075968715563 
0.1512312509961937 
-0.3890278682410212 
-0.00436196812761811 
0.01434282898643607 
-0.01108643350144513 
-0.2954354975747727 
-0.05899629277725585 
0.4370043818611513 
0.1758857885287037 
-0.6245157447963009 
0.02140693445007763 
-0.0143801091982624 
-0.4914610273590285 
-0.04693928815496016 
-0.006844377770556641 
-0.03508243351258106 
-0.02412685698842722 
-0.1392872490386916 
-0.09639431648353704 
-0.005653794585955996 
0.1490141251425679 
-0.002458849437961759 
-0.01226704935943167 
0.1497060170040464 
-0.002917505519530757 
-0.0343870947526005 
-0.346898338637072 
-0.1257681668513832 
-0.001555148346589623 
-0.05540834275741032 
0.1378601235832981 
-0.003602610906819775 
-0.0905645868158084 
-0.09730395302245419 
-0.08623752122496463 
0.293899122732179 
-0.0507086306893464 
-0.4979873861131669 
-0.02519841164967276 
0.07921095362561871 
-0.2857086759405289 
0.3103482099138009 
-0.03343287255565931 
-0.007954483008009753 
-0.1584713712490515 
0.1192639376861582 
0.04272692324671525 
-0.0213858365576178 
-0.0440101860156114 
-0.2523214335940001 
0.3449336239609502 
-0.08959227194738947 
-0.05944122900085779 
-0.001744217387603721 
0.3903151446036842 
-0.1080603693279005 
-0.666177279889108 
0.00968724567591293 
-0.01452946846795995 
-0.1624733612620189 
-0.1260049382652401 
-0.2354946629916808 
-0.1253470713991159 
-0.05139445606887154 
-0.004405815744328334 
-0.05282534971737881 
-0.03372211773495296 
0.4708352561629733 
-0.001385161067018363 
-0.06162168211630704 
-0.02807929730168641 
-0.01079510600020537 
-0.005289164624525762 
-0.1575553221246092 
0.06423272574156436 
-0.01407068102152068 
-0.04329257651985748 
0.01307252655709464 
0.01595668929587694 
0.02161540936619132 
1.133873084420401 
0.1935247395120206 
-0.001457973893361101 
0.01234463400713628 
0.07780847574427734 
-0.1042306597299619 
-0.3894860278060149 
-0.0237373694475625 
-0.2105782909979453 
-0.1376053746896685 
-0.01435111359356848 
0.001701450062411995 
-0.001505135351196103 
0.3312226878849393 
0.07630395955838278 
0.04278893247616593 
-0.00439371059816916 
-0.3926067932571505 
0.03614324240949662 
-0.1618881648733053 
-0.0761924373298993 
0.2370101855882881 
0.3233102593245413 
0.3044201600859973 
-0.002763588825825937 
0.002260064361440592 
-0.006236030092736419 
0.02840220748523896 
0.00802138583207127 
0.03948691666145396 
0.5028819051679349 
0.06203467562314702 
0.0596782138626938 
-0.404120038669138 
-0.1277906270711404 
-0.02629730980140774 
0.3342007981870826 
1.286592972366087 
0.8149090673983314 
-0.01151925489169947 
-0.04291990052766299 
-0.2758816306897874 
-0.02604800079099997 
-0.00853124170654064 
-0.09590544142585472 
-0.06697695658677513 
-0.007778823845871708 
-0.2126583374668623 
-0.44111363560843 
-0.1784748497162426 
-0.03234947359536261 
-0.1608981709402981 
-0.1703968286240052 
0.2841416402858861 
0.006243753887307951 
0.02124518392598338 
-0.004600038374901294 
-0.7333640092778684 
0.3025213796587041 
-0.2013385607335808 
-0.02356869946773523 
-0.8244913972703323 
0.1842612197840747 
-0.3565181970786345 
-0.1392493211282147 
-0.01972490503952315 
-0.04838042318548511 
0.1413366350005081 
-0.0554710058889684 
-0.03781560040952854 
-0.007978809193309868 
0.17775596988745 
-0.3029951556407474 
-0.01097051427820408 
-1.259332977847077 
0.9774986267388881 
0.266411896575017 
0.4632759864366511 
0.3896477846200127 
-0.04189093762718555 
-0.01925584686323344 
-0.07333559250403782 
-0.7206742934757465 
-0.03117671940218612 
0.02139726083215713 
-0.1109982500788379 
-0.1443693806509507 
-0.03435927031974832 
-0.03208696797740698 
-0.2373699550230162 
-0.1739015328820197 
-0.6834880752722136 
-0.005127391111157533 
-0.002640008239594266 
-0.39690294431116 
-0.3145803613428257 
-0.1995904292556834 
-0.1059084207907248 
-0.02478648783668352 
-0.01132429243709104 
-0.4358477806991407 
-0.1626448360059731 
0.02701585150011326 
0.008739015106179776 
-0.0008930307547742863 
-0.02660114327745494 
-0.000955899147101532 
0.02809602816101045 
-0.2527871493647362 
0.04997915244631767 
-0.1043646463812314 
-0.0704331852319019 
-0.5124895345005739 
0.04229809337004015 
-0.07336542026345072 
-0.038717590390673 
-0.08943472050849488 
-0.06068743530161671 
-0.5217205739684419 
-0.330885994938023 
-0.005031991520247633 
-0.009563348763737514 
-0.01393044257188215 
-0.3269907456753739 
-0.006084433474883993 
-0.1296655033261485 
0.2513111788885615 
-0.005555760157634064 
0.07663754610485762 
-0.002919070609676526 
-0.0210684114027828 
-0.1782617851594514 
-0.02750741399686073 
-0.1683756792200154 
-0.1075734560020806 
-0.000619392344870289 
-0.1382864645271732 
-0.1893881908959277 
-0.2328156312686724 
-0.2486208530752114 
-0.01162287013001126 
-0.04036674089487641 
0.02401282330336876 
-0.01016690209495119 
0.1533860009891573 
0.04971325313260081 
0.7955016858607459 
1.00683941966347 
0.2987968689166723 
0.2016330851842735 
0.05721918630304247 
0.9058212563532053 
0.4275214490459791 
0.1943239919336205 
0.6248588008515759 
0.133899682996861 
0.1790865991195085 
-0.05651662693682769 
-0.04443981976911157 
-0.1385427482233755 
-0.3438071268055696 
-0.2047607094219714 
-0.1704874651632161 
0.09387121072632522 
-0.02040020082198453 
-0.2410854734857638 
-0.01704724346593458 
-0.01097051427820408 
-0.01871940666826458 
-0.1747064352087716 
-0.08374010314811042 
-0.04348097316425554 
-0.07309993997969012 
-0.3021438266947376 
-0.002740572109208631 
-0.01055599186468256 
-0.0237987332191504 
-0.01710291645968369 
-0.006820880608026336 
0.1536310200405349 
0.04796372032298329 
0.5391953425788163 
0.02179520605883407 
-0.007766577926137991 
1.667278823477797 
0.2275944703560468 
-0.09463396034972543 
-0.1657428980785295 
-0.03377445510200748 
-0.03710164521634016 
-0.009881891004533319 
-0.04861681831795259 
-0.3272337352827066 
-0.00786489989864257 
0.0131422518970984 
0.2412847011811831 
0.176913658670383 
0.04379744896374024 
-0.09252051266676578 
0.04869416492239881 
-0.0648197290193484 
-0.1080926079552739 
-0.006032690454026419 
-0.0334211832031476 
-0.0002943573004200335 
-0.07460754319151176 
-0.004415179323025703 
-0.1161397726904986 
0.2384765822254705 
-0.2965819545484932 
-0.6423911877340279 
-0.05354526446701038 
-0.002030438984843499 
-0.2094072208010329 
-0.2289706567634786 
0.5518980691419236 
0.06683857656237492 
-0.1525817386765086 
