solver_type L2R_LR_DUAL
nr_class 2
label 1 2
nr_feature 4003
bias -1
w
0.1207075230477673 
-0.5262060683850113 
-0.06464929618003393 
0.1013936875254671 
0.1102664910741437 
-0.04745335107672083 
-0.6868113762769036 
-0.3766807132256809 
-0.000594681411864329 
-0.00809086813990682 
-0.002718259899289724 
-0.0007676642255420676 
-0.09010934639183106 
0.004076670549769236 
0.004041584723569314 
-0.2941642987175533 
-0.01170682172237906 
-0.006457262543130248 
-0.003305545251891694 
0.1806012299683334 
-0.02496760116437003 
-0.005321447442069993 
-0.2601352266196803 
-0.008946327657804591 
0.2538790452959789 
-0.002638123998329248 
0.007335578728365524 
-0.05527714634273784 
-0.0008748285677145712 
-0.0005689872970717632 
-5.501575764354727e-005 
-0.0007602293878130544 
-0.0005765590960418487 
-0.002443597982173374 
-0.08774461504605793 
-0.006708604893423812 
-0.01736436784152406 
-0.004032554825591777 
-0.01428002987191171 
-0.007906596922218867 
-0.0009257871455612428 
0.1576243653543893 
-0.0006278937757077658 
-0.1978986523624832 
0.1484540857377532 
-0.0187527783181465 
-0.3166318482164471 
-0.3658621274189336 
-0.1748795244139871 
-0.02339400158528399 
-5.486298206640745e-005 
-0.002772210247394834 
-0.0155311705348533 
-0.08373001115925788 
-0.07909667575883121 
-0.00911377494146947 
0.002521512408138604 
0.006516097255202392 
-0.006598037484412799 
-0.007394871917721198 
-0.003267743849877912 
-0.001824587991951164 
-8.669287001646346e-005 
-0.1603532674743537 
0.02403054789259421 
-0.0004956204522502668 
-0.6453180880141555 
-0.01214407579289546 
-0.003637972379752014 
0.01441018056497781 
-0.04841304438346537 
-0.03437257683821376 
-0.003554423562203478 
-0.2002852142279616 
-0.003059395317756499 
-0.0001406867737319943 
-0.01351468967720551 
-0.01155522093948633 
-0.01599050729049378 
-0.003240383116928404 
-0.002614270871625391 
-0.0004050685011079307 
-0.004136499598812347 
-0.003227245458671761 
0.1851001428246742 
0.03819072174370314 
0.01005738480498981 
-0.01657525404514101 
-0.003582154100670722 
-0.01252374484508793 
-0.1397645020474559 
-0.1247574855182665 
-0.001176138826213008 
-0.003917125562061782 
-0.001009596024214931 
-0.001517632349908348 
-0.003679434374843368 
-0.003056759051959369 
0.1054447075461365 
-0.00911377494146947 
-0.001092811640455415 
-0.001036747489409398 
0.2256550386332149 
0.01889676052581286 
-0.0110434690242313 
0.02266221700572575 
-0.001794137567449606 
-0.4975742514595198 
0.3865101175285254 
-0.00924867797306243 
-0.04396687383126387 
-0.1469058098463612 
0.006143682729317689 
-0.001016404605175219 
0.1102589856392647 
-0.1828669415876979 
-0.03601617803320893 
-0.491823523559316 
-0.01028991376768248 
-0.04439751964695978 
0.2246813085991566 
0.002169303667594894 
-0.00911377494146947 
-0.1085079825483366 
0.1799630526029905 
0.2228923700762321 
-0.2103503012058775 
0.207536460308492 
-0.2219309584930614 
-0.1089099670189032 
-0.02284423883462028 
0.02632953655263383 
0.09239210028045759 
-0.001410836338900921 
-0.2233569520278961 
-0.02605910630890464 
-0.007912953577194947 
0.370990929904604 
-0.5242786610766164 
-0.001887391809652357 
-0.1047541025924562 
0.001108148992018619 
0.08171222318758903 
0.03912372012049613 
-0.552733482238754 
-0.1366006768228392 
0.109430385148469 
-0.02849908144294054 
0.0846127382055222 
-0.04253343474363956 
-0.00911377494146947 
-0.0002622666131689427 
-0.07051075902089717 
-0.04253343474363956 
0.3335803860369411 
0.1607882440849937 
-0.04087888256490137 
0.001142684113237819 
0.003716231555139218 
-0.2590547049453132 
-0.5313577801787806 
-0.003983251383286313 
-0.3199713205171209 
-0.02284423883462028 
0.0002364179156264031 
-0.073980496478899 
0.05570464478029873 
-0.1481776036523796 
-0.08114827360619857 
-0.06011887460136731 
-0.01663545469641772 
-0.01204636620833162 
-0.01205932933285591 
-0.02352061130545689 
-0.009691145293823911 
-0.01581195581887848 
-0.04517698308984419 
-0.04307750618438271 
-0.004472699601130079 
-0.1302938197505301 
-0.0661036373371931 
-0.5985477331284852 
-0.8986640495581206 
-0.09082508529086993 
-0.2651023986367759 
-0.08272572000293961 
0.2190687664845651 
0.01122252491219393 
-0.1073744199693288 
0.3521660265943464 
-0.14672880361994 
-0.04495103815344171 
-0.7861433497110688 
0.299459760026554 
-0.08516968447044652 
-0.04723634878947726 
0.2596533965546698 
-0.106648616967619 
0.3128029657307436 
0.2092079857696971 
0.008101662968400246 
0.4617546470464806 
-0.09691931529672995 
-0.02284423883462028 
-0.1484259231165804 
-0.212661093306693 
-0.02947410464833873 
0.01226807165200443 
-0.003350379555371296 
-0.1911833177110065 
-0.2443248669564166 
-1.310883952832297 
-0.09308377346648553 
-0.5226551717953016 
-0.0001285739677640967 
0.0003272204010229301 
-0.008946327657804591 
-0.04070981086466896 
-0.01095771285073934 
0.7444103572721342 
0.2585661203489446 
0.4786487559317115 
0.1799128672354392 
0.5947489942582275 
-0.0008468142024725759 
-0.1665380020150373 
-0.2259695150647715 
-0.02284423883462028 
-0.02750783433637363 
-0.8801581654324511 
-0.009875306076246457 
0.2483527341007819 
-0.05457906809288447 
-0.1399634209550001 
-0.03054339322992304 
-0.5200307089125992 
0.08755175039009756 
-0.5039545868945586 
-0.02231698212872172 
-0.04550851993059418 
-0.6817213469687347 
0.1979061318114043 
0.5711650794051605 
-0.01952576896974072 
-0.01965313255131672 
-0.0729983033167137 
0.1305296544299969 
-0.4222463211351344 
-0.001769596161947135 
-0.06321616040601215 
-0.2054967616511379 
0.01855099766320736 
0.7635847565987524 
-0.2819054049414396 
-0.1327300122199779 
0.0262759667015165 
0.2912856320258708 
0.1709541707493316 
-0.4077987376836406 
-0.1555473013962667 
0.005980139037957848 
0.1831175509789207 
-0.120840145648928 
-0.1143717102084662 
-0.2767509948458654 
-0.247218097981744 
0.03552928529925681 
0.005170936340286809 
0.005987859957994123 
0.02617884261036828 
0.4727388386975081 
0.4141537451227004 
0.2963082771180495 
-0.4496493639997263 
0.03929947968674605 
0.01388924751765456 
-0.06841898566201946 
-0.01858290815806119 
0.01868485740647197 
-0.02577970765343615 
0.1348849982876712 
0.002748526475064438 
-0.002756924099758781 
-0.04402848288244309 
0.0003424793392188684 
0.01606976877251631 
-0.1378230381400671 
0.1808121292227473 
-1.316162918808054 
-0.08008863162772757 
-0.1278104568882963 
-1.266052093850349 
-0.2327622344025384 
-0.2389178982458226 
-0.08053462549081955 
-0.002465945461983746 
-0.008936398788123731 
0.1442722471768643 
-0.01390027881895068 
-0.01369229142103929 
-0.04762473733040623 
0.0625377692727434 
-0.3116120894719229 
-0.1162342452668358 
-0.2716983575727599 
-0.05469714883571653 
-0.02525711027402635 
-0.05439291919973117 
0.0229876583082517 
0.5465900861015119 
0.5773806196965121 
-0.0275486705735301 
-0.01313389559911802 
0.0008897829875629959 
0.005836963208909145 
-0.4474869938949784 
0.02141122458072136 
0.08100985724271753 
-0.1176100326126453 
0.06368199982706628 
-0.8336690235171833 
0.215014162645275 
0.04162226096818177 
0.03646805099463524 
0.1170821549417638 
-0.3776295824943825 
-0.05256567178059701 
-0.1488446461871112 
-0.4048228728810743 
-0.06352239899466738 
0.01030350567097033 
0.1560115610576978 
0.08769799331296729 
-0.3314651897233453 
-0.0002529541757127388 
-0.007321680785030146 
0.007262845750076928 
-0.1546658669751554 
-0.05197003418875435 
-0.04856342145409023 
-0.3230499250551163 
-0.2107384012006212 
0.002374390193130196 
0.1907622454342834 
-0.005297342229057409 
-0.1322255047284346 
-0.01393374018185019 
0.005679488697904293 
0.1380872971862857 
0.05442268480793562 
1.563879271140959 
0.07312222466716094 
0.0379897070179317 
-0.01865814864138129 
0.6453204012252621 
-0.1168726976068445 
0.0009086356793601261 
-0.3993595055682581 
-0.6082342464719842 
0.3086210229522857 
0.5863660258128615 
0.1746958947062671 
-0.01631197466779602 
1.13748839584665 
0.1032328469325718 
0.04743879642574344 
-0.05851226637748598 
0.02750577844280281 
-0.01216512237314063 
0.3957262659823699 
0.02344361188104099 
-0.4633937908135362 
1.250658519616773 
0.09480825097334149 
0.4296982103956951 
-0.01348013754668556 
0.09267132106980464 
0.4715186541590823 
0.379980708518235 
0.001332044881524346 
-0.419797547497562 
0.09930742727296027 
0.00112492839342575 
0.5834503028383091 
0.3236301136540803 
0.2020175644303665 
0.5446561272418915 
0.2836202793732813 
0.4176482608598445 
0.1424762749272632 
0.01840507040958521 
0.4334202819326202 
-0.1071993964825441 
-0.1114186959497154 
0.2616145153691685 
0.0348162892509712 
0.7271854700004223 
0.01371127998942091 
1.549901035284176 
0.1007874060104642 
0.2547130565111092 
0.04341291237179314 
0.587507564577044 
0.7992808098650479 
0.5101779731425313 
0.2663497848084419 
0.02967365640397008 
0.02484252262974682 
0.4496603099423995 
-0.07888035768546331 
0.06290169904776294 
-2.578571827412756 
-0.0420417903155892 
0.9858880942837327 
0.05019711251219907 
0.1105773624237094 
0.8816323466879483 
0.3595730409468844 
0.003115091381381893 
-0.01019421825077808 
-0.07660533445549303 
-0.04713328406823673 
-0.2026084803064655 
-0.1426756995247989 
-0.1036668068530715 
0.03033220767893521 
0.3874882243766295 
0.1071175111151177 
-0.003983251383286313 
-0.317931700658648 
-0.0343946563906361 
-0.05018322173988347 
-0.00983414989591438 
-0.02563595840126623 
0.2859682220509899 
0.2146182962528181 
-0.03271887490085239 
0.3268044311265528 
-0.2801076827355036 
-0.03374799446283244 
-0.009158221793514835 
0.05209697883108592 
-0.01158209713472763 
-0.01571313850324177 
-0.3620418594490137 
0.8641633801430598 
0.4148872718923398 
0.07372086744139281 
0.1524004329508896 
0.00031836669804359 
-0.01969236430083086 
-0.09069669341910393 
0.04224140022933038 
0.1415794501433388 
0.07567778993243982 
0.04038091472837966 
0.3852241800201187 
0.001900664703100102 
-0.003872944143429119 
0.02996532024784067 
-0.3764322307844529 
-0.01129142042259045 
-0.0135918290002553 
-0.1059037978458215 
-0.006136243929864142 
-0.0004277969242500464 
0.08257806353361268 
-0.00874748553923539 
0.3391887982353055 
1.045227855757271 
-0.1525777982586078 
0.01320272799334054 
0.3215496936767356 
-0.5457435050836895 
-0.01130055936023451 
-0.00911377494146947 
0.04468655374876328 
-0.178756647170529 
-0.02576636217186669 
-0.01764291345422465 
-0.008969230028497425 
0.5329362178232548 
-0.2773648705265336 
0.02182394638246078 
-0.1163212219288417 
-0.001527171115045233 
0.009394051437188048 
-0.4597635228645675 
-0.01402067910441097 
0.1309765497380285 
-0.0394687267001997 
-0.07922130813028439 
-0.2281056198200683 
0.3910595164408816 
0.3396915862601358 
-0.2635792662389813 
-0.07640274729809456 
-0.2835995174940271 
0.009690192001742959 
0.04000001318989171 
0.2416885893224184 
-0.01858290815806119 
-0.008417764313856312 
0.2436321709558181 
0.005820040125571851 
-0.6444168431218863 
-0.01726905404058251 
-0.04409473539893344 
-0.001251323502426527 
0.02169430835025326 
0.2415143305806053 
-0.02446245722857251 
0.1581880807558613 
0.2580987712568608 
-0.1001276255333906 
-0.7392241752135583 
0.031591771352789 
0.04054341953737345 
-0.004943902497354242 
-0.01169081281293141 
0.00582464410367701 
-0.003181558194885368 
0.0625377692727434 
-0.09808309621267893 
0.7528439404323267 
0.0625377692727434 
0.002524128427004003 
-0.2029801394218918 
0.01249146126178604 
-0.007801758224434526 
-0.02887885946717916 
0.08507124345890359 
0.009012214352411823 
0.1064134069341697 
-0.03012962382926603 
-0.1387231065998148 
-0.003572064647670954 
-0.006246183485189188 
-0.03415882951506306 
-0.209365581494453 
-0.02077317805903366 
-0.2186638804732339 
-0.247742952553387 
-0.002601901358114052 
-0.02804956360168968 
-0.2606514303090717 
0.3800182072424532 
0.01989137312152082 
0.09772003370033758 
-0.2427652536561067 
-0.001656029718494637 
0.009994337469908417 
-0.03779304405030737 
0.003830544297210767 
-0.01085713282115234 
-0.1343406735882746 
0.2172520429018524 
0.3110786896983869 
0.5158570372062521 
0.1033857040846632 
0.0009183091411906666 
-0.5255609234645712 
0.371791162457151 
-0.02724916797988299 
0.4043862566969544 
-0.04952128709084451 
-0.01729879357639805 
0.107712107987951 
0.5488648186650332 
-0.1641660179649828 
-0.05562528829814117 
-0.04976138212157662 
0.03995606863537698 
-0.05197137522067146 
0.05383610424069379 
-0.4315985162634908 
-0.004240136783235115 
-0.02378832006747193 
-0.5571651449367527 
0.3909689271723854 
0.3683289650883547 
0.01097599890192623 
-0.1355234964954327 
0.3455116970806557 
-0.08365977738809517 
-0.1347808539232379 
-0.284477775897654 
0.4206971484787369 
-0.002790811505056951 
-0.00136676386606146 
0.1783714290071197 
-0.08380906887283823 
-0.7418840285230945 
-0.1349282454946015 
0.8594678680101681 
-0.02886265776483268 
0.6261322757040214 
-0.01008995727481018 
0.2677707356584322 
-9.696490108913557e-005 
-0.06270087036057609 
-0.01874211720437892 
-0.003056805139811541 
0.03109007867353889 
-0.2100155688003197 
-0.008679205451998035 
-0.03434031407732288 
-0.255432876327257 
-0.1421042725014705 
-0.2679256569772074 
-0.02220246049837083 
-0.04141822462585581 
-0.1388589115810355 
-0.07065320404776591 
-0.01224832618018741 
-0.04394082838367564 
-0.002151276901808797 
-0.1634089045695321 
0.5927701325278226 
0.3219045831871785 
0.8918353901350573 
0.003781784268799898 
0.131621707450038 
0.8467490560637796 
-0.03530203766066714 
-0.05926620356663254 
0.1407980750830449 
-0.03210154908621794 
-0.07535099392693991 
0.3526685107403708 
-0.06892634305457319 
0.1567345502342297 
0.1854668893125503 
0.03389011934974617 
0.3050949666889046 
-0.00512977056222589 
0.8282788042359291 
0.03813125531070357 
-0.01854613750157565 
0.3153816666334599 
-0.3394766279998525 
0.3208452584390087 
-0.1065800538622327 
0.2718483792530173 
0.06899377899019821 
-0.05995740095211113 
-0.1799486603780637 
-0.02068412842226594 
-0.03642782532467206 
-0.01891530517401568 
-0.07533665082344858 
-0.02178261771500977 
-0.00625953687907533 
-0.4469167159935097 
0.5197396593566085 
0.5362661460056855 
0.1783846259505602 
0.1800456852402177 
0.04292338156291475 
0.0007619035449509583 
-0.03685221276200109 
-0.2262222685238373 
-0.09693148169088674 
-0.04709751483359689 
-0.001885075281707943 
0.0101724542616765 
-0.2277917205392548 
-0.5853805314406314 
-0.4871273565391881 
-0.3417383969975877 
-0.4235247990960664 
0.224575804693881 
-0.07639851766638066 
-0.8133807100275818 
-0.1381123268466153 
-0.03341612194605152 
-0.01139233937748416 
-0.01191520551977699 
-0.01191046253414665 
-0.04338167047000979 
-0.002448366648040209 
-0.003364195571778283 
-0.8359443903665013 
-0.1048381540461566 
0.05334269938006613 
0.01654084959887849 
-0.01713790231729498 
-0.02502857836978194 
-0.05116080875420761 
-0.1206759017873225 
-0.06207126165121419 
0.0002099877127657942 
0.1398920864310002 
0.02073137690809041 
0.336065288996691 
1.211725764626362 
0.1512491277736347 
2.559107438316257 
0.2437619341729422 
0.0001210291542853622 
0.1432130660887029 
0.01229639068137514 
0.8271359109024445 
0.271696564150851 
0.376441830237192 
0.4690597749975131 
0.3176035492074492 
0.1718881680541071 
0.007943139436085902 
0.6373273558959952 
0.03672851955004616 
-0.09530249331262772 
0.03455635603321492 
0.2007833826432076 
0.02433493413291132 
-0.003718627553243943 
-0.1987566433835752 
0.01986825457207761 
-0.05700225219233775 
-0.1165363650427867 
0.002537706196800469 
0.01837275186278901 
0.07130374198557513 
-0.5660550180397822 
-1.173915393188106 
-0.006841730208389496 
0.006066223207348547 
0.4780711021093899 
-0.03948528257460954 
-0.1339050298070912 
-0.6494862421560116 
0.09248597686169198 
0.0153327406622998 
0.0005004153619002865 
0.0007038553344792138 
0.1371591905690682 
-0.1566921296516285 
-0.04013939702085912 
0.04581714711999701 
0.03308169516981604 
0.7269851451283613 
1.189173052642177 
0.05492724874874347 
-0.003872944143429119 
0.3055275908069702 
-0.8459340218709411 
-0.01260370207569071 
-0.1448594829482029 
0.4007373872530117 
-0.02943003633098411 
-0.04221256544439803 
0.02128495948498308 
-0.3244660144200459 
-0.03452402327817154 
-0.2032388592547429 
-0.008702838680686064 
-0.007123716840072484 
-0.04471041943126647 
-0.09814190048557282 
0.05361173878537055 
0.08378223324127949 
0.1240728481833272 
-0.7678866402374971 
-0.1761623052315433 
0.01834901367451688 
0.00674596315699101 
-0.2068668466124954 
0.228904225057622 
0.1063876022663045 
0.006406777964392161 
0.05050781442360943 
-0.01402241630895699 
0.02349704278004284 
0.04215041171957797 
0.01878083293041623 
-0.1768449063847267 
0.0284458688115247 
0.1003963613101896 
-0.002356596240336552 
-0.1539345957902873 
0.01685849637047972 
-0.01889584739815255 
-0.01408549426483761 
-0.1809877379926586 
0.2463094276569338 
0.02721522806057593 
0.5570530725707746 
-0.3601202869495768 
-0.0561799429514454 
0.1430876264634108 
-0.4242720048573556 
-0.05939197193065079 
-0.2019948676117236 
-0.008274545857080264 
-0.06385937935176027 
0.009998071419286094 
-0.02108004492753349 
-0.3168830989077612 
-0.08633729687157044 
1.659789235665343 
0.2380937736687533 
-0.006791122970441739 
0.1575003985015845 
0.06477453650979752 
0.07227898381690014 
0.3153400869135615 
0.007791554944851896 
-0.003343105687908579 
-0.2063132383465208 
-0.2561100298848753 
0.4146064733984801 
0.3351725510340918 
0.08707549813613467 
0.3425194235513662 
0.04926622226097781 
0.02433800887011729 
0.06234329113990825 
-0.006646492968966409 
-0.2375133681380532 
-0.06203816037928049 
-0.003541904571685742 
-0.05835484003118249 
-0.2017818954968707 
-0.07311984369342012 
-0.07176837447188875 
-0.02632057707858936 
-0.1795306778429966 
-0.6347624645697763 
-0.3306674850355291 
-0.1046371465812869 
-0.003367107293312438 
0.1217156951857294 
-0.02284423883462028 
0.009261291832237208 
-0.02059341902153838 
0.03563481915955835 
-0.014198049061438 
0.1178575576371862 
-0.0107635762797269 
0.07114703241083462 
-0.3441476158003438 
-0.007619987218917838 
-0.0003848405766954288 
-0.005992039364008458 
-0.009548814420152683 
0.1821377923848909 
0.6737379824630744 
0.7059022907791285 
-0.08493598845271572 
-0.1699487522561947 
0.2155829368499612 
0.01175893902335967 
0.0279621525621785 
0.5622662608199732 
-0.01673845807946886 
-0.4709232664055802 
0.1066814545548842 
0.05596383762296218 
0.0005190691764683164 
-0.007997400872487194 
-0.1009154397779605 
-0.07369461586832377 
-0.004569075289131912 
-0.05192772690109565 
-0.0003848405766954288 
0.3720584144651676 
0.002267174285247178 
0.01121607612712071 
0.185406323613095 
-0.0009055419221252757 
0.3229329940580043 
-0.3657437742222328 
0.04203543035918635 
0.02034356872923632 
0.008311465961347913 
0.4310297167144648 
-0.005949634723096987 
0.002457853183764079 
-0.01835128485839488 
0.09041153136017792 
-0.01030541795647818 
-0.05598477148118678 
0.1168531279728711 
0.006716065396347049 
0.4377811042120109 
0.6594590765825716 
-0.02580497752538322 
-0.09164884602541819 
-0.01497683460401444 
0.4860909004430988 
0.2655374152136834 
0.09479441948053724 
0.02802249642366054 
-0.4803057725256246 
0.03517856470198878 
0.003211715755921643 
0.0823607008175061 
0.4989818745807214 
-0.00890002195782435 
0.1981413743260695 
-0.06747776398953817 
0.1170377666947849 
-0.4381329487449588 
0.5448757972563469 
0.1625830782004198 
0.03195651711779022 
-0.1497457580034124 
0.07138195930223698 
-0.02796690829433183 
-0.4977005507947775 
-0.07283100176065757 
-0.001463585444950606 
-0.115804593197254 
-0.001404110671791139 
-0.1780922733714112 
-0.006772148567906069 
0.3318405923568655 
-0.7610575286552789 
0.02798223779145272 
-0.07063590200559869 
0.2439910759905802 
0.01098572481338667 
-0.2293736516434704 
-1.209575561504686 
-0.04166543066554108 
-0.02314897396923035 
-0.4509891402719815 
0.04789085612184042 
-0.4727637301036901 
0.2806956847436662 
-0.001140181324013933 
-0.02306805807004719 
-0.0143975643723545 
-0.002265161013255285 
-0.001088459796250535 
0.5095756801078419 
0.09105712563378016 
0.09105712563378016 
-0.02188868893932303 
0.1307886051467229 
0.4262791865697074 
0.21721096397635 
0.5733002172875289 
1.165784723594172 
0.0004767147365300547 
0.132883215131616 
-0.07022296598957059 
0.004402197035734331 
0.01307987959199109 
0.01217280466074344 
0.1098299166254575 
-0.04818405637395808 
0.0007183484938176484 
0.01092146138297864 
-0.02166815573530187 
0.1886348893440319 
0.8339698934634297 
0.3231674650845255 
0.05195238647756127 
-0.004168515187365319 
0.3973634812082489 
0.001161015537334311 
0.05359469557591555 
0.006534007222806555 
0.1773008094325741 
-0.04794365721250191 
0.01105851206179656 
0.1861403859952511 
0.04125063844807792 
-0.01423780645738005 
-0.3148503086036133 
-0.3451876224474393 
0.0601696921382617 
0.003750198478511904 
0.07036878861920082 
-0.05942130581877818 
0.0005904108972413988 
-0.1611374541607302 
-0.002056834460753174 
-0.5628132110849631 
0.1797099092610162 
1.320595215844741 
-0.005386826039040667 
0.02772386674248847 
0.0260983679970525 
-0.05183017405723508 
0.1623356102356013 
0.1216590845918964 
0.1299935332521525 
-0.4833658385374198 
0.02899820822891489 
0.7795390767885464 
-0.01487629633429696 
-0.371721110850987 
0.08781052003471784 
0.07982336253825792 
-0.0678718545890884 
-0.002330907256713079 
0.02181896767075001 
0.04992643938926779 
-0.1300155052270593 
0.005178904248413205 
-0.3888404750559955 
-0.01711023593956926 
-0.2487247345312567 
-0.06931484311498051 
-0.003850760449856917 
-0.004755660344847767 
0.4894156729969901 
0.02557985575065052 
-0.1477688666628262 
-0.001690745116337034 
-0.09627500508101834 
0.1869348227791937 
0.2187061745689971 
0.409827174283709 
-0.002156590484950397 
-0.2344782463978448 
0.04440448893883637 
-0.053710978968975 
0.07455407064472816 
-0.002283165005176027 
-0.003761792738430597 
-0.00911377494146947 
0.0004324445483687483 
-0.01598428233785626 
-0.1911738866818473 
-0.01051541944080532 
0.1121671330115596 
0.0221502578344923 
-0.3634093529777657 
0.03359514748032097 
0.01873571093044942 
0.01359014984046805 
0.09329750545706399 
0.08731275590402558 
-0.3830657744212287 
0.2276431968279546 
-0.01700256493296953 
0.1051950146985093 
0.01190239730052756 
-0.04070144316290032 
0.06180981296631168 
0.4811157397530139 
-0.0009244077100177808 
-0.01982316171253917 
-0.001146854150606952 
0.09494676356765355 
1.073668158418376 
0.2908341960956125 
0.05474598410886375 
0.1264311159795895 
0.0007014319075338045 
0.02953984969458806 
-0.1924157706817283 
0.01424741341853199 
0.08388423226401938 
0.1003115683628458 
0.001019024451955581 
-0.06562482656447027 
-0.02786539306512074 
-0.01267950664955305 
-0.005046566257518322 
-0.1825772997497861 
-0.2488934608538129 
0.6592095032607355 
-0.2318036797326051 
0.06748015819420405 
0.02072662735179425 
0.9612585894163567 
1.407661387251519 
0.0002792273629502412 
0.6018178420410615 
-1.163327371286538 
-0.008774620548418861 
0.3544012260699495 
0.117443015060151 
0.1002017054572845 
0.7029171839859885 
0.08789580859784366 
-1.129194672253239 
-0.001419308040555972 
0.02596265872329111 
0.3115880201850482 
0.09105712563378016 
0.3080123266303853 
-0.09610642369596194 
-0.02500114901230615 
-0.02756183585719349 
-0.1223034073331757 
-0.01056812290731243 
0.0840799011122057 
0.02735456519908697 
0.2625032762614438 
0.1006177446717813 
0.07673283635008023 
0.1874753344601699 
0.1390553243013355 
-0.0953178908986584 
-7.60656793425582e-005 
0.005601376708817727 
0.0143549153590488 
-0.04041968656331401 
-0.2986151247447768 
-0.03693610140883326 
-0.2498136418899759 
-0.01965346103086306 
0.2160711517059312 
0.1461684252562604 
-0.4509501776207371 
-0.006417398318919751 
-0.03990491256939283 
0.05157928145711935 
0.02034581976815915 
0.04473436326339073 
-0.04166279658252443 
0.2307913335934242 
0.2960812689404604 
0.9469007392305391 
-0.04794365721250191 
0.02356686476327254 
0.1699458298885372 
0.1501595639195993 
-0.01002902000862813 
0.07933902005163872 
-0.0450139751949589 
-0.01558922891371333 
0.003325109703498024 
1.182782169778033 
-0.1972114589414289 
-0.0240184118260408 
-0.005371226965969707 
-0.1142554662270234 
0.6081120888902548 
0.01864942884701966 
0.1694669205570728 
0.05653524376223745 
0.1265651351084505 
0.1138342302720546 
0.08410572640752514 
0.1256592569470275 
-0.01097599737605498 
-0.02507181337062588 
-0.03004328559041776 
0.178687040004902 
0.03996079303650211 
-0.1953032458321435 
0.01776270180392821 
0.118687572495997 
-0.8646740343142629 
0.006301592732984568 
-0.3705638580080657 
-0.0007852450760947656 
-0.02567446554056117 
-0.01200534450876907 
-1.297161188078189 
0.04297532670167779 
-0.1175376562166211 
0.4600463487674531 
0.08568831281525893 
0.09416654982045511 
-0.3565234791591088 
-0.0317735174454309 
0.3582748058338332 
-0.009439164655142522 
0.007848166149090625 
-0.002212447795915081 
0.1641527325639649 
-0.04070421565743283 
0.192615683339973 
-0.04880380668283139 
0.2591915933889444 
-0.005382186402552631 
-0.513348127714634 
-0.343272124317916 
-0.2650503921070774 
-2.551433398694062 
-1.081359912161582 
0.04499281938925091 
-0.1471489949642982 
0.2957162021684576 
-0.1714094478757977 
-0.1708386210496329 
-0.8770860829090549 
-0.1225795509967509 
-0.3131532601818191 
0.16257272330445 
0.05738537483943774 
0.4715675091868887 
0.1049409509394368 
0.2435989763382224 
-0.02907475427939319 
0.8554497282489206 
0.05471748918389468 
-0.3990845526422592 
-0.02104755231414253 
0.4756453762522048 
0.7116989235126187 
0.02157505919812768 
-0.1015281846255129 
0.6153021388888036 
0.2819088912540585 
0.006823670646084242 
0.003048903309494162 
-0.007391787366079755 
-0.01528491224795055 
-0.02917585049529933 
-2.426702875146304 
-0.02137085700629646 
-0.2115049110527114 
-0.002895792268493144 
-0.05493159632306368 
-0.1533946404942522 
0.03076157640459131 
-0.142333892647436 
-0.007801409954588894 
0.08266154141686245 
-0.03544222925036496 
-0.07755698542084662 
-0.5509980905894085 
0.04760082361343802 
0.2474267957530931 
0.02402562295054534 
0.01300727017188601 
0.07501061001168567 
0.001283422222316009 
-0.5263112143194272 
-0.007475515512805367 
-0.3910174822078166 
0.05360192413655223 
0.1743592511533318 
-0.4018790210434132 
0.4872842759156211 
0.3155644553780935 
0.005698096143020588 
-0.01230611722397101 
0.11125818935311 
-0.03005998999741746 
-0.05749199281685146 
-0.01744538705111035 
-0.0004505950841595451 
-0.02316921093986686 
-0.01591248066731923 
-0.0005604259314506306 
0.1614598053648468 
-0.0003848405766954288 
-0.03415324860459663 
-0.02908123615363652 
-0.2306253028307144 
-0.3451240649673153 
0.513544121279728 
0.5324115365699716 
-0.2264519808814389 
-0.05711051409986629 
-0.08327870556155036 
-0.003342299362680656 
0.001012897515488045 
-0.007398164091146832 
-0.1377458017712062 
1.219741712441862 
0.09351036641165486 
0.1609535815470195 
1.516015479138196 
1.037249109118761 
0.06944424137857319 
-0.2628326981200128 
-0.05753053209040534 
0.0184633461819855 
0.3845144491056102 
-0.6884327004764462 
-0.5456318866164172 
-0.479864005553235 
2.192089882539974 
0.04883951114704341 
0.02485073888964236 
0.07797895162523394 
0.06115393825873807 
0.009786784810357777 
-0.1295779883901609 
0.2422486935210709 
0.6930034454977354 
-0.2141436558691892 
-0.00422198391997417 
-0.003797398326653238 
-0.03121793174195365 
-0.07831947245318648 
-0.01116206289729649 
-0.04467891445346465 
-0.04126309571022704 
-0.543049754627269 
0.012143674149498 
-0.3417383969975877 
0.04863048515727437 
0.1153686951810942 
-0.002583877102468438 
-0.02361304546993487 
0.2667731835908037 
-0.1768423284408959 
0.05377559012453631 
-0.1298858047291858 
0.08409316978817151 
-0.1906378538177146 
-0.01524489171948281 
-0.05354400732830475 
-0.01456827243349993 
0.01350451199701666 
-0.04988040295661485 
-0.2754600477251371 
-0.03598719361239525 
-0.009753173841149439 
-0.02044209890855486 
0.6692342334162937 
-0.183854542571445 
0.1360457351520449 
0.03148394698486325 
-0.01984712563841816 
0.00991285731436784 
-0.07859499619781378 
-0.3988708907399633 
-0.01504252745749377 
-0.02891182444392852 
-0.02247905465822684 
-0.05101490131809587 
-0.5652792257771211 
0.01325874240080564 
-0.0114703734875931 
0.07723050831140148 
-0.0674013991465755 
0.0366426241185116 
-0.0008339618303708554 
0.03124907199018632 
-0.3143954441335091 
-0.009426683307485702 
0.001671024143842537 
-0.4593958568957908 
-0.05693077773028926 
-0.02284423883462028 
-0.1718986991038955 
-0.1822034074674854 
-0.05504133774915961 
-0.1785460587676097 
-0.4603522215083324 
0.01815671502064266 
0.0009747077698811339 
0.4882937439434282 
-0.03013759787140013 
0.02773779415918827 
-0.02210247427658658 
-0.03013573905830712 
-0.04984031305354531 
0.1352946215256844 
0.007627572338735639 
0.6303852818110519 
-0.2170812333308455 
-0.07886536132188796 
0.4090925438195596 
0.0004710637026575941 
-0.3484645708043421 
-0.6838703339102861 
-0.2459541128906319 
0.003635928507406093 
0.8726071359669865 
1.001792784421615 
-0.04700331803455803 
0.1093681216760286 
0.07810192187993972 
0.1775056583151992 
0.1772975296346501 
0.5764001852041318 
-0.1983610167845035 
0.2921216491885285 
-0.4030844291916791 
-0.1622229674933782 
0.9580671353783626 
0.06069579743932387 
-0.4287100871869609 
0.007246852069884426 
-0.3229488063493265 
0.04422587132526419 
0.1580795682235457 
0.405702468769872 
0.5701644491502379 
0.2001186520687066 
0.7468002579308937 
0.1671011758606079 
0.1717464013723025 
0.02176759045395667 
-0.0412462355853939 
-0.1173850523798604 
-0.006142516846943837 
-0.1356577870486015 
0.1729464308826182 
0.04238330573178409 
0.03326143411298306 
-0.01104504142109425 
-0.219013559229865 
0.976165389171608 
-0.007798957865794425 
-0.1685733246723004 
-0.2295137890917034 
-0.00223849109283498 
-0.04265996028303394 
-0.0454424975000484 
-0.03553179760780233 
-0.01273279372606003 
-0.001632705869519426 
0.3645676731003925 
0.2788201659839911 
-1.012836439658769 
0.437323340531017 
-0.1151079731205287 
-0.2130041877159322 
0.003459953762994468 
0.0008011717298400602 
0.4772473141662637 
0.2359895177754163 
-0.5048303669260185 
-0.1590805956572156 
-0.0006164765138594695 
0.307076111789064 
0.4167031807774062 
-0.5303067823370327 
0.1406194185970046 
-0.4976395802587499 
-0.5771881445860646 
-0.3628834990615667 
-0.03756726925247168 
-0.6525616865976789 
-0.255278648306539 
0.06795671043457947 
-0.2857897040595936 
0.4392363007718519 
-0.008163724001273597 
-0.3708213771629588 
-0.3650477092647955 
0.001420042201515155 
-0.01463738604993872 
0.8409018994849022 
-0.07951518111683631 
-0.03171529249900085 
-0.04583499638690586 
0.002583095873657505 
-0.01377230983476024 
-0.02259111441963954 
-0.647403481280647 
-0.01005446204157776 
-0.03463218313295342 
-0.01837963182049094 
-0.03889725937889207 
-0.03869813036650809 
-0.02236235229883103 
-0.02623474093460444 
-0.01014216710046557 
0.2000047649594365 
0.3772591847202242 
-0.007595097694121756 
-0.2404612440404464 
-0.2131721771145538 
-0.01587640685168693 
-0.05406796453022503 
-0.004614556324477004 
-0.1382760021321941 
0.01009774803155569 
-0.2133019211632545 
0.003542149450031974 
0.07881294539996132 
0.1418231992856096 
0.01523736986850888 
-0.0177966319795801 
0.03063947048242624 
0.2595850127308437 
-0.08147165072688378 
0.2204174284996179 
-0.0831896039031973 
0.004933500143817299 
-0.6458235088052884 
0.1619086976750313 
0.04409763498186119 
-0.008774620548418861 
-0.006760590162155592 
-0.3878148079734841 
-0.03420643501802381 
-0.2090457642412034 
0.5886528811652446 
0.4603991304558892 
0.07914803110557661 
-0.450418023707686 
-0.2183928884218838 
0.09886143049364761 
-0.4997934613108662 
0.02230846580116363 
0.006383971007963995 
0.01410809035845163 
-0.01939155048931638 
0.1280378063172966 
-0.07858754038671074 
0.01945995214848253 
-0.006272238608274698 
-0.0008432588660041195 
0.005554798273481606 
-0.009668014484707572 
-0.01353103548192677 
-0.003870931209194351 
-0.04481220448470564 
-0.5128057952398069 
-0.1345490564208351 
-0.09530848270416206 
-0.09900744006732057 
-0.01732116844153491 
0.1601091877000019 
0.4429039453269075 
-0.08149747583572781 
-0.005581563433622767 
-0.03580707929702605 
-0.02686250352830542 
-0.3007840931703383 
-0.4730552996312766 
-0.4096855609176841 
0.5195564546920622 
0.1617600626769769 
0.0425033560558847 
0.2985004116610199 
0.0002021328010910524 
0.7081444719256194 
-0.07358854873288889 
-0.03140423857848995 
0.2969096957368574 
0.271116015009452 
0.04191220774378628 
-0.04794365721250191 
0.5777870946174035 
-0.1838853753150181 
-0.04437637868733163 
-0.1453224802346064 
-0.07773454484636316 
-0.09488725104730336 
-0.009072624908001184 
-0.005535393088369839 
0.01444323036020142 
-0.05835484003118249 
-0.05835484003118249 
-0.2583536874191371 
-0.8864585670166915 
-0.2521531715835833 
0.005935152359793972 
0.2599138222945114 
0.005097069479586155 
-0.04844286042011126 
0.1462567275322645 
-0.01335147389783157 
-0.04103095082513632 
-0.1583098300720068 
-0.3490676923155135 
-0.06095786008566718 
-0.4667822844326968 
-0.01685392088342973 
-0.101201599406163 
-0.02910537195433981 
-0.1732079133105721 
0.5444105059136248 
0.03681952246036277 
-0.06801800095431183 
-0.1461220043572883 
-0.01684652134209723 
-0.01961209303643531 
0.4110940340040158 
-0.008959015952416225 
0.05255077428757134 
-0.08747930635034951 
0.9163063752446401 
0.03473117971404505 
0.2811138514761215 
0.2373392212454779 
0.166669194594553 
-0.1519697616325751 
-0.2397655509339975 
-0.0423270591444702 
0.0141973669161502 
-0.04083701254109378 
1.330046682066352 
-0.06286994725104099 
-0.0174840687260779 
-0.001350957061851713 
0.01693149855956111 
0.001849029206540694 
0.01553586948635627 
0.009721799455084942 
-0.1626632856307658 
0.1138386765868066 
-0.06190527502509118 
0.09840002856887409 
0.2134867705584947 
-0.0224241045314428 
-0.213455782547355 
-0.004726913974405519 
-0.02133790649400628 
0.007731054292795889 
-0.02021089705087069 
0.0007619035449509583 
0.5733108360530574 
0.3278641680164139 
-0.6566097965437956 
-0.04612560011925235 
-0.06337134493607448 
-0.2761885062301742 
-0.006460945995066516 
-0.1273106900956872 
0.001402477253869341 
0.07822055333983721 
0.1480905391949948 
-0.221575337677964 
-0.04375682033691288 
-0.003758608233396845 
0.5234674122569643 
-0.007911743191006852 
0.1950988885169465 
1.693282562968871 
0.1651609394051915 
0.001147399159266893 
0.05457327577305025 
-0.0216897265188402 
0.06350581630996617 
-0.1249548318500919 
-0.3286790589020954 
-0.1375959251190064 
-0.3600940221016139 
-0.1077834535879441 
0.03923529294315479 
-0.05704865447539132 
-0.03395456844035504 
-0.5224034711938107 
-0.07132010017687303 
-0.01387292266404691 
-0.05258299747720888 
-0.004152844452350032 
0.002989001624593958 
-0.1427725938745384 
0.04795313040730096 
0.02314175895009909 
0.0331492470421793 
0.1394724335720124 
0.2305557916717695 
0.01024241925790562 
-0.01451678247058087 
-0.01336739632396542 
-0.5303417896379428 
0.4929272835923729 
-0.6540202097038683 
-0.2294471510132806 
0.01654276321537299 
-0.08391760211922583 
-0.03110929869089346 
0.2245629638652117 
0.04758640745978704 
0.2477854957471933 
-0.5282008441106079 
-0.2165168276837497 
-0.1355234964954327 
-0.003444227060731364 
-0.003077027261674082 
0.08208009630521906 
-0.0221743927088037 
-0.00540423944030443 
0.06807104152429108 
0.02398536221822608 
-0.01874681652605819 
0.1168627478783739 
-0.1268691593738142 
-0.02326674510514497 
0.004013643412163084 
0.03393929063493762 
-0.1515569421471646 
0.143634648499601 
0.0813221505037362 
0.005492430753507887 
0.345063366195994 
0.1444002818925457 
-0.8488144618920073 
-0.006613935114614625 
0.131113638734108 
-0.002379184353028857 
-0.3987572056274527 
0.5690342239132901 
-0.08066268061078392 
-0.008824800287602855 
0.06111754179644176 
0.2899198949677098 
-0.4292408768399056 
0.2851403716430164 
-0.005783941572984832 
0.1742496315789713 
0.06908379075112256 
-0.01298443123029989 
0.9339891671934458 
0.06179074297673642 
0.01670932847367171 
-0.02146690157421376 
-0.004760662412030769 
-0.05836231726143466 
-0.04876200795808185 
-0.1066753318965028 
-0.06911627217975803 
-0.07891506003576353 
-0.3350297523744995 
-0.003895383444580809 
0.1700633137123507 
-0.2638347872280246 
-1.589786553733123 
-0.07322351972724306 
0.05684716110810306 
0.03141638685049528 
0.03838604339029028 
0.0003835323166757799 
0.002353488622421797 
-0.01009002418730875 
-0.03449479105469226 
0.001337388391832355 
-0.003904845723220491 
-0.09826135312903098 
-0.0110156071375584 
-0.01097958928805657 
-0.009880133475847194 
-0.1057508283715419 
-0.152880489513283 
-0.02054077527252949 
-0.2058956069913557 
0.0543914417880686 
0.006323671832380222 
-0.5675511457272525 
-0.1041465933433582 
-0.76340450740414 
-0.2400934367449387 
-0.1588029435947254 
0.1668499918079894 
-0.2643480546925139 
-0.9242299038960655 
0.1531267845761611 
-0.1994085360573137 
-0.04475062541204896 
0.01518517508702473 
-0.003300556127904009 
0.04370611320886177 
-0.07140727961360679 
0.001527899697048781 
0.002534570701593914 
-0.002394647000549846 
0.1037794065567272 
-0.1498561313886856 
-0.008123387907826241 
0.2250701436370602 
-0.3054019373044867 
-0.004202973737332345 
-0.09870602072526072 
-0.0807864114467504 
-0.7469993606276619 
-0.02721249404378475 
0.03121464895855361 
0.597266109049152 
-0.01445366667893218 
0.001856502957412498 
-0.08032877948897148 
-0.02000259063227435 
-0.001493661916279565 
-0.2087748692790824 
0.02466609474065419 
0.05474480845492861 
0.01448813975028623 
0.1959719195514494 
0.2315414907394312 
-0.1600329591253494 
-0.1750636408579777 
0.1275062100641583 
0.6403785989875684 
-0.1846282773752716 
-0.00269986452730077 
-0.001835045966990974 
0.4181478270033751 
0.06631558922744626 
0.01773665407561624 
0.6857826266612364 
1.041372713403266 
0.01337411672711062 
0.4183229319820772 
0.02029209657390782 
0.04781668605062671 
-0.0124949243748775 
-0.06804462142241502 
-0.02548725415509378 
0.03335400867549245 
-0.08787042347357503 
-0.5981166985876014 
-0.2909299052538723 
0.02607395067627694 
0.03384049927362097 
0.04113204312694371 
0.2952219033466525 
-0.4689070152084631 
-0.01427242998934232 
0.04363859405154916 
0.005608449960224611 
0.002989381703696954 
0.8226861753035953 
0.02137133513850103 
0.06596340049820174 
-0.003279866703856753 
0.321970699797523 
0.9372984228609158 
0.1464413981170738 
0.5970765985024129 
0.03761562306304324 
-0.01263667995791426 
-0.006068302080683232 
-0.01077244478413218 
0.9962877824634905 
0.3988546975171942 
0.04781940219289787 
0.3329607549333748 
0.189686326311577 
-0.002259570700092977 
-0.005000945005199474 
-0.05521366695901373 
-0.0415711230202674 
-0.04220700342292582 
-0.3437059351783837 
-0.001430599233853459 
-0.3253508329291346 
-0.03397131169000078 
-0.008805961979440972 
0.1369735247518207 
0.2046984554686563 
-0.09646040479297177 
0.07446956889421662 
0.7673591378021814 
0.1885856634979862 
-0.8490650438711616 
-0.5319719314291415 
0.0218569184638992 
-1.034667159437877 
-0.07288334481844989 
0.06099999155261623 
0.08101677194796134 
-0.00371327431401545 
-0.05855162021512037 
-0.01009002418730875 
-0.1109472528365493 
-0.5039028733577295 
-0.5069497413940591 
0.2311981595329551 
0.07364607678587205 
-0.09330985883956611 
-0.2023144809312167 
0.04408618083252822 
0.630963580172862 
0.2321286284726638 
0.1434153615679718 
-0.02153638892666597 
0.1750421093616816 
-0.02853925588123681 
-0.09398840914255288 
-0.02907459032112226 
-0.131082442338755 
-0.005198466437176428 
0.007951941072901177 
-0.3114222727655708 
0.1582709245362836 
-0.1171188811700501 
0.05662639536984822 
0.03339567041796346 
0.001028913080617215 
0.01818783806366172 
-0.02120136007496715 
0.000883744837240127 
-0.4866971309416548 
-0.09453679723371614 
0.1912113600914316 
0.08680844826644354 
-0.2207179910037981 
-0.1781220174045766 
-0.004512729465587863 
-0.1626632856307658 
0.0114257468914125 
0.06744981520898889 
0.006607978870734777 
-0.06324806323776239 
-0.007517754787430895 
0.1956993757831048 
-0.4397521036350057 
-0.08214185706742848 
-0.01076325495392355 
-0.2961392600386913 
-0.01561273707042366 
-0.006477937806581645 
0.1052457110838747 
0.08671814122511584 
0.3521118765929047 
0.0461405810617113 
-0.4162927337802811 
0.1550918365700037 
0.4135328482628675 
0.258656659071234 
-0.00353832450779035 
-0.008230033876540085 
-0.0252593843307482 
0.02336396356177278 
-0.003908080520042384 
0.06984916522259541 
-0.04622589653301319 
0.008720595141949885 
-0.4003327135307775 
0.7376540694270054 
0.1765659639758533 
-0.2046601681863298 
-0.08814965414653911 
0.002270569795812065 
0.0005255730241052986 
0.2344200892169258 
0.5792733396974639 
0.003205025302142755 
0.1600510686184874 
0.0001179300909143505 
-0.2599464464449263 
0.3411287235300362 
-0.004835919106961021 
-0.03485077984935037 
0.006646071517897555 
0.00350454087506334 
-0.3984420364467797 
0.008149014609587193 
0.806556065345277 
0.08309522863292199 
0.01490789066468173 
0.001168066344256182 
-0.0325988741022769 
-0.006246077133516163 
-0.03149970495646833 
-0.5498074366008838 
-0.1358223610161671 
-0.09984874265950237 
-0.003451209162098699 
0.09825925456201198 
0.6374393734919452 
-0.07184382452935906 
-0.001011924882031131 
0.1488411566247804 
0.1242885479581659 
-0.1271882006853923 
0.2864852587639562 
-0.08375384783177599 
-0.02652402382399538 
-0.04265241691884581 
0.6662139147439733 
0.2636418371631096 
-0.02612034997794911 
0.04942278545726885 
-0.03026911550210847 
-0.5234625996706906 
0.04432834148782223 
0.05004209307767538 
-0.1355234964954327 
0.008298559603167438 
-0.01426034391246443 
-0.3042637744867364 
0.03629682374600677 
2.108892434502995e-005 
0.717437851788903 
0.01149784775175755 
0.002357083739934545 
0.02577066689797535 
0.3613547374752998 
-0.4870932901999728 
-0.00464960104170313 
0.2418725992546755 
0.2861175516627328 
-0.02141152016808737 
-0.07175119035287716 
-0.0002061737810543837 
0.09105712563378016 
-0.6759597956478285 
-0.01972328024533984 
-0.007241701334315918 
-0.4773696452875071 
0.04194306201164364 
-0.3132913498855282 
-0.0393978442458052 
0.01675073461576283 
0.001634297006629802 
7.823619097526642e-005 
0.1597868652493382 
0.05572588720878154 
0.01810366590930673 
0.04190360072719848 
-0.1107029200650554 
0.02119870932089775 
0.09914062895429593 
-0.7106479978228099 
0.05752400022369247 
-0.008663266427684408 
0.003722554147392069 
0.2362312691697012 
-0.6098393421723826 
-0.5489953474476742 
0.01982945765980935 
-0.003070899274377892 
-0.001340754137012964 
-0.177589942014882 
0.210950526705623 
0.07125436196786904 
0.005709058636033512 
-0.2693471024107037 
-0.02480088564301336 
0.03810740651220458 
-0.01789684766231239 
-0.09999579359098514 
0.008175556197169597 
-0.5840245983694745 
-0.3654180645828539 
-0.09463142904755731 
-0.9916231759945738 
-0.2173445986979121 
0.1331244274259277 
0.02808632666379503 
0.008392111104757714 
0.2784811608039862 
0.2002064945158243 
0.1960221372580403 
0.002630590117141902 
0.3116402636492038 
0.04814987592256864 
0.06966873932901474 
-0.3183588910189206 
-0.6029189191691023 
0.1598846501707869 
-0.04235820683243056 
0.06432758555672362 
-0.1243418545530643 
0.003481151730891367 
0.08514678860999991 
0.04047908069137227 
0.1124259385416557 
0.1083666410102849 
0.2950736891929433 
0.01021017247030905 
-0.04900322846571596 
0.02324065981781104 
0.7530473790040299 
0.3126950197312885 
0.01412167260994646 
0.01907979425126084 
0.05514406076522062 
0.005303269502628665 
-0.210188282727925 
0.3159139042500863 
-0.07115582804676261 
0.1857967606269406 
0.1829245718979725 
0.3221400926373176 
0.2731278411031247 
0.4580699474341657 
0.3050758823614913 
-0.01266930047902046 
0.004996506782125115 
-0.02955912451656366 
0.1957423552741676 
0.1271834762220266 
0.3622355271803977 
-0.01858290815806119 
-0.01166859749415078 
-0.1563851482914302 
0.07875045736794353 
-0.02130193613504223 
-0.2333016590303462 
0.1692063663743647 
-0.04414253564114666 
-0.6698210971972329 
-0.7884503583538411 
-0.6394141365204662 
-0.002750865819355625 
-0.185216754888297 
0.1085619294955418 
0.1588069554206524 
0.05933833482301416 
0.2178748788941993 
0.1249927310439683 
-0.1373274126026189 
0.5798920754506688 
-0.0139408170337007 
-0.0007112415825235581 
-0.6141258933004217 
-0.2259275826785313 
-0.1904771657682924 
0.04770806463353389 
0.05792962279321153 
-0.04781409259631447 
0.02740505707996905 
-0.6847550010782014 
0.2954703098750555 
0.2005793921411773 
-0.01411120313380451 
-0.02500114901230615 
0.1041061450480887 
0.5666892556236378 
0.0490130310510255 
0.01638049833828149 
0.04868646600655414 
0.08088221552214535 
0.478555941595427 
0.07186045659663329 
-0.1722147849495475 
-0.02203817146635927 
-0.01856200803374265 
-0.322712485057926 
0.04036876735496043 
-0.03966517021022615 
0.1876100200985061 
-0.0282801555064888 
-0.05170856213157989 
0.02725874598190259 
0.1137835672522756 
-0.02701486185148928 
0.01273300887040097 
0.120007255576211 
-0.01658291614081271 
-0.03912976315390668 
-0.01475135003686598 
-0.04441863725376138 
0.03902195949626745 
0.07284117863695369 
-0.6291893067438393 
0.4094051043690375 
-0.01102968676331539 
-0.02850924084339974 
-0.09770689208429689 
-0.1676471893703962 
-0.002688825049690875 
0.3166003086200859 
-0.08920367267090465 
0.2863199473158504 
-0.04532644209065933 
-0.1084954742803569 
-0.006050611281475987 
0.138986078081008 
-0.1426756995247989 
-0.006665460010482287 
-0.02918896731733434 
-0.1714585641868346 
-0.01295929615119006 
-0.2236481018693833 
0.4912590158467362 
-0.2244662570040907 
-0.003511464298680727 
0.08384964726769614 
-0.001249236979867953 
-0.01982555096285437 
0.9847902843925253 
-0.1597826087422959 
-0.06013240925830234 
-0.01577451940359934 
-0.2494303287201622 
0.002547961778455494 
0.5966183418608569 
-0.08458963045784235 
-0.01195536844153401 
-0.005054148939757292 
0.409750237053963 
0.006741092641034775 
0.1800393040922383 
-0.4118280934013059 
-0.001033660356976216 
-0.01870979660738342 
0.296097111886768 
0.1697707302526619 
0.2441612454451096 
-0.005533017280035139 
-0.1610734693617988 
-0.8840485040620317 
0.0893963303692142 
0.3157368952660698 
-0.002370639063972703 
0.02502797108285025 
0.3861086634108664 
0.04166037746493351 
-0.02157156916036523 
-0.1212088825806468 
-0.0003561023547137753 
0.1217785929311102 
-0.00924622015804232 
-0.00380533681568324 
-0.4629578333676677 
0.08572130405498324 
-0.005156986293008587 
-0.01967919026990476 
-0.005455256260325099 
-0.04387981445183163 
-0.03004928856917765 
-0.0224824965340374 
-0.01726607035972338 
0.3620390403682287 
-0.01209589852391815 
0.4563151861218223 
-0.5155668410221407 
-0.2101622666735862 
-0.1352123593719185 
0.739896208843923 
-0.02846029610636605 
-0.343894060482114 
-0.04476729439250457 
0.1341605464828073 
-0.02166845489218696 
-0.02346393020432333 
0.6125004757488787 
0.1138839258963339 
-0.02284423883462028 
-0.01391714313089455 
-0.1082988256127542 
-0.01113903725635186 
-0.1260353195135094 
-0.2053075770328307 
-0.1305726739126949 
-0.2058871676303204 
0.1078004818512467 
0.4010500408224326 
-0.5633409107066569 
-0.001628615298243103 
-0.004297799019841471 
0.07293367374954916 
0.0780671117064619 
-0.3080540188003916 
-0.06303185065305986 
-0.03204659897181909 
-0.08283173644841813 
0.0782702099931059 
0.1520831405029783 
-0.05851226637748598 
-0.0139791185080157 
-0.661297922552772 
0.1018618739007277 
-0.2977542170116451 
-0.02548922226212269 
-0.000990025682635783 
-0.04794365721250191 
-1.190172197375645 
0.09175752137226077 
-0.09453344048877542 
-0.005467010137424528 
0.05705508926252575 
0.006680608287643844 
-0.7299527477491044 
-0.002817453073995906 
-0.05915998647093181 
-0.1147458283226952 
-0.2343321224947021 
0.2909697212149374 
0.001476645255054516 
0.1353035418726045 
0.08232415516234529 
-0.3623769434736729 
0.02774639199775501 
0.396549025542875 
-0.006419044933285542 
0.05809522972737626 
-0.003690989603892833 
-0.3417383969975877 
0.09105712563378016 
-0.09936509372325984 
-0.1892994049429345 
-0.04191646551516799 
-0.1518022839565846 
-0.05198209102791793 
-0.0512254895495616 
-0.5255184355094849 
-0.5337667340103905 
-0.003402175529704744 
0.1264198065950426 
0.2053026999938367 
0.05116192772157476 
0.0001715325619573483 
0.009941064852961899 
0.115813794530137 
0.02433823717124364 
0.09418745123161493 
-0.009985019020566283 
-0.00697228929809203 
-0.006028160623233352 
-0.8922715538597357 
-0.01308273934410531 
-0.008440328152508139 
0.3090437538296457 
0.09375758802219311 
0.05438867524587837 
-0.001807289130685506 
0.1953359232630698 
0.002604529754160565 
0.001671419495908248 
0.005254509298030874 
0.05343587300918749 
-0.003523550909736807 
0.03020223513014473 
0.2955386135008862 
-0.9654768367814415 
-0.7552445638561096 
-0.3971310767461523 
0.1241050578953766 
-0.6860064217832611 
-0.06013927965538228 
-0.5233344674672431 
-0.007075607851728578 
0.1709329729836114 
-0.5259073079416264 
-0.04794365721250191 
-0.1301461805295089 
-0.008276116415915845 
-0.2497820303231657 
-0.02715602022003796 
-0.01916836648195879 
-0.71458740266449 
-0.07361589202588229 
-0.0556537379914859 
-0.03623795027156377 
0.2407188040503975 
-0.1218671949043814 
-0.02066454464552546 
-0.07011455340119387 
-0.005351536340202836 
-0.1152106332713147 
-0.00934054919938318 
-0.004071347734857745 
-0.7764922835047945 
-0.1352457588111239 
-0.02341235324942722 
0.001234752015575742 
0.03359385046566363 
0.01678243384795692 
0.6248021018868339 
-0.00834392768345181 
-0.005556966493814193 
-0.03462093393334566 
0.1677890584168218 
-0.04267495467488985 
0.07153826301599539 
0.4294291478900118 
0.0004882240513443825 
-0.01575871813924228 
-0.2028431989724746 
-0.1111604389302396 
-0.02069080715371742 
-0.005153970970493831 
0.07236255642324356 
0.08949120620394624 
-0.04862155166428785 
0.009114924872183169 
-0.02404999289057394 
0.02641170246231044 
-0.001088556405044728 
-0.003852608027868293 
-0.03485757778299975 
-0.4952760598156815 
0.007956499035837859 
0.5795707819598926 
-0.03669034988259155 
-0.4915880348894257 
0.144000619902618 
0.6878886084416178 
-0.01022404544469073 
0.1914010356539385 
0.1773995671836258 
0.02087039198327449 
-0.01941157079476815 
-0.03628727964051275 
-0.1331203615667659 
-0.1525613962207695 
-0.09474525268960461 
-0.2328079273031652 
-0.2339090339906141 
0.002907912698244435 
-0.01418915936993346 
-0.06411456809823474 
0.04470392651332095 
0.149090559601137 
-0.7586880527006538 
-0.136198860708847 
0.05267903739727062 
-0.03665727802857578 
0.08635245843741791 
-0.4222837298041596 
-0.01456847327773504 
-0.1178264226735258 
-0.2802993230597155 
-0.005479726853967245 
-0.1718403050278829 
-0.03047837803008252 
0.1663718436941245 
0.0487456200929972 
0.393112612330988 
0.2512640716023633 
0.8602264496295675 
0.01830039949998991 
0.006772606817357163 
0.01801560560448244 
0.4130873821189957 
-0.01220442855463728 
-0.01885058418177526 
-0.002713489848210143 
-0.7391094546667312 
0.1522834978921804 
0.2303680849480574 
0.3486879508686164 
-0.5818762234444681 
-0.1053238029457672 
-0.4890594244415076 
0.04240676715947506 
0.2527781479058487 
0.4983366211584311 
0.5169353686555842 
-0.004545060501518118 
-0.05893480486273899 
0.3123742687676338 
-0.1573998242914995 
-0.01033285056718742 
0.01271156654356032 
0.3239156142700096 
0.06040815290436219 
-0.2590484387375702 
-0.01426895702284127 
-0.0005063444224857122 
-0.6856216769833716 
-0.01388868308986345 
-0.005596493664872176 
-0.006087120785971031 
-0.2345452312118398 
-0.09497555252074207 
-0.1030903332437518 
-0.03717109759859416 
-0.01528562723070069 
-0.04674838425620496 
-0.09848910198365121 
-0.05192772690109565 
-0.3222262097733304 
-0.01954549373676402 
-0.02839603392249979 
-0.007238422096780549 
0.1699510141856602 
0.004563122960186706 
-0.03285395065478489 
-0.021951243876409 
-0.004309045206656706 
0.208409338726143 
0.3822438393101937 
-0.007856851944756041 
-0.01307595244423373 
-0.05851226637748598 
-0.009699576357556273 
-0.1899508463445501 
0.9584889048725023 
0.02309107545624615 
0.155990901191284 
0.5405057270991109 
0.1032738505920388 
0.7478803097204197 
0.2728130334433425 
0.05590220562875669 
0.05766668715370681 
0.03054835496797535 
0.0007724579850567421 
0.009790058570953435 
0.2344411541008067 
0.1860374352464742 
0.5245734612564723 
0.8066693443427783 
0.07254092884750624 
0.0003272204010229301 
0.3834622877067594 
0.1169730463229791 
0.05071534686508505 
0.009435161451913225 
0.03915394992234617 
-0.0193263616385249 
-0.06894400830794571 
-0.02265440628558003 
0.1887654375928408 
-0.02275492997787557 
0.2453228391032048 
0.07064976174012058 
-0.2223409880124108 
0.5380974071706897 
0.2858477667272734 
-0.007679069294756099 
0.2363849537852401 
0.166141464450108 
0.03938901996802512 
0.09246541872193123 
-0.05347534001688627 
0.1125555002477 
-0.1953955267740609 
-0.05537426379690461 
-0.00189665553660256 
0.09276527890625848 
-0.07286138864074289 
-0.2169442120545492 
-0.1995488087880594 
-0.4095884671631309 
0.01027772279648242 
-0.02748016208780213 
-0.1632437177181721 
0.4881608804270571 
-0.05996075643076513 
-0.02412224381098903 
-0.003054934584855533 
-0.005398942020118486 
-0.2844929112128256 
-0.0233650938478829 
-0.03420712449530324 
-0.05309046777911082 
-0.00473034939743803 
0.01777950748275543 
0.7296695144584334 
0.1387911434923236 
-0.04364443969499599 
0.2960851499291238 
-0.004297799019841471 
0.0178152585011667 
0.0716342458547452 
0.1358501393910176 
-0.2339150264754416 
-0.08964294898475393 
-0.02541429488242773 
0.3154843116461938 
-0.09499096127897412 
-0.1383088744501354 
-0.1008849413563809 
-0.00484730676633704 
-0.02143566882779968 
-0.04303162925064964 
-0.003872944143429119 
-0.3472036764686842 
-0.004072978567009233 
-0.1653903876954036 
-0.08752594445389929 
-0.1135627812327273 
-0.005456834470650334 
0.1052295602511404 
0.1117196832805439 
-0.2873640978365399 
-0.005362217309155436 
-0.1601453765995122 
-0.05531508555074594 
-0.01591645161064158 
0.10621210407865 
-0.3129143242684096 
-0.02092925917025221 
-0.03870748445517183 
-0.002505953382384714 
-0.1333001984772663 
-0.06077501968841684 
-0.01161883166978784 
-0.1366334920356145 
0.03748602051560973 
-0.02683403736307566 
0.0190364791457807 
-0.004993338034573578 
0.5687358480060066 
-0.0497968028565123 
-0.02296306548706312 
0.3176251618369775 
0.3652268661738756 
-0.01080973500585008 
-0.2515044336561773 
-0.07784679543247657 
0.01417670417500905 
-0.003872944143429119 
-0.1156399964044599 
-0.01858290815806119 
-0.00425571855848739 
0.0003272204010229301 
-0.01734158654586447 
-0.112995648623189 
-0.04090296381834231 
-0.008773928355797543 
-0.008276116415915845 
-0.005235847472257504 
-0.2757072154062678 
0.01156498985807318 
-0.1586148108605096 
-0.01716303386598817 
-0.3814208411786437 
-0.027584147372583 
-1.560902568645832 
-0.01020087178616364 
0.3307742454622247 
-0.006794216426433137 
-0.006010735240064696 
-0.02065606083365623 
0.3908580179669394 
-0.003553393089691075 
0.4725684479016506 
0.08704357484086962 
-0.1018960503256604 
-0.06129013949049928 
-0.1620554896424137 
-0.01308386284012037 
-0.1951226339231421 
-0.008589487855572132 
-0.2278684402958637 
-0.05896135510221579 
-0.01359244524232502 
0.3453923376390066 
-0.06605082738906054 
-0.1352734982999287 
-0.04514772420536786 
0.2259111345529948 
-0.08929912642627567 
-0.01897611784670968 
-0.003857600617211179 
-0.01287985573493036 
1.692947208154656 
-0.008146979742519716 
-0.03302728493248838 
0.467622209027313 
0.7746414345330346 
0.5860149214830903 
0.3808434943120739 
0.005962970185587342 
-0.02534908758497264 
0.453671504977463 
-0.006070378269546856 
-0.006837437480538505 
-0.004450673903465411 
-0.03042187209599325 
0.3043397682679513 
-1.311653419485901 
-0.2210879166740537 
-0.1481866987551092 
-0.2843104685137023 
-0.03199298241512637 
-0.02548229819089972 
-0.0522006365682718 
-0.0666008724989426 
-0.3252667606044085 
1.557075531980892 
0.1271281102964587 
-0.004329572516664677 
-0.08212284318218316 
-0.02892155777309716 
-0.08916010879983742 
0.415718057211117 
-0.05374575645690385 
-0.4764148879229283 
-0.05174071218169735 
-0.3026604077920632 
-0.02830273569823183 
-0.3572457419871266 
-0.02666338692680196 
0.04073062162748548 
0.7569505648211684 
0.2598351362146966 
0.01536425235160244 
0.4692136188069045 
-0.06663359185494477 
-0.08043388332274976 
-0.01045457871237308 
-0.1844259502647318 
0.05913076276025601 
0.0001018127759056646 
0.04171172875815016 
-0.1634723323306304 
0.06688379479225137 
-0.0003405865516691586 
0.2899307826332618 
-0.1184940676198456 
-0.002751736260495847 
-0.002651010798925464 
-0.2559888358737153 
-0.01782886634929022 
-0.00498998258240848 
-0.2990521637308891 
-0.03548951229204225 
-0.05835484003118249 
0.2782655332932339 
-0.001167887794297869 
-0.08001462625817758 
-0.07003668417925911 
-0.1447020069987889 
0.3476372513093735 
-0.008276116415915845 
-0.08324523190877896 
-0.3392008556212602 
-0.08713398851611574 
-0.0047494648428972 
-0.03806419527740988 
-0.1528319189091951 
-0.1948294942045551 
0.3294045819099735 
-0.009867139110429028 
-0.3690719792028874 
-0.2705588130842173 
0.1316156482130633 
-0.008336560235397514 
2.085088673657575e-005 
0.02047918410208611 
-0.4639499849397444 
-0.1437687666812165 
-0.05988991726829918 
-0.01824395440012024 
0.0746494209926472 
-0.01591336381562008 
0.560995863128859 
-0.0007942949606596607 
-0.01358308955354724 
-0.01198910202824287 
-0.05363068843350068 
-0.3220973184154896 
-0.1703611914614397 
-0.1027709411784638 
0.07291870217478977 
-0.1160038046754457 
-0.001527171115045233 
-0.05652484602793428 
-0.08466235822390678 
-0.03112920792321553 
-0.03648984231383596 
-0.211314351772832 
-0.2892391106854656 
-0.02031260868411458 
-0.05409526624051586 
-0.04169786853833303 
-0.5728920501547538 
0.03580981638365498 
0.4554423222161071 
0.02172718519364222 
-0.01150849199136123 
-0.1175830164471425 
-0.04612560011925235 
-0.03580058016411752 
-0.1123225106677953 
-0.01113149150288546 
-0.2216363998600776 
-0.06135984152290318 
-0.005489555020018077 
-0.002436563211225158 
-0.01484331359182538 
-0.008871528028172484 
0.1820599008688822 
0.1848521666416798 
-0.1894935449953786 
-0.05133726948068757 
0.004653031043208503 
0.02871810453019651 
0.03807641370363504 
-0.08642343919013573 
-0.1525505987847865 
0.001233339144359242 
-0.06382533933158076 
0.0115379613380541 
0.2068940633637689 
0.04997198006673892 
0.4576252566777196 
0.1555944782161417 
0.03050269363830079 
0.03571225185693016 
-0.1086881176398736 
0.1663272027000326 
0.2070031168645412 
-0.00911377494146947 
-0.4826031582352211 
-0.09880159288040109 
-0.001806217471000926 
-0.5410921278824065 
1.58991451722753 
0.06501263237918956 
0.02270135011129451 
-0.001364822765538951 
-0.01332918475330928 
-0.02244796939319134 
-0.1825373637421261 
-0.3619386537689431 
0.01789172506020809 
-0.06660064767246532 
0.04056511868184042 
0.0003272204010229301 
-0.2501588931633305 
0.2761019720002421 
0.01134507712040215 
0.0007534922750669976 
-0.3955116992551839 
0.1203302648380906 
-0.1355234964954327 
-0.1037367008330611 
0.4941056462260167 
0.01943074356976246 
0.0002580255427502181 
0.01002006866616232 
-0.1372232840493628 
-0.02972033115959894 
-0.04721471477636002 
-0.06210368359154646 
-0.2767971726282882 
0.1482263546107519 
-0.001106752775445922 
-0.3003687423018867 
0.1927177813782192 
-0.1288758523161324 
0.1879755160646989 
-0.01776515031684813 
0.245467270705704 
0.003474266965862516 
0.001233765792333727 
-0.01897181436068231 
-0.00854712149006942 
0.1775422973405357 
0.0003908712014240803 
-0.01563988797327223 
0.14941739623563 
-0.03878783430885431 
-0.005074043251679474 
0.2689282750127536 
-0.1341640921243983 
-0.002456942872997693 
-0.004638778992511235 
0.2457751991550078 
-0.1471041436387923 
-0.03966359553899677 
-0.01858290815806119 
-0.9421214410938765 
-0.02462624279760118 
-0.005206911512242132 
-0.01059877699722208 
0.05975729168632712 
0.0106222430612145 
-0.5371790358061329 
-0.08393516572724757 
0.5482472011695344 
0.01927280512994103 
0.1757566557150735 
0.009260855890443311 
0.2831102501625801 
-0.9485619171706003 
0.09475401697587918 
0.3854442883431729 
-0.204986302573357 
-0.2749525126279012 
-0.288209628258941 
0.8047768192525709 
1.050685237452676 
0.1340466881870322 
0.08247031777823813 
0.3213793862205972 
-0.9740367900032367 
0.01899923155970808 
0.0003438322186314524 
0.04831397412110097 
0.06907621959852379 
0.06238369286967108 
0.01490157367015664 
0.1714324471306618 
0.5159889886402246 
0.2654408914815056 
0.1922769965569671 
0.3878480155551715 
0.04600769323010977 
0.1353467270707703 
-0.3447860475632542 
-0.1696389335308488 
-0.1184875003011529 
0.1452028600134612 
-0.2393611872180734 
-0.06088956527479471 
-0.07785972614906574 
-0.06549967690052255 
-0.002511939281237384 
-0.07742644459899938 
0.151070428857233 
0.0159309105226456 
-0.1978135254631848 
0.2616658844899827 
0.3202358971132341 
-0.08485425020331305 
0.005204574762773995 
0.05055531137761438 
0.7365785471818973 
-0.1963938828430986 
-0.04219070425142213 
-0.05477753628769307 
-0.05987110812072267 
-0.0458916083506417 
-0.009757259221948655 
0.09105712563378016 
0.00714481501353457 
1.733798970777326 
0.3933670007371799 
0.003832356202179887 
0.01859573873667395 
0.1372026056636161 
-0.005436894149561959 
-0.06196097247304105 
-0.7031020596392791 
-0.005719980414523575 
-0.02753727541416829 
-0.02352785183378143 
0.2340818636663493 
-0.1679560989813567 
-0.007683599755920294 
-0.201881155311484 
-0.005553527061528179 
-0.007292553759461798 
-0.4531339393496739 
0.0002968860057333264 
-0.2065537138227169 
0.2963382208074946 
0.04781940219289787 
0.8916668878407021 
0.1692368938450518 
0.1098299166254575 
-0.0701281643831552 
-0.006746480649993097 
-0.4830029029979732 
-0.007745549193805475 
-0.08240181051007782 
-0.01253651600388528 
-0.3194141162213825 
0.2980707922625371 
-0.003508349356357502 
0.6041683790304627 
-0.007070955799774084 
-0.009985922855928883 
-0.01196991917528618 
-0.1679325988461061 
-0.02395371728459897 
-0.05251886520806167 
-0.0365070070473387 
-0.01493718774817361 
-0.01383887115489158 
-0.1169391379045113 
-0.005259767126718135 
0.7438912716545303 
0.3309743168523748 
0.02263218630215286 
-0.004107616904435392 
-0.007313883854088211 
0.007406180054589592 
-0.03066187914336701 
-0.01694226880524266 
-0.02739219062994367 
-0.03406468287505786 
-0.1784105000904372 
-0.3111311640655369 
-0.003733945428593987 
-0.006805679515938154 
-0.01941966614613693 
-0.004112101123638334 
-0.06964384001266871 
-0.03362543255667778 
-0.0617964115454902 
-0.2745082933620078 
-0.1594229939617206 
-0.002131721372448328 
-0.771509209346258 
-0.1265265145118438 
-0.1355234964954327 
0.07746822328265852 
-0.01768183652354013 
-0.02183595122634442 
-0.1017048645569326 
-0.01715348680156268 
-0.2908756008748192 
-0.007090305411717267 
-0.07343696552667066 
0.002465252643458915 
0.01331371453224264 
-0.005028878177010871 
-0.4188812418270853 
-0.002751736260495847 
0.04090669905081761 
-0.01180442299291078 
0.4362920636431963 
-0.05624650093155795 
0.002162460841409063 
0.1816680811872539 
-0.029403239032223 
-0.008876580509082112 
-0.02980149924463153 
-0.05857256012292391 
0.2727708326981534 
-0.000627319647781484 
0.07539491165834988 
0.4214182574733172 
-0.007241701334315918 
-0.06913912796745073 
-0.1261056200646754 
0.1784445840649852 
-0.01281624170586077 
0.1374919933958567 
0.1154809667272879 
0.01243182198250756 
0.005623509392557871 
-0.01985113282465428 
0.5672576586934359 
0.2419815517635709 
0.2616167460184023 
0.2593440470166998 
0.06672602810098491 
-0.013535903572019 
-0.6268924607207027 
-0.06045491441654698 
-0.01766586770863695 
0.2526501681127513 
-0.009122319977801663 
-0.4374125101650225 
-0.02558128889741486 
-0.07898083421026741 
-0.05269421995095235 
-0.005411929648787 
-0.08456736460822902 
-0.120619036668918 
-0.3034956893494417 
-0.06100751827359594 
-0.1778195954984739 
-0.05403511020813515 
-0.01815536088789648 
-0.05622678867850711 
-0.008331689079976279 
0.1259295594175448 
-0.03392778937287566 
0.01219938332782084 
0.4739210370439967 
0.4465219219831387 
-0.206768934078002 
-0.02983260764168912 
-0.03594112237016615 
0.1370924565396747 
-0.06494061067943251 
0.06545975057672127 
0.228034835532582 
0.1680885754450905 
-0.4470327489514155 
-0.02598898086010736 
-0.2093106824589813 
-0.00542257431280496 
-0.3397223926460755 
0.005033501386663829 
-0.02367256894106432 
-0.04794365721250191 
0.642619015606294 
0.04214894130136129 
0.05748771119598906 
-0.09404532231311923 
-0.08368441567324091 
-0.06372660795387582 
-0.01620966352194803 
-0.00746843996424992 
-0.3729279944928282 
-0.006210694945034951 
-0.01134097696092462 
-0.01286263261737857 
-0.101038583082804 
-0.06046803061513306 
-0.1252739239664909 
-0.2910707687259669 
-0.01090286303382946 
-0.02906159891032818 
-0.04737514986715692 
-0.01819287597027114 
-0.003111349503510359 
-0.188937384630839 
-0.01271245416253578 
-0.04389506544294583 
0.008823346458885092 
0.03790947363796322 
-0.02575731929827436 
-0.3427290471188844 
-0.01288518525586108 
-0.02812892850003138 
-0.0006957677749548049 
-0.4717162230514085 
-0.04339088047579098 
-0.9498113326962318 
0.01814850805522936 
0.5573471060477482 
0.005170447012959801 
0.04193660441974177 
-0.3805461706414081 
-0.01388390852548657 
-0.0369593267943114 
-0.06755045370838594 
0.3730849419671812 
0.03817715741852619 
-0.038468505123425 
-0.4388097385362298 
-0.056101409527754 
0.2202363975596143 
0.2966624967177089 
-0.1073486861742226 
-0.02074484651628578 
-0.008811961207816398 
-0.00911377494146947 
-0.0518478233862719 
-0.03306878732971418 
0.007094830964551609 
-0.001419308040555972 
-0.06132858397555049 
0.5046819969033136 
0.2364412590360966 
0.09790203390032749 
0.3541449778768338 
0.04202732047389524 
0.01732886437571794 
-0.0756517972080876 
-0.3523747302615732 
-0.01175911560869911 
-0.004832958433124956 
-0.05468928267352324 
-0.3182479460958166 
-0.07902000451028279 
-0.04070075040382582 
-0.009520588660006775 
-0.03188496080802321 
0.5852839108109226 
-0.02047250893143169 
-0.005308874517189552 
-0.01714668884791652 
-0.007621551666082511 
0.04738997932994239 
0.230608279833449 
0.2988349737054951 
0.04220641851465774 
0.001064396392769918 
0.1413206087032421 
0.121976832565076 
0.1249123089349433 
0.1517806886606544 
0.3896253922536487 
-0.0690784643336617 
0.02735778673832724 
-0.002254169506824519 
-0.06574724393712836 
-1.03165044308264 
-0.5264155035585793 
0.1768438106866044 
-0.009353563037385076 
0.09684316143175885 
-0.08702464032571582 
-0.001295652924419431 
-0.005711975721505222 
-0.1309301133211555 
-0.09180662199062308 
-0.03870053582215226 
-0.002921963494060632 
-0.1475926542548783 
-0.8090240505158597 
-0.2105206491554116 
-0.001048843481785703 
-0.01775029542337254 
-0.1539620318840402 
-0.02127574284427705 
-0.2479468713703156 
-0.01352783946303222 
0.01993776123151391 
-0.01256454333967655 
-0.0029595478745779 
-0.1800493407611599 
-0.0008646640404037929 
-0.2374746090761739 
-0.2683962067832796 
-0.07766910059007415 
-0.01306907426908682 
-0.1642493320664712 
-0.009409521436663692 
-0.1657789624985243 
-0.01962932681671549 
-2.418564872737758 
-0.1239093228214419 
-0.2383245573235691 
-0.01481175586549329 
-0.07900737040131672 
-0.03766632985999831 
0.02600249257699221 
-0.1812571586788753 
-0.1893815813010135 
0.0166057719076516 
0.04647029177789497 
-0.06264058774844647 
0.01755149297538058 
0.6764580442708853 
0.03291891284197809 
0.2736181644513138 
-0.1656922871171383 
0.01011829706680544 
-0.01304911660787507 
0.09048482737368936 
-0.03565254395594267 
0.3070277084916971 
-0.007597254761179005 
0.0008625373979629338 
0.06872883571842879 
-0.004598244918608522 
0.057564312265698 
0.01701195052251944 
-0.006185449578629211 
-0.1087038165427487 
-0.1885898616341341 
0.1578659766513762 
0.01873466367640838 
0.0009798433102761617 
0.001147399159266893 
0.0002385433549071057 
-0.3166286771279811 
-0.01858290815806119 
0.008896451799692381 
-0.04115428176957203 
-0.05732341213197501 
0.02807690139945699 
0.1747985125096718 
0.1811218277436684 
-0.02068412842226594 
0.03363665767239681 
0.09105712563378016 
-0.4478425941086102 
-0.03201165537386065 
-0.009114851348047926 
-0.05456203522938103 
-0.3386963887302986 
0.1350352490082988 
-0.005604059028764624 
0.6473626356417184 
0.09895208277810189 
0.129393445225229 
0.01306694958608272 
-0.001099130379539882 
-0.6620854812133146 
0.4819802195904285 
0.1476902987686952 
-0.01198910202824287 
-0.1363858362993018 
-0.685915241883354 
0.1063927501921961 
0.7125073124635242 
0.1336065054442037 
0.06048458578343786 
-0.03652846052888684 
-0.002848413421558622 
-0.1331344404687302 
0.04483315949091454 
-0.1879230176728482 
0.180928139963671 
-0.2693471024107037 
-0.4520482949422599 
-0.07954213877277272 
-0.3462075220437054 
0.05368204367502453 
-0.2298111715216345 
0.006980106662481685 
0.04438171277099561 
0.3143079907756712 
-0.1078189207205978 
-0.004264035266609621 
-0.03405049349686892 
-0.03363848051566533 
-0.2787942295339743 
-0.119112183129638 
-0.003192793350479677 
-0.007411246916960509 
0.1304787941951471 
0.04274115321150392 
-0.04095198141363952 
-0.08636556215913167 
0.03416878677611129 
0.3835200064627725 
-0.5396857535759952 
-0.3944390430253765 
-0.1078323413103069 
-0.4978241898441567 
-0.06263614052869132 
-0.09902253840986568 
-0.3166235561939609 
0.09544033910249983 
-0.0312930807376744 
-0.01253651600388528 
-0.03798544821920545 
-0.2684329350058602 
-0.08308952427853675 
-0.005783941572984832 
-0.01709342049751309 
-0.0181943546847147 
-0.01477812123190056 
-0.02102718983517456 
-0.01614847144767617 
-0.0003624410348824054 
-0.002847290557570428 
-0.008124118894786708 
-0.05192772690109565 
-0.0119125399796767 
-0.0007537159769162841 
-0.005857417785815078 
0.1934063141948289 
0.05490107192334121 
0.004606618292245636 
-0.265702554715909 
-0.04794365721250191 
-0.05301348651144815 
-0.007837048538882096 
-0.01375235116920619 
-0.1429228756851197 
-0.008280882546544103 
0.103652392245102 
0.2590401702937534 
-0.01524781666282678 
-0.0045854909679834 
-0.09763508281353714 
0.1215686318747527 
-0.1156647715102888 
-0.07799376585803371 
-0.005639442950205985 
-0.1047879963578143 
-0.1157456540464255 
-0.004907675151953892 
-0.05003095966909102 
-0.1045527361177158 
-0.3026118262474431 
0.1284318647184198 
-0.1006270301308575 
-0.01501262249532755 
-0.02972437630938551 
-0.003228945950774347 
-0.1931335891700236 
-0.5789468387800028 
-0.6890951566525452 
0.1472629353151637 
-0.03390677023079417 
0.3329932891207636 
-0.1037168560613562 
-0.04247204125685328 
-0.008864457133824961 
-0.007170224611420927 
-0.006728917021769346 
-0.008675462490773431 
-0.04951064760296245 
-0.006742318523486139 
-0.0039402156170557 
-0.0358491479446708 
-0.006723022173499597 
0.05089641264842003 
7.324293966462216e-005 
0.2197683957254897 
-0.003872944143429119 
-0.06350088930180677 
-0.3891658701593316 
0.2126685908399204 
0.02819165915699573 
-0.1379638807092599 
0.01743294578448421 
0.019666048886034 
-0.4493095670908764 
-0.168569613132355 
-0.3807112702269346 
-0.06393135338585866 
-0.0129229277161682 
-0.133791621993124 
-0.1211089300060678 
0.03860548842730921 
-0.04405923630492544 
0.09368248329677384 
-0.01969905853975516 
-0.006692484629075714 
0.3667437681054788 
-0.001200707510039549 
0.03673105393210811 
-0.003098383806562373 
-0.199605240515683 
0.1165133141694957 
0.3525793850699528 
0.3084488364091709 
0.1430923916776909 
0.005365791990724428 
0.1021328357681299 
-0.02103878744362629 
-0.2994064533124674 
0.002044285402235482 
0.005409031947322684 
0.00935321699517312 
-0.1017764222822629 
-0.3785266013458946 
-0.2291484458599655 
0.111091797204131 
-0.02522973606859422 
-0.3184803284941981 
0.01275017262400221 
-0.02367715101466225 
0.07875045736794353 
-0.05655660497420947 
0.05808174311856837 
-0.03392989395927941 
1.549287104265777 
-0.0001093313184963649 
-0.1885561174349134 
0.07740372095140205 
-0.009979008381270096 
-0.4102813156982985 
-0.01699973579475631 
0.5855713182465021 
0.02752839758435639 
0.004674411072030746 
-0.01637719156785937 
-0.008557429480412656 
0.1144272898462812 
-0.1550030714348998 
0.2778763171327699 
0.02651022900811234 
-0.1617205509222739 
0.005434027621361448 
-0.01871027173963718 
0.03761851205259448 
0.1500538077627153 
-0.01737214608892807 
-0.01445098734951233 
0.1509201185151455 
-0.004051797380764836 
-0.03470044001842175 
-0.06974444065081023 
-0.02562544937354638 
0.5129467999908557 
-0.07411706796883885 
0.6187120180277634 
-0.06571053003783958 
0.08983047740126225 
0.001399309531455123 
0.09790370691025042 
0.04689893569335291 
-0.03015853961353263 
-0.1256844151746251 
-0.05087912954452394 
0.0008979310391785485 
0.001732883175300453 
0.06488863802951557 
0.2022389157265517 
0.1501948457997545 
0.001638005653441199 
-0.003521348635879049 
0.005409836039795425 
0.1092257439453244 
-1.143752533130694 
0.0300730467461664 
1.032317199329329 
-0.05035844642229058 
-0.01236982327558688 
-0.0501814422305243 
-0.06201503373233906 
-0.1984591741266628 
-0.0223030304036745 
-0.2200729939214012 
-0.05247071767622227 
0.06933589645594834 
-0.1359502403223203 
0.1244011444951752 
-0.04121579192029306 
-0.002430524474560149 
0.0198113664486806 
0.0330350088954787 
0.02094742535837423 
0.1570764584083681 
0.003159554463376368 
0.3222700810667568 
-0.003081477216674336 
-0.000732652077195375 
-0.04709509761586853 
-0.001042557277945978 
0.1234549700262129 
-0.1356906735121113 
0.02791606767223786 
-0.2370073324719674 
0.02733719158077435 
0.03308801265828273 
0.03225472879870726 
-0.1508476398939433 
1.073155084506025 
0.03884492356964982 
-0.0004997426370906414 
0.1464907754739318 
0.2101946793450174 
0.0005509870338745583 
0.1586902656206721 
0.0346852406091519 
-0.426122340876484 
0.3054061677319591 
0.1641988742511333 
-0.06556214426136246 
0.1613115481088233 
0.05395212287001989 
0.1996593747280265 
0.2418069677225023 
0.01302974799350572 
-1.465416383760857 
-0.01474611294930572 
-0.1551615130745376 
0.007725428364340873 
0.1034057190679025 
-0.07255162677082945 
-0.27386111944901 
0.006253007739623623 
0.4955604965555742 
-0.03801474552488845 
0.03714459957146748 
-0.02334387855133777 
-0.003005665009797577 
-0.01756115894572717 
-0.2828629006724333 
-0.002891280322654169 
-0.1951419972206232 
-0.0597743154540745 
-0.6157730499719438 
-0.05860340588661592 
-0.0398683669160376 
-0.0386163255457089 
-0.05813836542350964 
-0.006418720566112204 
-0.01009002418730875 
-0.09825685276875337 
-0.5516545909199887 
-0.2875627478405093 
-0.3881222243323618 
-0.4035766482291597 
-0.4024916054999801 
0.358382282565759 
-0.5287758837289462 
-0.09210417472428932 
-0.07303359960645249 
-0.03058646453141744 
-0.0005765207635282195 
0.1424331332319539 
-0.1382816870820946 
0.006154385593769629 
0.03193564945124358 
0.005441903105812739 
-0.008183557855926043 
0.00214663970457673 
0.0005347921795586848 
0.02058897534701808 
0.0003809916719294433 
-0.01009002418730875 
-0.02307151982899107 
0.08485039879490568 
-0.5861953615807085 
-0.1188457873736799 
-0.08006086051912538 
-0.03900940541848141 
-0.03369662234873466 
-0.03147316453681853 
0.6250288832130156 
0.04869867070326682 
0.002400149023583878 
0.01184306182617729 
0.2301232283633904 
0.7264554029168708 
-0.05396567500493632 
0.02686348453764899 
-0.07707619987785636 
-0.008682254415020995 
-0.2505995004090043 
-0.01664830548046723 
-0.003255621649349282 
-0.1017976265779838 
-0.005918263730987425 
-0.1133480241411038 
-0.00505274144965252 
-0.01094686033087245 
0.009060227187528202 
0.03812794480510798 
-0.1662041314629084 
-0.0482428660993655 
-0.0415969448641962 
-0.006245510429441995 
-0.3664446760143065 
-0.03312452811762692 
0.001276080313825387 
-0.002722107899298247 
-0.05967101112865281 
-0.003872944143429119 
-0.02227206960858498 
-0.01733665715185053 
-0.02035082632020184 
-0.09916239035033568 
0.3388647772331576 
0.0744418636648915 
-0.1352051709475854 
-0.1544249957636131 
0.05299940503940298 
0.3882620515298932 
0.1441867438166902 
0.02053708296319062 
-0.06335661488076146 
-0.02199819305237579 
0.02575947497165451 
0.008167422469954635 
-0.07644309795389312 
0.2659606374682153 
0.0916162782126566 
-0.2094859927265084 
0.7318752855800151 
-0.2178736389056359 
0.1284852400006718 
0.1711342398525004 
-0.02303235905123694 
0.2626767482887892 
-0.04337659962127079 
0.01044189658671419 
0.7089076688803006 
0.2528797895430336 
0.001467926593086901 
-0.001478246922177985 
0.1285256048155548 
-0.05862757532260107 
-0.04794365721250191 
0.2008623120588268 
-0.05793362688803075 
-0.09062319023746103 
0.008817978086781747 
0.2168738958843948 
-0.1441783448732606 
-0.1052787190477739 
-0.04388632330108216 
-0.04794365721250191 
0.0831692642077555 
0.06739775894318981 
0.09035031731951204 
0.01745895255429959 
0.05223038786449328 
0.1724063498837392 
-0.9668740532045218 
0.09261364292271404 
0.004143904614216517 
-0.452762817743518 
0.1623800900780078 
-0.516168588525147 
0.02231172849701956 
-0.171866881511694 
-0.06917045128324514 
-0.3072892518131935 
-0.002665205071522976 
-0.002955988519970559 
-0.04653461379855794 
-0.1603202693868498 
-0.2567281417042751 
-0.1080552767911663 
-0.006646297741018345 
-0.0003848405766954288 
-0.07799791806820587 
-0.04167493163846366 
-0.01377091304100135 
0.02789223409328925 
-0.0383820909357443 
-0.02605717306111934 
-0.02981172637568907 
-0.004835974578703501 
-0.03879521793716036 
-0.05314170071646322 
-0.07757898672030682 
0.1950954196116948 
-0.01125702416654158 
-0.01009002418730875 
0.06412528735439237 
0.0628580597301195 
0.005624708573386949 
-0.4977963507169849 
0.1286138103258879 
0.06519348616145196 
-0.2042272588439789 
-0.1698718010281257 
-0.1233954351830196 
0.03497863695051422 
-0.02568355472708526 
0.5649312243095994 
0.04923794551044315 
-0.02226811503902061 
0.001215798527604697 
0.0682041497234202 
0.001926861542036054 
-0.2402853942693851 
-0.02284423883462028 
-0.3454982115460754 
0.221704162333301 
0.1010481875711743 
-0.001527171115045233 
-0.08315156144668144 
0.2265298566244799 
0.06462952411950404 
0.006336924067321557 
-0.5576221801701298 
0.4028645734666078 
1.128580042763864 
0.1500621685954536 
6.902377305414149e-005 
0.1807666264278333 
0.6464126248544688 
0.4844407450687154 
0.4864542854217586 
-0.264012412772248 
-0.03745337760030588 
-0.03386509077913306 
-0.1315975359887784 
-0.00911377494146947 
-0.009236524345072529 
-0.03705962514647528 
-0.4703085889660532 
-0.004454418929876417 
-0.07459196840517378 
0.01524820198125238 
-0.01393324821555198 
-0.3575171813100741 
-0.05997433395708295 
0.4213041948343207 
0.1405468227978416 
0.08732506255427604 
0.01278640442939841 
-0.5434227049174775 
-0.02469351213452187 
0.02222903565223542 
-0.5403139161116465 
-0.02508336930958024 
-0.005321604108005413 
-0.01842303855058667 
-0.06460411699265148 
-0.03692126115980555 
-0.07799821826529335 
-0.02317403077511051 
-0.003937291183735285 
-0.004507103763887346 
0.01174958772304271 
-0.009885183352279454 
-0.007070581928206273 
-0.008748130841043209 
0.01312010852769137 
-0.02118603864021887 
-0.07052382930513262 
-0.004511085077164601 
-0.0002127446366786889 
0.1895730194247894 
-0.00121551326182096 
-0.03484938022039949 
-0.009976931972867977 
-0.01707443064961591 
-0.08499722770693242 
0.3090437538296457 
-0.001323059401231452 
-0.406584199983499 
-0.00696532116153886 
0.02753933514833249 
0.01939644375765678 
-0.2753847962997047 
-0.08089117013388578 
-0.04525471630508731 
-0.006303578188800422 
-0.01252052686270953 
-0.212128491976837 
0.150620384196076 
0.06444004317430711 
-0.008812082790860699 
-0.09810893023618819 
0.2381328122232881 
-0.1401118708705098 
-0.003047693013484731 
0.3468976081882125 
0.158425027290764 
0.01052740187099559 
-0.01159671399116795 
0.05027455686611772 
0.06280153940192119 
-0.02208555468454371 
-0.06949477018517675 
-0.008454219553967968 
-0.03881544072193761 
-0.01138916896515992 
-0.001040258660281892 
-0.003310718563230005 
-0.1250997339745961 
0.05551040791788346 
-0.01092829310045886 
0.1358337874116023 
0.0113801748892845 
0.009316784987446935 
0.01243950071725422 
1.421088693319069 
0.000639426153405375 
-0.04767648571468856 
0.03769066054046026 
0.1715427554567166 
0.3364104631705139 
0.3293655375342064 
-0.02682007502703325 
-0.08099751888267213 
0.0005058552456877034 
-0.5747678573584188 
-0.01939959959933305 
-0.05309784024907479 
0.04820861195707224 
-0.2672968105090604 
0.169343001919086 
-0.1305226670860165 
-0.002404574967254725 
0.3935801891443358 
0.07407996179525343 
0.0254988579331802 
-0.05102615199886219 
-0.007102921355405492 
0.183736026444646 
-0.07380034243446665 
0.02045487800737272 
-0.0001827528334773556 
0.2773212104627789 
0.3543677030120633 
-0.02886526234044289 
0.001779516375504099 
0.3041051532725207 
-0.1818683794872649 
-0.04631142935469589 
0.1538364614126165 
0.2283688256685412 
0.05836687294338262 
0.3314488970172618 
0.08945016696597632 
0.02598304573993641 
-0.1252498039557172 
-0.2129394608640362 
-0.02361016474242012 
0.4853208485588206 
1.273583752053205 
0.5235043361958455 
0.002583196112026914 
0.2414079380730444 
-0.01336790026835782 
-0.05067725716231906 
-0.08297294172245495 
-0.02796982178969202 
-0.01040779628505702 
-0.08192322699006487 
-0.04079693534519076 
-0.007666241436314468 
-0.2304739220942967 
-0.3690727120741406 
-0.1521249654478901 
-0.06247228178022067 
0.06301480509593191 
-0.1132634424407233 
-0.00372057344615124 
0.2957731360729099 
0.01818909266360489 
-0.1328543882836494 
0.006614706078826714 
-0.1462176370209921 
-0.01302816915315779 
-0.9665804975987761 
0.06873366134696579 
-0.3437272536633244 
-0.2247368296438934 
-0.04226947798595054 
-0.02174002700444562 
-0.00328496776413356 
-0.05094906262434086 
-0.2188033800494746 
-0.05190859832185595 
-0.1661907831115506 
-0.0380011070246254 
-0.02600757282457296 
-0.00911377494146947 
-1.003273894649456 
-0.02552567085105383 
0.01996453798396879 
0.818200798781095 
0.2165570627331068 
0.02756917200101664 
0.2080723847515999 
0.2490449090649669 
-0.0005716677014826477 
-0.01824957686692311 
-0.335473786445167 
0.02585505894077644 
-0.09222212583490083 
-0.0986448844908976 
0.02753139347469143 
-0.01512738403959733 
-0.01964418917498083 
0.005603060209162409 
-0.3894375306739289 
-0.4554294690200161 
-0.005882749572306402 
-0.003701210787153847 
-0.3708853680886965 
-0.1508609985154315 
-0.1649502851372105 
-0.005581925492136992 
-0.01432702042069851 
-0.4719966276074549 
0.02633025422002208 
0.01079808633340021 
0.08081232065782214 
0.01363691641954566 
0.02159062487120662 
0.09192642062544221 
-0.1281567675673163 
-0.06518618571812529 
-0.5946414424016161 
0.02714266586861001 
-0.08138928836592753 
-0.02962297965473053 
-0.06344418045692932 
-0.1805688298463224 
-0.3249725100375736 
-0.3224004833505795 
-0.008377601933854451 
-0.008015625124705435 
-0.01516790175701233 
-0.2771091843418356 
-0.004447311593725384 
-0.006235659100576211 
0.3024449657471789 
-0.01088108531267995 
0.02379343773967812 
-0.003687569438929169 
-0.02284423883462028 
0.1046675488981291 
-0.1159858833351507 
-0.02945547560023818 
-0.1011277199419067 
-0.06351697128406229 
-0.02942425134969394 
-0.2367815884559901 
-0.1522940988750347 
-0.2079913004568561 
-0.001322464104219737 
-0.04064459473856193 
-0.008190554776829572 
0.4296751435008765 
-0.01097428011003272 
-0.07661359427064754 
0.1685815734658687 
0.03889204545078349 
0.4816765959088787 
1.157549671648115 
0.281196898237889 
0.07310810780811508 
0.8418552436200558 
0.6029306748265225 
0.2601552475365844 
0.6170131674473848 
0.159195514667401 
-0.1810317668719051 
-0.0799607248805945 
-0.02787383773196843 
-0.1119641896432487 
-0.2525372855819238 
-0.2092454547108445 
0.00532115031338764 
-0.3844789575936174 
-0.01435574915161229 
-0.1333342982473064 
-0.009340837145988556 
-0.00911377494146947 
-0.008530628184530121 
0.00777192252068289 
0.3569553175473416 
-0.2672592020828947 
-0.06840631068248609 
-0.2220894519184164 
-0.001987877935898204 
-0.00818363845642635 
-0.02193838978655933 
-0.03175387531691963 
-0.006189668821838015 
0.1087958489108749 
0.1041810652169841 
0.2174759033643774 
0.5437413451155619 
0.04355840182496257 
-0.006479936071590517 
1.447076052808274 
0.1702871953283981 
0.4487625483246981 
-0.1085188332596779 
-0.3349998688201202 
-0.1616878233574883 
-0.02836070075990768 
-0.04718203889068296 
-0.003332094127634259 
-0.03058699740299665 
-0.1039205283738264 
0.04695929247816555 
0.4525003008651327 
0.4117406383909767 
0.1687455315190516 
-0.05921195984564054 
0.05103967520279257 
0.04201704824340777 
-0.1124248676909058 
-0.004385176891873482 
-0.0444852507237542 
-0.1328374813790413 
-0.00385761701785913 
0.03595866979333451 
0.1661875499714033 
-0.2580598462898011 
-0.5881833716097717 
-0.05910658047881745 
-0.1823763134887328 
-0.1136209052887255 
0.6949514124666616 
-0.2668698301203827 
-0.2575758036598121 
