solver_type L2R_LR_DUAL
nr_class 2
label 1 2
nr_feature 18841
bias -1
w
0.1822838754493965 
-0.3822211111596783 
-0.04970214492227592 
-0.5917450897857105 
-0.2788470542950193 
-0.1419316403985128 
0.02606483353319723 
-0.3543148411358936 
-0.2147298363448878 
-0.05819467298615588 
-0.2050863220403388 
-0.2083175736612549 
-0.2024794228396941 
-0.3952924306142333 
-0.07315535855019134 
-0.03920639243639855 
-0.6188495903714633 
-0.1605602844616544 
-0.2104340033871294 
-0.03288431630462269 
-0.03288431630462269 
0.001295780741965015 
0.02564218414998942 
0.02529349865610464 
-0.08233883427257982 
0.1018920855958179 
0.07582725206262064 
0.07582725206262064 
0.07582725206262064 
-0.0633990623165083 
0.07582725206262064 
-0.02788537776276226 
0.07582725206262064 
-0.02788537776276226 
0.07582725206262064 
0.07582725206262064 
0.07582725206262064 
0.07582725206262064 
0.07582725206262064 
0.07582725206262064 
0.1786790534476288 
-0.09263679954554716 
0.05927431609229844 
0.01270812386858559 
-0.05393729378618881 
-0.001709449799572139 
0.02091943143027896 
-0.05621420677121061 
0.04964985562574267 
-0.03806396321240236 
-0.07147905787544361 
0.1204130180282752 
-0.03862690021917575 
-0.1117087706305295 
-0.06014938628766751 
0.000991895291485355 
-0.03730750250861695 
0.03877057796909222 
0.058743023646398 
0.04731763997349919 
0.00465588642078669 
0.1352102413130648 
0.2040397191516503 
-0.1127273856665238 
-0.05710918936258439 
0.06837201835690597 
-0.04826576770024821 
0.0812311890927709 
0.02782725887129676 
-0.251736724633139 
-0.1051724859711459 
-0.1230553581029913 
-0.05886510427899726 
-0.1273746608246525 
-0.1328000613114313 
-0.1676411094363147 
0.04731763997349919 
0.02225344851124068 
-0.02087372654268919 
-0.2634815386453362 
0.1053292662296748 
0.04597308314227923 
0.06602779038608404 
0.01458254038820314 
-0.0876327924721392 
-0.03712623943997782 
0.0970863170166323 
0.0273463409602119 
0.09707535244672308 
0.02252828314972992 
0.002117452678250231 
-0.08135843936718738 
0.04878534861352971 
-0.02019255787612184 
0.2751310857907187 
-0.07249220462470905 
-0.02401751084205488 
-0.09952819888069409 
0.1817197185812865 
0.0753430165608515 
-0.07438059498793175 
0.3604452962872469 
0.2128521044659151 
-0.01345831691013358 
-0.07438059498793175 
0.107356983099799 
-0.04923468746591084 
0.04711072832966418 
0.165741376136251 
-0.07829507368525626 
0.165741376136251 
0.2045623426842229 
0.0906652054257375 
-0.08193357997430205 
0.07596251606467996 
-0.118242982205756 
0.04439578170386731 
-0.2266635818602509 
-0.08642782047049027 
-0.1017245349472956 
0.02774023269059721 
0.1796420442210535 
0.03023693264890384 
0.06833476985464758 
-0.08135843936718738 
-0.06568834655702265 
-0.1078731796652083 
-0.3772354014028524 
-0.03226400852490526 
0.00465588642078669 
-0.06291714652950617 
-0.2129720312689391 
0.07528641497609367 
0.09297353576235609 
-0.09401442163622661 
0.1073238987523488 
0.02066530270216203 
0.06264411084319134 
-0.1359352664209035 
0.01024692289217275 
0.01135505369476974 
-0.0946153442900801 
0.179436320269306 
0.007960173432072889 
-0.1445420755287189 
-0.1421596066730793 
0.05872311578135056 
-0.0946153442900801 
0.1417148390337336 
-0.1333733937917358 
-0.2675299372298484 
-0.03224382806727257 
-0.08233883427257982 
0.3086106850121521 
0.02774023269059721 
-0.1755135766883623 
-0.1620255643812867 
0.1207430791742365 
-0.08838348004436868 
0.02606483353319723 
0.09442081947018667 
0.06084234973128023 
0.2283832602365991 
0.00465588642078669 
-0.0762187659386353 
-0.01279737701336757 
-0.1122072802373369 
0.2553855905788725 
0.04358307775217687 
-0.276874335560094 
0.003214991859011052 
-0.06556151096604422 
0.01352775134257881 
-0.09484780922485844 
0.04814592636175504 
0.0008204041747566226 
-0.03840238383125202 
0.2395226251578252 
-0.05699185785924706 
0.05972332658509159 
0.04103655324111561 
-0.02689113869792768 
-0.03730750250861695 
0.1424551515510875 
-0.0540812165915734 
0.002119878283850166 
0.02544513349820961 
-0.07829507368525626 
-0.0541557802581718 
0.04731763997349919 
0.0970863170166323 
-0.1294288948124361 
-0.03730750250861695 
0.01222424301560486 
-0.04343079333318997 
0.001954015947817562 
0.04597308314227923 
0.07772909427771606 
-0.02814892558382009 
0.01135505369476974 
0.07240289198770514 
-0.04715811899434724 
0.1537175295719288 
-0.01975723665677916 
-0.2227400348225412 
0.001919211117046034 
-0.009622301855099685 
0.2440092620615312 
0.07676266470311469 
-0.05340344113705657 
0.03023693264890384 
0.1546711591471807 
-0.1029664813254531 
0.002268993891299798 
0.0812311890927709 
0.03960335183668803 
0.04499166741692369 
0.02606483353319723 
0.06602779038608404 
-0.02600383817898312 
0.5297363039915306 
0.2903628787745882 
0.1382344826762809 
0.1608225649728632 
0.1232161602143574 
-0.05752244274935978 
-0.03806396321240236 
0.0273463409602119 
0.03470893105053538 
-0.05752244274935978 
0.1005777148677445 
0.07385842040678425 
0.02630889683752279 
0.0924742825384076 
0.1373441210695434 
0.004063200394595341 
-0.02258834223953111 
0.04563951841502032 
0.04358307775217687 
-0.02600383817898312 
-0.09147761205512288 
-0.0723493630658868 
0.0812311890927709 
-0.1846891362770931 
0.09930028650985473 
-0.08688327670488004 
-0.01774876222065592 
0.05821853790001062 
-0.009131753721693522 
-0.0575087856341227 
0.09707535244672308 
-0.03730750250861695 
0.0753430165608515 
0.2293674904807043 
0.02252828314972992 
0.1048242084264541 
0.1590151921445215 
-0.02388384971002416 
-0.1335738800683978 
-0.02949730312340757 
0.02488576102600578 
-0.096942782768421 
-0.03292240112947127 
0.07276509724309571 
0.1796420442210535 
0.03300935457467139 
-0.05331650343748563 
-0.04603437922362422 
-0.02691634354262812 
0.02606483353319723 
0.0561812215912023 
0.04439578170386731 
0.01758568573838094 
-0.1112124147451847 
0.154938047480576 
0.07276509724309571 
-0.1592434901577468 
-0.1124516511463134 
0.04439578170386731 
-0.02600383817898312 
-0.02768444796342467 
-0.07945179409324148 
-0.04081298817543252 
-0.04416156980569352 
0.04148628474762041 
0.01723690560085818 
0.08082047821096533 
0.09659740314515347 
0.004224244662965801 
0.09659740314515347 
0.1115242293026141 
0.006075315710848484 
-0.09805922951447328 
-0.1374111391297658 
-0.4973676314035405 
0.6005223899054545 
-0.03414363328931544 
-0.6666785037508299 
-0.385297630369324 
-0.07218422117638862 
0.0395467335129439 
0.1541074492146976 
0.09737081175952525 
-0.04715811899434724 
-0.02982049897002141 
-0.09955793740552295 
-0.03730750250861695 
-0.08595935639249901 
-0.1424530603937423 
0.0911953020592129 
-0.1572117842937451 
-0.1159482472369834 
-0.1313379066165122 
-0.03730750250861695 
0.0233237706456603 
0.01155777411063051 
-0.04715811899434724 
0.01155777411063051 
-0.06734356668027085 
-0.03052848798275644 
0.01155777411063051 
0.02606483353319723 
0.09169184162904839 
0.1684936651257622 
0.1005777148677445 
-0.1558268066409181 
-0.1605827446681453 
0.04501814784377031 
-0.04715811899434724 
-0.07438059498793175 
0.2793475239204589 
-0.02979202041733775 
0.01945308038681361 
-0.01785852692790732 
0.09027521834494033 
-0.05386984593415068 
0.009920359055156284 
-0.02982049897002141 
-0.01474548477580588 
-0.02529513246039677 
0.1017555431829869 
-0.0898019515733163 
0.175169208535801 
-0.02309133131947904 
0.04872887621443751 
-0.1013839123562616 
0.08822864113865525 
-0.1052321437337358 
0.03739587468859106 
-0.103907268660081 
-0.07817271396906805 
0.01355179024106696 
0.01304485350551001 
-0.0853612021289443 
-0.1690856467305445 
0.002265975272023403 
0.08304671290092772 
0.0406947046552012 
-0.07513040772183247 
-0.08595935639249901 
-0.02540009755102153 
-0.07513040772183247 
-0.0898019515733163 
0.01400122080247706 
0.004880678032379286 
0.03346285997498268 
0.05419646083893071 
-0.01564044231375738 
-0.01305416668088041 
0.02937424183754819 
0.004224244662965801 
0.03903534165483506 
-0.2102047851752102 
-0.07220577397113065 
-0.1260500791850519 
0.01155777411063051 
-0.05859801293036463 
-0.05208171644444765 
-0.1041015927398166 
-0.05489141127171101 
-0.06589175345734459 
-0.06589175345734459 
-0.08683875199527577 
-0.06336985349481114 
-0.08579460259688401 
-0.05208171644444765 
-0.0946153442900801 
-0.09721549924566039 
-0.1018388282710426 
0.03905494846398896 
0.02260416744776988 
-0.003107871178682942 
0.02887270480547592 
0.02937424183754819 
-0.009619820756449607 
-0.06589175345734459 
0.02887270480547592 
-0.1018388282710426 
-0.06828421842810266 
-0.1504483230956697 
0.1019852512147736 
0.09466806628415088 
-0.04834541623076372 
-0.2482506504686274 
-0.1029954474574566 
-0.0612098961822172 
0.01155777411063051 
0.01155777411063051 
-0.1501187197554043 
-0.09721549924566039 
0.01155777411063051 
0.04982883976825958 
0.09169184162904839 
-0.0946153442900801 
-0.05489141127171101 
0.1434995336531022 
0.04913194334950946 
-0.05489141127171101 
0.09794500115923102 
0.101580086441952 
-0.05489141127171101 
0.01155777411063051 
-0.09721549924566039 
0.09169184162904839 
0.0657977766785403 
0.05291903957651507 
0.1209006826216883 
0.0401949409131955 
0.05304067986464642 
0.06476748171301254 
-0.06083416145783117 
0.09550559265870447 
-0.05752244274935978 
-0.04013907376881527 
0.09169184162904839 
-0.005626581416280581 
-0.04715811899434724 
-0.09721549924566039 
-0.03730750250861695 
0.006129296837890319 
-0.03730750250861695 
-0.03341959613867122 
-0.07366156867332843 
-0.03730750250861695 
-0.03730750250861695 
0.04813146249630091 
0.04624009595057976 
-0.0322522073031929 
-0.03730750250861695 
-0.06801425871163649 
-0.1411593473013583 
-0.02221925689598445 
-0.1105970865288625 
0.09794500115923102 
0.02920761609729666 
-0.01474548477580588 
-0.1105970865288625 
0.0233237706456603 
-0.1334344925997176 
0.09169184162904839 
-0.007190766622765555 
-0.1411593473013583 
-0.07765365919236617 
0.1861834199210163 
-0.1433785578060711 
-0.04167395189906679 
0.01155777411063051 
-0.04167395189906679 
0.09169184162904839 
-0.1018388282710426 
-0.07578101552685795 
0.1373441210695434 
-0.1641260761959907 
-0.04303392386332523 
-0.06568794494883959 
0.06334723898738612 
0.1547186403355645 
-0.04910053530594614 
0.09169184162904839 
-0.1605827446681453 
-0.03052848798275644 
-0.04586185467714044 
-0.1104105832476189 
-8.372869814732876e-005 
-0.03052848798275644 
-0.2814158559404204 
0.03800249630028681 
-0.003972203752463815 
0.2378237364859595 
-0.06568794494883959 
0.04723769590327547 
0.04878534861352971 
0.07440429643319674 
-0.07438059498793175 
-0.018132981125804 
-0.1886708749735258 
-0.04760001676130671 
0.02564218414998942 
-0.065312413747455 
-0.1456405563714663 
-0.1456405563714663 
-0.1581270328655293 
-0.1506274406300685 
-0.02600383817898312 
0.05412611054181487 
-0.4179357448382831 
0.04872887621443751 
-0.1896673936046352 
-0.02221925689598445 
-0.03576223096932572 
0.09297353576235609 
0.09169184162904839 
-0.05489141127171101 
0.005190708472344028 
0.09169184162904839 
0.01155777411063051 
0.1092958536940581 
-0.1501187197554043 
0.2103729512180455 
-0.05152497355858343 
0.03739587468859106 
-0.07513040772183247 
-0.09608415862985614 
0.2028337848961857 
-0.1424530603937423 
-0.09797391617390044 
-0.06534245350401825 
-0.05771290459897293 
-0.1695210965668006 
-0.1587379577260195 
-0.03052848798275644 
0.01155777411063051 
0.2378237364859595 
-0.1558268066409181 
-0.1605827446681453 
0.03739587468859106 
0.01064994697000512 
-0.007457352412252899 
-0.04918943025709561 
-0.009623368798810317 
-0.1155867932646927 
-0.09563872975153052 
0.04866934919227439 
0.1725924489338056 
0.08157388079934658 
0.04501814784377031 
-0.05859801293036463 
-0.04586185467714044 
-0.04715811899434724 
-0.03052848798275644 
0.02299138155695555 
-0.03275692405525269 
0.09169184162904839 
0.03242957137839381 
-0.08147378906283971 
-0.02366346745919171 
0.02457437546228122 
-0.04999454507067865 
0.06772327231215544 
0.08731562557324535 
0.1920279556834748 
0.1668952224182917 
-0.08595935639249901 
-0.05719783648450227 
-0.06568794494883959 
-0.00141662328410808 
0.1200593439308967 
-0.00470213865965966 
-0.009131753721693522 
0.1790824118293929 
-0.1070128942665108 
-0.1379806694582726 
-0.02809240326210427 
0.071424777099744 
-0.05701564955146582 
-0.05200972367208288 
-0.1015383579468794 
-0.01746731779505631 
0.06334723898738612 
-0.007908635517955783 
-0.05566492771599776 
-0.2015765865134592 
-0.04558304789754032 
-0.04558304789754032 
-0.01374182461582342 
-0.1260500791850519 
-0.04724115800558257 
-0.08642782047049027 
-0.04813247007188194 
0.09169184162904839 
-0.05999066481854588 
-0.0238609493559676 
0.03739587468859106 
-0.02966767940548211 
-0.08642782047049027 
-0.005626581416280581 
-0.04715811899434724 
-0.07463236919775558 
0.2261705109339839 
-0.05509361632018917 
0.1687888398473772 
0.05542017915118292 
-0.06180729127419039 
-0.03101607297646503 
0.1486586352382483 
0.1434995336531022 
0.1822524309774738 
0.05215995557285382 
-0.1424530603937423 
-0.1456405563714663 
-0.1456405563714663 
0.2103729512180455 
-0.04677667895555353 
0.01155777411063051 
-0.0633990623165083 
-0.07870138878127546 
-0.06589175345734459 
-0.09721549924566039 
0.06158210819316902 
-0.360295186783161 
-0.1420896411175117 
0.1254854098669157 
-0.09044357814110336 
-0.00141662328410808 
0.009920359055156284 
-0.0560030834481545 
0.002071939416967926 
-0.03988681740009712 
-0.05489141127171101 
0.01155777411063051 
-0.1456405563714663 
-0.05935263176861461 
-0.04303392386332523 
0.1007649143440817 
-0.04504016899278144 
-0.0755111395236827 
-0.05386984593415068 
0.0395076782353778 
-0.1424530603937423 
-0.06037844564590379 
-0.09167319214936864 
0.09285775474679155 
-0.007148213647296097 
-0.08433527810281796 
-0.06866068396466726 
-0.08476818254383284 
0.09169184162904839 
-0.1302774577966286 
0.1219768194831153 
0.01155777411063051 
-0.02221925689598445 
0.07182912644779255 
-0.03694566648220244 
-0.1079965372906671 
0.024880161163535 
0.1949060935857482 
-0.1428471170181035 
0.207041849713613 
-0.00470213865965966 
0.01139537016303338 
0.01890052480612487 
-0.08732751798861284 
-0.1126890271346302 
-0.01416614934917586 
-0.03730750250861695 
-0.02915553306537718 
-0.03293200790851438 
-0.1605827446681453 
-0.08147378906283971 
0.09169184162904839 
0.1092958536940581 
-0.07765365919236617 
-0.07436426190224819 
-0.02809240326210427 
-0.06083416145783117 
-0.1970505544345375 
0.02143065331966268 
-0.05386984593415068 
-0.04902708977307133 
0.08154188330952183 
-0.01499240421291901 
0.0395076782353778 
-0.104907643535494 
-0.05886510427899726 
0.04334715786681961 
-0.01416614934917586 
0.04796632350477008 
-0.1283353706484406 
-0.04665091832728763 
0.1299168761748933 
-0.08732751798861284 
-0.09955793740552295 
-0.04586185467714044 
0.01155777411063051 
-0.05489141127171101 
-0.04586185467714044 
-0.146609091522939 
0.1005777148677445 
-0.05208171644444765 
-0.03576223096932572 
0.01155777411063051 
-0.08579460259688401 
-0.03275692405525269 
-0.08732751798861284 
0.01155777411063051 
0.1684936651257622 
-0.02600383817898312 
0.03028497785406688 
0.01155777411063051 
-0.1442383687738918 
-0.05208171644444765 
-0.1334344925997176 
-0.03052848798275644 
0.02919986677965384 
-0.006991711146986166 
0.03363512486298732 
-0.1010848422411447 
-0.2690892838093651 
0.1007649143440817 
0.01139537016303338 
0.07761000360145641 
-0.1105970865288625 
0.04960664915477152 
-0.06534245350401825 
0.007969159804384696 
0.1782991065464191 
0.03470893105053538 
-0.09167319214936864 
0.09429459767692146 
0.05542017915118292 
-0.03998668492108813 
0.02956120887631622 
-0.1327058996161634 
-0.1327058996161634 
0.1243904295229499 
0.1243904295229499 
0.04334715786681961 
0.1191264967942026 
0.02606215179201021 
-0.1548728530323842 
0.1031730193389948 
-0.05386984593415068 
0.1048242084264541 
-0.0106515330176847 
-0.01804628606926987 
-0.018132981125804 
-0.03275692405525269 
-0.06589175345734459 
-0.05998004480428149 
-0.1137717108773345 
-0.02529513246039677 
-0.1041015927398166 
0.1412683772184566 
-0.1456405563714663 
0.1541982643085923 
0.02937424183754819 
0.04439578170386731 
0.1048242084264541 
0.09169184162904839 
-0.1470237819835304 
-0.03052848798275644 
-0.1456405563714663 
0.1917213319077913 
0.2378237364859595 
-0.01200181142039215 
-0.04918943025709561 
-0.003648773410831954 
-0.1603737551153815 
-0.1260500791850519 
-0.04677667895555353 
0.02275305942242007 
0.0911953020592129 
0.1971341391857891 
-0.008228523331966881 
-0.02600383817898312 
-0.07249220462470905 
0.1412683772184566 
-0.0612098961822172 
-0.03018681207147079 
-0.03275692405525269 
-0.05859801293036463 
-0.03782178043183571 
-0.1572117842937451 
-0.018132981125804 
0.09406527698950654 
-0.06600061232411815 
-0.0239638595875411 
-0.00141662328410808 
-0.05651957981446049 
0.02260416744776988 
0.008371561859734696 
0.09709916269204183 
-0.1201882069413628 
-0.1146268288476263 
0.05827191993609606 
0.06158210819316902 
0.1802312891103764 
-0.06989375037939466 
-0.01248949878429686 
-0.01623093075965644 
0.1673831767103193 
-0.02427191517523103 
0.05895539126645735 
0.002460567897250963 
-0.01959101995731318 
0.0753430165608515 
0.0273463409602119 
-0.01705670799117679 
0.1449221508292928 
-0.149329474819436 
-0.149329474819436 
-0.04902708977307133 
-0.1899060545303596 
-0.1899060545303596 
-0.3256778900560794 
-0.1899060545303596 
-0.1899060545303596 
-0.2982182370656146 
-0.1899060545303596 
-0.07701434208538419 
0.08565648245692267 
-0.1137608910389664 
-0.248893207260269 
-0.3467651493812906 
0.3182807671229757 
-0.1823897981473751 
0.07562447129735102 
-0.880773495861224 
0.07562447129735102 
0.2376502767885766 
-0.0367588290670311 
-0.03517103849743964 
-0.1183386348940148 
-0.04705141493039623 
-0.02529513246039677 
-0.06090017982810671 
-0.1178532720073408 
0.089185330932914 
0.1065548289514166 
0.100039168210646 
0.2053260743879544 
-0.8278805242346449 
-0.1365360495441448 
0.02335102034922391 
0.05762527023916884 
0.06332992017843511 
-0.1178532720073408 
0.05446939513044957 
-0.08831081444977378 
-0.01472101995719141 
-0.03537300237147983 
-0.04999454507067865 
-0.2648853849483266 
-1.169468069643657 
-0.07321822987163201 
0.3212257206333476 
-0.007562405280592243 
-0.02920506984598209 
0.2378237364859595 
-0.09528748529282009 
-0.02363549493688342 
-0.03108289155355908 
-0.5073528079668791 
-0.02301047515573619 
0.1950114683923396 
-0.01626760841979499 
-0.7177499413761858 
-0.4105906102411472 
-0.04902708977307133 
-0.2386641898306293 
0.1793019767177224 
-0.6959088903531168 
0.1510610801479826 
0.327974481202205 
-0.2694169523242148 
-0.2528557627494516 
-0.1015383579468794 
-0.01168349569166832 
0.1207783847856498 
-0.33520285781995 
-0.04418292920552079 
-0.1365360495441448 
-0.0672468977239214 
-0.1863384507326896 
-0.4097862110909799 
-0.04418292920552079 
0.1030228855396547 
-0.1091535317647953 
-0.2331908916694082 
-0.5255530350958974 
-0.1334344925997176 
0.6712301591759715 
0.1436547260633636 
0.1343417608119482 
-0.1663443920608011 
-0.1015383579468794 
0.0295587443599128 
0.03213266759298242 
0.1633123396355554 
-0.02607967070905085 
0.09069634678834099 
0.1633123396355554 
-0.03537300237147983 
-0.01952415065678322 
0.003482715687451497 
0.192417361972496 
0.7219255971871975 
-0.0377785721638167 
0.09163288544473833 
-0.08831081444977378 
0.1510610801479826 
0.2899571317562114 
0.08241270665429937 
0.1260474511012383 
-0.04999454507067865 
-0.2415525792698523 
0.4777957468077116 
-0.294168854497272 
-0.1823006343356713 
-0.05743227794349725 
0.006075315710848484 
1.051282895606291 
0.2791084755438464 
0.1085944089280899 
0.04480810301356888 
-0.05719783648450227 
0.04480810301356888 
0.04480810301356888 
0.0308132813920052 
0.2033116075581251 
-0.462895393999202 
-0.09635266431377204 
0.1410607405185959 
0.05058104524818753 
0.04213244466310247 
0.02397582657047096 
-0.1668756301316882 
-0.01374182461582342 
0.09476397445370832 
0.02259529688884863 
-0.04394995101907712 
-0.04603428093062447 
-0.1319490493212832 
0.1699190689742725 
0.1819582042058053 
-0.1213530641431554 
-0.1556522186524616 
0.1917557848031838 
-0.09346256697139496 
-0.04418292920552079 
-0.04418292920552079 
-0.02308186522415728 
-0.03386699167723574 
-0.3961148911498671 
-0.08514710660590172 
-0.1334344925997176 
-0.5610646541890446 
-0.1178532720073408 
-0.1079965372906671 
-0.3379625071621591 
0.1748680981489272 
0.09476397445370832 
0.0008521446827241621 
-0.04338267938012532 
-0.2854807468716362 
0.0867936376018234 
0.523086101466586 
0.002447554511824321 
-0.05166971985665503 
0.1293506472621727 
0.003496025972137652 
-0.3171179095553745 
0.1089072178262294 
0.03065289247611634 
0.2295059806729898 
0.09476397445370832 
-0.4312758966063859 
0.01319714545784675 
0.04069545674035809 
0.05674761959494911 
0.1270237951725666 
0.04791914083705079 
-0.1019449209604118 
-0.165013296172469 
0.04819253456995791 
-0.03537300237147983 
-0.2336867604352673 
0.04480810301356888 
0.08070179855732863 
0.2351249973539141 
-0.1046485628128274 
-0.1028702997244863 
0.01427981875236857 
-0.396244932853025 
0.07562447129735102 
-0.05941344172511175 
-0.01703952281183034 
-0.4261276420583662 
0.4127235947462649 
-0.0214240386555544 
-0.1466196639798388 
-0.0194429259083852 
-0.05489141127171101 
-0.007362733663869464 
-0.1501187197554043 
-0.1645251567995789 
-0.1358912669412173 
0.1251448823379405 
-0.007908635517955783 
0.01576550338301372 
0.02252828314972992 
0.009119995140330447 
-0.1424530603937423 
-0.04634294276291826 
-0.01704599005162008 
-0.001730910024140354 
-0.04013907376881527 
-0.02966767940548211 
-0.1453437218435693 
0.09208411951002436 
0.04960664915477152 
0.005507865994762106 
-0.07726683700084729 
-0.04394995101907712 
0.009119995140330447 
-0.05999066481854588 
-0.2860466810713417 
-0.1015383579468794 
-0.007148213647296097 
-0.103907268660081 
-0.1151196519438034 
-0.1292764827503412 
0.158775207474763 
0.01002126160323872 
-0.05162282355797498 
0.009920359055156284 
0.009119995140330447 
0.1102144775537399 
0.09736191002846897 
-0.02966767940548211 
-0.08579515110698249 
0.06225234768118778 
-0.01345831691013358 
0.1693477936061016 
0.0875028725223841 
0.006663420164777886 
0.06831582707496528 
-0.05693994182859887 
0.03745635748444473 
0.04960664915477152 
-0.01623093075965644 
0.09803570923046831 
0.0746869251639086 
-0.06883022959171559 
-0.1017299763813768 
0.02457254079981706 
-0.06180729127419039 
-0.04013907376881527 
-0.05386984593415068 
-0.1377338570199022 
-0.01502593695893886 
-0.03760423004268282 
0.06225234768118778 
0.07182912644779255 
0.02547318484973628 
0.03213266759298242 
-0.0384406095354125 
-0.05693994182859887 
0.08801832402616258 
-0.07463236919775558 
0.05235863649350408 
-0.4272199329861306 
-0.1272469076787167 
-0.1091535317647953 
-0.2317914363063192 
0.05542017915118292 
0.04960664915477152 
-0.03293200790851438 
-0.02273295356002206 
0.07240289198770514 
-0.05693994182859887 
-0.07775728673378549 
0.1412683772184566 
-0.2908567642626966 
0.1005777148677445 
0.01002126160323872 
-0.06170712128770856 
-0.2342953438613997 
0.16309915123522 
-0.1393553749900466 
-0.1319490493212832 
-0.08579460259688401 
-0.05162282355797498 
-0.05859801293036463 
-0.1091535317647953 
-0.007190766622765555 
-0.2311552697996308 
-0.08545459792024393 
0.05448713611030682 
0.1082809662745627 
-0.0541557802581718 
0.09993606790604073 
0.04817182482291089 
-0.0238609493559676 
-0.1500558389968852 
-0.0367588290670311 
-0.08041767022948367 
-0.001148814332597877 
0.009119995140330447 
0.07656573003961829 
-0.1091535317647953 
0.154938047480576 
-0.03544628166670719 
-0.1763330970851572 
0.06512479689549489 
-0.09114968139460268 
-0.09619990679801618 
-0.1016259766238401 
-0.0783624655148906 
0.02316132635756736 
-0.02979202041733775 
-0.08147378906283971 
0.03079957512150643 
-0.04724115800558257 
0.0395076782353778 
-0.0612098961822172 
0.1185418779845499 
-0.4272199329861306 
0.08801832402616258 
0.02547318484973628 
-0.0367588290670311 
-0.2311552697996308 
-0.0532424323168317 
0.02347515839074978 
-0.02915553306537718 
-8.372869814732876e-005 
-0.1006375762627884 
0.05291903957651507 
-0.07817271396906805 
-8.372869814732876e-005 
-0.007457352412252899 
0.03174814892431596 
-0.1900580749298888 
-0.1453437218435693 
0.05542017915118292 
-0.05208171644444765 
0.07182912644779255 
-0.05999066481854588 
0.1381175309551497 
-0.09812959574258913 
0.0295587443599128 
0.02547318484973628 
0.09297353576235609 
-0.1000312887305531 
0.1381175309551497 
0.0746869251639086 
0.07182912644779255 
0.07562447129735102 
-0.05886510427899726 
-0.07463236919775558 
-0.1091535317647953 
-0.03938029605103466 
-0.06883022959171559 
0.02547318484973628 
-0.04265605177563939 
-0.002900118714703019 
-0.03722502531231241 
0.03205686645146364 
0.01458254038820314 
-0.01497478116822236 
0.2001401007655721 
0.03213266759298242 
0.1381175309551497 
0.006663420164777886 
0.07182912644779255 
0.03079957512150643 
0.1806346598146457 
-0.05386984593415068 
-0.007457352412252899 
-0.02427191517523103 
-0.2170782464609608 
0.05448713611030682 
-0.003322886258072449 
-0.07926126165947112 
-0.1112124147451847 
-0.05859801293036463 
0.3332656960913152 
-0.05386984593415068 
-0.07178239479179448 
0.1935512506301006 
-0.06180729127419039 
0.02299138155695555 
0.09406527698950654 
-0.1763330970851572 
-0.05386984593415068 
0.04363807382161256 
0.1419856602495454 
-0.04724115800558257 
0.02845939851443493 
0.05827191993609606 
0.07166139127558245 
-0.09807623884544042 
0.09708182997200653 
-0.04724115800558257 
-0.0783624655148906 
-0.0541557802581718 
-0.0783624655148906 
-0.08272535464158887 
0.2716857926209423 
0.03817953007159645 
-0.06932444880591802 
0.137290927154638 
-0.06180729127419039 
0.07808973990558293 
-0.05672586176460895 
-0.1508238534997105 
-0.1424530603937423 
0.1666160118299618 
0.004061353561037639 
0.004061353561037639 
-0.1501187197554043 
-0.06905271882873763 
0.2001401007655721 
-0.0184507038286929 
-0.06170712128770856 
0.16309915123522 
0.07182912644779255 
0.1251448823379405 
0.03205686645146364 
0.03205686645146364 
-0.06539941870460465 
0.02260416744776988 
-0.1091535317647953 
-0.1159482472369834 
0.137290927154638 
-0.2866328238531973 
-0.07249220462470905 
-0.1793672338126598 
-0.1282787779998515 
-0.1057255646532259 
0.0657977766785403 
-0.008324364109299589 
-8.372869814732876e-005 
-0.0222737327042515 
0.03213266759298242 
-0.1763330970851572 
-0.01959101995731318 
-0.09619990679801618 
0.08587391840731717 
0.08323474342026409 
0.08587391840731717 
-0.7525033820999674 
-0.04489454705624161 
-0.04656057760282222 
-0.4604424763716471 
0.03751403670027667 
-0.08147378906283971 
-0.04558304789754032 
0.06081058471103736 
-0.1365360495441448 
0.2276468644561571 
-0.1083261107756993 
-0.02721172280089565 
0.2603455486842161 
-0.1143949453576866 
0.1666160118299618 
0.07791344875044796 
0.02544513349820961 
-0.107774851812618 
0.1016828020916764 
0.1016828020916764 
-0.1759689810943174 
-0.1759689810943174 
-0.05576212810302998 
0.1744578499132373 
0.1744578499132373 
-0.01577468638205411 
-0.01577468638205411 
-0.126908557095018 
-0.06135773427959439 
-0.04117411471995212 
-0.02188341830267202 
0.0180994956897948 
0.1578547365586911 
0.1964168315114941 
0.1138294612709714 
0.01476105982084621 
-0.06963073558211776 
-0.117132889702279 
0.03069646904902771 
0.05872311578135056 
-0.1165555393692056 
-0.06869175216640985 
-0.06869175216640985 
-0.5160112287528933 
-0.4773799031679156 
0.2342773062670621 
0.2342773062670621 
0.2440172165777382 
-0.07691858327393485 
-0.07691858327393485 
-0.1165555393692056 
0.6438161429310134 
-0.042056867736151 
0.1971341391857891 
-0.07945179409324148 
0.00632425308527573 
0.1033397781031569 
0.4071110672327769 
0.00824465690003906 
-0.2220806817301873 
0.02547318484973628 
0.1628916315437768 
0.07262479469131714 
0.01667843915016763 
-0.2089536559077392 
0.0248550464122777 
0.1683708282531044 
-0.01474548477580588 
0.03478736669186804 
0.0412085835830092 
-0.006470460769514043 
-0.2902141158304483 
0.1058646720773443 
0.6396754231898054 
0.09063915188502503 
0.206008789654234 
-0.01266658867645557 
-0.04508822415525539 
-0.5003453238888549 
-0.09063619725893629 
0.01124979175947264 
-0.01304805417687838 
-0.1705114326057569 
-0.3146499375262397 
0.1102126615924688 
-0.006470460769514043 
-0.01010319396021217 
-0.109282541213325 
0.01024692289217275 
0.01135505369476974 
0.07252083746059174 
0.2668224121223156 
-0.04338267938012532 
0.01009649367148039 
0.008595280311553766 
0.03746754921564554 
0.04283536895587675 
0.1125987684192194 
-0.03153341548257227 
0.1167816597603801 
0.1032281071046043 
-0.1179760984232323 
0.08053407300702956 
0.0508762482556597 
-0.09763000020296207 
0.1236062371464896 
-0.1159482472369834 
0.1840129074650865 
0.04777604840573695 
0.002091413749239578 
-0.1384108032868122 
-0.0517843832663723 
0.03728599484399996 
0.6784657367077199 
-0.002117993057779091 
0.3913151988587534 
0.1549101266848771 
0.02160170092541958 
0.03032739762356434 
-0.08306027682118636 
0.04088972283375142 
-0.07088036995331459 
0.128090598512781 
0.02968328993124311 
0.07853446077537094 
-0.2231097760407108 
-0.05502468426593718 
0.1729806252083442 
0.1290356383017579 
0.1050774530833165 
-0.0294660420953152 
-0.1007609788458912 
-0.2430233425606125 
-0.164698601035252 
0.07205907099190217 
0.195309845287537 
-0.01596544956098159 
-0.08019233077122875 
-0.3000484707884387 
0.01718258701471053 
0.089532460323869 
-0.2431117893958661 
-0.064493012686006 
0.1119073091535834 
0.05407791959723304 
0.01152046205046613 
0.08216877536114522 
-0.0762187659386353 
0.08792264730788708 
0.01881433805004572 
0.003551802218078274 
0.08021943323762786 
-0.2220580882233808 
0.002265975272023403 
-0.2301871086609495 
0.009480919612702544 
-0.2642445546780425 
-0.1887633535523419 
0.02562264092725921 
0.02662363062280595 
0.02130842759930664 
0.07748074273204947 
0.1100020824606377 
-0.1227518633447994 
0.03079839861478642 
0.1489788899514714 
0.05821853790001062 
0.03063302307802846 
0.1122627648128893 
0.09556323978262284 
0.1159815088071952 
-0.160470215309958 
0.02647096893903535 
-0.1037828061357151 
-0.1491631310870125 
0.05442416966053385 
0.3759045205303772 
-0.1007668837089171 
0.02599784899412702 
0.06334723898738612 
-0.1126194037331356 
-0.0884926471223355 
0.09992758205752142 
0.03436811802213327 
0.03006262312609631 
0.1541605697387263 
-0.1331370309177469 
-0.05905883702223504 
0.04213244466310247 
-0.1325913072522319 
0.027471313001878 
-0.2007071955676341 
0.007514611291381074 
-0.04383591955662777 
-0.05134011624041089 
-0.03472271704505195 
-0.05340344113705657 
0.1189353883602682 
0.1713512640461258 
0.03595967909873001 
0.07549182307983397 
0.04229786360859974 
0.03681318899077056 
0.03985799260824892 
0.03363512486298732 
0.2242221211423512 
0.04677177384795855 
0.141526444400192 
0.07508299881270013 
-0.135014705466035 
-0.04674528694650525 
-0.03782178043183571 
-0.1653076707546154 
0.07423144554564921 
0.02995550121500319 
0.09406757128609779 
-0.2403766890148472 
0.04574480818504355 
-0.06560641246698862 
-0.2896130496453818 
-0.01305416668088041 
-0.04949773228405938 
-0.1358014643906446 
-0.1808133034372105 
-0.1216920046282076 
-0.1262384043637866 
-0.02670617089404205 
0.206008789654234 
0.09941256604969728 
-0.1232503722571721 
0.07000527269784339 
-0.07621902326501713 
-0.328444235164345 
-0.07894962907706211 
0.009480919612702544 
-0.0367588290670311 
0.3308924194049449 
-0.05399976636903268 
0.2445855064637622 
0.05728409076197867 
0.01571687903061755 
-0.02323226793613619 
0.0770740112295019 
0.3992494359912856 
0.05680925585643276 
0.06316251727001451 
0.1665794756114721 
-0.2482506504686274 
0.1918800921586558 
0.1383357632704808 
-0.007754600875379106 
-0.234316810444136 
0.05043527230026418 
-0.06183798421323907 
0.0556215627076247 
0.04863539620567055 
-0.02768444796342467 
-0.1169736125042476 
-0.05329351635928185 
-0.264719340817145 
-0.2136965811488231 
-0.04736612673247052 
-0.0513622977995851 
-0.08659829239331811 
0.002086665089897112 
-0.3931208609555096 
0.1125801487463181 
0.04403134339352901 
0.008455827715675102 
-0.153520441527029 
-0.05799685326853595 
0.1247234967890564 
0.02348306919272366 
0.07808973990558293 
-0.05651957981446049 
0.1691644247606357 
0.01523776898376819 
-0.1308080223541331 
-0.0889817421609197 
-0.2640653356640426 
0.01271579672688962 
0.007321400231252963 
0.01688536140318084 
-0.06932444880591802 
0.0441779540056113 
-0.2414984017218909 
0.08822864113865525 
0.06752859618873085 
-0.2527045853655014 
-0.006038427407720357 
-0.1017245349472956 
-0.04902708977307133 
0.04409126083393816 
-0.05053891542103223 
0.01241203085433258 
0.01254576041339716 
0.0746647309635529 
0.07603808085376176 
-0.2582389303103009 
0.04297143417582722 
0.09716977777928024 
-0.1250718467874641 
0.03270375413036167 
-0.03258900790886189 
0.2056970123518395 
0.03863132558497818 
-0.5216634633790657 
0.03099553404544465 
0.05672051750278983 
-0.005178341936010345 
0.138309813985317 
0.07168777065366927 
0.1439490588881812 
0.0603014718398154 
0.1344668839304883 
-0.2381149378280726 
0.03462491133552633 
0.01390652943108781 
-0.08695220752743284 
0.04624191538194757 
-0.01980870716941651 
0.01714011785158035 
-0.06693423056096132 
-0.1517707294695619 
0.02077426507672246 
-0.01010874360883896 
0.02381078433019581 
0.006460927581377353 
-0.08991824392504222 
-0.1745603726330699 
0.1803382364306949 
-0.03406333685138117 
-0.08775999173690377 
-0.01981405093627023 
0.222965291314123 
-0.1029664813254531 
0.07808973990558293 
0.03903534165483506 
0.07240289198770514 
-0.04303392386332523 
0.1310683168439073 
-0.03458559904651044 
-0.04715811899434724 
-0.0898019515733163 
0.06748709100562808 
0.05685838382759142 
0.09276412652244498 
-0.0889817421609197 
-0.1350529542405266 
-0.03098746752806872 
-0.3937681902997426 
-0.09484780922485844 
-0.07992536508685175 
0.02696306794080204 
-0.09614188325801838 
-0.06444175782443583 
-0.08233883427257982 
0.02720429028311703 
0.02252828314972992 
0.317050400902729 
0.0515253351704156 
0.004177622811333204 
-0.1196801525544834 
0.001677189189102983 
0.02883687837797902 
-0.03101607297646503 
-0.0698140332211743 
0.1452901111487294 
0.02346491881878113 
0.00465588642078669 
-0.04013907376881527 
0.07483375068800474 
0.06764967310628592 
0.01590304489411773 
0.1119779954457604 
-0.09474905673768383 
0.02196537470927425 
-0.1270311167379934 
0.1911450051501157 
0.1545182690854708 
0.3742976712712393 
0.02955924965959675 
0.02388219691390235 
0.05827191993609606 
-0.1016667135301134 
-0.07209901356615357 
-0.1802346597765563 
-0.1183316463862205 
-0.2960111038061883 
0.001841892188080188 
0.0129956664253032 
-0.2585028387277203 
0.06249640539960819 
0.1460000091702122 
0.08679891685713029 
-0.08019233077122875 
-0.1268443734905931 
-0.1672831453364558 
-0.02515007975207872 
0.03739587468859106 
-0.135322651115894 
0.02380261315069695 
0.0395467335129439 
-0.02993847630958235 
-0.02670617089404205 
0.01039965790483239 
-0.04186384612478374 
-0.005566374647679694 
-0.1452346595264617 
0.03006262312609631 
-0.06874618860831548 
0.004211044162333841 
0.02774023269059721 
0.1021975883362451 
0.10757524545499 
0.09708182997200653 
0.0008521446827241621 
-0.02630316574427339 
0.05459343939571119 
0.02257584496838961 
-0.05522313280102487 
0.08073083120444249 
0.05480669194527198 
0.1097066420239352 
-0.03375978542638115 
-0.0367588290670311 
0.03023693264890384 
0.02380261315069695 
-0.105506596952023 
-0.2334200030518181 
0.04264311637595775 
0.07536077159178001 
-0.07848456952467349 
-0.202516522028878 
-0.03828743747117609 
0.2200076904560055 
0.03921442634094654 
-0.09873442833425745 
-0.1531997430247175 
-0.2083903744085249 
-0.09955793740552295 
-0.07635022823384768 
-0.09614188325801838 
0.02297147763184709 
-0.01718876051408744 
0.104293592515965 
0.1002333159105631 
0.03072133609538826 
0.06612356427175831 
-0.02007575110784162 
-0.009093785828409237 
0.07366760726311418 
-0.07015635032496594 
-0.00665083326041864 
-0.06399688608451341 
0.07385842040678425 
0.0359300990178688 
-0.03159722809383418 
0.02782725887129676 
0.02810560378292195 
0.1758590166118944 
0.0207468866122895 
0.01751360577618357 
-0.07145918935482989 
-0.08529417095113491 
0.01202728814998649 
0.02346491881878113 
-0.2654869404575256 
-0.1220953389815601 
0.08365869771997378 
0.07121654987383357 
0.100052143466687 
-0.08559895661469685 
0.04316615238055555 
-0.2673985156302556 
-0.1968390720446675 
0.0753430165608515 
-0.007718859698846453 
-0.01856135980004023 
0.02281451695881132 
0.1684936651257622 
0.08405868492234846 
0.05649663152739222 
-0.03375978542638115 
0.02402151181935867 
0.001919211117046034 
0.1191843668400772 
0.04697762078390469 
-0.02724985441393645 
0.2358481553056859 
0.7345115871487599 
0.0427928701547601 
-0.1064351529309958 
0.03438819871429973 
-0.01569163941007635 
-0.08103448684551502 
-0.06962075198828693 
0.04549501755357167 
0.2844622142962554 
0.1133458117171925 
0.01589577879695107 
-0.08672670313126869 
0.09719811702842746 
0.1257907722117484 
-0.02731170277103146 
0.08125813005628889 
0.04442210947855105 
0.07594044239358964 
0.1961745973099959 
0.07112202063351562 
-0.0898019515733163 
0.07466573066467031 
-0.1691207129503054 
0.02219003389714712 
0.1793138413436433 
0.01589577879695107 
-0.04534159749913069 
0.09992758205752142 
-0.1212696667491389 
0.363813032957978 
-0.01989178253224105 
0.005804615179045063 
-0.02051219008838662 
-0.2104468108735455 
-0.06467457997026946 
0.09467670291390161 
0.2145238993443079 
0.009991581937425425 
0.01427981875236857 
0.02694044682765363 
-0.03235976626324995 
-0.07209901356615357 
0.05581435062098963 
-0.1385709443656507 
0.06263021956109534 
-0.02779291372852029 
-0.018132981125804 
0.05257035279318836 
0.1569682520607623 
-0.02485846399948389 
0.08532652838965435 
-0.0328521576562678 
0.06750441090005759 
0.06350974920647648 
0.0395467335129439 
0.01345103059097804 
0.07385842040678425 
0.02782725887129676 
0.1036852523698483 
0.07811652375703883 
-0.07764348545972181 
0.3010766513988012 
0.07821132309980028 
0.09346003798697133 
0.07570965444691429 
0.02397582657047096 
-0.06962075198828693 
0.02696306794080204 
-0.02493857848607585 
0.01668348325104129 
0.1066258255014518 
0.1066258255014518 
0.04088972283375142 
0.04076921782406396 
0.05951041148382765 
-0.06467457997026946 
0.004224244662965801 
0.04960664915477152 
-0.2643655966963416 
-0.009781476220744406 
-0.07518870089798084 
0.05345362193594468 
0.7241152044635885 
0.0312969435079711 
-0.01248949878429686 
-0.05998004480428149 
0.1683938754142658 
-0.02418294873135386 
-0.07324693844174232 
-0.008248657753666641 
0.1882915795832693 
0.04323952770993486 
0.04616040405392138 
0.1373441210695434 
-0.008074681832172895 
0.1066014913374767 
0.007795872324788529 
0.05964759590892414 
-0.07366156867332843 
0.3661856657129087 
-0.03318638007457589 
-0.1124409000805628 
-0.1797865527034291 
0.2026071049572027 
0.3139052476145883 
-0.07764348545972181 
-0.06706814528712007 
0.02346491881878113 
0.1033758736312273 
0.5940601945591515 
-0.1090440662219283 
0.01064994697000512 
-0.1303224329634916 
0.002071939416967926 
0.1678426251642807 
-0.002852904438401263 
0.03231536799878088 
-0.05193439735980806 
0.1017660253092249 
0.0970863170166323 
0.008881482181273208 
0.05606761961406613 
0.1064251789148533 
0.06752859618873085 
0.05728409076197867 
-0.05774212030472239 
0.09348350233590189 
-0.06945866561971104 
0.06914910203100523 
-0.1495518187682788 
-0.1702928333579569 
0.1369535326594472 
0.1068718689757641 
0.047583894909389 
-0.004437145440730643 
0.04199186346388593 
-0.02127836674156333 
0.02899698629876734 
-0.04054059684214343 
-0.2722125692568196 
-0.08841750909287109 
0.03433256018517087 
-0.1090440662219283 
0.01718258701471053 
0.006254891982122051 
0.01509198111689331 
0.08939451839004771 
-0.04783564581875865 
-0.02127836674156333 
-0.01995396923771211 
0.4967787759796578 
0.04283126290884889 
0.01355179024106696 
0.03414429358652418 
0.07582725206262064 
0.1026077220462641 
0.2238130043338618 
0.07219276857666203 
-0.2010818793410811 
-0.2635355998836571 
0.1436624157377024 
0.05837073652526028 
-0.2010818793410811 
-0.1640652280717878 
-0.1072431352362877 
-0.3043391876761389 
-0.1703356457360024 
0.0854866015903115 
0.2106796815952864 
0.004211044162333841 
0.1423636370633467 
-0.1670166952205408 
-0.4027073334658108 
-0.277402992474819 
0.1271867330112758 
-0.05502468426593718 
0.02974646998834281 
0.07240777956653167 
-0.1109214334076089 
-0.108081845482691 
-0.05129646849159675 
0.01589577879695107 
0.2102587820211236 
-0.09063619725893629 
0.0635467996841679 
-0.0328521576562678 
-0.02127836674156333 
0.1102001773916087 
-0.02378862946024923 
-0.06348679330188596 
0.01684469320996086 
-0.1359836414309129 
0.1623605460394927 
0.2523222654382489 
0.02236298149291015 
-0.1816246122262865 
-0.1199540954663004 
0.02900103127529576 
-0.118242982205756 
0.005744777776227188 
-0.003066254375321665 
0.5374141893319445 
0.04841173916458729 
0.1106529322223633 
-0.096942782768421 
0.04796632350477008 
0.1100020824606377 
0.06505127026512439 
0.1566291914820957 
0.06348896936534997 
0.02397582657047096 
-0.1685337928207644 
0.003841272672572977 
0.1354525849336139 
0.04619582236321622 
-0.03018681207147079 
0.2846580596932729 
-0.1428244475290622 
-0.02530537560772382 
0.002071939416967926 
-0.02695150959216817 
-0.01905255230996768 
0.00632425308527573 
0.0817902234754819 
0.01483673730333253 
-0.0347512817589055 
0.1979455379177602 
0.08604206992350377 
-0.1090440662219283 
0.06038979223730785 
0.03990637158210767 
0.08757970161654444 
-0.05739765792059812 
-0.1021833327202761 
0.02598919702636774 
0.07983914219082149 
0.0533935517267617 
0.04088972283375142 
0.01776892892434944 
-0.07851878188367788 
0.1141275622818262 
0.009991581937425425 
0.3705659879014903 
-0.0946153442900801 
0.1163354551191743 
0.05761836901047978 
-0.007335589742815212 
-0.1670166952205408 
0.0770740112295019 
-0.06205886650086954 
-0.5011585192944265 
0.0704964307392232 
-0.2085292670652744 
0.01477642831241439 
-0.1685337928207644 
-0.013618481266684 
0.0173820759406293 
0.144773794101716 
0.09132926398687791 
0.02388219691390235 
0.1243932708513985 
0.1436624157377024 
0.01963785925294781 
0.154938047480576 
0.08081099032409486 
0.3797150147427599 
-0.08631645226863027 
0.03349551546132002 
0.2559753179993083 
0.005015128374089304 
0.1050774530833165 
0.01949290417402637 
0.2211157070855876 
0.06882851860451549 
-0.08835696689861086 
0.4453840097203977 
-0.2010818793410811 
0.6012735934678271 
0.155499454166573 
0.2888204995460914 
-0.02581526787994513 
-0.1578882587645208 
0.1255392243398463 
-0.2254392150864645 
0.02068739920666879 
0.1759825624508336 
0.1663182273469139 
-0.1359663740921248 
-0.013618481266684 
0.1166664457771622 
-0.06198557721683915 
-0.112057195531631 
0.6224879596517412 
0.02382767793386639 
0.01053397118361308 
0.05224028679073103 
0.1428794600722255 
-0.113069055525695 
-0.07931542814936007 
0.2821880139995556 
-0.03530603095037872 
-0.07518870089798084 
-0.3127535973192055 
0.006254891982122051 
-0.02484123879316865 
-0.2085292670652744 
0.01064994697000512 
0.00263444920580281 
0.03475308110316507 
-1.222396703862273 
-0.1427527001377774 
0.008661742243618931 
0.02236298149291015 
-0.1199540954663004 
-0.1252900989013666 
-0.08306027682118636 
0.02491696829692538 
0.1248071851593007 
0.1202684225883957 
-0.01090208541814743 
0.2045206368531061 
-0.1496432985817515 
-0.06959378060149427 
0.1208225860955227 
0.08692264588631282 
-0.06371070342574038 
-0.09853233674655604 
0.100052143466687 
0.1916954236117186 
0.02271408847428231 
-0.122435777048975 
-0.204863678780555 
0.02257584496838961 
0.1083816045101793 
0.03596797242125316 
0.05826513081124479 
-0.1196801525544834 
-0.04834541623076372 
0.1048242084264541 
0.04597233857939071 
-0.06891989323874939 
-0.2040102045463171 
-0.1559932295469868 
0.08652022451460328 
0.04476151002097189 
-0.07007888819220878 
0.01692099738426603 
-0.1083480089650951 
-0.1557267688670227 
-0.1955741767621506 
0.1408055100496457 
-0.01148824456271735 
-0.05340344113705657 
-0.1073231866095363 
-0.02555253223483887 
-0.07635022823384768 
-0.1880407971567908 
0.02068739920666879 
0.1730981267617562 
0.1715527079075997 
0.1678426251642807 
0.03028497785406688 
0.1723983629618037 
0.005533331241620245 
-0.1013839123562616 
0.1729572674638139 
0.01139537016303338 
-0.1708503890184788 
0.08016013049436592 
-0.02581486412324808 
-0.06820680069767836 
-0.04705141493039623 
-0.06853940983752252 
-0.01248949878429686 
0.0723692072197525 
0.04006898678122455 
0.03079839861478642 
0.07440429643319674 
-0.02815628259918254 
0.00821218224904062 
0.1436624157377024 
0.004177622811333204 
0.194732508904288 
-0.07249822761832826 
0.1185418779845499 
0.005721364083517931 
-0.05237906618804099 
0.04731763997349919 
0.06225234768118778 
0.109009450343474 
0.02213204608749689 
0.09474032238726288 
-0.2038737239935009 
-0.01936554784868335 
-0.2550510606709854 
-0.02809240326210427 
-0.02334845134908698 
-0.004294661242108741 
0.1587202462620494 
0.2274092460368979 
0.02346491881878113 
0.05761836901047978 
-0.1247767781835399 
-0.05502468426593718 
-0.1247767781835399 
-0.2034608059732161 
0.01124979175947264 
0.07600537979534526 
-0.05771290459897293 
0.6171036251850768 
-0.0755111395236827 
-0.04866652759887279 
0.09973569104691447 
0.1528166738082016 
0.04439578170386731 
0.02774023269059721 
-0.05672617824739123 
0.06612356427175831 
0.005015128374089304 
0.1568482921665117 
0.07092928601578143 
-0.05169542982211169 
-0.2083903744085249 
0.07479127123532048 
-0.105405293842203 
0.08777635439891422 
0.06940370652122535 
0.3176497415753615 
-0.1028853559329373 
0.01478877655242609 
-0.04876904572477515 
0.4230419683418742 
-0.1143949453576866 
0.2692071640827348 
0.05007001332345884 
0.04416023270065941 
-0.2077040046482764 
-0.07249822761832826 
-0.0356261179425042 
0.01271579672688962 
0.01859152177484186 
0.09285775474679155 
0.1568482921665117 
0.04821571887485749 
-0.4338020962505464 
-0.08579515110698249 
0.08939451839004771 
-0.005870415558912616 
0.07205907099190217 
0.03268574471401613 
-0.0519013984076695 
0.0006886138754725205 
-0.2388313685845371 
-0.07992536508685175 
0.08731562557324535 
0.08587391840731717 
0.06977137393148342 
0.08241270665429937 
0.08528022453832079 
0.08241270665429937 
-0.05998004480428149 
0.1670562869337028 
-0.2396272267617358 
-0.154257135200609 
0.04476151002097189 
-0.05686030017227552 
0.1487741383483948 
0.03436811802213327 
0.06844413483600799 
0.05022376363687976 
0.06336747563077112 
-0.03243959143428601 
0.001954015947817562 
0.00246486312893452 
-0.03685028336674105 
-0.03937887896842114 
-0.06273437084669384 
-0.06408450742961508 
0.1021146942737206 
0.009018218680998454 
-0.02407984056533837 
-0.01730817952546732 
0.06443854872527612 
-0.02434269317426351 
0.04475265026225764 
0.02219003389714712 
-0.01385943204227933 
0.09175550725101847 
0.02397582657047096 
0.3874087605888376 
0.01780394426332339 
0.1369905335861988 
0.1082809662745627 
0.0215777699975537 
-0.236067616395695 
0.02991691761861027 
-0.03711440651421501 
-0.05712927878891265 
-0.05065778275723015 
0.163706787605499 
-0.1252900989013666 
0.002530566343914862 
0.1002157644138915 
0.1002157644138915 
0.09707535244672308 
0.01758568573838094 
0.1931999678792667 
-0.00549716209029095 
-0.1078719708332646 
0.5908046720352246 
-0.06869175216640985 
-0.04724115800558257 
0.07704439766216562 
0.00465588642078669 
-0.07200443887624855 
0.03667757253456372 
0.02610337629606828 
0.0002389675376963625 
0.07704439766216562 
-0.0414685878736801 
0.07182912644779255 
0.02225344851124068 
0.0933990444577209 
0.1309160062184706 
0.06333863719013247 
-0.004706166550928549 
-0.0723493630658868 
-0.001405923670547048 
0.0872817414233019 
0.04869424552304794 
0.05985506784721032 
0.008442278563671532 
-0.08160656216264153 
0.1810552346817247 
-0.0386218247311529 
0.004990724507876471 
-0.04117411471995212 
-0.1548728530323842 
0.002530566343914862 
-0.05495377118389234 
-0.0322522073031929 
0.05297815673311119 
-0.07635022823384768 
-0.02581526787994513 
0.1013476766822045 
0.2601529692202318 
0.04566419455719625 
0.05606761961406613 
0.0466208188812753 
0.08751467194495735 
0.08822864113865525 
0.07205907099190217 
0.04789366100541654 
-0.06096318671369209 
-0.04054059684214343 
0.04191773976400606 
0.08810090913022445 
0.06264411084319134 
0.02225344851124068 
0.04429725608896461 
-0.07764348545972181 
0.01458254038820314 
0.07772909427771606 
0.0635467996841679 
-0.06413651614680153 
-0.1039646814252729 
-0.02710131812852346 
0.002980323755501234 
0.1569682520607623 
-0.08501996204321384 
-0.007617116055085843 
-0.2314508884802518 
0.1068262511296702 
-0.03537300237147983 
-0.08010105628702441 
0.1089230230593058 
0.08857345611990662 
-0.08268450817956237 
0.0391167149159518 
-0.007362733663869464 
0.03334577670208287 
0.02490966402757237 
0.1579666160406643 
-0.02346879390471667 
0.05035115966139039 
-0.01279737701336757 
0.07811652375703883 
-0.04283210735892511 
0.01770893146956496 
0.0002602671249886447 
0.0002581525548434565 
-0.06198557721683915 
0.7015738356014603 
0.04083980611845584 
0.2005027814303411 
-0.0818703861847945 
0.07419125525396698 
0.04092444415789343 
0.3047991890220697 
-0.1690575220565366 
0.09707535244672308 
-0.1337386457303635 
0.08751347011972076 
0.1677708991212469 
0.02771639793590926 
0.001919211117046034 
0.1869876836875238 
0.03596797242125316 
-0.1212372395535221 
0.001919211117046034 
-0.1195299831070724 
0.02178227658510087 
-0.05286783272270161 
0.1419856602495454 
0.1107826248245307 
-0.099828941217031 
0.05043527230026418 
-0.03443198967795241 
0.01428433374690546 
-0.03828743747117609 
0.1800706806133099 
-0.09407536809718405 
-0.0513622977995851 
-0.07182999521969814 
-0.1070871692609599 
0.03746754921564554 
0.1176687439593343 
0.02625588635147151 
-0.1617695555272497 
0.01785128925879603 
-0.01416614934917586 
-0.07518870089798084 
0.01474506758358295 
0.01257180356173829 
0.1182131625829023 
0.04141194425343422 
-0.0927354184966968 
-0.1470237819835304 
0.004331820529035073 
-0.06551280284356184 
-0.02363549493688342 
0.141383552632117 
-0.2174712190093251 
-0.117278769293493 
0.02441488730092279 
-0.1105970865288625 
-0.0249922379158197 
0.1600016775372606 
0.08833222805112556 
0.03079839861478642 
0.06386390016702268 
-0.05944103538789881 
-0.1065187481140731 
0.1306814702387177 
0.1474070058896233 
-0.01474548477580588 
-0.1306399749206402 
-0.03275692405525269 
0.2192126883979002 
0.02961342305523719 
-0.02392193957605926 
-0.0927354184966968 
0.06505500325659183 
0.1142754361500732 
-0.1700711213107201 
0.01125974893710132 
-0.07840683349073739 
-0.08579515110698249 
0.1937396178767977 
0.05537885167457701 
-0.01757763288667261 
0.06764118886710924 
0.07613281845784028 
0.005403257947888956 
0.03960335183668803 
0.1175483413528387 
-0.2614277890712393 
0.02297147763184709 
0.05013489916705001 
0.1113866287693798 
-0.02448203453038449 
-0.12302485192309 
-0.118520619300114 
-0.2845991963007551 
-0.01777161243385581 
-0.05855921438381036 
0.02630889683752279 
-0.1557978505114594 
0.201140033751215 
0.06729364623214282 
-0.1410479012308073 
0.05013719708995446 
-0.1759247699471281 
-0.06069717019011298 
-0.06820680069767836 
0.03703445199060217 
0.05304067986464642 
0.04814592636175504 
0.1972997078122747 
-0.1451148750210456 
-0.1382303594674371 
0.01339961114462713 
0.05067344700995876 
-0.06083416145783117 
0.01963785925294781 
0.0918299996677477 
-0.05270793838654193 
0.1607133279058247 
-0.04081298817543252 
0.007321400231252963 
0.149304826719696 
-0.05152497355858343 
0.07562447129735102 
-0.2039168604476491 
-0.1980307146267224 
-0.09027508186890779 
0.02068739920666879 
0.05826513081124479 
0.08764418429226102 
0.1509652524104883 
-0.04129770188495161 
-0.05533378041968461 
0.1166440301635366 
-0.003498909072869493 
0.06334723898738612 
0.07957048043946136 
0.04599552087491954 
0.04619582236321622 
-0.1079983882671605 
0.1436205256062173 
-0.07324693844174232 
-0.07419470011220587 
-0.1148992340001729 
0.06334723898738612 
0.04414255201053832 
0.003258787687436718 
-0.1489689064849661 
-0.01444639546356402 
-0.03224382806727257 
0.06940370652122535 
-0.2516371285632796 
0.08339369898580008 
-0.2066972677380052 
-0.09625844440155593 
-0.04393983755542621 
0.5993597559988324 
-0.04513446736056458 
0.04711072832966418 
0.3817327932564636 
0.04409126083393816 
0.0396918700202932 
-0.09484780922485844 
-0.04785244256307753 
0.05656091184249174 
-0.1988498856562547 
0.02219003389714712 
-0.1437441049507244 
-0.116834902057695 
-0.03030423906417522 
-0.03304377217688745 
-0.06096318671369209 
-0.06467457997026946 
-0.1527115163765333 
0.05422568034532139 
0.01532951405958106 
0.06612356427175831 
-0.2456947749287439 
0.005190708472344028 
0.05304067986464642 
0.03193655653330867 
0.2307203005350071 
0.03863132558497818 
0.03032739762356434 
0.06081058471103736 
0.04421540099088927 
0.008371561859734696 
0.1941683528078383 
0.04597308314227923 
-0.07726683700084729 
-0.06467457997026946 
-0.01385943204227933 
-0.2482506504686274 
0.1111109705366811 
-0.1006375762627884 
0.03829892818409734 
0.02995550121500319 
0.04514764442954343 
-0.09635228161510408 
0.1066014913374767 
-0.1268185736873737 
-0.09842892134102731 
0.04023815885958459 
0.01776892892434944 
0.08745501017217795 
-0.2352244619247755 
-0.003498909072869493 
0.1671357585166446 
0.00246486312893452 
-0.09971197955239712 
-0.02118412530560265 
0.06172933486093907 
0.111305656735568 
0.04563951841502032 
-0.1325913072522319 
-0.09835857632780456 
-0.01248949878429686 
-0.03840238383125202 
-0.07992536508685175 
-0.006470460769514043 
0.1079270199253276 
-0.03828743747117609 
0.08707491788775337 
0.03660079134205156 
-0.1037828061357151 
0.05968910698913287 
0.1428958825043668 
-0.05270793838654193 
0.09982593681744464 
-0.02815628259918254 
-0.09137670072096321 
0.07454904403775614 
-0.1008142957444463 
-0.2950058057625894 
-0.03576223096932572 
-0.3966789217244588 
0.03842479679602077 
0.04243815253521421 
-0.08679197946532569 
0.009834338870619169 
-0.3054593035161259 
0.02565552030063652 
-0.05742180294430297 
0.1464508464299303 
0.1065214476533125 
0.01665291841587787 
0.04442210947855105 
0.3386515436366001 
0.07079054797349332 
-0.03293200790851438 
0.2656352081741155 
0.0295587443599128 
-0.06805144181127035 
0.01024692289217275 
0.01238045846508458 
0.08679891685713029 
0.07808973990558293 
0.03399088685247888 
-0.2024443841529452 
-0.04785244256307753 
0.01238045846508458 
0.04501814784377031 
0.08679891685713029 
0.03231538414969627 
0.02380088903305062 
0.09941256604969728 
0.1919010564833695 
-0.06942908790464038 
-0.09853233674655604 
-0.1006375762627884 
0.1633123396355554 
-0.07992536508685175 
-0.04283210735892511 
0.05334970548495793 
0.08070179855732863 
-0.06224861860160437 
-0.07415951684849899 
0.0466208188812753 
0.03690828890531683 
-0.09635228161510408 
0.006460927581377353 
0.2295309421114052 
-0.06889684341779796 
-0.096216999617268 
0.0496409036262984 
0.01684469320996086 
0.08884789030214306 
0.08822864113865525 
0.0481323852288366 
0.06785047025310917 
0.04095106151863236 
0.04566419455719625 
0.04597308314227923 
-0.1376106873542196 
-0.04886762100251299 
-0.09285774486742915 
-0.06998251757599461 
-0.07463236919775558 
0.1017274677015177 
0.02547318484973628 
-0.1212372395535221 
-0.1643378575488523 
-0.1382303594674371 
0.05425909772559333 
-0.1212372395535221 
-0.416530396295025 
0.206008789654234 
0.09268245306104186 
-0.0853612021289443 
-0.1400089127687398 
-0.06069717019011298 
0.005190708472344028 
-0.04186384612478374 
-0.04129770188495161 
-0.1695210965668006 
0.1239852610209178 
0.08751467194495735 
0.1460000091702122 
-0.04935605960175887 
-0.1203226298222653 
0.1613333652767331 
-0.1201882069413628 
0.03436811802213327 
0.08764418429226102 
0.03887020422403604 
-0.02836274667048723 
0.1460000091702122 
0.1689718283672277 
0.004576714694178651 
0.04439578170386731 
-0.1218292451165038 
-0.1444017315288846 
-0.03894696170801774 
0.0495058368835874 
-0.1503112991790489 
-0.002974656087846386 
-0.1474729857048354 
-0.07764348545972181 
-0.07249822761832826 
-0.1169394289229188 
-0.07635022823384768 
-0.02824073906491114 
0.1269403229188252 
-0.112324057847925 
0.04442210947855105 
0.01532951405958106 
0.09433974443134933 
0.1304003338609133 
-0.01804628606926987 
-0.05998004480428149 
0.0918299996677477 
0.09178168828481297 
0.1005142345326697 
0.1956044011740704 
-0.04785244256307753 
-0.1937410525814748 
0.04731763997349919 
0.09175550725101847 
-0.2042463847269813 
-0.05710918936258439 
-0.2173980190109089 
0.01478877655242609 
-0.1058443363414466 
0.09941256604969728 
0.05304067986464642 
-0.1070128942665108 
0.09334411763318525 
0.00465588642078669 
-0.02462694052392557 
0.08406992981355815 
-0.2797512438691963 
-0.1090440662219283 
0.06172933486093907 
0.02010920721611261 
-0.03359349559519494 
0.3252402917281753 
0.02316132635756736 
0.04046214144119699 
0.4042960119593013 
0.08822864113865525 
-0.06560284769760919 
0.1947594462502417 
-0.04167395189906679 
-0.03912191552895912 
-0.02691554155795448 
0.08388344813004595 
0.00868094709325893 
-0.05427891591682394 
0.06351895300648693 
-0.0386218247311529 
-0.02188341830267202 
-0.05193439735980806 
0.09302046701052841 
-0.1201882069413628 
-0.1897508558693066 
0.1271631386245317 
-0.07249854796678608 
-0.04665091832728763 
-0.2187142948692275 
-0.04111145564435351 
0.03287127770714839 
-0.05053891542103223 
-0.1996473667857927 
-0.06180729127419039 
0.04901773290092731 
-0.01911525778496778 
0.181293050397962 
-0.04652019272035116 
-0.04547588766009098 
0.0315280752923011 
-0.25916005002747 
0.1400025679139019 
0.09453228967405888 
-0.1201882069413628 
0.1509451279071184 
-0.02427191517523103 
-0.1393573152110931 
-0.01744044830450623 
0.0823388775403146 
-0.2662121205046243 
0.4269053125294272 
0.05685838382759142 
-0.06962075198828693 
0.09941256604969728 
0.03956557965563694 
0.08801832402616258 
0.1285991359711305 
-0.1987510445155265 
-0.1365954949714051 
0.137781638775925 
0.1398895885628955 
0.007971287624276799 
0.007971287624276799 
0.06701495853221255 
-0.03359349559519494 
-0.09635228161510408 
-0.03359349559519494 
0.3616819756292974 
0.04729534254801618 
0.03321840052401983 
-0.1068417645265427 
-0.2810322753634501 
-0.12302485192309 
0.00632425308527573 
0.0444374230328076 
-0.04930303555285776 
-0.06962075198828693 
-0.07723465229311308 
0.04844806198036232 
0.1976719983499279 
0.1633123396355554 
0.06547426059013746 
-0.04586185467714044 
0.01477642831241439 
-0.223388367903597 
0.1982191052375397 
0.03903534165483506 
-0.0338017271093342 
-0.02302856154263797 
-0.006111356819121106 
0.03842479679602077 
-0.09763000020296207 
0.4517948247162581 
0.04863539620567055 
-0.132031181655844 
0.04439578170386731 
0.02015404177343268 
0.04923860233084361 
0.1304423558925942 
0.02940193846185775 
-0.03458559904651044 
0.005469858280533091 
-0.3174849914492902 
-0.06180729127419039 
-0.2218982947790416 
0.07536077159178001 
0.02782725887129676 
0.0812311890927709 
-0.1567120331337382 
-0.04578627962999067 
0.1174385869861654 
0.163706787605499 
0.01009649367148039 
0.04569592237558319 
0.08389608947755221 
-0.05457375682755839 
0.002980323755501234 
0.2478126956476807 
-0.1589951210366423 
0.05212784715832557 
-0.09484780922485844 
0.003628370778246739 
0.006075315710848484 
-0.2169862368633207 
0.01879585259456077 
0.06643716130265963 
0.005721364083517931 
0.0362247126821201 
0.04970680313896314 
-0.0234722115900139 
0.04439578170386731 
0.08304671290092772 
0.04439578170386731 
0.09601029544247323 
0.007971287624276799 
-0.06834263171762285 
-0.1981076530929489 
0.1096927892960903 
0.003482715687451497 
0.0005091946658909862 
-0.1543066495901369 
0.1802391280443606 
-0.07761183840701344 
0.105289429124709 
-0.1061359402066254 
-0.2345512325790909 
-0.00229560841489485 
0.1271867330112758 
0.05373635358050494 
0.1724494891184948 
-0.08247997501677908 
-0.1195984750056058 
-0.05127282997066587 
0.06497876605356823 
-0.2961160550479484 
-0.3591361304357983 
0.002091413749239578 
-0.1195612844466818 
-0.07861644726562567 
0.06099918647486087 
-0.07438059498793175 
-0.03430135916799778 
-0.1939581443224719 
0.005190708472344028 
-0.5297122597012152 
-0.05005332863374837 
-0.2295620686585134 
0.005403257947888956 
0.07385842040678425 
-0.002893295258290263 
0.005066834807725093 
0.02544513349820961 
-0.00872039331306161 
0.05824719830581195 
0.005884765869361711 
-0.06874618860831548 
0.09178168828481297 
0.0674672816744547 
0.2388789164773635 
-0.2962363077718371 
-0.07871521721429065 
-0.1663276536392253 
-0.04028750324196063 
0.0207468866122895 
0.312398168677948 
-0.308105854232998 
0.03242957137839381 
0.08071104911873706 
0.0444083925273176 
-0.05270793838654193 
-0.03359349559519494 
0.04657893800985884 
-0.0540812165915734 
-0.1333123483986548 
-0.1079759169056492 
0.01215960271876014 
0.02392509564674987 
0.0538035599632654 
0.09734901384926156 
0.0642867107429379 
0.02694044682765363 
-0.09484780922485844 
0.3266175844590081 
-0.04723291232913818 
-0.06198557721683915 
0.0854866015903115 
-0.05485598605428874 
-0.2413096351517166 
0.04092444415789343 
-0.04325693528106154 
0.05297815673311119 
-0.01785852692790732 
0.03475308110316507 
0.09428625777729016 
0.1684936651257622 
-0.1306399749206402 
0.008997790894553709 
0.0595205930262851 
-0.01168349569166832 
0.08702605164260434 
-0.02815628259918254 
0.03228795217693879 
0.2132356621618934 
-0.08791530547387801 
-0.1151196519438034 
-0.05152497355858343 
-0.0723493630658868 
0.03576957125433637 
0.2026450411409282 
-0.008662856254150531 
0.04841173916458729 
-0.1033823759412849 
-0.05166971985665503 
-0.06198557721683915 
-0.04314836649613451 
-0.04478959910739978 
0.03942089860450419 
0.00754303482910669 
0.7315451453614051 
-0.06869175216640985 
0.1310683168439073 
-0.1345726123931111 
0.2363624864889554 
-0.2900405761278733 
0.1723528046151849 
-0.1076726552971367 
-0.2304689838327936 
-0.06539941870460465 
0.01458254038820314 
0.04082055808947624 
-0.1037828061357151 
0.04526749649495528 
0.1118166786458482 
-0.666030029130027 
0.02995550121500319 
0.02791335018110816 
0.04851339518069425 
-0.3062958248210723 
0.03591891720941393 
0.04863539620567055 
0.1424804490663878 
-0.05053891542103223 
0.01139537016303338 
-0.1267389180373841 
0.02720429028311703 
0.1528963125617561 
-0.110731339569553 
-0.06962075198828693 
0.01124979175947264 
0.07603808085376176 
0.3262888699357089 
0.09569869377319119 
-0.1078731796652083 
-0.01281680263825589 
-0.06998457269658157 
-0.009772056576536313 
-0.0322522073031929 
0.08777635439891422 
-0.06874618860831548 
-0.06600061232411815 
-0.2131762374148054 
0.1442891183830373 
-0.3028771425070805 
0.01718376461094469 
-0.03647532494900156 
0.0466208188812753 
-0.008074681832172895 
0.01064994697000512 
-0.07182999521969814 
0.07704439766216562 
-0.0552041875821626 
-0.1070128942665108 
0.0305888597338534 
0.04901576516985491 
0.0007699691392951159 
-0.06399688608451341 
-0.06647378451920701 
-0.1887633535523419 
0.2129927058907665 
-0.06180729127419039 
-0.04645196382498899 
-0.03275692405525269 
-0.03840238383125202 
0.1515421604638189 
0.2569071660502767 
-0.01569163941007635 
0.1133504195922363 
0.03899285146458162 
-0.190060211789027 
-0.0971089272446822 
-0.04578627962999067 
0.02244938952451852 
-0.1105970865288625 
-0.02979202041733775 
-0.007457352412252899 
0.005744777776227188 
-0.0889817421609197 
-0.04158266514248631 
-0.01139161496507109 
0.06726879500699033 
-0.06413651614680153 
-0.08447902379052133 
-0.07740572769759255 
0.1126350953548448 
0.1017274677015177 
-0.3965396678511648 
-0.03349380341109481 
-0.105030797655268 
0.03800249630028681 
-0.05489141127171101 
0.003841272672572977 
-0.01914490431601239 
0.005127090700820889 
0.1121737782474181 
-0.001980422024753615 
0.06443022726865488 
-0.1733295546401191 
0.04410902861420579 
0.1687888398473772 
-0.02699028064960083 
-0.1023853036951287 
-0.2632991093863079 
0.143156854898378 
-0.2361590496614947 
-0.3437560529931602 
-0.1379653299300165 
-0.1457383284789774 
0.05448713611030682 
-0.1884150681790067 
-0.2664588819617754 
-0.01161531058976753 
-0.1328000613114313 
0.01776892892434944 
-0.05701188785671763 
-0.07145918935482989 
0.1965098307354227 
-0.06338751170370795 
-0.1244487529120778 
-0.1258286033318183 
-0.005365780205964808 
0.02297147763184709 
0.4126614600051864 
0.08528022453832079 
-0.1126890271346302 
0.1353657613419379 
0.05155168026409596 
-0.06999179906170001 
0.3600427126547261 
0.02637557841819187 
0.1315716729719101 
0.009303939151323137 
0.07357901321984675 
0.02200785139999027 
0.02598919702636774 
-0.07484716435426356 
0.01571773436370242 
-0.1313379066165122 
0.100052143466687 
-0.07348460078740078 
-0.08960138694802024 
-0.02273295356002206 
0.3248515440314712 
-0.04194757482293106 
0.02351798430953829 
-0.03458559904651044 
0.06759697875540768 
0.2173513624946066 
-0.1442383687738918 
-0.08673191378288547 
0.08463975945020051 
-0.01704599005162008 
-0.04256453788554573 
0.04141194425343422 
-0.1070128942665108 
-0.08595935639249901 
-0.172027415051585 
-0.09176354874390794 
0.04711072832966418 
0.1432736751108959 
0.02598919702636774 
0.2060485788484182 
0.184845850292012 
0.01718258701471053 
0.02225344851124068 
0.0126820349808873 
-0.3228173203880703 
-0.1934292681630687 
-0.03452281286428561 
-0.02194244728421992 
0.07419125525396698 
0.006254891982122051 
0.01510587692856148 
-0.0873229982982606 
0.09151345455079056 
-0.07145918935482989 
0.01458254038820314 
-0.03186760922168235 
0.1115242293026141 
0.01533747443825823 
-0.08099532136397419 
0.05872311578135056 
-0.1656484964162519 
0.02696306794080204 
-0.01804628606926987 
0.05966501632347278 
0.0359300990178688 
0.02995550121500319 
0.1905764437375385 
-0.1010526087538387 
-0.1997470771383621 
0.0723692072197525 
-0.02841966588154214 
0.09811566220521253 
0.04622451556399217 
0.02206227045171887 
0.04044408078277056 
-0.09972064544390613 
-0.1086991395665453 
0.1200593439308967 
0.1137394337643461 
-0.06052308212355854 
-0.1076473213527919 
-0.1507131029470715 
0.05674761959494911 
-0.006111356819121106 
0.04972638343905392 
0.02232305710754604 
-0.1163152792070391 
-0.003623192912011256 
-0.03782178043183571 
-0.1200581094894325 
0.08764418429226102 
0.03048893631703596 
-0.01981405093627023 
-0.0927354184966968 
-0.05999066481854588 
0.003174443017910686 
0.1729806252083442 
-0.1760481830791157 
-0.05632458072394241 
-0.03203208120194496 
-0.2482570536269341 
-0.1821650242683436 
0.1537175295719288 
0.02392509564674987 
0.1806346598146457 
0.00465588642078669 
0.02260416744776988 
-0.03280208105744856 
0.02388219691390235 
-0.07593526944919542 
0.02200358622092627 
-0.146609091522939 
0.04563951841502032 
0.04960664915477152 
0.03673765674491399 
0.0823388775403146 
-0.09614188325801838 
0.04455881018674484 
0.08266515774832892 
-0.06874618860831548 
0.03634617342462881 
-0.07593526944919542 
0.09406527698950654 
0.0348854196449041 
0.09948286450180179 
0.02257584496838961 
0.02068739920666879 
0.03548689587521155 
0.09525807488173722 
0.1410965699084872 
0.02488576102600578 
0.01758568573838094 
-0.1131341977384045 
-0.1328000613114313 
0.04817182482291089 
0.001918112071773758 
0.2772810242806854 
-0.1046563957440695 
0.03926329674453549 
-0.147402491424096 
-0.2820967867396269 
-0.112057195531631 
-0.2673181969026627 
-0.137324431726708 
0.008856742992715218 
0.02860843630235221 
0.2040419967791712 
0.03681318899077056 
-0.211246432763232 
-0.0523165264106894 
0.04711072832966418 
0.02694044682765363 
0.1344668839304883 
-0.2095831224439101 
0.03842479679602077 
0.02244938952451852 
0.03429087647246881 
0.1361535701768582 
-0.1265763516890204 
-0.007983654103631234 
-0.05924542586861845 
0.05533827997483515 
0.05013719708995446 
0.0935448235099009 
0.1368312789150579 
-0.02710131812852346 
-0.2817509614762521 
-0.08775999173690377 
-0.1603296015777916 
-0.065312413747455 
-0.009042251521436256 
0.1948808100493225 
-0.05710918936258439 
-0.1782112356559708 
0.1363964821209186 
0.1152125206191683 
-0.1083261107756993 
0.01718376461094469 
0.09930028650985473 
-0.04817578910533189 
0.04088972283375142 
-0.102415539968938 
-0.03628133808484498 
-0.05385745840375366 
0.04304525118525573 
0.1122706936650811 
0.153650776933295 
-0.1649830527598445 
0.1804160151445969 
0.1291011740806584 
0.07112202063351562 
0.1368312789150579 
-0.135014705466035 
0.07989781541312251 
-0.250840946422966 
-0.4584894856729412 
-0.07182319617150972 
-0.06932444880591802 
0.1351120088375875 
-0.04578627962999067 
0.2868243140127497 
-0.008322988532863576 
0.07983914219082149 
-0.05045188657899394 
0.03582769448469162 
0.03268574471401613 
0.04813146249630091 
0.09930028650985473 
0.05469412681432061 
0.03080049526609932 
0.1095219119248996 
0.001919211117046034 
0.05968910698913287 
0.08933524877203129 
-0.09870610701859714 
-0.1650902689880965 
0.09983320505700793 
0.001919211117046034 
0.008897106567945842 
0.02565552030063652 
0.02565552030063652 
0.03201986287752544 
-0.1566748556276577 
-0.06589175345734459 
0.07293943201478521 
-0.2842826962659859 
-0.05350990119849913 
-0.0523165264106894 
0.08751347011972076 
0.08630891580752881 
-0.1319161492759561 
0.1394229571056409 
-0.008248657753666641 
-0.04011894813502587 
-0.08510328579874837 
-0.002893295258290263 
-0.04402654980671041 
0.0714706425376537 
0.05744558647657971 
0.088392163188353 
0.001579353744733422 
-0.451249917298286 
0.1324482007755969 
-0.1408988622977806 
0.05156575209874373 
0.07758032040208306 
0.03024129619346268 
0.1012109499952027 
0.1089115916466931 
0.02991691761861027 
-0.05053891542103223 
-0.08841750909287109 
-0.3502278241053582 
0.07420943640535416 
-0.1255301235083543 
0.02015404177343268 
-0.1726832635040155 
-0.06378456379724691 
0.03739587468859106 
0.05250577751434686 
0.008856742992715218 
-0.2108952380005257 
0.07922354177510546 
0.3012806989092303 
0.04796632350477008 
0.0514369080378571 
0.0554612896820935 
0.004177622811333204 
-0.0386218247311529 
-0.319778449814049 
0.04476151002097189 
-0.03015374718230894 
0.002979033122291611 
-0.02530537560772382 
-0.09256455839590744 
0.03739587468859106 
-0.09573527016547465 
-0.01616240456587581 
0.1285991359711305 
0.03024129619346268 
-0.07945230495172242 
-0.03544628166670719 
-0.07764348545972181 
-0.006911181547844553 
-0.1834422257064089 
-0.2146301452753875 
-0.186853869065042 
0.1368312789150579 
0.02244938952451852 
0.05305689823464738 
0.1310683168439073 
-0.1112124147451847 
-0.4153697993302153 
0.05281266563121401 
-0.02788537776276226 
0.0770740112295019 
0.1373673870221788 
0.06240335658140297 
0.02291770190808724 
-0.09484780922485844 
-0.01663543351848352 
0.04403134339352901 
0.06162662552405928 
-0.1672831453364558 
0.223694185943604 
0.01583898392152585 
0.01352775134257881 
-0.04098512624430079 
0.02381078433019581 
0.09737081175952525 
-0.1269939862839488 
-0.08579460259688401 
-0.06928414647853361 
-0.01248949878429686 
0.1016828020916764 
-0.004329483454263056 
-0.07668365380503871 
-0.1346875237361046 
-0.06490325337838707 
-0.0438123368896292 
-0.05771290459897293 
0.1546711591471807 
0.03842512709142262 
-0.3500772791698957 
-0.3511218626195414 
-0.03029651602247736 
0.0180994956897948 
0.3402684119979394 
0.09707535244672308 
0.08053407300702956 
0.1021975883362451 
-0.2352458734228783 
0.02746368022489106 
0.2434490050042276 
-0.1427527001377774 
0.04514764442954343 
-0.05955575111216849 
-0.1040059644773621 
0.2222369391020137 
0.008442278563671532 
0.002979033122291611 
-0.1887633535523419 
-0.1785563715791621 
0.2775390498964155 
0.08044056693207737 
-0.06959245747932724 
0.0540503701360591 
0.1401432955174994 
0.01124979175947264 
0.05373635358050494 
-0.1723555519361563 
-0.05533378041968461 
-0.02338341118909152 
0.1634660241343747 
0.02860843630235221 
-0.05801528015421922 
0.2586217966630622 
0.03681318899077056 
-0.1414603705153767 
-0.01284133266170923 
-0.02392193957605926 
0.2229106488679222 
-0.06942908790464038 
-0.1656484964162519 
0.04092444415789343 
-0.01345831691013358 
0.3153004455943826 
-0.04398992823510499 
-0.08436866559606872 
0.1288338536565089 
0.09348350233590189 
-0.02779291372852029 
-0.0513622977995851 
0.06476748171301254 
0.001579353744733422 
-0.2604492635911261 
0.2346546488878143 
-0.04117713844318106 
0.06584784790116735 
0.03125406032987747 
0.05606761961406613 
0.07219276857666203 
0.2362536945426421 
0.05356400966133858 
0.0635467996841679 
-0.07518870089798084 
0.09090042211820178 
-0.1929506548172892 
-0.02524911329024832 
0.1015295155881257 
0.05606761961406613 
0.003496025972137652 
-0.1093850289317081 
-0.1093850289317081 
-0.1581224150558129 
-0.3117501580210249 
-0.03504728941530632 
-0.04186384612478374 
-0.03537300237147983 
-0.3543490500633605 
-0.06675764413665808 
-0.221316883572064 
-0.09578106549246646 
0.2693395495304414 
-0.1425660487765915 
0.02160170092541958 
-0.06782161811246876 
0.2581908620959798 
-0.04715811899434724 
-0.02428073290856444 
-0.0008653059252363218 
0.000991895291485355 
-0.02259234746674337 
0.02544513349820961 
0.149304826719696 
-0.04472467678895681 
0.02931302588567001 
-0.135014705466035 
0.04416023270065941 
0.4265898176380412 
0.10464917085653 
0.1376802714933606 
0.1486116234979159 
0.01634859001569156 
0.09521580868490569 
0.01254576041339716 
-0.04394995101907712 
0.02694044682765363 
0.1727844481360508 
-0.02836274667048723 
-0.01202637553736328 
0.03667757253456372 
-0.1763330970851572 
0.01155777411063051 
-0.02967650787715093 
0.2210391033826304 
0.05215995557285382 
-0.01039302637804518 
-0.100726367537292 
0.1205264907032472 
-0.04735275574859663 
0.2655799821423944 
0.01785128925879603 
-0.07200443887624855 
-0.1165555393692056 
0.02982767308517655 
-0.05774212030472239 
-0.09653403521108168 
0.05895539126645735 
-0.05855921438381036 
0.09941256604969728 
-0.09031324086679758 
0.1661535749982703 
-0.1149460589630891 
-0.3345281773402002 
0.1021146942737206 
0.08241270665429937 
-0.02540009755102153 
-0.1151196519438034 
-0.1151196519438034 
0.05942578964637889 
0.3544103601709888 
0.0305888597338534 
0.04023815885958459 
0.1796420442210535 
-0.210048217098419 
-0.1106973449932258 
-0.2212997777765455 
0.08388344813004595 
-0.07225504315025695 
0.05297815673311119 
0.1186055436091897 
-0.0007504616899511284 
-0.06806633425379592 
-0.08376674317312216 
-0.2726917244967343 
-0.07604547928158853 
-0.07182999521969814 
0.03541269536883049 
0.04088972283375142 
0.1058161037179395 
0.09776073167599896 
0.001403885689212026 
0.06729364623214282 
0.06758959589870783 
-0.1472618891944344 
0.009119995140330447 
0.09092191407489322 
0.003841272672572977 
0.02920761609729666 
-0.01868283413956514 
0.2085334280830756 
-0.04507693831996782 
-0.1143949453576866 
-0.2897348558294202 
-0.08579460259688401 
0.07821132309980028 
0.07092928601578143 
-0.1005491812143227 
0.1728376649820666 
-0.07851878188367788 
-0.1585522747279886 
-0.1110573717502078 
0.1091458550468275 
0.08751347011972076 
0.08764418429226102 
-0.03245165250614253 
-0.07578101552685795 
0.07603808085376176 
0.1079270199253276 
-0.07484716435426356 
0.01458254038820314 
0.06977137393148342 
0.01785128925879603 
0.0375886135881497 
-0.03813516309551007 
-0.1021833327202761 
0.04271634573940308 
-0.09859669840925386 
-0.03730750250861695 
-0.1665659363112231 
-0.01975723665677916 
-0.07072961341137292 
0.0918299996677477 
0.04813146249630091 
0.04363807382161256 
-0.09114968139460268 
-0.2679014743342488 
0.06027416201434305 
0.03595967909873001 
0.03125406032987747 
-0.2672450340204965 
-0.1413813231313057 
0.1276707731859814 
-0.02118412530560265 
-0.04960820303127442 
-0.0677242393426918 
-0.1315472646474875 
0.03146442099776956 
0.04869424552304794 
0.1436624157377024 
-0.2208528227344426 
0.03800249630028681 
-0.1397189017990035 
0.04796632350477008 
-0.02255202870968609 
-0.05270793838654193 
0.0534730211118941 
0.07676966824661637 
-0.0889817421609197 
0.02714864325761525 
-0.02427191517523103 
-0.0239638595875411 
0.05660618712168313 
0.1203731428518039 
-0.0974941191472322 
-0.03293200790851438 
-0.03101607297646503 
0.003258787687436718 
-0.1112124147451847 
0.0466208188812753 
0.6141446894422815 
0.1404129768464651 
-0.05683568033058133 
-0.0723493630658868 
-0.04017288322909581 
0.09930028650985473 
-0.08290261667214291 
0.1762463091112201 
-0.1521276407305691 
-0.05247230442114551 
-0.007908635517955783 
0.1096234295120974 
0.0924742825384076 
0.005721364083517931 
0.03436811802213327 
0.01569839907559191 
0.04878534861352971 
-0.02836274667048723 
-0.04414906543956793 
0.1056809939742385 
0.08304671290092772 
-0.1726266569998151 
0.07092928601578143 
-0.2052645617516022 
0.03006262312609631 
0.04501814784377031 
0.09302046701052841 
0.002071939416967926 
0.1398468454431198 
-0.05999066481854588 
-0.1030988632905387 
0.002979033122291611 
0.03199664361838488 
0.1796420442210535 
0.02469745262552122 
0.002555875539883496 
-0.0709903072262245 
-0.1240264028842008 
-0.01804628606926987 
-0.2046500069426272 
0.06936803641749374 
0.1690213404270926 
0.1203731428518039 
-0.1302774577966286 
-0.07324693844174232 
0.01945308038681361 
-0.09114968139460268 
-0.1148992340001729 
0.09404205212649339 
-0.003498909072869493 
0.02244938952451852 
0.01589577879695107 
-0.008679259822428292 
0.03746754921564554 
-0.04283210735892511 
-0.01901899808572256 
0.02995550121500319 
0.1448471176603504 
0.0753430165608515 
-0.04491451669679929 
-0.09031960505881655 
0.6146769226804716 
-0.1523005599407587 
-0.0612098961822172 
0.08413476322992713 
0.05166767628568231 
-0.1076726552971367 
-0.006823978408465853 
0.0635467996841679 
0.1638077510394984 
-0.02590624331450171 
-0.04947312104964053 
-0.0723493630658868 
-0.07964907796004225 
-0.1523005599407587 
0.0466208188812753 
0.001919211117046034 
0.1247740039946953 
0.08718710958383703 
0.01668348325104129 
0.1190732711103997 
-0.1029664813254531 
-0.08160656216264153 
-0.02590624331450171 
-0.02730485244430833 
0.03079839861478642 
0.02412898362145622 
0.07528967294233752 
0.02652313631363118 
-0.02427191517523103 
-0.3330767341771649 
0.02257584496838961 
0.0547702737570617 
-0.03437108006347976 
0.01509198111689331 
0.07112202063351562 
0.1722037122850824 
0.01814231888394892 
0.1622095792801295 
0.07419125525396698 
-0.06493289197166624 
0.08935798451031465 
0.02178227658510087 
0.02694044682765363 
0.02015404177343268 
-0.007617116055085843 
-0.06589175345734459 
-0.06108360170552452 
0.007971287624276799 
-0.01144757805768252 
0.05660618712168313 
0.07419125525396698 
-0.05334892865565415 
0.1559591718664942 
0.04574480818504355 
-0.03213466497822324 
0.0272848719517607 
-0.06265196883912692 
-0.5303623938294174 
0.04439578170386731 
0.02544513349820961 
0.09708182997200653 
0.09297353576235609 
-0.05436678741995008 
-0.09429520509066329 
0.02760043265046309 
0.09941256604969728 
-0.09763000020296207 
0.07562447129735102 
0.07562447129735102 
-0.1426267340234339 
0.09532877653237011 
-0.006884635592058411 
-0.04530641839111691 
0.2509419849849504 
0.04439578170386731 
0.06505127026512439 
-0.03544628166670719 
0.04399095973468947 
-0.08160656216264153 
-0.1431846180745635 
0.07622393137522954 
-0.09972064544390613 
-0.1040059644773621 
-0.1040059644773621 
-0.1023343084085663 
-0.05208171644444765 
-0.02610555995392975 
0.1577297341950482 
-0.001141201353900936 
-0.3347261457811508 
-0.01730817952546732 
0.004661969740911095 
-0.1712478192177175 
0.1027994479169849 
-0.01564044231375738 
0.09697787599621695 
-0.04011894813502587 
-0.06413651614680153 
0.2674609150214709 
0.09476397445370832 
-0.1193338357936757 
-0.05522313280102487 
-0.03923266779561592 
0.1745198969343396 
0.000991895291485355 
0.1817197185812865 
0.04001934577844371 
0.001677189189102983 
-0.08542162716220378 
0.07619743052856018 
-0.1115809155979839 
0.1025572072826417 
-0.02427191517523103 
-0.06998457269658157 
-0.2506332192033284 
0.01202728814998649 
0.01202728814998649 
0.02120863430141684 
0.163706787605499 
-0.1037447251362446 
0.01041693035753576 
-0.189020930370447 
0.04844806198036232 
-0.07861644726562567 
0.0200109722492313 
0.1621395553338798 
0.1389512785066401 
-0.188102555268272 
0.05662885909908649 
0.1550093769701145 
-0.08932231103068454 
0.02402151181935867 
0.1234744403679609 
0.1170077685037436 
-0.07348460078740078 
0.01270812386858559 
0.08885104321675068 
0.07541261162823292 
-0.1252900989013666 
-0.07182999521969814 
-0.09749054072162765 
-0.05215682993002105 
-0.003393511062282521 
0.09208411951002436 
0.0485311573950841 
0.1183868906033294 
-0.08233883427257982 
0.04970680313896314 
-0.06413651614680153 
0.08810090913022445 
-0.1253179284258639 
0.08545399201470127 
0.1115242293026141 
-0.004120370955216241 
-0.07782560787499072 
0.1876479083676832 
-0.06413651614680153 
-0.135014705466035 
-0.1615765000564088 
0.06169423689260047 
0.1122706936650811 
-0.2079464927392673 
-0.1325913072522319 
0.1514305189538997 
0.03596797242125316 
-0.03430303973430851 
0.1557684341709477 
0.03865176293369061 
-0.1003019334131063 
-0.1923635014287304 
-0.2945888505537854 
0.0305888597338534 
-0.0414685878736801 
-0.09451198327552723 
-0.0523165264106894 
-0.1595970154898975 
0.2380293520991283 
-0.07072961341137292 
0.01024692289217275 
-0.02795666939933979 
-0.1366887324677827 
-0.06297210874227732 
0.04487678949498532 
-0.0356261179425042 
-0.1605827446681453 
0.04707624189071887 
0.4416946913893393 
0.09178168828481297 
-0.003648773410831954 
0.1474722237982427 
-0.06889684341779796 
-0.1070871692609599 
-0.0322522073031929 
-0.0322522073031929 
-0.07438059498793175 
-0.03912191552895912 
-0.03138803968796562 
0.001572343042362343 
-0.1051352820044084 
0.004509452693495245 
-0.189020930370447 
0.004224244662965801 
-0.02297644184658404 
0.05453533137087036 
0.1537175295719288 
-0.09724148750530501 
0.007321400231252963 
-0.0286645896065415 
-0.2843252420834649 
-0.01003726184743752 
0.06929790594222386 
0.0542414018479094 
-0.04834541623076372 
-0.04715811899434724 
-0.1008142957444463 
-0.04256453788554573 
0.121531863820514 
-0.07324693844174232 
0.07079054797349332 
0.07079054797349332 
0.07570965444691429 
0.05468106612559583 
0.03028497785406688 
-0.118520619300114 
-0.0541557802581718 
0.03690828890531683 
-0.06103040667327318 
-0.003750122135788438 
0.09175550725101847 
0.10841268909037 
0.02995550121500319 
0.07479127123532048 
0.0305888597338534 
0.1053801309691739 
-0.08328273452134852 
0.02610337629606828 
-0.08328273452134852 
0.03746754921564554 
-0.1008142957444463 
-0.04186384612478374 
0.03228795217693879 
0.1082936527597826 
0.04229786360859974 
0.002447554511824321 
-0.07945179409324148 
0.03333176627141466 
0.07298165571159002 
0.1243317903803245 
0.05212784715832557 
0.09707535244672308 
0.09811566220521253 
-0.1019877259935565 
-0.5052676877597127 
-0.05005332863374837 
0.03048893631703596 
-0.07438059498793175 
0.08636797997748909 
0.01785128925879603 
0.0007699691392951159 
0.09737081175952525 
0.03063757799801449 
0.05811035502234245 
0.0126440808402773 
-0.03840238383125202 
-0.1248826234741071 
-0.03406333685138117 
-0.0002316847796494472 
-0.09724148750530501 
-0.0513622977995851 
-0.005787537362950832 
0.0319962127230932 
0.09429459767692146 
-0.0386218247311529 
-0.05701564955146582 
-0.02418294873135386 
0.09466806628415088 
0.02650051232794091 
-0.06090017982810671 
0.07466573066467031 
-0.0134884692227832 
-0.02128672963572031 
-0.1548728530323842 
-0.1267100689381801 
0.0746869251639086 
0.006349963909911324 
0.09879372550325127 
-0.1110573717502078 
-0.07788015150945125 
-0.02002233234073673 
-0.07249822761832826 
0.1353430630400947 
-0.4925310745983685 
-0.1322012804492111 
0.02899698629876734 
-0.0723493630658868 
0.1358157101865981 
0.1419856602495454 
0.03541146226719202 
0.004207806193588668 
0.03081208774980647 
0.2855281512209323 
-0.01130757864705885 
-0.1755527499613195 
-0.07800311601489761 
0.06505127026512439 
-0.09873442833425745 
-0.04735503672190826 
-0.0251092004976505 
0.09600333065496125 
0.02995550121500319 
-0.09137670072096321 
0.1016828020916764 
-0.1044033634202612 
0.03905494846398896 
0.1381175309551497 
0.04612198332891156 
-0.2450089330551602 
0.03193655653330867 
0.03130200911388949 
0.08125813005628889 
0.1441274571780637 
-0.1156703743051079 
-0.04117411471995212 
-0.03894696170801774 
-0.04098512624430079 
-0.2089580995514203 
-0.06544243885100336 
0.0315280752923011 
0.05469412681432061 
0.0508699091293844 
-0.08306027682118636 
-0.1008142957444463 
0.002071939416967926 
0.002071939416967926 
0.02402251064813345 
0.04837953412737883 
-0.1112636347067249 
-0.01996682951383005 
0.01668348325104129 
0.1753378620557867 
-0.1961055607182088 
-0.04186384612478374 
-7.036399255850429e-005 
0.04261513969700116 
-0.02291030658503932 
0.0173820759406293 
0.07603808085376176 
-0.03101607297646503 
0.07517776687047166 
0.00465588642078669 
0.008661742243618931 
0.1143710463270593 
-0.07773428121685395 
-0.1056226756019762 
0.09908998452672618 
0.04264311637595775 
-0.06998251757599461 
0.05656799499906318 
0.002980323755501234 
0.005394434442917389 
-0.06836686281167485 
-0.0830751166313138 
-0.02710131812852346 
0.05858769417503026 
0.01589577879695107 
0.1299168761748933 
0.04616040405392138 
0.09975563852247163 
0.03097577296586523 
0.132317017635503 
0.1099419157493572 
-0.0898019515733163 
0.03079839861478642 
0.2436157514489432 
-0.09796732448586994 
0.05542017915118292 
-0.07228153706432715 
-0.08870417981352693 
0.01509198111689331 
-0.1623143516934959 
0.08354590807907426 
-0.06836686281167485 
0.05606761961406613 
0.07143406835971325 
0.09178168828481297 
-0.03760423004268282 
0.09641113686529176 
-0.1159482472369834 
0.02457254079981706 
0.07774010247983829 
0.1362089174680053 
0.09708182997200653 
0.09708182997200653 
-0.01917877631003815 
0.0272848719517607 
0.01316698254267142 
-0.03101607297646503 
0.02598919702636774 
-0.1886708749735258 
-0.02824073906491114 
0.04508285753909518 
-0.02815628259918254 
0.02565552030063652 
0.03681318899077056 
0.09348350233590189 
-0.001207916801179786 
0.04676134324639245 
-0.07366156867332843 
0.01299200360629284 
-0.06371070342574038 
-0.0322522073031929 
0.1170077685037436 
0.08933524877203129 
0.03264086904695337 
0.204429391781341 
0.1405316073363021 
0.1147022351858177 
-0.241382589720825 
0.09285447822370735 
0.3036237799252974 
0.05898312948146333 
0.05539039539616041 
0.01027291523022422 
0.04937104666726969 
0.009119995140330447 
0.02380261315069695 
0.07218949866446944 
-0.03304377217688745 
0.0126820349808873 
-0.08811889814562798 
0.1759267929050773 
0.003711792453459764 
-0.07182999521969814 
-0.08233883427257982 
-0.01746731779505631 
0.07902066560526694 
0.07182912644779255 
0.04612198332891156 
0.1288338536565089 
-0.02811053781099913 
0.1450941552653332 
-0.02257323714032852 
0.08822864113865525 
0.2139855101672977 
-0.04695498221456167 
0.04796632350477008 
-0.06683125697724726 
0.02714864325761525 
0.02606215179201021 
0.1249873054571852 
0.07331419978615281 
-0.1294990431951196 
0.09024027263883744 
0.1535593345286868 
0.05304067986464642 
0.04324120603901746 
0.01324997707572696 
-0.06998251757599461 
0.0466208188812753 
0.04616040405392138 
0.002555875539883496 
-0.01339896950043502 
0.04869424552304794 
0.003551802218078274 
0.2789331646924187 
-0.04735503672190826 
0.0777606500677699 
0.0427928701547601 
0.1935897737873473 
0.09018912620099047 
0.01009649367148039 
-0.05134011624041089 
-0.07072961341137292 
-0.1008142957444463 
0.135841925534247 
0.04023815885958459 
0.1305256301105821 
-0.1041015927398166 
0.08817145541553992 
0.04869424552304794 
-0.5572050400860319 
-0.08501996204321384 
-0.02836274667048723 
0.01792040103502153 
-0.07722670138240821 
0.02932719721943742 
0.02887270480547592 
-0.01914490431601239 
0.05373635358050494 
0.03079839861478642 
0.03433256018517087 
-0.01192034660773204 
0.08162794953683025 
0.1733198425186459 
0.1019210830922565 
0.06336747563077112 
-0.1196801525544834 
0.04439578170386731 
0.0533935517267617 
-0.07249822761832826 
-0.05712927878891265 
-0.07461890590613741 
0.07240289198770514 
-0.1094867644437496 
0.04549501755357167 
-0.2203699480192304 
0.04599552087491954 
0.02200358622092627 
0.08044056693207737 
0.02606483353319723 
0.06336747563077112 
0.003841272672572977 
-0.03362305447062174 
-0.04586185467714044 
-0.3521867398824061 
-0.02788537776276226 
-0.0134884692227832 
-0.03894696170801774 
-0.03018681207147079 
0.02219003389714712 
-0.2085292670652744 
0.01859152177484186 
0.05128531356525229 
-0.01270771559237834 
0.02782725887129676 
0.007095475487537498 
0.01024692289217275 
0.05128531356525229 
0.1506608372017552 
0.02955924965959675 
-0.1146268288476263 
0.06796762493340253 
-0.3941432296205774 
-0.02087372654268919 
0.08894766586970246 
-0.06998251757599461 
0.06831582707496528 
-0.09240805429321447 
-0.1205982301610646 
-0.1672831453364558 
-0.07209901356615357 
0.0195580405223494 
-0.005319603084756778 
0.04937157122510003 
-0.0513622977995851 
0.16309915123522 
-0.06942908790464038 
0.003841272672572977 
0.1350109787794059 
-0.1702996166003402 
0.01002126160323872 
0.02565552030063652 
-0.0003078602553927001 
0.1246473979666052 
-0.01022886125735019 
0.05291903957651507 
0.2808236416297684 
-0.0966503006083233 
-0.1469132675283699 
0.01921069886596389 
0.1329264672501051 
0.5774811122292568 
0.1817575160140336 
-0.2092328125728107 
0.03125406032987747 
-0.08960138694802024 
-0.1154166548279653 
-0.003796788906931092 
-0.1544718754094949 
0.1289703982111135 
0.04957489210985784 
-0.04524145326235792 
0.08717971511088875 
0.0272848719517607 
-0.001405923670547048 
0.09151345455079056 
-0.04920829080983812 
0.01900980061842388 
0.01574797920862573 
0.02198465204642762 
0.1689951179215503 
-0.03808147682939646 
0.06370166260922061 
-0.006131782622936968 
-0.06454830449593489 
-0.06458292488198157 
0.01718376461094469 
-0.07518870089798084 
0.3247453684809391 
-0.1484994500616745 
0.07536077159178001 
0.0061239441783954 
-0.06378456379724691 
0.01270812386858559 
0.2464724810720673 
0.07344707151217068 
-0.08122397395392067 
0.1910540164330457 
-0.08302904575988331 
0.02316132635756736 
0.05985506784721032 
0.2927598017706775 
0.03286946290699389 
0.1188264059117478 
0.1082809662745627 
0.1226964438363844 
-0.2070191443422836 
-0.1183356960847191 
0.07398018094484807 
-0.2102104157163429 
0.1424538889241312 
0.1285991359711305 
-0.05166971985665503 
0.03023693264890384 
0.03667757253456372 
-0.05216284308013656 
0.2478955082687485 
0.03213266759298242 
-0.2243411252158783 
0.0007699691392951159 
0.05013719708995446 
0.1020956467621777 
0.009480919612702544 
-0.008942929084656076 
0.09550559265870447 
-0.1785708627046544 
0.02955924965959675 
-0.07710144128678635 
-0.1012876456521657 
-0.07841265495160853 
0.02030217231659314 
0.003188346685475008 
0.04403134339352901 
-0.00470213865965966 
-0.01679224712421854 
-0.01345831691013358 
-0.07693057761667503 
0.5246672537158659 
0.0272848719517607 
-0.02173719592279204 
0.01207095281906488 
-0.3010157315487158 
-0.007948929885134078 
0.1315716729719101 
0.1460000091702122 
0.005190708472344028 
-0.07331990890861966 
0.04264311637595775 
0.04841173916458729 
-0.4475426689430622 
0.02562264092725921 
-0.3826200257399 
0.02209628026053155 
-0.02389142281257089 
-0.06198557721683915 
-0.008662856254150531 
0.02257584496838961 
-0.02824073906491114 
0.2001401007655721 
0.1939192868788977 
0.02685373926593461 
-0.06534245350401825 
0.0207468866122895 
0.01254576041339716 
-0.003750122135788438 
-0.1681481326128453 
0.0207468866122895 
-0.1413813231313057 
0.04399095973468947 
-0.01248949878429686 
0.01945308038681361 
-0.07182999521969814 
-0.04785244256307753 
0.1913693093334747 
0.01684469320996086 
0.008133950258445814 
0.04597233857939071 
-0.02297644184658404 
-0.06348679330188596 
0.152394167558475 
-0.03098746752806872 
0.1630869863422494 
-0.122419809489325 
0.02929895923002081 
0.2585812032376762 
-0.03862690021917575 
-0.1069296018538337 
0.1207783847856498 
0.1183868906033294 
0.1684936651257622 
-0.02880774820887099 
-0.2083903744085249 
-0.1091535317647953 
-0.02674903829393531 
0.08081099032409486 
-0.07600374656771404 
-0.06338751170370795 
0.03828154625826669 
0.07603808085376176 
-0.1313379066165122 
-0.1410952003293 
-0.03238123103170968 
-0.1044206839040031 
-0.07652088646200843 
0.08731562557324535 
0.08388344813004595 
-0.004120370955216241 
0.02961342305523719 
-0.05693994182859887 
-0.2268493429782693 
0.04475265026225764 
0.1214729681896264 
0.057394267201467 
0.04321387548843341 
-0.007686017601485758 
0.0305888597338534 
-0.3524452092908629 
0.002530566343914862 
0.05224028679073103 
-0.05386984593415068 
0.1085269588838713 
-0.1979110273219895 
-0.00567358249328231 
-0.004800198656574869 
0.075995861213106 
0.03877583468588064 
0.07753724261355552 
0.1017555431829869 
-0.05630466685169875 
0.01811717550118985 
-0.2202510338583932 
-0.2104468108735455 
-0.3489966121585644 
0.07454904403775614 
-0.07600374656771404 
-0.08102581351868268 
-0.1026444410427869 
0.0946464027757935 
0.09941256604969728 
0.1436205256062173 
0.03960335183668803 
0.09941256604969728 
0.0007699691392951159 
0.04424269293946084 
0.05985506784721032 
0.07907223603497585 
0.09521580868490569 
-0.7506679995296302 
-0.001730910024140354 
-0.09114968139460268 
0.1032281071046043 
0.08757970161654444 
-0.05750705738292343 
-0.1355405648858758 
0.08822864113865525 
0.07540667760767689 
-0.02276949170307539 
-0.3883520871719815 
-0.06764776084226556 
-0.04760001676130671 
-0.35734240004793 
0.08792264730788708 
0.06726879500699033 
0.005015128374089304 
0.09814356149619813 
-0.02131724821713892 
-0.04657089434841719 
0.07454904403775614 
0.02544513349820961 
-0.05487175762435177 
-0.00229560841489485 
-0.1331370309177469 
0.1560191005632003 
0.006779988047820055 
0.02877363237924813 
-0.02530537560772382 
-0.1337596721451459 
-0.1295968511289583 
-0.1036867071912658 
-0.001935551159728134 
-0.0239638595875411 
-0.05919803320599661 
-0.1250430556550664 
0.009834338870619169 
-0.0414685878736801 
-0.1860729179114277 
-0.1427527001377774 
0.03475308110316507 
0.09192741516546892 
-0.1356170766897174 
0.1052796418756476 
-0.003263598555985577 
-1.384757387732965 
-0.08272535464158887 
-0.03258900790886189 
-0.07249220462470905 
-0.07848456952467349 
0.02534173384343998 
0.06128394345815752 
0.04454384571830941 
-0.07072961341137292 
0.2338037050870612 
-0.02995693607344851 
-0.151929178548767 
0.03478736669186804 
0.04796632350477008 
0.01007289729974921 
0.0495058368835874 
0.06752859618873085 
0.0721019406225787 
0.04092444415789343 
-0.3136284169564775 
0.2277736134339085 
-0.1337386457303635 
-0.1747459419431511 
0.1039735265282217 
0.07252083746059174 
-0.003398988244350809 
-0.07014828209296052 
0.03072133609538826 
-0.008469836334442031 
0.0723692072197525 
0.1598386166089839 
0.3283546966931971 
0.07218949866446944 
-0.06291714652950617 
0.1299168761748933 
-0.1271669226691325 
-0.1306399749206402 
-0.1359836414309129 
-0.01161531058976753 
0.005403257947888956 
-0.009280302015619121 
0.06940370652122535 
0.1005777148677445 
-0.01678150639651795 
-0.06962552688232315 
0.05656091184249174 
0.01589577879695107 
-0.013618481266684 
-0.2300556522253918 
-0.07116723028486424 
0.01694502406976804 
-0.1366936743034193 
0.03942089860450419 
0.1243317903803245 
0.0812311890927709 
0.02278050778035471 
-0.0249922379158197 
0.1082809662745627 
0.08889808007112648 
-0.0328521576562678 
0.05448713611030682 
0.1100020824606377 
0.08528022453832079 
-0.2323258746516864 
0.0554395328286836 
-0.08101073273518911 
-0.01804628606926987 
0.02244938952451852 
0.2028337848961857 
0.1892986212632845 
-0.01275610193939559 
-0.2549256586747771 
-0.01804628606926987 
-0.1076473213527919 
-0.07438059498793175 
-0.1427446950292308 
0.1421037992338964 
0.04970680313896314 
-0.09842892134102731 
0.1000957350514919 
-0.2703932555015549 
-0.02788537776276226 
-0.06342679016306786 
0.0657977766785403 
-0.1853738283206063 
0.05821853790001062 
0.09367463661095049 
0.08311059541805313 
-0.08306027682118636 
0.3105417045043233 
0.013154768919644 
0.168394246935963 
0.03079839861478642 
0.008305561951015563 
-0.03098746752806872 
0.03595967909873001 
-0.01279737701336757 
-0.02836274667048723 
0.03842479679602077 
-0.2434670070193579 
0.06840757980713186 
0.07445929423388238 
-0.07048104763007526 
0.2028337848961857 
0.0375886135881497 
0.07811652375703883 
0.05710862624995369 
0.0305888597338534 
0.1012109499952027 
0.06264365541018441 
-0.1529614824755778 
0.4258985973777641 
-0.111050785697354 
-0.07504593772666018 
-0.0356261179425042 
-0.1587379577260195 
-0.05084748026946694 
0.03779542504928417 
0.02271408847428231 
0.06726879500699033 
-0.1160695651383002 
-0.06408450742961508 
-0.06184743641833444 
-0.06342679016306786 
0.07692155845041793 
0.09814356149619813 
-0.05672617824739123 
0.01373149757791456 
-0.06408450742961508 
-0.1073231866095363 
0.04731763997349919 
0.02068739920666879 
0.08822864113865525 
-0.06342679016306786 
-0.06647726794987709 
-0.09635228161510408 
-0.1941763814516437 
0.06249640539960819 
0.2170087945325859 
0.01257180356173829 
0.2153710760607172 
0.00632425308527573 
0.0635467996841679 
-0.02841966588154214 
0.01458254038820314 
0.00465588642078669 
0.06505127026512439 
0.03596797242125316 
0.1935963793221801 
0.1714066313678682 
0.03728599484399996 
0.1012109499952027 
0.07344707151217068 
0.04863539620567055 
0.3329047478204885 
0.1225984674950554 
0.006157992056559133 
-0.0003652022689567604 
0.05330071284624625 
0.1605814771357345 
0.09707535244672308 
-0.1250275087369065 
-0.05855921438381036 
0.07957048043946136 
0.07219276857666203 
-0.1431846180745635 
0.08939451839004771 
0.001903875281820887 
-0.04283210735892511 
0.01589577879695107 
-0.02123814091461691 
0.0007699691392951159 
-0.01730817952546732 
-0.01537515911680738 
-0.08579515110698249 
-0.1200581094894325 
-0.05672617824739123 
0.03813497177489778 
0.1119779954457604 
-0.1759625291608466 
0.08304671290092772 
-0.04191233572159113 
0.08904863582041363 
-0.04265605177563939 
0.03429620203183696 
0.09302046701052841 
-0.07200443887624855 
0.008881482181273208 
-0.1260500791850519 
0.03097577296586523 
0.2273998199188131 
0.007095475487537498 
0.03429620203183696 
0.02299138155695555 
-0.04283210735892511 
-0.05522313280102487 
-0.1114641090796767 
0.007544347426107226 
-0.06291714652950617 
-0.1444017315288846 
-0.02524911329024832 
-0.223540102221645 
0.01077107849473087 
0.003841272672572977 
0.09393940664704929 
-0.04586185467714044 
0.05895539126645735 
0.006460927581377353 
0.05469412681432061 
0.1678426251642807 
-0.09484780922485844 
0.06833476985464758 
0.02380261315069695 
-0.01959101995731318 
0.04657893800985884 
-0.0239638595875411 
0.005744777776227188 
-0.1294076997892987 
0.0527412477714459 
-0.0552041875821626 
-0.06520332836100098 
0.07603808085376176 
0.1601650217528528 
0.03492513044681628 
0.1310981663049012 
-0.02901532452636409 
0.02083122290456774 
-0.03052848798275644 
-0.04887567041761898 
-0.2165929195386049 
0.05656091184249174 
0.08534713752065724 
-0.1041873621102505 
0.06936803641749374 
0.03079957512150643 
-0.07656714100639955 
0.1401432955174994 
0.02860843630235221 
0.1982022959136204 
0.1672638620323461 
0.0265140241282124 
-0.05025341918004567 
-0.02786680950388823 
-0.008610622329992643 
0.01758568573838094 
0.1179050640704096 
-0.05699185785924706 
0.04841173916458729 
0.1025743863332372 
0.08777635439891422 
0.1806341091457058 
-0.0775288754612531 
0.08112243293978896 
0.1019852512147736 
-0.07145918935482989 
