solver_type L2R_LR_DUAL
nr_class 8
label 8 4 2 3 1 6 5 7
nr_feature 2556
bias -1
w
3.071771952358392 -3.82213803128164 -3.903325677797748 -4.139640074039011 -4.069922252215225 -4.076039341850198 -4.416101340743532 -4.011998160481014 
0.93376521960918 -1.442950671384095 -0.9532435377280794 -1.129836266179484 -1.014881112256362 -1.457140804047643 -1.103974761953366 -1.183358332202045 
-4.237611844903761 3.359480639688568 -2.518404376992581 -2.820172640953489 -2.799353730446555 -3.173406163677091 -2.844527285062818 -2.978491925181023 
-0.926562926727574 1.177716498060995 -1.51271783081489 -0.9563555201113682 -1.290588390546363 -0.9357289975134021 -1.251803922956454 -1.290397940427451 
-3.33284111096448 -2.944308771304957 3.31686835839682 -3.188790013125648 -3.008656051864926 -3.484140330792402 -3.1449734654901 -3.189858921579577 
-0.004816966168234115 0.3361029012992874 -0.2562310030865348 -0.1004910813573352 0.7964659907684841 -0.1816689905804955 -0.01606733274179922 -0.0315420936736257 
-0.0005729893265806335 0.2813937050893223 -0.369338407354608 -0.001663170876431451 0.05512270751941068 -0.001065804501192795 -0.001616352630816519 -0.001314442779040199 
0.1618856463879953 -0.1030545602005063 -0.1969594664210235 -0.9095061424989189 -0.9950929228537626 -0.5971898951086979 -0.8298058798712305 -0.6365696218759499 
0.4984234376358677 0.003559362822447807 -0.6034888239674725 -0.5288152919217469 -0.5467563134249511 -0.4314448200179403 -0.1604391674422874 -0.3475113548011411 
0.2556438236271914 -0.5952738899100971 -0.0618291318917186 -0.02027896416801127 0.1584096343306053 -0.1946471346933786 -0.3447201555078024 -0.3784548399854043 
0.2908185778013055 -0.4244067568749309 -0.2253316769600732 0.0135615562482183 0.2833103259035359 0.07497240016943735 -0.1737408400857138 -0.6467209314367118 
-1.755598522334688 2.993647418620295 -0.4338933195909158 0.3541731280851546 0.6563060469264946 -0.1288711178193194 0.3716910533190435 -0.1215658438830861 
-0.3442292404984361 0.6338932599075697 -0.5512642780198435 0.02551146291381975 0.591912384093369 -0.04752048607803838 -0.008794773914280052 -0.07915497345481012 
-0.02892127661040778 -0.1115215170390098 -0.2156904045387837 0.04228534351401719 0.09170108596359297 -0.07277259662998856 -0.05591877629305827 0.0935377041358423 
-0.06915261921697623 0.09675483401107714 -0.2675501560267332 -0.01903671095712263 0.05124760594796516 0.08130550223872236 -0.002269527937681047 0.1605957951526892 
-2.566940965075563 1.120300305677917 3.027210542041903 0.7591844131000873 1.163028172723446 -0.2735256826245677 0.5513171995815156 0.2273033400938629 
0.00690906404829282 -0.08427829596070738 -0.01517204370599135 0.08720583107993012 0.09477724417670388 -0.1507057956003978 -0.0220870854576763 0.1292074771722608 
-0.0667073401239293 0.1011416026674128 -0.0967779752272421 -0.009433484396150445 0.05362811611484251 -0.0003118014928711806 -0.0007844705076974775 0.1656435902697326 
-0.005705488665744416 -0.1395961696202993 -0.2269099114168989 -0.1734967982688659 1.224282053798432 -0.01951169945833492 -0.1334968830598954 -0.01917353540873127 
-0.01618395906458784 -0.08017401673705582 0.04220472886985256 0.1306776705359154 0.06378029344958133 -0.0002251983190218016 -0.000411886639745147 -0.0003651783295100219 
-4.312695037105602e-005 0.1040611121407122 0.04267008435557786 -0.000181419600827486 -0.01157082842763724 -3.621002781621696e-006 -5.3159015409519e-005 -4.203925782330158e-005 
-1.486974075822045 2.609594896254792 0.3312659542623081 0.1857300025605935 0.3455048322489596 -0.6490992530594354 -0.1410897305316368 0.05810095873536991 
-3.025911679351647e-005 -0.6211200673334369 0.2437370004817073 -0.02451295861149073 -0.03122217988579755 -1.751871696290794e-005 -4.776276057922984e-005 -0.001737039682918607 
-0.0008219179306923316 -0.5164181396299201 0.3094429450325406 0.1315706051901475 0.07319273775515726 -2.095287773548098e-005 -7.114496646654932e-005 -6.732113674882833e-005 
-1.247693981313448 0.01254057354477027 1.076989080251016 0.6306859412443479 0.8109140616152458 -0.06122554699420634 0.3500396461522713 -0.05017244854281935 
0.004170660105696903 -0.003518587167248725 0.03212568226921363 0.04362031925830524 0.04862848227047777 -0.0106628995085926 -0.01293704961560824 -0.02060382567752242 
-0.0528908512271007 0.1019297327938674 0.04645056473816119 0.06351546429334809 -0.01502777086920048 -0.0001017301972416703 -0.0003906808249395061 -0.0003424865373453361 
-0.0002593533363274125 -0.4078829307331798 0.474707107796916 -0.08095278423540035 0.7331062178346314 -0.002208966303256037 -0.0002007708430990131 -0.0001077414545991619 
-0.01539447007667519 0.032265162557523 0.0423126068855456 -0.001013620819218358 0.06411622929644956 -0.0002071405642246794 -0.0003649966246803963 -0.0003319803822856943 
-4.312695037105602e-005 0.1040611121407122 0.04267008435557786 -0.000181419600827486 -0.01157082842763724 -3.621002781621696e-006 -5.3159015409519e-005 -4.203925782330158e-005 
0.1224225969226545 -0.5376464313427025 -0.07052822135169076 -0.03096288986011229 -0.08547341338783716 -0.08164604763059044 -0.1192481250331943 0.1844659581542698 
-2.161631980865004e-005 -0.2740309619178241 0.1629015862590474 -0.0001048155071392575 -0.01485133020259392 -6.314441112883126e-006 -2.287508892677882e-005 -2.661379436055264e-005 
-3.242894277967386e-005 -0.4039789603353413 0.3095508230482336 -0.0001206861649861602 0.0735286736020255 -2.895122938358892e-006 -2.425495140179884e-005 -3.412318952450061e-005 
-3.081427455966255 -2.572629006056868 -2.61487080075908 3.474522323583009 -2.648355862514809 -2.702654852848851 -2.603340131347845 -3.073049026590788 
-0.9435916081745154 -1.440222606148415 -1.284268710875502 1.14273872788555 -1.068012408180295 -1.203309973923484 -0.9488274006952692 -0.9989801067345133 
-0.02948949489029569 0.4645256320757226 -0.2970205351088473 -0.4433850912172007 -0.3102351033352571 -0.06199043487197641 -0.3033841467838842 -0.2823149875333195 
0.2524589765026859 -0.03840006108872654 -0.01685254515291763 -0.2412123637032233 -0.01759733612944765 -0.06596161332079767 -0.01797437028141273 -0.01421509895138054 
-0.0985061076326585 -0.03210457239361814 -0.01508210818522868 0.2285010007645633 -0.01619746938259129 -0.1512454702878975 -0.01611925363485365 -0.01265427016314385 
-1.298358761143683 -0.1324852179763338 -0.1163924891117059 2.299984217766009 -0.07026850285420373 0.003500915889512689 0.1188713242741299 0.322164873140027 
-0.6897698902715838 -0.02629961713655246 -0.04085421464421039 0.6303045208694215 -0.02629238420183964 0.01752068433812701 0.006953925347605709 -0.03601629779241505 
-0.08359106579697015 -0.3467573130790087 -0.04902963835907403 0.2399416477987581 -0.1039104213148554 -0.1172576681768594 -0.05018869100060471 -0.06719294180026009 
-0.2750184288564026 -0.0009883423909917497 -0.0005904592619792011 0.3686034774938 -0.000455543008365791 -0.1355276901135709 -0.0004774954865255642 -0.0006831633396566896 
-0.08259093144418821 -0.0006010135403381686 -0.000270824871870262 0.212045237312451 -0.0002223856474835192 -0.1354024287185304 -0.0002504191093531758 -0.0002969362129594634 
-0.03821434478730591 -0.08720436718193014 -0.02885535560809186 0.02887716429529811 -0.02798139642909395 -0.02733431354149679 -0.02659230065075013 -0.02709541355783959 
0.2837541549596988 0.5796842215956923 -0.04940393816474483 -0.5473554640312425 -0.25104839955679 -0.2642727762749113 -0.2393513953203222 -0.2334120531704356 
0.5021557803309282 -0.004564560705044441 -0.001133756339235885 -0.4163768480251353 -0.0008125721750985704 -0.01732648908064622 -0.0007798316297468829 -0.0009019027537253814 
-0.03044347218497108 -0.09410616510736884 -0.01234215664791715 0.04530629611178378 -0.008691147375298747 -0.009282754638867548 -0.008000817833035497 -0.01074079570959087 
-3.936535441495883 -3.039856535771365 -3.093859260316283 -3.282341574021566 4.229653173995326 -3.084775207577259 -3.333280128813239 -3.299658041601763 
-1.359452514641165 1.517801770053454 -0.2135562694144311 0.005642360530691873 0.3435839305114523 -0.1312693927922098 0.09134147724092784 -0.2125885539849968 
-0.5608979132634484 1.034690013886829 -0.2346535371001579 -0.2604931236998149 -0.4311933949974248 -0.09103954638607989 -0.1305439348234953 -0.1087357641515273 
-0.2898296754221469 0.6246154102949215 -0.1964743061640251 -0.2586413902382554 -0.02311047187965923 -0.0003662257194191676 -0.1286012815095312 -0.1064133919880098 
-0.009824543843730925 0.04423721035390957 0.362169548071606 -0.02574541001387793 -0.5701877308595088 -0.02030794479322545 -0.02035142444420121 -0.02159106763446619 
0.04602161799854374 -0.01669829596298187 0.3797499027071972 -0.00979538798079117 -0.5788372857561244 -0.0087017278795777 -0.007993469298953683 -0.01089607577111538 
0.08669695639800408 -0.03747598689436895 -0.05398049118557997 -0.03516822139291066 -0.02402649684166829 -0.04313573448994763 -0.03162636647283523 -0.03885104348189349 
-3.085674195855977 -1.930298497762426 -1.889599988739105 -1.924978936505649 -1.84734973628292 -2.022188965352453 -1.539611240201469 2.86835757895319 
-0.001288503322616768 -0.0006476653587244107 0.323051501604625 0.0290847131158426 -0.2540602513201968 -0.01013666906562572 0.100054967611826 0.1200937450023958 
-0.0009717724102722723 0.5794652537878186 0.0299378168439259 -0.006002047219257191 -0.4882882664204146 -0.04814961370394358 -0.02979682282916249 -0.03240947359319038 
-0.001273324674089441 0.7341187825991303 -0.005905474272344422 0.1407974173560085 -0.005359518372442945 -0.008572109028530561 -0.01169405873993928 -0.5107601817285358 
-3.712076524143749 -2.839006697059524 -3.095497405623697 -2.770052709416981 -3.166859073133501 3.830206232094014 -3.376940758377621 -3.17938992397769 
-0.2662065459604527 -1.773967539832591 -1.115868605200506 -1.424656936381486 -1.53290512405116 0.9221866669837209 -0.5941451206955682 -1.259239714595262 
-2.379554547007928 0.3168130970837026 0.0732593471770629 1.329105027564265 -0.3507897049446612 3.026812432661761 0.3387112829782975 0.3664710781733879 
-0.6062402055210446 -0.1483879448044163 -0.1992196800971989 -0.1435597020749373 -0.003001352452996242 0.8375585667418152 0.363349383596977 -0.1579478716627638 
0.9720090978833702 -0.0799053653094061 -0.5278359174673999 -0.08584583119996754 0.01864076224877243 -0.07257536573323382 -0.01561342990419529 -0.02894369218783108 
-1.90331448217432 0.195308263867953 0.863395246678051 0.1483082430146177 2.062688420947029 0.470216315915387 0.1228250393353171 0.8587421120676436 
-0.002097075330466836 -0.05096483100025345 0.3138663833423634 -0.0725528710993107 -0.4863804429192256 -0.0007493282203104023 -0.000258440045938999 -0.002978911347784114 
-0.0005356946345564937 -0.3568714301352629 0.5427053646632573 0.09758052753001814 0.6506546113641749 -0.003942191500653533 -0.00292335679211026 -0.02217783405825167 
-1.077374781093621e-005 -0.04592287529032844 0.3753487556809702 -4.265011232466727e-005 0.1167007641645473 -0.0005576014339321068 -3.699376884990688e-005 -3.03579893133929e-005 
-1.530776457950095e-005 -0.1589878961812951 0.4558315583194925 0.1012922418512827 0.0182694691628605 -1.344274455533733e-005 -9.441067958908371e-006 -0.009397294623404042 
-1.009876617959454e-008 -0.02808867459300633 -0.04010201603394427 -1.682393419237405e-006 -0.01062086263320103 -4.986334909229346e-006 -4.338685809598428e-007 -8.006678272162223e-007 
-0.000473259464586468 -0.109385547617245 0.3164364683112744 -0.0816978287672946 0.04203169790578622 -0.007925280512739594 -0.0009445398822405282 -0.002501979170353938 
-1.823142071770271e-005 -0.1500343967247334 -0.01664668706847752 -0.0001055960306731001 0.1948011312394757 -7.234111629272783e-005 -2.348484721979746e-005 -0.009353421269837695 
-0.2217131501106811 0.1905088309238351 0.08843653612823127 0.07552505434752671 0.1035080709057001 -0.0579605368214632 -0.0026813420776042 -0.07081405664019505 
-3.139680798504597e-006 0.1113930394991989 -0.05422193512231077 -9.436145197141537e-006 -0.02294481283259503 -5.90751737190877e-006 -8.016178320391142e-006 -0.001703358636301291 
-4.255497095650467e-006 -0.1080342288005253 -0.01658770070244254 -1.181786258274499e-005 0.1125499159633086 -9.8702840055927e-006 -3.763639649706483e-006 -6.651716859767055e-006 
-0.2715289928078954 0.6270682589107157 -0.4961372932984092 -0.6079272862451751 -0.2635353996603812 -0.4400526173034544 -0.3289350801270075 -0.3369368778794712 
-3.108444553852588e-005 0.1771062596125138 0.09640240105181019 -0.0001039194168739038 -0.02469962050413504 -0.005582311003429367 -2.316379653269572e-005 -5.064474285153643e-005 
-0.04553400495670901 -0.05141638878027217 0.2158536658366717 -0.06128018368930847 -0.02379991205835626 -0.0003060672628742567 -0.001043098242994363 -0.00373010224073342 
-0.9915993200638076 0.001666890899249946 -0.6151607638208192 0.09390025979245968 1.433077885427498 0.02760700524047111 -0.004872360818982529 0.5012315524798329 
-0.0002132243329602573 -0.0281531667862308 -0.3623384674278103 -5.860649875846375e-005 0.1751687665092081 -2.224387970064189e-005 -2.836017314996273e-005 -6.048494693113293e-005 
-5.709168794235702e-005 -0.4525064087341206 0.1687789426706036 0.1255773900337559 0.4017622914970109 -0.0005656065935514905 -3.306866096567274e-005 -5.386902095034222e-005 
-1.686942864422138e-008 -0.03156647289292847 0.3970643992693196 -1.030470437501047e-005 -0.0643521465163041 -0.0005382268536615296 -5.533343140575113e-007 -1.483504138516226e-006 
-1.094594525859546e-005 -0.1237469016015821 -0.04034964910631987 0.1256608162475306 0.01892837111904432 -6.627567808840436e-006 -2.835555037464826e-006 -9.975304043737454e-006 
-1.009876617959454e-008 -0.02808867459300633 -0.04010201603394427 -1.682393419237405e-006 -0.01062086263320103 -4.986334909229346e-006 -4.338685809598428e-007 -8.006678272162223e-007 
-0.000109056816462212 0.6673803054383932 -0.3598760385573649 -0.08061205968353216 -0.03670461247801078 -0.001653504434203721 -6.105910528752743e-005 -3.03803954313704e-005 
-1.188396130613201e-005 -0.2483661813157107 0.02602917646909206 -1.429683061156347e-005 0.1222780597496887 -1.093671376943601e-005 -5.494211624239591e-006 -7.096558611913688e-006 
-0.01849766486902828 0.02821364791561911 0.02578242871299022 -0.01747889668387458 -0.02422050230245256 -0.01983339004656743 -0.000953959741322252 -0.003597058525643296 
-0.08648643845970383 0.132165391478991 -0.01894998012351284 -0.04591759577773272 -0.03983512651126887 -0.001859373849793692 -0.002880693880964472 -0.05906939973286822 
-1.336174987415021e-007 -0.02308919470579308 -0.01088013053563862 -2.442537141764894e-006 -0.02384544121219531 -5.050722471485139e-006 -1.434449351532463e-006 -3.910801040623177e-007 
-1.660952953766808e-006 -0.02675087057955497 0.02603685649204035 -1.710195020882305e-006 -0.02203799079678693 -9.118328782849734e-006 -6.406409490869446e-007 -0.003292636454659607 
0.0519292951463505 0.05176397122545202 0.01629026197183176 -0.09002898332463263 -0.06837953649800527 -0.1624722838690027 -0.1075601909623398 -0.1044200403023747 
-0.05883149016975453 -0.03931247840031666 0.1847498677126972 -0.01524187192618956 -0.03488723698894606 -0.09184106875442182 -0.01330569132217445 -0.009773351583865881 
0.1810536512338407 0.01854972919607681 -0.1237055213904032 -0.06989857811184504 -0.03217836189060612 -0.06435437990684297 -0.07954724778018771 -0.07868012653739107 
-0.06096978161364412 0.2114600129973899 0.01406342102564502 -0.01138977667481611 -0.06157509542353938 -0.008805639236167725 -0.0350814580756508 -0.0089916813089001 
-0.004266752823245997 -0.0229914289806831 0.0147239938803825 -0.01091619636158995 -0.03248323596765229 -0.008678015995275358 -0.01006902552574935 -0.00875508109681117 
-0.004266752823245997 -0.0229914289806831 0.0147239938803825 -0.01091619636158995 -0.03248323596765229 -0.008678015995275358 -0.01006902552574935 -0.00875508109681117 
0.03914940601066488 0.0818353798850977 -0.0331320441766534 -0.02227445207010639 0.02751653834804336 -0.02058949887622686 -0.04251298041258696 -0.02527932163267676 
-0.02663446936968634 0.1555530736489011 0.02580664467498658 -0.0001032833697652677 -0.05027293915562274 -4.45497637462166e-005 -0.02470718292565483 -6.907718895850224e-005 
-0.4804567468911173 0.3171933387445893 1.060885171303812 0.008432583530266533 -0.6341559536752467 -0.2257857195435901 -0.007156339989529869 -0.2398093094655838 
-0.1223456679224263 -0.04587385171625309 0.8940676594846588 0.09895696117827364 0.4123790515176731 -0.1594694044258666 -0.001540130352524773 -0.1051305064830818 
-8.875488577847928e-005 -0.02762475635660556 0.08002849127981974 -1.557994897785107e-005 -0.1166144850931037 -1.518690782043074e-005 -7.840226752665845e-006 -1.914641999023828e-005 
-5.349810533629128e-005 -0.5202320138405638 -0.04222483442241248 -0.0001720170023270086 0.5842850695251267 -1.356648204191512e-005 -8.552049649294652e-005 -2.94886486789359e-005 
-1.996604643695272e-005 -0.1712396569096592 0.002076956147011513 -3.273217219472756e-005 0.08011461423228494 -9.954852118956559e-006 -9.582092493325081e-006 -2.095619014761559e-005 
-0.03566377389596157 -0.08346311276810389 0.03249152215754089 -0.0009145356972300026 -0.03733857741015964 -0.0001482272132321293 -0.1034100893800406 -0.003793748395035275 
-9.482779222013615e-008 0.03965575809271245 -0.08074069139554423 -1.490669178672061e-006 -0.02224224787272883 -4.949001966639812e-006 -4.74185213972116e-007 -1.285334196070862e-007 
-1.091754952942358e-005 -0.1183809149178111 0.02580652935969768 -1.904372044481213e-005 0.05551689329868958 -6.516018701344923e-006 -2.287916269951973e-006 -8.438596410771274e-006 
-0.1122837377475576 -0.5340042052757659 -0.1733536848004595 0.3387329988340784 0.4798018732924298 -0.0006923602031654031 -0.001553404251879878 -0.01281371311545443 
-7.137195821368997e-006 0.1929334969114386 -0.1726340385892407 -2.98839456206e-005 -0.0277231495408072 -6.101172997475678e-006 -1.16204334768316e-005 -2.92974782312806e-006 
-0.004247340685184582 -0.02154188853825556 0.02592970651310014 -0.0002556631669500976 -0.02295507327018408 -3.954696873933525e-005 -7.747458792499649e-005 -0.00336725200192095 
-0.01488013029919863 0.003976245113224031 -0.01098994755372502 -0.0004311592998512704 -0.02609095573058068 -0.0001143232928004649 -0.0002559950921022695 -0.01100910886422345 
-1.336174987415021e-007 -0.02308919470579308 -0.01088013053563862 -2.442537141764894e-006 -0.02384544121219531 -5.050722471485139e-006 -1.434449351532463e-006 -3.910801040623177e-007 
-1.657269151398259e-006 -0.026752109348731 0.02603897762695681 -1.617789665905851e-006 -0.02202448042772865 -8.557383143144998e-006 -3.103903186680417e-007 -0.002190455437170764 
0.005674552335018896 -0.04205537954881035 0.06774294500879376 -0.04116392896951291 0.02908489284876284 -0.1058756350889069 -0.03305243353467723 -0.04527864406554315 
-0.03810939434177863 -0.02847279396310729 0.1758981954467376 -0.004096788053997587 -0.02388607897160341 -0.08227596741510819 -0.0003687672543478823 -0.000234769520025517 
0.09655622696011049 -0.09229573613335725 -0.08139179667004144 -0.03893797325785255 0.03202268260230567 -0.03466053655854368 -0.0319300564554973 -0.04464032492359048 
-0.05670301463848444 0.04440072855253101 0.02538002227679155 -0.0004740811230549541 -0.02303789601396651 -0.000132433393011606 -0.0004054379575020491 -0.0002363676894422253 
0.02546197494419657 -0.07464506951032093 -0.0264161711073903 -0.01801796130176563 0.06131830493138435 -0.01751615760440181 -0.0147338503413715 -0.02081413960684892 
-0.02663445521777111 -0.006891926937566677 0.02580710167361848 -0.0001031491209056276 -0.02219705416117138 -4.445161531508208e-005 -0.0001001873743963187 -6.884253223097156e-005 
0.9902491822360074 0.3641404274230062 0.4816447327713819 1.276828303070507 -0.02671746890092484 -0.1687545204336282 -0.00413687380362323 0.8101172129654053 
-0.002725200952604746 0.3140559089772885 0.4180198497386906 -0.09221239749652374 -0.03264584727205595 0.0323925322869796 -0.00346698014756174 -0.003358177048308994 
-6.770664038486986e-009 -0.03108351113899648 0.4632065534361609 -9.2573696442117e-006 -0.07575320543563388 -0.0005381488193026677 -1.204245921827889e-007 -6.849703921207294e-007 
-1.494311544938372 0.9717182588833232 -0.4142937066038593 0.9991442707439984 -0.2676812007032673 2.253168189438791 -0.113133172049171 0.2155881159454463 
-0.0004014780414023512 0.04665799769915289 0.2946926415916566 0.3563651059182409 0.1332152624905114 -0.1921146885927321 -0.0001288189247748193 -9.162184675486132e-005 
-0.0001853791664772932 0.3244074440494207 -0.005364731520257363 -0.000186005827766698 -0.1144592164047582 0.3338473301779814 -2.265508886337794e-005 -9.226636842464407e-005 
-0.003128075034446803 0.8088147727150638 -0.03336414626990011 -0.0799783727315561 -0.05141659748412705 -0.3702117182214507 0.445139856684508 -0.005487335613973974 
-6.021344603121275e-007 0.04739801262085858 0.01931559842227206 -2.13621947901519e-005 -0.02205380288134999 -0.001638326353602719 -8.632758105496792e-007 -1.205639238168037e-006 
-0.001224913132877355 0.4650261493522706 0.02583408749225219 -0.001016222786526364 -0.02215736507554329 -0.3418735430080602 -0.0001110533209411105 -0.000195807678527856 
-0.000299958032828828 0.06757614575869184 0.01760627729256034 -0.1160215849192486 -0.03440136826067684 0.3674841076246102 -0.001451687209053296 -0.0006960025070364487 
-6.021344603121275e-007 0.04739801262085858 0.01931559842227206 -2.13621947901519e-005 -0.02205380288134999 -0.001638326353602719 -8.632758105496792e-007 -1.205639238168037e-006 
-7.949277148284971e-005 0.01806380011732375 0.02602951096499295 -0.0001838870449721276 -0.02203860797412879 -0.05671642991299892 -5.019446884233469e-006 -9.969069127432866e-006 
-6.391730798201522e-006 0.04882097624878237 0.02600025230435589 -0.05826268185253139 -0.03374663574830331 0.3357662428358672 -3.388699473496881e-005 -1.788535537993405e-005 
-0.9120885860133424 0.365535926525538 0.2117702359123706 0.03215573559871418 0.04763248759894417 1.495665239635287 -0.06257689685642155 -0.08043389174687513 
-0.0002615315531721809 -0.02791710691831024 0.2795073057178247 -0.00394978215765305 -0.02211318461466967 -0.05003639953794989 -3.187524958641256e-005 -4.140619985005178e-005 
-0.0001424143247908834 -0.02773589542041948 -0.005241188608206844 -5.29796140886843e-005 0.04929384326151342 0.1806224837677299 -4.222825460868089e-006 -3.406659533093805e-005 
-0.0001016426758417696 0.2089375582687181 0.01923432138936913 -0.04067516903160344 -0.03410196068934168 0.01328194279824255 -0.03417268341487724 -6.66730176510625e-005 
-6.021344603121275e-007 0.04739801262085858 0.01931559842227206 -2.13621947901519e-005 -0.02205380288134999 -0.001638326353602719 -8.632758105496792e-007 -1.205639238168037e-006 
-1.60879251328953e-006 0.172625008561361 0.01931481566611501 -0.04020181438999416 -0.02205485199519213 -0.003850477407416739 -3.681636501218297e-006 -1.641551371833644e-006 
-6.021344603121275e-007 0.04739801262085858 0.01931559842227206 -2.13621947901519e-005 -0.02205380288134999 -0.001638326353602719 -8.632758105496792e-007 -1.205639238168037e-006 
-0.388544624199063 0.1093150456543893 0.5302112012349267 0.04687038377102272 -0.02233405575446826 0.2396702316753881 -0.009964129825400275 -0.07836495340557113 
-3.547567482419038e-005 0.2323317759336497 0.02602556224658603 -3.226660232886156e-005 -0.0220345526523679 -0.1234117993841175 -0.03401184442109086 -5.667380922321574e-006 
-0.473458863297911 -1.509461003111713 1.130641012096556 -1.173491713801774 -1.3209294144064 -0.8857772377775892 -1.042925123204735 -1.324361060631767 
-0.0219275058804699 -0.176051668279227 -0.5142087687351752 -0.08297381432308182 -0.1321694477702746 -0.0965687411435133 -0.02899050972706339 -0.03804147465107725 
-0.004289553527816369 -0.04798197612834881 0.493216394406973 -0.001997454685503902 -0.4329047403533956 -0.002240205212307213 -0.002404163588625763 -0.001928555120236977 
-2.708880095809109 0.3958585641643715 2.677995119786206 0.5119305527383832 1.080760111044534 1.450924284885508 -0.03077434571800936 -0.4030063579299346 
-0.03359861793875228 -0.5205498220328517 -0.4652984540458852 -0.02122821595182906 -0.1651942154499247 -0.01563903086508994 -0.007130360800724773 -0.1831514941277657 
-0.0007632417445355667 -0.05030394877558235 -0.421465630121486 -0.0004050787621250637 0.4056688987822713 -0.05849709793016343 -0.0001526311695635049 -0.0003191680182808487 
-0.001022612912479884 -0.7928951696397728 0.5972980420214342 -0.001790746652388931 0.6260868435657835 -0.001323424663429074 -0.0023203396095528 -0.001597730485502358 
-3.283580520133527e-008 -0.049606361574862 -0.04024041142120726 -2.049271854794603e-006 0.07200612206652206 -5.213332191036848e-006 -1.297056556034723e-007 -1.816840402005774e-007 
-2.367849526557011e-005 -0.09741556225958614 -0.05847404008462521 -7.529345930735106e-005 -0.02792972633745947 -2.428605507191358e-005 -2.263930163990331e-005 -1.313314183602518e-005 
-3.283560703726831e-008 -0.02969225299165386 -0.01652508634258663 -8.770773850585566e-007 0.06423308689859865 -5.197161182243098e-006 -5.695974745436378e-008 -1.302474236702832e-007 
-1.540968193783195e-005 -0.1659427996880143 0.2190154634392126 -3.846258886401756e-006 0.06395596815385633 -1.120845786332869e-005 -1.410105948600819e-006 -1.2809466478937e-006 
-3.283560703726831e-008 -0.02969225299165386 -0.01652508634258663 -8.770773850585566e-007 0.06423308689859865 -5.197161182243098e-006 -5.695974745436378e-008 -1.302474236702832e-007 
-1.540968193783195e-005 -0.1659427996880143 0.2190154634392126 -3.846258886401756e-006 0.06395596815385633 -1.120845786332869e-005 -1.410105948600819e-006 -1.2809466478937e-006 
-3.283560703726831e-008 -0.02969225299165386 -0.01652508634258663 -8.770773850585566e-007 0.06423308689859865 -5.197161182243098e-006 -5.695974745436378e-008 -1.302474236702832e-007 
-0.0001541078731759899 -0.08908879684621356 0.07126736037483081 -0.0003665459616256644 -0.02360463722360526 -0.0003192292214940328 -0.0004397707949364304 -0.0003512172841855882 
-1.537684633236854e-005 -0.1638562595354348 0.2615806879146962 -3.604240189781833e-006 -0.02229904029727308 -1.091959723145298e-005 -1.354105060231576e-006 -1.152833305044143e-006 
-1.537684633236854e-005 -0.1638562595354348 0.2615806879146962 -3.604240189781833e-006 -0.02229904029727308 -1.091959723145298e-005 -1.354105060231576e-006 -1.152833305044143e-006 
-1.218367621574 -0.0353581772818015 1.133666951408215 0.4197026017684336 0.1413270151663669 -0.0492832597746725 -0.007660804628762277 0.1479855307494019 
-0.006393738529101909 -0.09433634111919602 -0.9024798798976655 -0.008207438668340134 0.07288462335542277 -0.002593506328968974 -0.001970023792114488 -0.09282283909319689 
-9.79429290598218e-005 -0.04757487658674838 -0.09514013220160986 -8.144242209641083e-005 -0.2817760413878054 -6.911762082843876e-005 -2.019878742177859e-005 -6.219013974097166e-005 
-0.0004383199171148413 0.2783078703934711 -0.1274898861928941 -0.0003755842420766804 -0.1166117499900944 -0.0003437791663035851 -0.0002202364433459046 -8.5743972765464e-005 
-1.997379255404327e-013 -0.04751982142228247 0.002324813054276485 -1.80725315817468e-006 -0.01424888638460735 -4.924471559161148e-006 -7.37047672342287e-008 -5.357069735102065e-008 
-1.588520834615759e-011 -0.08976698702404906 0.1405333899235599 -2.275404638322058e-006 -0.1122323163756034 -5.205449221261262e-006 -1.997644209700014e-007 -2.757991443224735e-007 
-6.526789628519654e-005 0.2143045591842025 -0.1329430977028991 -6.428863837633444e-005 -0.02276260614255994 -7.257738005589841e-005 -3.319260760239715e-005 -1.113804141153503e-005 
-0.02072209582797747 -0.03844539727628372 0.03489181039885671 -0.01114571893088041 -0.03302307956987343 -0.009570009639863999 -0.01293692502668565 -0.009538584197921182 
-0.02072209582797747 -0.03844539727628372 0.03489181039885671 -0.01114571893088041 -0.03302307956987343 -0.009570009639863999 -0.01293692502668565 -0.009538584197921182 
-0.3523662724996731 0.08654606971374534 0.5821204763059837 -0.005233639666160395 -0.04459034926157244 -0.5218841654421567 -0.001507504101710089 0.2454976046498463 
-0.001693188997678773 -0.0314212116907489 -0.07551136339745174 -0.001858140853636691 0.002188479561660184 -0.000544031744654835 -0.0005272590371529684 -0.0001903487462558217 
-5.631312768800884e-005 -0.02763511230984037 0.7006271021971271 -1.805185228267057e-005 -0.658827614084935 -1.732687053436312e-005 -5.207890705845559e-006 -2.442859280622783e-005 
-1.160817116533386e-005 0.09950619439994113 -0.2058918164811452 -1.473702910016059e-005 -0.01432555509573805 -8.867253176255939e-006 -5.844287292618663e-006 -3.809150787972461e-006 
-1.997379255404327e-013 -0.04751982142228247 0.002324813054276485 -1.80725315817468e-006 -0.01424888638460735 -4.924471559161148e-006 -7.37047672342287e-008 -5.357069735102065e-008 
-1.997379255404327e-013 -0.04751982142228247 0.002324813054276485 -1.80725315817468e-006 -0.01424888638460735 -4.924471559161148e-006 -7.37047672342287e-008 -5.357069735102065e-008 
0.9707123643879553 0.3106267593543631 -0.3591260581336453 0.3757956747453892 0.229053424885383 0.2304804681465973 0.3674277879316654 -0.01171322063125137 
-0.0006406209067167701 -0.02771224300995085 0.1564013325741341 -0.001400824198254186 -0.02209094802088737 -0.119335725937875 -3.637136983390603e-005 -3.626303947916845e-005 
-0.0001159836215300929 -0.02765442948000676 0.01926307694590634 -4.245753762418574e-005 0.2385160427969535 -0.01359333190833643 -3.995061624392239e-005 -2.292877417649489e-005 
-0.0009636382396876976 -0.02887584713976016 -0.03424218181047373 -0.001331381368309692 -0.02219831088938797 0.0935616683969939 -5.96545450161947e-005 -5.709136616517975e-005 
-3.108429446878948e-005 0.3443325430512526 -0.01671181078671373 -0.0001846644033825604 -0.02234554577818532 -0.03650963610281945 -0.0001879573759649526 -8.203907509568385e-005 
-0.0001290873123386162 -0.02852573833329033 0.2095602808718303 -0.0008486884892263116 -0.02206120919702884 -0.2043609277467984 -1.94768586720815e-005 -2.911161484353641e-005 
-0.0001263516566549805 -0.02807273217905797 0.5547656116087414 -0.0004449117870792579 -0.02204308359299154 -0.3846733123613966 -8.934678358926377e-006 -1.460114691026413e-005 
-0.472900999064321 -0.3198388798188986 0.5739633855961936 -0.2481656778915488 -0.8096645203088659 -0.214705827008276 -0.2759651176366693 -0.1541327115411373 
-0.004744891080944554 -0.08595343577105082 -0.1739300538930757 -0.004523208590540965 -0.004221776242358311 -0.06249547841107193 -0.005393422480671291 -0.01589619137472687 
-0.0005886335563642258 -0.02784664152439277 0.1746991710537794 -0.0002859852801810525 -0.1503134791746831 -0.0003224900150744189 -0.0003506948115598765 -0.000314696793736882 
-0.2806109369447343 -0.2001883641513645 -0.05462442202795002 0.05343829513026214 0.1348177879708834 0.3398863739147694 -0.004145858542911262 0.07535919834780382 
-0.006639585695280619 -0.03038934107446537 -0.1286685996560367 -0.005107270467676096 -0.1334048713122408 -0.006387950087259234 -0.001878143384152526 0.07710990239444993 
-6.805770416553385e-007 -0.02969867649918871 0.07892014133389219 -1.656614014986866e-005 0.09393231178767127 -0.05743861373867677 -3.043788829008978e-006 -8.240599009503352e-006 
-0.0003414356942436044 0.1376812831861676 -0.2759941804666652 -0.000806149600279217 0.2864801559672088 -0.000490155206136292 -0.0009961152822223994 -0.01966891895703284 
-3.283560703726831e-008 -0.02969225299165386 -0.01652508634258663 -8.770773850585566e-007 0.06423308689859865 -5.197161182243098e-006 -5.695974745436378e-008 -1.302474236702832e-007 
-3.283560703726831e-008 -0.02969225299165386 -0.01652508634258663 -8.770773850585566e-007 0.06423308689859865 -5.197161182243098e-006 -5.695974745436378e-008 -1.302474236702832e-007 
-2.7343757642084e-006 -0.05322474093374499 0.07368953504880521 -5.994403986722731e-006 -0.03383760886674857 -1.034970683708558e-005 -2.763805989919723e-006 -1.44418393136062e-006 
-3.283560703726831e-008 -0.02969225299165386 -0.01652508634258663 -8.770773850585566e-007 0.06423308689859865 -5.197161182243098e-006 -5.695974745436378e-008 -1.302474236702832e-007 
-2.734360078737979e-006 -0.01097757533197839 -0.06451904182047835 -5.526252506575354e-006 0.06414582112424751 -1.006872917498547e-005 -2.637746336183952e-006 -1.221955484389169e-006 
-3.283560703726831e-008 -0.02969225299165386 -0.01652508634258663 -8.770773850585566e-007 0.06423308689859865 -5.197161182243098e-006 -5.695974745436378e-008 -1.302474236702832e-007 
-3.283560703726831e-008 -0.02969225299165386 -0.01652508634258663 -8.770773850585566e-007 0.06423308689859865 -5.197161182243098e-006 -5.695974745436378e-008 -1.302474236702832e-007 
-3.283560703726831e-008 -0.02969225299165386 -0.01652508634258663 -8.770773850585566e-007 0.06423308689859865 -5.197161182243098e-006 -5.695974745436378e-008 -1.302474236702832e-007 
-3.283560703726831e-008 -0.02969225299165386 -0.01652508634258663 -8.770773850585566e-007 0.06423308689859865 -5.197161182243098e-006 -5.695974745436378e-008 -1.302474236702832e-007 
-2.70152447327457e-006 -0.008891035179398871 -0.02195381734499459 -5.284233809955429e-006 -0.02210918732688189 -9.779868543109767e-006 -2.581745447814709e-006 -1.09384214153961e-006 
-0.1102810557101252 -0.07463669380694295 0.2253623505696988 -0.001878061308902413 -0.2730982942838449 -0.001846855369635634 -0.0005605278725100046 0.07795257014896695 
-0.0004372646570901235 -0.02786996635445469 -0.2785372452676462 -0.0008266237810790989 0.002691312314099016 -0.0003138769098058713 -0.0002061550461198085 0.07829390262036766 
-6.391459104282358e-007 -0.02760907310761213 0.1527339363500882 -1.215353236721805e-005 -0.1477255086082714 -1.676824448625808e-005 -2.914892108219116e-006 -7.706564360073309e-006 
-2.70154015874499e-006 -0.05113820078116546 0.116254759524289 -5.752385290102807e-006 -0.1200926173178779 -1.006084620520988e-005 -2.70780510155048e-006 -1.316070588511065e-006 
-1.568704427920014e-011 -0.06985287844084093 0.1642487150021806 -1.103210168586011e-006 -0.1200053515435268 -5.189278212467509e-006 -1.270185128208925e-007 -2.243625277921792e-007 
-2.70152447327457e-006 -0.008891035179398871 -0.02195381734499459 -5.284233809955429e-006 -0.02210918732688189 -9.779868543109767e-006 -2.581745447814709e-006 -1.09384214153961e-006 
-0.03383463780214009 -0.03188800462354922 -0.04611615300586937 -0.0004359325391551737 0.0534712616727161 -0.000351559617101462 -0.0001299224836555703 -0.0001623690455789822 
-1.622020631648324e-005 -0.02762363859022545 -0.1538990241249393 -0.0001037359496945517 0.1019108230581683 -4.359668856817975e-005 -1.772317304851202e-005 -1.468439003038101e-005 
-0.006260581535773652 -0.02873575424360186 -0.4898749871552618 -0.00208411500729927 -0.02280339219351575 0.2343601532876279 -0.001788434961164952 -0.000790253504770859 
-0.04336761609120775 -0.02843840413936813 0.07593738045354796 -0.0009318092836516779 0.00341891049396461 -0.0002104303765680764 -0.0004781864349597071 -0.0003772639610421947 
-0.03418100600128965 -0.02835223508473752 0.07717073906423058 -0.0008488711037805984 -0.02418027494451002 -9.096750261530919e-005 -0.0004236753208999219 -0.0002698678868499426 
-0.009186610089919682 -0.02769188189370493 0.02480677952221448 -8.357323855951812e-005 0.005577263885943857 -0.0001243711745031346 -5.451207291887028e-005 -0.0001073982082730729 
-0.009186610089919682 -0.02769188189370493 0.02480677952221448 -8.357323855951812e-005 0.005577263885943857 -0.0001243711745031346 -5.451207291887028e-005 -0.0001073982082730729 
-0.009186610089919682 -0.02769188189370493 0.02480677952221448 -8.357323855951812e-005 0.005577263885943857 -0.0001243711745031346 -5.451207291887028e-005 -0.0001073982082730729 
-0.009186610089919682 -0.02769188189370493 0.02480677952221448 -8.357323855951812e-005 0.005577263885943857 -0.0001243711745031346 -5.451207291887028e-005 -0.0001073982082730729 
0.02434504985164025 0.5843962186250837 -0.176967953253942 0.04822224840044777 -0.3447030284421865 -0.001084757666978175 -0.003207691585935094 -0.001554226200646391 
-0.4012130897424846 -0.1499250070863718 0.5007599012476933 0.1248271796929457 0.1683540326277608 -0.1574831624224323 -0.0005602590947681079 -0.1016198217050763 
-1.055584569501112e-005 -0.2588530469059721 0.06610962779734635 -1.968810823787719e-005 -0.02459487952779127 -5.874225602075607e-006 -1.373610366868522e-005 -3.797193426292868e-006 
-1.997379255404327e-013 -0.04751982142228247 0.002324813054276485 -1.80725315817468e-006 -0.01424888638460735 -4.924471559161148e-006 -7.37047672342287e-008 -5.357069735102065e-008 
-0.01221011346605375 -0.03965363440606849 0.002100029233343633 -0.0001727100899544934 -0.01463852211583295 -3.90192435803514e-005 -0.1030820934283162 -0.003416605932913235 
-0.01328573538565622 -0.001003400472450403 -0.01093776941325197 -0.0002026257265235461 -0.02441471896565733 -6.113099129348854e-005 -0.0001057271807347708 -0.01094868721302375 
-1.336174987415021e-007 -0.02308919470579308 -0.01088013053563862 -2.442537141764894e-006 -0.02384544121219531 -5.050722471485139e-006 -1.434449351532463e-006 -3.910801040623177e-007 
-1.657269151398259e-006 -0.026752109348731 0.02603897762695681 -1.617789665905851e-006 -0.02202448042772865 -8.557383143144998e-006 -3.103903186680417e-007 -0.002190455437170764 
-1.101500096585534e-005 -0.01850171352368782 -0.0108825402043567 -5.292046348056371e-006 -0.02387024136037664 -1.003906172401004e-005 -9.631942502859109e-006 -0.01088266851198134 
-1.336174987415021e-007 -0.02308919470579308 -0.01088013053563862 -2.442537141764894e-006 -0.02384544121219531 -5.050722471485139e-006 -1.434449351532463e-006 -3.910801040623177e-007 
-0.01029620020081585 -0.00523398323172205 0.1152800154940117 -0.02214134362527062 -0.0485144805860853 -0.09000505006245026 -0.0166227274663873 -0.02159106830157727 
-0.03810939434177863 -0.02847279396310729 0.1758981954467376 -0.004096788053997587 -0.02388607897160341 -0.08227596741510819 -0.0003687672543478823 -0.000234769520025517 
0.0751157350998395 -0.05560052437166015 -0.03407940432252452 -0.01720553726130494 -0.04577691288904257 -0.01887002240740719 -0.01566687388827219 -0.02114803479220603 
-0.05670301463848444 0.04440072855253101 0.02538002227679155 -0.0004740811230549541 -0.02303789601396651 -0.000132433393011606 -0.0004054379575020491 -0.0002363676894422253 
-0.02663445521777111 -0.006891926937566677 0.02580710167361848 -0.0001031491209056276 -0.02219705416117138 -4.445161531508208e-005 -0.0001001873743963187 -6.884253223097156e-005 
-0.001522601289079766 -0.03296158059411883 0.3479131996815328 0.934107274196508 -0.07645021536493031 -0.05272101773715018 -0.0004046559990964345 -0.0003809455116411786 
-7.612358811333119e-005 -0.0311465111181166 0.4629936771113995 -0.000253339630980231 0.2809460286532928 -0.4190119502846846 -2.872803829769896e-005 -9.776163359840394e-005 
-6.770664038486986e-009 -0.03108351113899648 0.4632065534361609 -9.2573696442117e-006 -0.07575320543563388 -0.0005381488193026677 -1.204245921827889e-007 -6.849703921207294e-007 
0.589763125589278 0.002269685546052722 -0.4599951408987165 -0.01988920756231712 -0.1042404288710875 -1.111315283793724 0.00741796043221239 0.367845868369297 
-2.54025666002079e-005 -0.0279619825605305 0.04926327506863347 -0.002711584984189049 -0.02205639416265533 -0.02690524335478212 -1.465827537534022e-005 -3.363081738964713e-005 
-4.67978933055123e-007 -0.02761757857416627 0.02595249619837884 -3.180259300074466e-005 0.04093304579959155 -0.1567164682030203 -1.984657742271e-006 -6.850789337901628e-006 
-0.0003236924664958135 0.2193560225065932 0.02590831243261058 0.02660662887780871 -0.02218015218901178 -0.3718733365562535 -0.000292408134189063 -0.0001700068551443576 
-4.297308861670387e-005 0.01887246831726949 0.02602782922358914 -0.0004651763621016409 -0.02205117824043819 -0.08088847493176675 -2.023552152598934e-005 -4.068963979875416e-005 
-1.149460364116882e-005 0.1909512683770199 0.02603807568154003 -0.01660612654072305 -0.02203572375599362 -0.03871507677930653 -4.968381010815458e-006 -7.631244824635905e-006 
-1.107341087435924e-005 -0.02296379127887238 0.0260390129607636 -0.0001602981571333728 -0.02203406089273191 -0.01971776814298598 -2.724483012826334e-006 -6.863970953376347e-006 
-0.04760122922432509 0.07841738882417668 -0.2491734264896874 0.04476968708739811 -0.0221476969838775 -0.02961374903256095 -0.01025070639263685 -0.0005538990783949517 
-0.02858743339502141 0.08116020298302101 0.09610981508455559 0.04828029132468801 -0.02207793233830557 -0.2247985827153503 -0.009692176187340853 -0.0002729772374107101 
-0.7189974482537784 -0.2937499015763999 0.2256475345351258 -0.0692433334127207 0.9933568444651284 0.4481970755989916 -0.01528065264312094 -0.0444317007047216 
-0.0009053800503980544 -0.1351790073420487 0.1131200386483582 -0.02483485792611467 -0.2264108120259069 -0.05769668019136769 -0.0002579775743748443 -0.0005287052297624932 
-3.12980903064327e-006 -0.04607456663541368 0.1773507614766716 -1.010831443546338e-005 -0.02417083420180364 -2.008795637170531e-005 -4.635872429711544e-006 -5.114411814796754e-006 
-0.1331800183300159 0.2399981391266219 -1.151499631521688 -0.04161849701975102 -0.1645092802349987 0.30625637910239 -0.006392050507217634 -0.00519633377809633 
-0.004847864122895926 -0.09029960107988844 0.2627744051057208 -0.003271426768972973 -0.3083084458989487 -0.003508671708964945 -0.00116964283984442 -0.03201898783271776 
-2.624219089705776e-005 -0.04782361775272984 -0.0855023634356919 -0.0001137158355805829 0.02302241064525343 -0.05753281398855052 -2.962510375542332e-005 -6.240647452689574e-005 
-0.0002818340205373304 -0.1734594393318039 -0.4516711426894035 -0.0003655369087006438 0.7918659062950035 -6.64084977542077e-005 -0.0002084128811519731 -9.42588533634643e-005 
-5.720258246014572e-005 -0.1877424601148992 0.06137576646117725 -5.567730442657739e-005 0.5737254723183176 -1.649475722673808e-005 -4.602082854970997e-005 -1.473885013019539e-005 
-1.997379255404327e-013 -0.04751982142228247 0.002324813054276485 -1.80725315817468e-006 -0.01424888638460735 -4.924471559161148e-006 -7.37047672342287e-008 -5.357069735102065e-008 
-5.567288857611323e-006 0.02220684692967843 -0.2034554099130489 -6.743308398787115e-005 -0.1138203502694954 -1.311432976620992e-005 -1.864936796165802e-005 -1.076262120823333e-005 
-0.02508032322207043 -0.1650803867349081 -0.1814708964320542 -0.07851227490997144 -0.3032180456774334 0.04273097029738308 -0.00150544301098551 0.2455654812158573 
-0.0004535959356295464 -0.08859580580388021 0.1392584739113168 -0.00069847139886137 -0.225969339964972 -0.0004538345133495687 -0.0001942919069040491 -7.411297101184089e-005 
-1.997379255404327e-013 -0.04751982142228247 0.002324813054276485 -1.80725315817468e-006 -0.01424888638460735 -4.924471559161148e-006 -7.37047672342287e-008 -5.357069735102065e-008 
-1.588520834615759e-011 -0.08976698702404906 0.1405333899235599 -2.275404638322058e-006 -0.1122323163756034 -5.205449221261262e-006 -1.997644209700014e-007 -2.757991443224735e-007 
-1.997379255404327e-013 -0.04751982142228247 0.002324813054276485 -1.80725315817468e-006 -0.01424888638460735 -4.924471559161148e-006 -7.37047672342287e-008 -5.357069735102065e-008 
-1.588520834615759e-011 -0.08976698702404906 0.1405333899235599 -2.275404638322058e-006 -0.1122323163756034 -5.205449221261262e-006 -1.997644209700014e-007 -2.757991443224735e-007 
-0.002157526560034402 -0.05331526529563221 -0.2628503972005987 -0.001215788194354215 -0.06378009325418367 -0.1517511827298437 -0.0002655454428925185 0.2466577418486269 
-5.543415445305461e-005 -0.02767730517565066 0.02659072784373204 -0.000195034199162111 -0.02205529442548255 -8.696943074326934e-005 -4.000242002546446e-005 -2.304864080187543e-005 
-1.997379255404327e-013 -0.04751982142228247 0.002324813054276485 -1.80725315817468e-006 -0.01424888638460735 -4.924471559161148e-006 -7.37047672342287e-008 -5.357069735102065e-008 
-1.997379255404327e-013 -0.04751982142228247 0.002324813054276485 -1.80725315817468e-006 -0.01424888638460735 -4.924471559161148e-006 -7.37047672342287e-008 -5.357069735102065e-008 
-1.997379255404327e-013 -0.04751982142228247 0.002324813054276485 -1.80725315817468e-006 -0.01424888638460735 -4.924471559161148e-006 -7.37047672342287e-008 -5.357069735102065e-008 
-0.0009339791380257742 -0.0290208288644402 0.2153248626481994 -0.006411173864645197 -0.02236272621163531 -0.005405577164729782 0.3794052197634706 -0.005748274540289295 
-0.0002862535022800179 -0.02768671878180537 0.1691485900468556 -0.001250696246707832 -0.02208273335906604 -0.1560752051623613 -3.155816042374486e-005 -3.140364578018819e-005 
-4.227344160537619e-006 -0.02840759295660739 -0.2811338299347674 -0.0009315408146386545 -0.02204742102975672 0.03209332596385493 -3.142174068651056e-005 -2.456568915199422e-005 
-3.916592751913174e-006 -0.02840591363658259 -0.2258805131569451 -0.000790950290517459 -0.02204694094866882 0.0288054562352241 -1.651548099407531e-005 -2.394013358686301e-005 
-1.180937068277437e-006 -0.02795290748235024 0.1193248175799659 -0.0003871735883704051 -0.02202881534463152 -0.151506928379374 -5.973300680920183e-006 -9.42966565359073e-006 
-0.09551558968779729 -0.1105923748830553 -0.1391218160472171 -0.005644955625922486 0.501278487593411 0.02612777780783937 -0.002627303733164917 -0.004626620802774424 
-3.166336247366268e-005 -0.07288080879613525 0.2886490496376598 -2.019728705664208e-005 -0.2700910869172264 -0.05744049507941978 -1.137234667034328e-005 -2.026516313791206e-005 
-0.005633502159452661 -0.07103255159404434 -0.259989265317909 0.06246628910628549 0.1665097676469373 -0.05719066600060029 -0.0007047015745582126 -0.0003598864205688685 
-0.0001390287266682012 -0.02781139668901424 0.03183710078102067 -0.0005555947677592289 -0.02279530757330139 -0.0004586127842335972 -0.0001213795784568446 -7.04893276743054e-005 
-8.59552733740155e-009 -0.02760877607807139 -0.005208432407815131 -4.805647774469315e-006 0.1333808903922824 -0.05742646493410899 -7.385469150573713e-008 -4.080553874012098e-007 
-1.521723883501576e-007 -0.08831952839088714 0.1094924001856277 -1.827120058665714e-006 0.2041756250221219 -5.466205303985959e-006 -7.826278008074742e-007 -8.773130239603076e-007 
-1.568704427920014e-011 -0.06985287844084093 0.1642487150021806 -1.103210168586011e-006 -0.1200053515435268 -5.189278212467509e-006 -1.270185128208925e-007 -2.243625277921792e-007 
-0.0001390612212358595 -0.07000131531431231 0.2137060096495012 -0.0003578601881314915 -0.1711658689046648 -0.0005356504225749585 -0.0001489168769107196 -7.023075029326469e-005 
-1.5999749699675e-005 -0.02762022487776446 0.02618384939750488 -9.852938093202614e-005 -0.0220262629112037 -3.970588304482749e-005 -1.636416394098543e-005 -1.31359977370268e-005 
-1.568704427920014e-011 -0.06985287844084093 0.1642487150021806 -1.103210168586011e-006 -0.1200053515435268 -5.189278212467509e-006 -1.270185128208925e-007 -2.243625277921792e-007 
-1.568704427920014e-011 -0.06985287844084093 0.1642487150021806 -1.103210168586011e-006 -0.1200053515435268 -5.189278212467509e-006 -1.270185128208925e-007 -2.243625277921792e-007 
-1.613973815827657e-005 -0.02763179951308116 0.0594733790685071 -9.90934900139388e-005 -0.0701746908405107 -4.326980184173308e-005 -1.668540493612045e-005 -1.392847186520501e-005 
-1.5999749699675e-005 -0.02762022487776446 0.02618384939750488 -9.852938093202614e-005 -0.0220262629112037 -3.970588304482749e-005 -1.636416394098543e-005 -1.31359977370268e-005 
-5.930351516125485e-005 -0.02763316564296861 -0.1583687285143461 -0.0004176799491364089 -0.02211337879363958 0.1864627289828947 -7.352291097297488e-005 -1.341408226927193e-005 
-0.04336761609120775 -0.02843840413936813 0.07593738045354796 -0.0009318092836516779 0.00341891049396461 -0.0002104303765680764 -0.0004781864349597071 -0.0003772639610421947 
-0.03418100600128965 -0.02835223508473752 0.07717073906423058 -0.0008488711037805984 -0.02418027494451002 -9.096750261530919e-005 -0.0004236753208999219 -0.0002698678868499426 
-0.009186610089919682 -0.02769188189370493 0.02480677952221448 -8.357323855951812e-005 0.005577263885943857 -0.0001243711745031346 -5.451207291887028e-005 -0.0001073982082730729 
-0.009186610089919682 -0.02769188189370493 0.02480677952221448 -8.357323855951812e-005 0.005577263885943857 -0.0001243711745031346 -5.451207291887028e-005 -0.0001073982082730729 
-0.009186610089919682 -0.02769188189370493 0.02480677952221448 -8.357323855951812e-005 0.005577263885943857 -0.0001243711745031346 -5.451207291887028e-005 -0.0001073982082730729 
-0.009186610089919682 -0.02769188189370493 0.02480677952221448 -8.357323855951812e-005 0.005577263885943857 -0.0001243711745031346 -5.451207291887028e-005 -0.0001073982082730729 
-0.898656353917658 -0.03635854711534106 -0.4948625102119268 0.8787315085155172 -0.1022826565425276 1.528928682887622 0.3990119184170252 -0.3579197631144662 
-0.0006605773691487426 -0.0009545356473089832 -0.1920919827819973 0.9430690927675332 -0.0003365252059805031 -0.2207535047112451 -0.0002798027849946033 -8.024453427987146e-005 
-0.6843802267237836 -0.008064655076131732 0.4347274558739647 -0.1212086009242002 0.06165527917852947 0.6418863587390583 -0.003800916231255275 -0.07388635340802768 
-7.485125836393241e-005 -0.0002143203501656732 0.3265288294077736 -0.007423797352282777 -2.048771393052245e-005 -0.222757921614887 -2.399079137673829e-005 -1.810962605658335e-005 
-0.6229213857590827 -0.2621941809019148 -0.3220947382799788 -0.8844155246263586 -0.3666646857362474 0.7607966795931458 -0.4590272322489083 -0.3799304662859561 
-0.1050557719770945 -0.5879385315767245 -0.2888737039524328 -0.1772829308206385 -0.04458636953675474 0.3346935695155773 -0.006147279880408895 -0.07662334052536415 
-0.0175174301102448 -0.06031833993946591 -0.1404373562658675 -0.04711324859717497 -0.0004111319029121908 0.03689705373227974 -0.002391032536450191 -0.001477202378435198 
-0.04558109092259957 0.04977396724770279 -0.0002958329468519867 -0.0011906894198634 -0.002567940672688055 -0.0002318878656097729 -0.0004350850026103485 -0.0003754514550013647 
0.06784740758779645 -0.1151372633228761 -0.04148585669239552 0.08492385693029422 0.03754769175441844 -0.1408001008620291 -0.02159643161848791 -0.03694559084921045 
-0.03024066534582329 0.03079471475215525 -0.0001719642500191948 -0.0003768968632289008 -0.0007161835455545329 -2.997602231769262e-005 -0.0001255343507503378 -9.39467928689224e-005 
0.02081217786543423 -0.09776112303044805 0.08599334841413005 0.04362388192712877 0.04804607155372156 -0.1402692546330244 -0.009535838825909351 -0.01672276088974396 
-0.02948471678325862 0.0292932631332853 -0.0001303824351270124 -0.0001349900741130449 -0.0003819935137018663 -1.221810563972507e-005 -7.920756194725476e-005 -6.131403852055994e-005 
-0.03614608410492169 0.02428171531098046 0.1263453500005299 -0.003712540386404493 -0.004434330728824803 -0.1357944779507158 -0.002099823078190353 -0.003505537188051295 
-0.04420533183994919 0.02702516732664707 0.1300439877067126 -0.001709892737651918 -0.002437732694768984 -0.1353102618062693 -0.0007790746433158682 -0.001188835845475087 
-0.1323524444205539 0.2795228275065986 -0.02410730138183441 -0.0002816648657385451 -0.02168972880504156 -0.0001290255297182388 -0.02490658765549275 -0.08071690644144416 
-0.04558109092259957 0.04977396724770279 -0.0002958329468519867 -0.0011906894198634 -0.002567940672688055 -0.0002318878656097729 -0.0004350850026103485 -0.0003754514550013647 
0.08172064805484533 -0.1140355080803873 -0.04105420829909871 0.08940179051773782 0.03772506723360287 -0.1502154308046567 -0.02108810383971458 -0.03622293978214213 
-0.03024066534582329 0.03079471475215525 -0.0001719642500191948 -0.0003768968632289008 -0.0007161835455545329 -2.997602231769262e-005 -0.0001255343507503378 -9.39467928689224e-005 
0.04207773051232486 -0.09758564331441157 0.06646008055662038 0.04369671234883158 0.04861633089346448 -0.1402392327162375 -0.009468346643625961 -0.01665260581681595 
-0.02948471678325862 0.0292932631332853 -0.0001303824351270124 -0.0001349900741130449 -0.0003819935137018663 -1.221810563972507e-005 -7.920756194725476e-005 -6.131403852055994e-005 
-0.01488053145803104 0.02445719502701695 0.1068120821430202 -0.003639709964701684 -0.003864071389081891 -0.1357644560339289 -0.00203233089590697 -0.003435382115123302 
-0.02293977919305855 0.02720064704268357 0.1105107198492029 -0.001637062315949107 -0.001867473355026075 -0.1352802398894824 -0.0007115824610324853 -0.001118680772547096 
-1.490282900957008 -0.4240907842956008 -0.03108764015436078 2.491434787866997 -0.01807087964318219 -0.603730324191991 0.003360743041194287 -0.04149567175056661 
-0.0905610054547057 -0.1560861141497337 -0.002204911333861924 -0.03518654932127792 -0.002178657361734711 -0.1178277594049652 0.009714486899626063 -0.01019168330018253 
-0.6633089947846796 -0.4448842211111048 -0.4710233282150352 0.3439667810516164 -0.5345424783218198 -0.3716026249598071 -0.7291986377739368 -0.5086034776977708 
-0.5152478445839112 -0.272892434154532 -0.08721134360555115 1.009078635464288 -0.03791572646891876 -0.05686490672153687 0.008043850305749511 -0.03716674100214951 
-0.01681131633594311 -0.1002959996051394 -0.000534317807060632 -0.03523799275135913 -0.0006096644016803998 -0.02127058833277459 0.01127780437809431 -0.008429302076539797 
0.06203019452921688 -0.05646699233646753 -0.07667967193274621 -0.08329853335979197 -0.3413464233471992 -0.03968012084658145 -0.0966815730367844 0.2149916244708989 
-0.8964434403629297 -1.424566864314971 -1.233865955214664 -0.881187274742234 1.456941043907804 -0.9665764028475026 -0.7115318643572854 -0.8734123493794022 
-0.314065669349007 -0.1336973369684301 -0.2664552616023277 -0.169002843012166 -0.07862956169457099 -0.3097521422283158 -0.2817864873642434 -0.2781733053495962 
-0.1106226587314106 0.4941820111830597 -0.03633065857360408 -0.009482259644806994 0.04355825833160348 0.005068401488573128 -0.01167537120970745 -0.1741263067423647 
-0.02540872909417154 -0.05517898342603586 0.08011277307081247 -0.008213131200044381 -0.01022083350946295 -0.01170856313849317 -0.01090185089534457 -0.006906522791386829 
0.2430282401462071 -0.295437130352565 -0.04755739653141387 -0.1248155608959021 -0.1016644314052123 -0.04488951215800643 -0.04907762962296604 -0.06614100679944018 
-0.1002322597236898 -0.04925968699007642 -0.03078914266851717 0.06513663855549574 -0.06754889408363264 0.04851751441598937 -0.02219724072154831 -0.02792395091996769 
0.1528385850909621 -0.0527540349275723 -0.04293538992070115 -0.09744192033083435 -0.06642880578427711 -0.01199845258822592 -0.02147023904612663 -0.02722406049975054 
0.03380973852251203 -0.07074971705134099 -0.01309945840168953 -0.007240536894748677 -0.009531515410802717 -0.01375741563770751 -0.009082040051142805 -0.0103183249025379 
-2.927486261111617 -1.212682642857523 -2.237873636059053 -1.768224250125637 -1.297665923230143 -1.300225710742941 3.017281296550515 -1.620733260383749 
-1.342706749067594 0.9421940295432916 -0.01287517259897809 -0.1179136560629507 -0.2892988516921126 -0.1103238323849791 1.608999508396243 -0.1186526011328437 
-2.485050202871262e-005 0.1256247155000617 -0.3589224001893749 -6.02039242537335e-005 0.08484691227905203 -2.491527314324147e-005 -1.486080500766563e-005 -8.930393771290407e-006 
-2.085281682361047e-005 -0.1321839894972337 0.148381812539262 -1.1806548507344e-005 0.08548052932849046 -1.536337632404567e-005 -6.992861459524761e-006 -4.605064119145885e-006 
-2.081998121814706e-005 -0.1300974493446543 0.1909470370147458 -1.156452981072408e-005 -0.0007744791226389371 -1.507451569216996e-005 -6.936860571155518e-006 -4.476950776296329e-006 
-0.1277586641338721 0.1514349749595151 -0.1233560504006947 -0.2504235532256465 -0.1741685323640817 0.1156529091671193 -0.1487500609339758 -0.1308667965605226 
-0.02802750918364266 -0.112724160627142 0.2349421701077031 -0.0002616913151466057 -0.000479986231245109 -0.0001547022692526436 -0.0001350093837275271 -0.003478770085463995 
-1.551046382796233e-005 -0.1317340285630792 0.1986202811132634 -4.77665995466946e-006 -0.002100638404406832 -6.153718602203327e-006 -2.786636693593799e-006 -1.539645247465008e-006 
-1.540968193625809e-005 -0.13833708684894 0.1929753253063154 -3.211200197963124e-006 0.08597788970638709 -6.300157312961294e-006 -1.409147089515699e-006 -1.278812567072974e-006 
-1.540968193625809e-005 -0.13833708684894 0.1929753253063154 -3.211200197963124e-006 0.08597788970638709 -6.300157312961294e-006 -1.409147089515699e-006 -1.278812567072974e-006 
-0.0001514063487027153 -0.08019776166681465 0.09322117771982535 -0.0003612617278157055 -0.001495449896723375 -0.0003094493529509229 -0.0004371890494886157 -0.0003501234420440488 
-0.1062866720502199 0.2182934781977135 -0.03575612683861219 -0.02133134290540697 -0.02746514759569698 -0.2512034305981555 -0.02498495883952004 -0.02315387384647837 
-0.1061628460481609 0.1569309156409749 -0.03032358322964649 -0.09863917283876565 -0.02113761090782552 -0.01576385921773205 -0.01879559009869492 -0.01765830976320527 
-0.01182266729441853 0.0145670241330511 -0.0299564333349755 -0.01659747679531588 -0.02103812816244964 -0.01810366100181035 -0.01870996500847203 -0.01754286541769534 
-0.007770872602334821 0.006901797925438739 -0.01651319896017472 -0.01642913181648567 -0.0192902490537952 -0.01805155890262922 -0.0185914828177146 -0.01635461784824874 
-0.01199215739755086 0.009626625513694309 -0.02212178427243448 -0.02101788430424374 -0.02590352797375868 -0.03073268446167039 -0.02478370992365916 -0.02298211139379224 
-0.04552128370679864 0.009318929002326644 -0.01656919670198688 -0.0164508531810542 -0.01932042049284845 -0.01806313375364554 -0.01861472756201003 -0.01639591593237207 
-0.007770872602334821 0.006901797925438739 -0.01651319896017472 -0.01642913181648567 -0.0192902490537952 -0.01805155890262922 -0.0185914828177146 -0.01635461784824874 
-0.008910859254762277 0.01207478940444755 -0.02385185555248649 -0.01042949129303038 -0.01387353574334071 -0.01197542741429392 -0.0118746267983579 -0.01155723815616089 
-0.008910859254762277 0.01207478940444755 -0.02385185555248649 -0.01042949129303038 -0.01387353574334071 -0.01197542741429392 -0.0118746267983579 -0.01155723815616089 
-0.04260947566714239 0.006826694273723063 -0.01046461891949786 -0.0102828676787687 -0.01215582807373952 -0.0119349001661291 -0.01177938935189589 -0.01041028867083762 
-0.004859064562678575 0.004409563196835175 -0.01040862117768571 -0.01026114631420016 -0.01212565663468626 -0.01192332531511279 -0.01175614460760047 -0.01036899058671429 
-0.00901013710524963 0.006935792102243045 -0.0165826574639685 -0.01646321811299675 -0.0196222907817622 -0.01808708096786382 -0.01866046809719507 -0.01751146621812763 
-0.004859064562678575 0.004409563196835175 -0.01040862117768571 -0.01026114631420016 -0.01212565663468626 -0.01192332531511279 -0.01175614460760047 -0.01036899058671429 
-0.004859064562678575 0.004409563196835175 -0.01040862117768571 -0.01026114631420016 -0.01212565663468626 -0.01192332531511279 -0.01175614460760047 -0.01036899058671429 
-0.04023583682786509 0.004791796406351405 -0.005563386136807041 -0.00574609457707535 -0.006596157957879861 -0.005614522435944832 -0.006314328530749519 -0.005538009081965514 
-0.007770872602334821 0.006901797925438739 -0.01651319896017472 -0.01642913181648567 -0.0192902490537952 -0.01805155890262922 -0.0185914828177146 -0.01635461784824874 
-0.01075289289463604 0.009592631336890003 -0.0220523257686407 -0.02098379800773265 -0.02557148624579167 -0.0306971623964358 -0.0247147246441787 -0.02182526302391336 
-0.04023583682786509 0.004791796406351405 -0.005563386136807041 -0.00574609457707535 -0.006596157957879861 -0.005614522435944832 -0.006314328530749519 -0.005538009081965514 
-0.007770872602334821 0.006901797925438739 -0.01651319896017472 -0.01642913181648567 -0.0192902490537952 -0.01805155890262922 -0.0185914828177146 -0.01635461784824874 
-0.003463550504783722 0.009362944089475045 -0.005523995423290691 -0.4507792702679431 -0.01720541508622953 -0.0137859884765804 0.1037321394595608 -0.0961034458692424 
-0.000603748744202616 -0.004661849651646001 -0.001607299128246038 -0.3002755321155585 -0.004885275948215721 -0.004357492481137058 0.1575591046381113 -0.01216295602650259 
0.9693578273316789 0.2022645440549416 -0.1373915569671418 0.2944509701423375 -0.1065861862053233 -0.07831992597243459 0.7104809030154755 -0.9636693747339311 
-0.006022396675877702 0.2780548858593995 -0.008043376649371166 -0.2039921999001637 -0.009205950709868667 -0.006879048973460393 0.3469692786415856 -0.2390809036652324 
-0.00209002350326823 -0.03086665492299721 -0.03255856693258673 -0.3832136820416573 0.1971113911247688 -0.002984154331638278 0.5005951014795214 -0.4266884590155647 
-0.0001137333501010528 -0.001226330855665409 -0.0002716787455780681 -0.3808288546251669 -0.001110745406627542 -0.0006575451261240617 0.3856126353874498 -0.01035617961605242 
-0.0001137333501010528 -0.001226330855665409 -0.0002716787455780681 -0.3808288546251669 -0.001110745406627542 -0.0006575451261240617 0.3856126353874498 -0.01035617961605242 
-0.0426714591309401 0.4025192540003611 -0.0585766295007903 -0.01165324096475779 -0.01169887703061835 -0.03084287001644259 -0.008114947179017236 -0.009955128143409518 
-0.0362711997843546 0.03134024558885037 -0.01560658660040055 -0.009299876314016348 -0.01128847134081101 0.0003422941928659505 -0.007678081611721929 -0.009518877693741181 
-0.04264037483647289 0.0305809981100344 -0.01582468058117948 -0.01146921162006367 -0.0113752528049638 0.005661857785826498 -0.007926990761911367 -0.00987309120239465 
-0.0362711997843546 0.03134024558885037 -0.01560658660040055 -0.009299876314016348 -0.01128847134081101 0.0003422941928659505 -0.007678081611721929 -0.009518877693741181 
-0.04656721228817628 0.1709588826198379 -0.006056629872866288 -0.005621529513472306 -0.006158024947662733 -0.02198686907061137 -0.00623950489331878 -0.005035075088044404 
-0.04620302398822786 -0.01552040525434655 -0.005996299531180461 0.07632564199081655 -0.00615781590127158 -0.02198670835999866 -0.006238860644024454 -0.005034780208531138 
-0.0310051677268374 0.1856419441379548 -0.0002169680075303971 -0.02070132472426105 -0.0001260203765589526 -0.01650742865775093 -9.777358393985171e-005 -0.0001021735123986298 
-0.03658169274031756 0.1710296662675286 -0.006005628965963648 -0.01512959190449572 -0.006116794776003746 -0.02197168498706596 -0.006197402487272167 -0.004954763978044721 
-0.03621750444036915 -0.01544962160665579 -0.005945298624277822 0.06681757959979316 -0.006116585729612593 -0.02197152427645325 -0.006196758237977837 -0.004954469098531458 
-0.0310051677268374 0.1856419441379548 -0.0002169680075303971 -0.02070132472426105 -0.0001260203765589526 -0.01650742865775093 -9.777358393985171e-005 -0.0001021735123986298 
-0.009451275389150977 -0.02225874505006012 -0.02644898621544274 0.7216775703435286 -0.09814546511519912 -0.9979245080121393 -0.01513024458133551 -0.01298829473873652 
-0.0009220498153409341 -0.002476149149968324 -0.00217691254280096 0.4153663676016843 -1.548877917188388e-005 -0.3102520775811738 -3.772999292930825e-005 -5.41788130368191e-005 
-0.07173284524173439 -0.07367108552078899 -0.2474765168583528 -0.1697899377042324 -0.005774276354251748 0.3554544711320298 -0.01217438963006207 -0.007328010491998681 
-0.04548801776146005 -0.001793053676062876 -0.02306221957349656 0.02621679658497439 -6.029301347520087e-005 0.01741401061764468 -0.0001178622962003532 -0.0001561150292578547 
-0.002487055611129605 -0.1334845780990355 -0.01220074906560282 -0.6521466510586206 -0.003699321557974823 0.6140073516704117 -0.004731595878818829 -0.006391038544234442 
-0.0008054661991604569 0.1228707093764774 -3.151878966855652e-005 0.3055556670979314 -1.640501295147906e-005 -0.2098434605877417 -3.452164227077175e-005 -3.052742273800222e-005 
-7.646156777739e-005 -7.210624446407224e-005 -6.047988989016773e-006 0.0496617029738943 -5.42644674388796e-006 -0.1002035949861856 -7.328430499220202e-006 -1.250887285707092e-005 
-0.001316723703198173 -0.01716609100340225 -0.008536025577681466 -0.3404718894539865 -0.002297030353716873 0.1509164096253091 -0.002234724468817303 -0.001875289663060849 
-6.81808164014954e-005 -0.002291726246030128 -8.889497928995767e-006 0.02721781178261046 -3.428395391396173e-006 -0.01646315222088597 -3.237979870851367e-006 -6.888114947114757e-006 
-0.4138395226940758 -0.3092594573976908 0.2326521268275833 0.1410183450463969 0.2871973194516414 0.01998903990190533 -0.005638382619262801 0.01189515744683109 
-0.08774713179897105 0.5197372667720284 -0.03200499179526068 -0.001038724525444176 0.05481833629543216 -0.0005020308734776473 -0.0007709340750536492 -0.167217790060672 
-0.005233551260936791 -0.0007772166664737137 -0.01502908470255589 -0.0007877710038478963 -0.002217869895013514 0.01709831604080571 -0.00017071096564958 -6.497112656236807e-005 
-0.0007545471115420948 -0.003102694627553154 0.004156578321918112 -0.0003522364580899994 -0.0008543031633390382 -0.0001391147968898504 -0.000104119923164326 -2.354020833231338e-005 
-0.0726285079906671 -0.01241274795582309 -0.004810817055091049 -0.001872828935903286 -0.05218946814744659 0.2252797375988318 -0.002982465851438807 -0.001131960898239412 
-0.0008262932108905266 -0.003268950661801431 0.008662150731592752 -0.0004455172298687319 -0.001066102024506605 -0.0002767601039741223 -0.0001266578267781413 -3.201014567546845e-005 
-0.06637255953807843 -0.01030784765305801 0.2152223035549916 -0.001152936086492399 -0.05141930845426414 -0.002686164251354059 -0.0005702484379877466 -0.0004293929722310546 
-0.0007545471115420948 -0.003102694627553154 0.004156578321918112 -0.0003522364580899994 -0.0008543031633390382 -0.0001391147968898504 -0.000104119923164326 -2.354020833231338e-005 
-0.0008264331993491283 -0.00328052529711812 0.04195168040259496 -0.0004460813389506444 -0.04921452995381362 -0.0002803240227710278 -0.0001269790677732764 -3.280261980364666e-005 
-0.0008262932108905266 -0.003268950661801431 0.008662150731592752 -0.0004455172298687319 -0.001066102024506605 -0.0002767601039741223 -0.0001266578267781413 -3.201014567546845e-005 
-0.0008264331993491283 -0.00328052529711812 0.04195168040259496 -0.0004460813389506444 -0.04921452995381362 -0.0002803240227710278 -0.0001269790677732764 -3.280261980364666e-005 
-0.0007545471115420948 -0.003102694627553154 0.004156578321918112 -0.0003522364580899994 -0.0008543031633390382 -0.0001391147968898504 -0.000104119923164326 -2.354020833231338e-005 
-0.1838252409187599 -0.0157166132539618 0.1696421633229505 -0.1078039335264914 0.1052253301016644 -0.08406962803036484 -0.1534812340156212 -0.0582797857192718 
-0.08778359706706229 -0.0425558815608978 -0.1080037459983566 -0.0820396235830673 0.04083716564096976 0.4643882065904105 0.08895982488484318 -0.03272822593680538 
-0.07058538546545996 0.009961491121441636 -0.07865684843548582 -0.08032894285932807 0.09777624602771209 0.1484508881666729 0.08978809979361269 -0.03094012700125335 
0.01187928564888278 -0.03850060304224767 -0.01970276761882568 -0.07874348710649771 0.04763321717896081 0.1362104608919834 0.09117545269784996 -0.02992482480949121 
-0.03364572526580213 0.02202110809999568 -0.04642237924389316 -0.00639841177700535 0.03506514030857719 -0.002896498162229885 -0.009747650555184437 -0.008703855852645123 
0.04263468904747012 -0.01447468933314653 0.01247185199877698 -0.004922868789223376 -0.01563517620998154 -0.01545145792757966 -0.008710765774177195 -0.007772832767720287 
-1.779151479926755 -0.3903704058705445 0.1783591148590253 0.06729943068152165 2.368119014941697 0.4421886493371129 0.1112210609029527 -0.1992895995624424 
-0.8354906186472773 -0.428976579285245 0.5012758198540633 -0.06930115038336687 0.9050849044109053 -0.02037761257363387 -0.0271853233849189 0.3704254171387659 
-0.4175675282336698 0.1093197830383698 0.5457551357526784 0.0052203425956614 0.3547529430265615 -0.1579827821639819 -0.02529911493690866 -0.001690658705313093 
-0.0006933903674486291 -0.0001240194331760063 -0.8265862791586646 -0.07224641292659706 0.6937016364192744 -0.0003079544167278788 -5.438630512173062e-005 -4.88290316923073e-005 
-7.946359113492094e-005 -2.391814924416541e-005 -0.3280946604110208 -0.07216052090725381 0.2886792088843755 -2.065878416456998e-005 -5.297618285617912e-006 -9.727266706591765e-006 
-7.946200268076289e-005 -2.343630502547866e-005 -0.306437312753198 -1.33492710534961e-005 0.2157487572024144 -1.946009890196718e-005 -4.801728830465371e-006 -7.616124878211757e-006 
-0.001393284647564989 -0.01311513298717386 0.2246640792009112 -0.01922624484391203 -0.2178174158695932 0.6047742129122639 -0.05323686280041871 -0.002825752781684866 
-0.05695265863567402 -0.1550685860725802 -0.1785477031374242 -0.1554618050312346 -0.142883775457913 0.6000609416472461 -0.0764978285070779 0.1339657153528578 
-0.0001174285179977662 -0.0002575860053517808 0.01945860915039216 -0.08776814563387149 -0.1648998809748154 0.6139324426812554 -9.281079181548159e-005 -0.0001050263265491177 
-0.02278533540307206 -0.04694854721645535 -0.03806357061317584 -0.1339927327854923 -0.118446494495612 0.633963388529599 -0.03457022135987414 -0.1427017785646153 
0.02639733524956262 0.2925312142800062 0.1016153049540394 0.2661156092210569 -0.3394178017790259 -0.1546865137033628 -0.06907694321833142 -0.01898320292414637 
0.02719543200419305 -0.02635488901559711 -0.01813330042577467 -0.01025938081081328 -0.008603738979539161 0.2104758973063381 -0.06802265738437271 -0.01256969029264344 
0.979777374758384 -0.02223377377473177 0.1621931866525949 -0.05700180220415448 -0.002220158791064836 -0.4525663839730783 0.3730183034558506 -0.00295108295655109 
-0.6196702793769732 0.08413774622261455 -0.06637161809802888 1.016932554943936 -0.06027218464734328 -0.433065936850925 0.008785340509912821 0.4893343020042723 
-0.2835758498187151 0.05403737689887199 -0.001015283788025081 0.09576739049884052 -0.0227283716385686 -0.1046533743697438 0.01082891873482889 -0.001628457909076038 
-0.5809335603180715 -0.00596729438764005 -0.00119346674144582 0.7189688351299881 -0.07044170266177359 -0.1255945222589866 -0.0006103440010672393 -0.001028733676971331 
-0.09386235023631932 -0.0002607981816978182 -0.0003275270966244728 0.100091087290907 -0.02209166845521986 -5.879690123345685e-005 -0.0001999397116588408 -0.0003193657727228105 
-0.2863723575780456 -0.005269889470063138 -0.0003268066236829412 0.4286677296399444 -0.04817118752065915 -0.1254446436079732 -0.0001832921164970082 -0.0002328276444049909 
-0.05324305135034001 -0.0001204904044854243 -0.0001211699406342419 0.0488944455520802 -6.32129221416213e-005 -2.407848907758652e-005 -8.771241885694532e-005 -0.0001130814628329826 
-0.02163848140458764 0.06549050907283975 -0.0007895678466466729 -0.1778673529595464 -0.000725965614152666 -0.08863866788563646 0.01113262314382867 -0.001047235438432735 
-0.5708795764159441 0.2310452105933644 0.1482791428087841 0.2925954381373142 -0.03501248943363308 0.01027647218135481 -0.0009861017456342812 -0.008437045379671916 
-0.01184991068507715 -0.0001186593720233423 -0.0002157544902743609 0.0092680406774083 -6.183462658930504e-005 -0.01010094508767538 -0.0001146586135239154 -0.0001720903035759566 
-0.002019844205572433 -5.838141018200578e-005 -7.085525816483314e-005 0.004421607588494986 -1.928817634170941e-005 -0.0100886796801853 -5.713126751206523e-005 -6.766631205656594e-005 
-0.08166171870653953 0.07133534557003894 0.1808122094279226 0.09200331875695512 -0.01200735085351205 0.004407687946001643 -0.0001954562583554255 -0.0002407049810759203 
-0.01184592300732634 -0.000112144659808502 -0.0002130759220859192 0.00709893558164214 -6.010967727561222e-005 -1.70498849369285e-005 -0.0001080763785084758 -0.0001675846422964747 
-0.06073381322501859 0.1862637495577656 -0.08920771097052149 -0.02092717836056218 -0.0003043144830808624 0.004428949291206782 -0.0001141235162766858 -9.830157704370293e-005 
-0.03084339050845081 -0.1822309627768261 0.05522222722777457 -0.03430628766578649 0.09932604812873148 -0.0181926617271477 0.161294683035188 -0.03473572805703473 
-0.002205631344730201 -0.1676782799336349 -0.02532819318625276 -0.0115193193594893 0.007387263338053668 -0.004895189202291172 0.1943739373654381 -0.01484522415957058 
0.01846008543445814 -0.01058325532088883 -0.01665240110923733 -0.006004451288037407 -0.009848844886920479 -0.0005361739948536375 -0.009945202468011402 -0.009162713082505287 
0.6818885530505803 0.06881096911172085 -0.4513826473706638 0.2164178782737469 0.100775906640331 -0.158092517167477 -0.5646505208630865 -0.1672909217029669 
-0.1522407741046016 -0.03971489057809155 0.01177769288071582 0.05622565061947379 0.02363400988634617 -0.03398426856954744 -0.01067992478967117 0.06568051795616596 
-0.2121907823905546 -0.01679847183166597 0.03631946381495409 0.08001956580111633 0.05053723494699323 -0.004463559763144783 -0.003431330731483081 0.08220054963996301 
-0.03872326144704932 -0.03660393884699133 0.06081565388996533 0.03357507688491777 0.2253243324033797 -0.09959262819527674 -0.01043675070018534 -0.02461473083019791 
-0.01455364534653941 -0.0382504173770563 -0.05990468274530079 0.04885334237079179 0.02735593978093636 -0.03362518732509893 -0.01022787157941405 -0.02451329221094485 
-0.07812679905900759 -0.01554962241173674 -0.03546846926037426 0.07174877464590718 0.0540972123774292 -0.003968840264191554 -0.003149925511357837 -0.008219376865088317 
-0.911994451919137 -0.9152474221269604 -0.6187374508512451 -0.5482763218873593 -0.7505818192905313 -1.076835219730854 -1.164786183264315 0.8182136108672174 
-0.1022292753720218 -0.09045656041032293 -0.1815226900342061 -0.2446082857740973 0.3069343872324394 -0.06042606149625544 -0.1667085070122511 -0.2708401284020621 
-0.0461102408912833 0.09993831400855613 -0.07292889712317097 -0.001130187364408359 -0.01017248830868937 -0.0007033186675623875 -0.001006526003057685 -0.0007161243267776363 
0.02095454597772837 0.05175388374347117 -0.1494581253677575 -0.127991526946105 -0.003528585511995398 0.06727236923388633 -0.0223866409617339 -0.02594432501574117 
-0.04355707323074677 0.09890670545103394 -0.07274988551327315 -0.0009412913882940774 -0.009524331592944279 -0.0006300016687177043 -0.000859257724104838 -0.000608360796485601 
-0.0002246106402045084 -0.3123729275105635 0.266664765285905 -0.0009472382413739304 0.1101822498851503 -0.0005390499798995828 -0.0007767847976906921 -0.002651199494514777 
-3.370920213178227e-005 -0.06113598976858495 -8.558414272450835e-005 -5.426852204360571e-005 0.05279353762722767 -1.830359341685526e-005 -2.105056592309961e-005 -3.184594231733768e-005 
-0.1183308415713961 -0.05375790666002582 -0.26861709860307 -0.001324396446092635 0.18625148914521 -0.08435459590098514 -0.0007566476645422788 0.04111514765663685 
-0.003680041223156977 0.02923881901674856 0.7232890775257307 0.1347228592777573 -0.1603291182310968 -0.01605426915979064 -0.18281124320836 -0.04924216699966585 
-1.793140451649102 -0.01399136267109958 0.6453311470585958 0.292486569937111 -0.2282765252210824 0.2967700822686835 0.007827905343936601 2.50444577882824 
-0.0007081797591799704 0.04918995214015152 -0.004945526534213787 -0.0002808638512954965 -0.9086608665962699 -0.0004783954976625858 -0.0001954949769488261 0.9460595194299464 
-0.05361062963921108 -0.1021641908386433 0.06151520996981371 -0.004695017070574322 -0.1628244898190602 -0.1642041242667996 -0.003389238178970151 -0.06644685313556265 
-0.01455154272574449 -0.02030032514643326 -0.03045147215473031 -0.001368992592005285 0.1030310363963389 -0.1579975439106365 -0.0009213927428416379 -0.05996019785197524 
-0.001139212053615455 -6.690461411939833e-005 -0.003346290684813646 -0.0001937976238592613 0.06797996207456253 -0.1567868392128664 -9.926685578156814e-005 -0.0002827331622182976 
-0.1844743140101179 0.2726904051571701 0.2711791729390592 0.0808908995251985 -0.8184514892722901 0.09054268260463655 0.1458711063101151 -0.1829362550471161 
-0.01106967349115399 -0.02011820999508614 -0.1776606648306413 -0.0006663584225546721 0.1484897563916189 -0.0007711780291309727 -0.0004221413453424721 -0.0573999237237882 
-0.03852279558884209 -0.06274730766286593 -0.2670382862922038 -0.06646065677146712 -0.1073297045312346 -0.001091528749736686 -0.0004695082517001056 0.3775396869019762 
-0.002598723610154392 -0.01998945281365802 -0.02679572370651799 -0.0002033176502020385 0.02826863106731946 -0.0001302657924644318 -0.0001444121572971755 -0.05687363477793152 
-0.01840186550303133 -0.02018227874799467 0.004888624347574368 0.005963120923520379 0.03268932257747631 -0.0003343204635542628 -0.0001914451113548143 -0.0006037582152499827 
-0.0009312895278208455 -3.897737859571343e-005 -0.002510192610512847 -0.0001180370453586703 0.003782649429852764 -5.811946360428169e-005 -7.346889378481138e-005 -0.0002180601505495851 
-0.1243475252189715 -0.08149165760255972 -0.07840709470379774 0.1475130561086566 0.2275719308636313 0.1376147333715552 -0.00153014927519836 -0.02006422263031274 
-0.01044727560653756 -0.0005335310407402099 -0.03881203311551697 -0.001344020085863317 0.02193117070631837 -0.001873911339252611 -0.0007737105612699035 -0.001629898770134722 
-0.075532184616807 -0.03221780225655315 -0.2380503535488953 -0.0005960206490900151 0.1056648075899039 0.1404621960896339 -0.000364157052063863 -0.00078536815931791 
-0.001836185738492518 -7.938672250880471e-005 -0.003309963870411846 -0.0003080275748534835 0.006001766516039231 -0.0002208696340572451 -0.0001582760091638655 -0.0005092070585583437 
-0.02746911066148162 -0.03215217224232637 0.06766460248853937 -0.0002544437562627708 -0.004352469779125427 -0.0002760721877396807 -0.0001513658602991323 -0.0003408946009166251 
-0.0008055512182220401 -3.92004422068722e-005 -0.002940638043740829 -0.000127966493220945 0.003632923821556007 -5.311284299396558e-005 -7.062518527319744e-005 -0.0001658744051267289 
-0.2029353160213706 0.1620818015323358 1.073900251725417 0.005826535775449226 -0.5369137208823493 -0.1569535909012843 -0.02480313940115359 -0.000396820597670144 
-0.0008060191971535208 -5.106617729881188e-005 -0.003028279978259113 -0.0001591340275332511 0.06658789117367833 -0.1567646727454639 -7.260888415638331e-005 -0.0001727230603838102 
-0.00603883928562181 -0.002201379217059981 0.118744558085955 -0.001040492000125075 -0.02389824348273834 -0.0009671734373890039 -0.000610887437565302 -0.003975071723704348 
-0.003065492819801846 -0.02199237395555071 -0.06413922233754857 -0.0003170132433420895 0.09745546964131825 -0.0002801332183494276 -0.0001888587460220179 -0.002591370302108553 
-0.0008055512182220401 -3.92004422068722e-005 -0.002940638043740829 -0.000127966493220945 0.003632923821556007 -5.311284299396558e-005 -7.062518527319744e-005 -0.0001658744051267289 
-0.000601007054110857 -2.920052366823441e-005 -0.3074290874169311 -8.961795012681378e-005 0.2018874400881396 -3.751606398512374e-005 -5.116818781927236e-005 -0.000113241121782904 
-0.0005980966713589125 -2.313894177512696e-005 -0.002192181903958313 -8.337344903266e-005 0.002390578528968557 -3.595299620179009e-005 -4.681092215962655e-005 -0.0001080500487150976 
-0.0005980966713589125 -2.313894177512696e-005 -0.002192181903958313 -8.337344903266e-005 0.002390578528968557 -3.595299620179009e-005 -4.681092215962655e-005 -0.0001080500487150976 
-0.0005980966713589125 -2.313894177512696e-005 -0.002192181903958313 -8.337344903266e-005 0.002390578528968557 -3.595299620179009e-005 -4.681092215962655e-005 -0.0001080500487150976 
-0.06130982519230575 -0.00363550444108823 0.1203732839415316 0.01455674788158453 0.0316214951988865 -0.3164071923994566 -0.02665852973982074 -0.2591214220611572 
0.007830620048366613 0.01397052217635742 -0.04206391794102905 -0.02091870767543895 -0.02530851581119398 -0.185589392390019 0.0007408166905066001 0.2050176033529026 
-0.0116195104124019 0.01675300860593636 -0.1159428563827042 -0.02067892544958123 0.05904557012604943 -0.1862377064709579 0.0007385928214805343 0.203955938399299 
0.04040440951672124 0.01505619463366627 -0.1004095791837513 -0.01998182982855387 -0.02356841970025765 -0.1854853833864189 0.001219339855238625 0.2054425715232108 
-0.2587970604325249 0.7983184022177723 -0.4806012924754279 -0.1114463419455738 -0.1705469119663 -0.0346080590263631 -0.03939221601060118 -0.05633049010141604 
-0.0007360421467904981 -0.004636116194649219 -0.03995436709445409 -0.0002924211058901691 0.05760142811998949 0.01722601543829642 -4.091716942765836e-005 -2.834404331644239e-005 
0.003834381425731534 -0.04130336698749997 0.02006281901307698 -0.00969910441676735 -0.01047623148745702 0.02600271579402663 0.009123522328322043 -0.0172225260949417 
0.003834381425731534 -0.04130336698749997 0.02006281901307698 -0.00969910441676735 -0.01047623148745702 0.02600271579402663 0.009123522328322043 -0.0172225260949417 
0.05157362893099423 -0.1284244425163171 -0.01393735663353566 -0.09107968998185256 -0.05781681859307025 -0.0007020086652576822 -0.0143114650605952 -0.02033280348980503 
-0.01731780814212673 -0.01235953623527668 -0.04814452101020403 0.04014859480178323 -0.00963864488546203 -0.305885567424997 -0.01762643034129617 0.2252779407978076 
-0.003723736983976126 -0.0005867076020860745 -0.02324868854042586 -0.001476558799220429 -4.272228997277819e-005 -0.1781141361586253 -0.0002436279375628885 0.2382154540385639 
-0.0009449051293269471 -0.001046955271591014 -0.7022838531022596 -0.01921889471115104 0.155276760903289 0.813120338571524 -4.031973726595952e-005 -5.787418755089018e-005 
-0.0002343633282635272 -0.0004097544234186978 -0.2168441594783936 -0.000633392847281842 -4.45292861830278e-005 0.304864156919543 -1.827144598317733e-005 -2.418125096838871e-005 
-0.0009400011081393415 -0.05752830605102337 -0.02303310623762481 -0.0005209158172672652 -3.168409910889111e-005 0.01989297607312688 -0.0001706513192466557 -0.0001332114808228591 
-0.5516971144788628 -0.06628910438115812 -0.1313253125364733 0.5515708129554 -0.172553752671492 0.621568068671292 -0.004324047408742004 -0.06267529955508439 
-0.009749966236982424 -0.005746466540422795 -0.03555759900169837 -0.009556187254867546 -0.004101844311026295 0.04360082909721288 -0.007896249666361046 -0.006032457236928881 
-0.1559748407591843 -0.001926684440817997 -0.1147428332140647 -0.04075630170742763 -0.0001662755944650913 0.1753455449781153 -0.0007598387626625666 -0.0004044806364122939 
-0.001976958653033632 -0.0005673545787555185 -0.08806499608743354 0.3582888455041425 -0.0001826822083336623 -0.129261533999708 -0.000361384555638344 -0.0003920013961802122 
-0.0009400011081393415 -0.05752830605102337 -0.02303310623762481 -0.0005209158172672652 -3.168409910889111e-005 0.01989297607312688 -0.0001706513192466557 -0.0001332114808228591 
-0.06656451962346265 -0.0009753593412416877 -0.02325759395065294 -0.03767032839042127 -2.81425960615106e-005 0.09169202892680214 -0.0001356739538584057 -0.0001260476356061676 
-1.189237247413328e-005 -0.0002939389811841294 -0.1164272673389084 0.3615347766904167 -6.004178850941086e-006 0.03200119160423376 -6.612488824060177e-006 -1.289878212625787e-005 
-0.1086322271843168 -0.001941915717700211 -0.1147425757830404 -0.2091853617302818 -0.0002732105561545889 0.3301631538025238 -0.0007232714370266373 -0.0006628891962952286 
-0.04077206682197539 -0.0006570503203287062 -0.1143713472765977 -0.03830513401641013 -7.150900243036243e-005 0.08195610362119875 -0.0001571443027450207 -0.0001204323623835177 
-0.0016158499280048 -0.0005403929477492231 -0.07317428383908048 -0.004156781706047543 -0.0001739077738073128 -0.1349678146858638 -0.0003560948882955377 -0.0003864976174694677 
-0.0009400011081393415 -0.05752830605102337 -0.02303310623762481 -0.0005209158172672652 -3.168409910889111e-005 0.01989297607312688 -0.0001706513192466557 -0.0001332114808228591 
-0.01627213816406875 0.2870749178622037 -0.6272416200900394 0.04401279307724197 -0.02355598472656236 0.1655790563695908 -0.001539272316832068 -0.2442546962251739 
-0.005447899310425898 -0.02299913631904129 0.04893117399809656 -0.002294543873712418 0.001587895493260927 0.01645578376102337 -0.0004392028654450734 -0.0002468622364282097 
0.09506186061972428 0.007123117136876205 -0.005958392352984518 -0.08752204880078822 -0.05416424100689921 0.005499076433784494 -0.009617560337295921 -0.01231579142889155 
-0.004475893534450923 -0.0006443106204309279 -0.005820493922793363 -0.0004276755151759428 -0.0004495316054986332 0.01723838720974122 -6.01992561017659e-005 -3.589347852229121e-005 
-0.003723736983976126 -0.0005867076020860745 -0.02324868854042586 -0.001476558799220429 -4.272228997277819e-005 -0.1781141361586253 -0.0002436279375628885 0.2382154540385639 
-0.003723736983976126 -0.0005867076020860745 -0.02324868854042586 -0.001476558799220429 -4.272228997277819e-005 -0.1781141361586253 -0.0002436279375628885 0.2382154540385639 
-0.01209316949357082 -0.05757994583541839 -0.02305469718799541 -0.0009304426324539103 -3.71009820018442e-005 0.02270201173840303 -0.0003552055451731824 -0.0001599779204152525 
-0.07213560260873286 -0.002310297078335219 -0.02329838025206895 -0.101431351960351 -0.000195689349780107 0.08985065582520019 -0.001891868856702369 -0.001057117348560498 
-0.009868447666887499 -0.000906654516676453 -0.02305729214627399 -0.03801031966358477 -2.546895807076198e-005 0.0265268672598034 -0.0004509569382197539 -9.96463089413297e-005 
-0.005021590963541471 -0.0004896259828244866 -0.02303639479305659 -0.03740403164180912 -9.394158931639806e-006 0.02555703968432187 -7.209726558362973e-005 -3.802912712816914e-005 
-0.1309250712155408 -0.003389595257636317 -0.1061113439895925 -0.06357170436854907 -0.0009219279194783648 0.1112601688385431 -0.004639842924125778 -0.002293888777028241 
-0.001859606258691845 -0.0005274889804875196 -0.02301321971066116 -0.0933806546603944 -1.711914900417804e-005 0.03866752521918391 -0.0002649155176774327 -7.803287513033756e-005 
-0.0005830764470830173 -0.0004027176436376039 -0.02300266571242708 -0.03718680298337426 -3.437190729532138e-006 0.0219590377824925 -5.748291061221582e-005 -1.895663728589516e-005 
-0.004951115409961516 0.1925097846983205 -0.009031728883951266 -0.009199344054109982 -0.02187484807296546 -0.03580112275250691 -0.009725831731474597 -0.008313896566936303 
-0.004951115409961516 0.1925097846983205 -0.009031728883951266 -0.009199344054109982 -0.02187484807296546 -0.03580112275250691 -0.009725831731474597 -0.008313896566936303 
-0.001244130124742278 0.1892305792384651 -8.613595438625763e-005 -5.113041134157455e-005 -0.01203600578223372 -0.02538475457346467 -8.722431371335925e-005 -6.723311108744936e-005 
-0.001244130124742278 0.1892305792384651 -8.613595438625763e-005 -5.113041134157455e-005 -0.01203600578223372 -0.02538475457346467 -8.722431371335925e-005 -6.723311108744936e-005 
-0.0002537311857418833 -0.2951586417362861 -0.001534888356181588 -0.001717525996505524 -0.1880319173106296 -0.02653587803322675 -0.001172471858038225 -0.0009408199446845021 
-6.546021099715245e-005 -0.1395115619409288 -0.0003047934384255906 -0.0004848388733921504 0.1335361915715534 -0.02562094440870223 -0.0003635837111224915 -0.0002700628643441993 
0.9959723994229885 0.1836031585686292 -0.05911413440147436 -0.004587118128616499 -0.2383862837919873 -0.07054718692680827 -0.00250120233846961 -0.002787483957557472 
-0.008736421448540472 -0.04469422572162347 0.4155004421783541 -0.05580148460476914 -0.03841671060183197 0.1108125661644929 0.3202633270879866 -0.4471350097320002 
-1.952093275382538 0.2397108547973232 0.7710175622663292 -0.2069112974179496 0.4191239464473113 -0.3104625775213702 0.4394883800354575 2.653692570303181 
-0.0003496925364881633 -0.0006516361525984266 -0.04881880316127937 -0.001809291058928478 -0.0002959309635431322 -0.08565430225678443 0.3787646926153191 0.3237314914693208 
-0.1138965883887989 -0.309131925867162 -0.06131035374053161 -0.1189614878072908 0.09711016196719319 0.1956357212871381 0.2313409085634489 -0.1742405379877842 
-0.05779303327050307 -0.0004653913662664788 -0.0004588683305882929 -0.1079389949633097 -0.0003298630300110526 0.2153438632794409 -0.0006466115199614563 -0.2504150274860515 
-0.004512243497129841 -0.0003041498847139328 -0.2046361912651404 -0.0007247796180368682 -0.002980735048487561 0.1592260565719149 -0.0006099088212312508 -0.161317259675161 
-0.09675006249808914 -0.07542589632766839 0.08692354235048795 -0.1155155385409661 0.1044175949680422 0.2037372323935148 -0.01315659605318104 -0.1703882591397118 
-0.05779285738802337 -0.0004652479207917881 -0.0004585175362292697 -0.1081343936412325 -0.0003296305646667241 0.2198766504450513 -0.0006414244455937685 -0.2504146342102025 
-0.004512243497129841 -0.0003041498847139328 -0.2046361912651404 -0.0007247796180368682 -0.002980735048487561 0.1592260565719149 -0.0006099088212312508 -0.161317259675161 
-0.002069947342962227 -0.0153858083895343 -0.02158654272268536 -0.02090370115230185 -0.0145035354787017 -0.4069061360535499 -0.01385145299944661 -0.001642972271494958 
-0.000599693818611508 -0.0006136349236621784 -0.001317624061170549 -0.002235069082606404 -0.0002201699691120015 0.1604870018377085 -0.0009513612913096532 -0.3496565716714014 
-0.03114565708220741 -0.1165264243831202 -0.1882047565935303 0.1448455943896237 -0.07733472213879046 -0.3286501107433751 -0.1585230348731842 0.191591467880377 
-0.2178659621585462 0.3187044730768339 -0.4190893566802917 -0.422563646521558 -0.3714304678184597 0.127689603532901 -0.246713303968526 -0.296309137530777 
-0.0007377978095740528 -0.007421829941846421 -0.00628740849083013 -0.006147418796149081 -0.003784484497192626 0.5777606740537123 -0.004665253341940846 -0.7266172619835721 
-0.2396396903889727 -0.004281661757253384 -0.06247391025017424 0.1809594934292409 0.3516365202794003 0.5055547055719207 0.1498368838156368 -0.3642850486809547 
-9.211530647771586e-006 -0.0001125554332451556 -0.1765645099006053 -0.000277751294880408 -0.002606643413832303 0.1594745628674806 -0.0001572903792634677 -0.2704436066736828 
-0.158404272500705 0.1286168408320329 0.2093332926318632 -0.0357710126026496 -0.00559895594593407 -0.0340405096583957 -0.03622343652479246 0.02515673373680081 
-0.04527838278585881 0.1784252718252448 -0.001297764289642673 -0.0001830578267010335 0.03389497471441494 -0.0001890306316254847 -8.041786369604127e-005 -0.009742622051183444 
-0.08823979629960828 -0.02486416407401385 0.1498370290602235 -0.01370342360297257 0.07695173910872312 -0.01273565197540974 -0.01127313902357689 0.05287304365347597 
0.02625598099195932 -0.02107072286522802 -0.03379092850972488 -0.01051181747216488 0.07997173569228283 -0.009397431920853844 -0.008655053603181454 -0.01464188635176503 
0.05269354026208845 -0.01964411245546228 -0.1154874482211522 0.04452497852433238 -0.01393070333550089 -0.01056506607486198 -0.01256434807051127 -0.02028225766518397 
-0.02026840970993193 -0.1023210489289978 0.08934272386036259 -0.01080140990333817 0.05897271870632889 -0.005073440265557523 -0.00667762290624459 -0.009597315866574937 
0.0179369469466422 -0.009859732360896262 0.005333234171914978 -0.01052591252028569 -0.01828669867795305 -0.005050893802622956 -0.00653458844354247 -0.009456387220176428 
-0.1254099533524054 -0.02997125599733478 -0.1999793351338435 0.146609282275947 0.2572607565762812 0.2235539762411023 -0.001769424167172714 -0.0191804045510322 
-0.03686158109852929 -0.0001921835105482935 -0.07847806094459393 -0.0005162089028605062 0.2323317621255943 -0.08358226155140165 -0.0002180065370623298 -0.0008751546045102331 
-0.06584246979052502 -0.02023122606845913 -0.230112374314794 -0.0005762666524963257 -0.03435643987149809 -0.0004258942095264114 -0.0003163280756022207 0.0992474844651479 
-0.03627709779099247 -0.0001682063408046571 -0.0005395145240467153 -0.0003207090051921978 0.05750746377235355 -0.0002467897074030638 -0.0001523606888915744 -0.0006170016617539659 
-0.05877304673690906 0.06715295541772859 -0.1801658023578908 -0.00123035943473856 -0.03186692883401689 0.0942045463240417 -0.0008038379860569966 -0.05853878300247801 
-0.2210910800042587 -0.202781742974192 0.04193018574142569 -0.2357879540931514 -0.228784150993548 0.2401383421844831 -0.1957099015001363 -0.1406860006814628 
0.4592249007002686 -0.01229835339213933 -0.03759852294402521 -0.0001853488646675067 -0.08372925466253835 -0.0004372905080501113 -0.0002081529653145067 -0.000992036305658987 
0.4592249007002686 -0.01229835339213933 -0.03759852294402521 -0.0001853488646675067 -0.08372925466253835 -0.0004372905080501113 -0.0002081529653145067 -0.000992036305658987 
0.4592249007002686 -0.01229835339213933 -0.03759852294402521 -0.0001853488646675067 -0.08372925466253835 -0.0004372905080501113 -0.0002081529653145067 -0.000992036305658987 
-0.2300669130322655 0.9988124159194969 -0.3728180828220972 -0.006916627144139769 -0.3793611609617463 -0.01569487233210411 -0.009822664391964791 -0.01551031166107145 
-0.1781643065437844 0.4356923861285546 -0.3925133845379717 -0.001589779544950198 0.338347801079421 -0.003421707531302616 -0.00221962167858386 -0.002633927227330241 
-0.008929680279880141 0.1914992752932672 -0.05465048208918577 -0.4394830621478839 -0.01168713921352844 -0.1987126342706856 -0.01309233717766757 -0.008606751760761281 
-0.002059616283073346 -0.001840306063502319 -0.04362143273744092 -0.4239712141771447 -0.001237710168490447 0.4886190944708838 -0.002786224093638606 -0.001162103293926876 
0.9127516783298321 -0.05619094140898061 -0.3969743048594742 -0.1008793511649604 0.7298888049389262 -0.2533235290014922 0.07847448761569341 0.8372006050295717 
-0.002944710149837755 -0.00292698937305981 -0.2260331656050759 -0.07973119300627986 -0.008520331559437416 -0.000427119408458534 -0.0007435932188911334 0.4272073260418702 
-0.2579187316126203 -0.002199692407245606 0.1126010754263396 -0.04159209311474568 -0.0003040408143938247 0.255434275577335 -0.0009400949521416216 -0.000484691040303825 
-0.1510056001627554 -0.0007999788814838039 0.1131140318332848 -0.03897613890034427 -0.0001831912866248052 0.08751332907286105 -0.0004093062855578649 -0.0001918947330054421 
-0.06352685940689026 -0.0003448842171968774 -0.0002213931924086366 -0.03780583761706351 -8.154548554986085e-005 0.07941391988713246 -0.0001877510276534929 -6.916551541046613e-005 
-0.002812104950095463 -0.003577739598740698 -0.03597600766169089 -0.04757036824146374 -0.2931394698942236 -0.0007331051398347099 -0.07014113046997282 0.1017593479476832 
-0.08482488786361506 0.04983222490020262 -0.2133127603503198 -0.004063752300523458 0.108297237244411 0.01418504686524301 -0.006647961736349455 0.0736555117403402 
-0.03775078067592808 0.04663323915022678 -0.04007157274138179 -0.03975369877286855 -0.04692425632593849 0.02285918856676921 0.04715363248686678 -0.0005366700306210643 
-0.06291846663790159 -0.152790106629829 -0.02494074432715239 -0.009650951560859685 0.0439942608284038 0.02453343525351146 0.1971317204114871 0.001374354137350378 
-0.05773402407641226 -0.000348761797546967 -0.0003167212777947274 -0.001899033668432078 -0.0002709957743623051 0.0405218456618045 -0.0005108331970970555 -0.0001175098766778521 
-0.04443049672778271 0.07538307331764665 -0.02457667921986412 -0.009449507834895189 0.046259589839642 0.02964748592084985 -0.01265307170428583 0.001781619627381872 
-0.0347243587490052 0.04991475204075389 -0.01029884702859577 -0.003887660719579223 0.05492137198873037 0.01464117960810879 -0.006428350617184568 -0.004575765924843931 
-0.04937189909336806 0.0667947969073663 -0.05582287664264313 -0.02712891815647887 -0.03481024740636637 0.03835176021555584 -0.02169939852010096 0.009866977831064836 
0.00718239683551848 0.01778389384531389 -0.0219098901600971 -0.006768331442875032 0.04332227506237343 0.003334510544156458 -0.01140881412656115 -0.008503059215295272 
0.007182572717998171 0.01778403729078858 -0.02190953936573807 -0.006963730120797841 0.04332250752771776 0.007867297709766834 -0.01140362705219346 -0.008502665939446251 
-0.009612551382776452 -0.1326585215476598 0.02908621997464882 -0.002283493653077391 -0.05052424139083468 -0.004154531321785652 -0.003305518307946396 -0.005318618467304835 
-0.0002158083090600754 -0.002549082897066775 0.03482225441338017 -8.831365602625953e-005 -0.0482506801780611 -3.199303383329336e-005 -3.057490241037028e-005 -8.584158870773007e-006 
-0.1927383251523187 -0.006173295391137496 0.7349618038479684 -0.001663257151275956 -0.2978020735086038 -0.2869136782321446 -0.0004696039915709039 -0.0004272285681825023 
-0.0002158083090600754 -0.002549082897066775 0.03482225441338017 -8.831365602625953e-005 -0.0482506801780611 -3.199303383329336e-005 -3.057490241037028e-005 -8.584158870773007e-006 
-7.188608780703169e-005 -0.000177830669564966 0.03779510208067682 -9.384488086064512e-005 -0.04836022679047458 -0.0001412092258811775 -2.285914460895037e-005 -9.262411471333281e-006 
-7.188608780703169e-005 -0.000177830669564966 0.03779510208067682 -9.384488086064512e-005 -0.04836022679047458 -0.0001412092258811775 -2.285914460895037e-005 -9.262411471333281e-006 
-0.0008733646100138393 -0.004109284814050489 0.05413228103988679 -0.0002349202751073588 -0.04822201791083175 -8.257790032813712e-005 -5.864350242612589e-005 -4.997371610934014e-005 
0.0005187181292997318 0.04568227146412937 -0.3173341170407887 0.2663742749230154 -0.362896062061206 0.1663039462391746 -0.05136825101611913 -0.05502277248328497 
0.07306808395356575 0.01499104286681175 0.1537968207395224 -0.04004527643499895 -0.4624282896184021 0.2603356645439536 -0.02682520336119224 -0.03363348166250919 
0.03685529001840899 -0.01809207037545209 -0.05554966718014714 -0.01713252379127083 -0.256630394966119 0.3536609943809018 -0.01278365264553473 -0.01637128932439298 
0.02428374398428032 -0.01833788089009096 0.01961831134841924 -0.01053595921180666 -0.05096846441749192 -0.01725312723538669 -0.007629425309213107 -0.008353253741386435 
-0.005139000413775395 -0.002413336848419398 0.04112268219452073 -0.002953468835184045 -0.04878111675973289 -0.005390298140724018 -0.002246713352811609 -0.001942967010277637 
-0.05497544528825408 0.04546481663455926 -0.2105040098528544 0.3155649794712512 -0.2700009473448099 -0.0003766977942895493 -0.003753621348424078 -0.003839270843807494 
-1.076808739445821e-005 -8.051422148905509e-005 0.2255776667391868 -0.0001906102216621452 -0.264864048050144 0.003231332945217476 -2.494353260715149e-005 -2.361628005412983e-005 
-0.01111495090859292 -0.0003205714279864215 -0.005338737740890017 -0.0002485531432275671 -0.04817270841179983 0.003239321803862958 -6.378869797623831e-005 -1.87645443327208e-005 
-0.01264356792259481 -0.02395013536023481 0.2978848590673362 -0.004837579631833324 -0.4888264288759705 -0.00575696045957027 -0.005835693703276081 -0.01889975880682992 
-1.075033470228851e-005 -2.185636620536217e-005 -0.4164920613573361 -1.933744222003436e-005 0.1706555362121113 -5.875716879488742e-005 -8.357075081321319e-006 -6.615499444326267e-006 
-3.701081173181332e-007 -1.507591470230728e-005 -0.0755628984145383 -6.887702672816167e-006 -0.02189660380064216 -1.057319274165551e-005 -2.110671931019695e-006 -2.609656499592665e-006 
-3.604450754098096e-007 -1.498834777768105e-005 -0.1467933438514421 -5.770677844438256e-006 0.07578865804006491 -7.454724320257824e-006 -1.6802501026616e-006 -2.340866421532419e-006 
-0.00771009553839988 -0.007663229395646917 0.02557403038210411 -0.01369625708356104 -0.04253218041279584 0.04641194674502872 -0.01005032676516699 -0.01026133157626658 
-0.002591473887693448 -5.499002713024782e-005 0.03239878051862467 -0.0001889126032116842 -0.1505313292054581 0.1408302147952538 -8.999605825441995e-005 -0.0001685719432927339 
0.08620814535511001 -0.0515717515970103 0.04253133980540295 -0.02952641813779435 -0.07224921942667109 0.03022982122739151 -0.03590236070555202 -0.04605601793876446 
-0.02946351583028554 -0.0313903556856678 0.1235498571697704 -0.003054974287203374 -0.04572406944506712 -0.01832831846006319 -0.01231018203596562 -0.0150334961116093 
0.02156874915624747 -0.01283488255194937 0.0204696760725846 0.005729903434865048 -0.05443209265094257 -0.00691971017975075 -0.004648901875838243 -0.005201850106136436 
-0.155649558277623 -0.008306770703981716 0.01144280174430289 -0.03815973992215067 0.1667676430255675 -0.09731716795370501 -0.04715745150242702 -0.03573214144106458 
