svm_type c_svc
kernel_type linear
nr_class 3
total_sv 1288
rho -0.999492 -0.0669173 0.149703
label 1 2 3
probA -0.978461 -1.10638 -0.878112
probB -0.0770364 -0.239615 0.115261
nr_sv 367 462 459
SV
1 1 3:1 6:1 9:1 10:1 
1 1 2:1 5:1 9:1 
1 1 2:1 5:1 9:1 
1 1 3:1 6:1 9:1 10:1 
1 1 3:1 6:1 9:1 10:1 
1 1 3:1 6:1 9:1 10:1 
1 1 2:1 5:1 9:1 
1 1 3:1 6:1 9:1 10:1 
1 1 3:1 6:1 9:1 10:1 
1 1 2:1 5:1 9:1 
1 1 2:1 4:1 8:1 
1 1 2:1 5:1 9:1 
1 1 3:1 6:1 9:1 10:1 
1 1 3:1 6:1 9:1 10:1 
1 1 2:1 5:1 9:1 
1 1 2:1 5:1 8:1 
1 1 2:1 6:1 8:1 10:1 
1 1 2:1 6:1 8:1 10:1 
1 1 3:1 6:1 9:1 10:1 
1 1 3:1 6:1 9:1 10:1 
1 1 3:1 6:1 9:1 10:1 
1 1 2:1 5:1 9:1 
1 1 2:1 5:1 9:1 
1 1 2:1 5:1 9:1 
1 1 3:1 6:1 9:1 10:1 
1 1 2:1 5:1 9:1 
1 1 2:1 5:1 9:1 
1 1 2:1 5:1 9:1 
1 1 3:1 6:1 9:1 10:1 
1 1 3:1 6:1 9:1 10:1 
1 1 3:1 6:1 9:1 10:1 
1 1 2:1 5:1 9:1 
0 1 2:1 5:1 7:1 
1 1 3:1 6:1 9:1 10:1 
1 1 3:1 6:1 9:1 10:1 
1 1 3:1 6:1 9:1 10:1 
1 1 3:1 6:1 9:1 10:1 
1 1 3:1 6:1 9:1 10:1 
1 1 3:1 6:1 9:1 10:1 
1 1 3:1 6:1 9:1 10:1 
1 1 2:1 5:1 8:1 
1 1 2:1 5:1 9:1 
1 1 3:1 6:1 9:1 10:1 
1 1 2:1 5:1 9:1 
1 1 2:1 5:1 9:1 
1 1 3:1 6:1 9:1 10:1 
1 1 3:1 6:1 9:1 10:1 
1 1 3:1 6:1 9:1 10:1 
1 1 3:1 6:1 9:1 10:1 
1 1 3:1 6:1 9:1 10:1 
1 1 2:1 5:1 9:1 
1 1 3:1 6:1 9:1 10:1 
0 1 2:1 5:1 7:1 
1 1 2:1 5:1 9:1 
1 1 3:1 6:1 9:1 10:1 
0 1 2:1 5:1 7:1 
1 1 2:1 5:1 9:1 
1 1 3:1 6:1 9:1 10:1 
1 1 3:1 6:1 9:1 10:1 
1 1 3:1 6:1 9:1 10:1 
1 1 3:1 6:1 9:1 10:1 
1 1 2:1 5:1 9:1 
1 1 3:1 6:1 9:1 10:1 
1 1 3:1 6:1 9:1 10:1 
0.6643017309484607 1 2:1 5:1 7:1 
1 1 3:1 6:1 9:1 10:1 
1 1 3:1 6:1 9:1 10:1 
1 1 3:1 6:1 9:1 10:1 
1 1 2:1 5:1 9:1 
1 1 2:1 5:1 9:1 
1 1 3:1 6:1 9:1 10:1 
1 1 2:1 5:1 9:1 
1 1 3:1 6:1 9:1 10:1 
1 1 2:1 5:1 9:1 
1 1 3:1 6:1 9:1 10:1 
1 1 3:1 6:1 9:1 10:1 
1 1 3:1 6:1 9:1 10:1 
1 1 3:1 6:1 9:1 10:1 
1 1 3:1 6:1 9:1 10:1 
1 1 3:1 6:1 9:1 10:1 
1 1 3:1 6:1 9:1 10:1 
1 1 2:1 5:1 9:1 
1 1 3:1 6:1 9:1 10:1 
1 1 3:1 6:1 9:1 10:1 
1 1 2:1 5:1 9:1 
1 1 3:1 6:1 9:1 10:1 
1 1 3:1 6:1 9:1 10:1 
1 1 2:1 5:1 9:1 
1 1 3:1 6:1 9:1 10:1 
1 1 3:1 6:1 9:1 10:1 
1 1 3:1 6:1 9:1 10:1 
1 1 2:1 5:1 9:1 
1 1 3:1 6:1 9:1 10:1 
1 1 3:1 6:1 9:1 10:1 
1 1 2:1 5:1 9:1 
1 1 2:1 5:1 9:1 
1 1 2:1 5:1 9:1 
1 1 2:1 5:1 9:1 
1 1 2:1 5:1 7:1 
1 1 3:1 6:1 9:1 10:1 
1 1 2:1 5:1 9:1 
1 1 3:1 6:1 9:1 10:1 
1 1 2:1 5:1 9:1 
1 1 2:1 5:1 9:1 
1 1 3:1 6:1 9:1 10:1 
1 1 3:1 6:1 9:1 10:1 
1 1 2:1 5:1 9:1 
1 1 3:1 6:1 9:1 10:1 
1 1 3:1 6:1 9:1 10:1 
1 1 3:1 6:1 9:1 10:1 
1 1 3:1 6:1 9:1 10:1 
1 1 2:1 5:1 9:1 
1 1 3:1 6:1 9:1 10:1 
1 1 3:1 6:1 9:1 10:1 
1 1 3:1 6:1 9:1 10:1 
1 1 2:1 5:1 9:1 
1 1 3:1 6:1 9:1 10:1 
1 1 3:1 6:1 9:1 10:1 
1 1 3:1 6:1 9:1 10:1 
1 1 3:1 6:1 9:1 10:1 
1 1 2:1 6:1 9:1 
1 1 2:1 6:1 8:1 10:1 
1 1 3:1 6:1 9:1 10:1 
1 1 3:1 6:1 9:1 10:1 
1 1 3:1 6:1 9:1 10:1 
1 1 2:1 6:1 8:1 10:1 
1 1 3:1 6:1 9:1 10:1 
1 1 3:1 6:1 9:1 10:1 
1 1 3:1 6:1 9:1 10:1 
1 1 3:1 6:1 9:1 10:1 
1 1 3:1 6:1 9:1 10:1 
1 1 2:1 5:1 9:1 
1 1 3:1 6:1 9:1 10:1 
1 1 3:1 6:1 9:1 10:1 
1 1 3:1 6:1 9:1 10:1 
1 1 3:1 6:1 9:1 10:1 
1 1 2:1 5:1 9:1 
1 1 2:1 6:1 8:1 10:1 
1 1 3:1 6:1 9:1 10:1 
1 1 3:1 6:1 9:1 10:1 
1 1 3:1 6:1 9:1 10:1 
1 1 2:1 5:1 9:1 
1 1 3:1 6:1 9:1 10:1 
1 1 2:1 5:1 9:1 
1 1 2:1 5:1 9:1 
1 1 3:1 6:1 9:1 10:1 
1 1 3:1 6:1 9:1 10:1 
1 1 3:1 6:1 9:1 10:1 
1 1 3:1 6:1 9:1 10:1 
1 1 2:1 5:1 9:1 
1 1 2:1 5:1 9:1 
1 1 3:1 6:1 9:1 10:1 
1 1 2:1 6:1 8:1 10:1 
1 1 2:1 5:1 9:1 
1 1 2:1 5:1 9:1 
1 1 2:1 5:1 9:1 
1 1 2:1 5:1 9:1 
1 1 3:1 6:1 9:1 10:1 
0.6650388716870999 0 1:1 6:1 9:1 
1 1 2:1 6:1 8:1 10:1 
1 1 3:1 6:1 9:1 10:1 
1 1 2:1 5:1 9:1 
0 0.4396474600042479 1:1 4:1 8:1 
1 1 2:1 5:1 9:1 
1 1 3:1 6:1 9:1 10:1 
1 1 2:1 5:1 9:1 
1 1 3:1 6:1 9:1 10:1 
1 1 2:1 5:1 9:1 
1 1 2:1 5:1 7:1 
1 1 2:1 6:1 8:1 10:1 
1 1 3:1 6:1 9:1 10:1 
1 1 2:1 5:1 9:1 
1 1 3:1 6:1 9:1 10:1 
1 1 3:1 6:1 9:1 10:1 
1 1 2:1 5:1 9:1 
1 1 2:1 5:1 7:1 
1 1 3:1 6:1 9:1 10:1 
1 1 2:1 5:1 9:1 
1 1 2:1 5:1 9:1 
1 1 2:1 5:1 9:1 
1 1 3:1 6:1 9:1 10:1 
1 1 3:1 6:1 9:1 10:1 
1 1 2:1 6:1 8:1 10:1 
0.4 0 1:1 4:1 9:1 
1 0 1:1 4:1 9:1 
1 1 3:1 6:1 9:1 10:1 
1 1 2:1 5:1 9:1 
1 1 2:1 5:1 9:1 
0.6000000000000001 0 1:1 5:1 7:1 
1 1 3:1 6:1 9:1 10:1 
1 0 1:1 4:1 9:1 
1 1 3:1 6:1 9:1 10:1 
1 1 3:1 6:1 9:1 10:1 
1 1 3:1 6:1 9:1 10:1 
1 1 3:1 6:1 9:1 10:1 
1 1 3:1 6:1 9:1 10:1 
1 0 1:1 4:1 9:1 
1 1 2:1 5:1 9:1 
1 1 3:1 6:1 9:1 10:1 
1 1 3:1 4:1 8:1 
1 1 2:1 5:1 9:1 
0.2835580897959102 1 1:1 4:1 8:1 
1 1 3:1 6:1 9:1 10:1 
1 1 3:1 6:1 9:1 10:1 
1 1 2:1 6:1 8:1 10:1 
1 0 1:1 4:1 9:1 
1 1 3:1 6:1 9:1 10:1 
1 1 3:1 6:1 9:1 10:1 
0.445150631681244 0 1:1 6:1 7:1 10:1 
1 0 1:1 6:1 7:1 10:1 
1 1 3:1 6:1 9:1 10:1 
1 1 3:1 6:1 9:1 10:1 
1 1 3:1 6:1 9:1 10:1 
1 1 3:1 6:1 9:1 10:1 
1 1 3:1 6:1 9:1 10:1 
1 1 3:1 6:1 9:1 10:1 
1 1 3:1 6:1 9:1 10:1 
1 0 1:1 6:1 7:1 10:1 
1 1 3:1 6:1 9:1 10:1 
1 1 3:1 6:1 9:1 10:1 
1 1 3:1 6:1 9:1 10:1 
1 1 3:1 6:1 9:1 10:1 
1 0.9166666666666666 1:1 6:1 7:1 10:1 
1 1 3:1 6:1 9:1 10:1 
1 1 3:1 6:1 9:1 10:1 
1 1 3:1 6:1 9:1 10:1 
1 1 2:1 5:1 9:1 
1 0 1:1 4:1 9:1 
1 1 2:1 5:1 9:1 
1 1 3:1 6:1 9:1 10:1 
1 1 2:1 5:1 9:1 
1 1 3:1 6:1 9:1 10:1 
1 1 3:1 6:1 9:1 10:1 
1 0 1:1 4:1 9:1 
1 1 2:1 6:1 8:1 10:1 
1 1 3:1 6:1 9:1 10:1 
1 0 1:1 4:1 9:1 
1 1 2:1 5:1 9:1 
1 1 2:1 6:1 8:1 10:1 
1 1 3:1 6:1 9:1 10:1 
1 1 2:1 5:1 7:1 
1 1 2:1 6:1 9:1 
1 1 3:1 6:1 9:1 10:1 
1 1 3:1 6:1 9:1 10:1 
1 1 3:1 6:1 9:1 10:1 
1 0 1:1 4:1 9:1 
1 1 1:1 4:1 9:1 
1 1 2:1 5:1 9:1 
1 1 1:1 4:1 9:1 
1 1 2:1 6:1 8:1 10:1 
1 1 3:1 6:1 9:1 10:1 
1 1 3:1 6:1 9:1 10:1 
1 1 3:1 6:1 9:1 10:1 
1 1 1:1 4:1 9:1 
1 1 1:1 4:1 9:1 
1 1 3:1 6:1 9:1 10:1 
1 1 3:1 6:1 9:1 10:1 
1 1 3:1 6:1 9:1 10:1 
1 1 2:1 5:1 9:1 
1 1 3:1 6:1 9:1 10:1 
1 1 3:1 6:1 9:1 10:1 
1 1 3:1 6:1 9:1 10:1 
1 1 3:1 6:1 9:1 10:1 
1 1 1:1 4:1 9:1 
1 1 3:1 6:1 9:1 10:1 
1 1 2:1 5:1 9:1 
1 1 3:1 6:1 9:1 10:1 
1 1 2:1 5:1 9:1 
1 1 3:1 6:1 9:1 10:1 
1 1 3:1 6:1 9:1 10:1 
1 1 2:1 5:1 9:1 
1 1 1:1 4:1 9:1 
1 1 3:1 6:1 9:1 10:1 
1 1 1:1 4:1 9:1 
1 1 1:1 4:1 9:1 
1 1 3:1 6:1 9:1 10:1 
1 1 3:1 6:1 9:1 10:1 
1 1 3:1 6:1 9:1 10:1 
1 1 3:1 6:1 9:1 10:1 
1 1 1:1 4:1 8:1 
1 1 1:1 6:1 7:1 10:1 
1 1 1:1 4:1 8:1 
1 1 1:1 4:1 9:1 
1 1 1:1 6:1 7:1 10:1 
1 1 1:1 6:1 7:1 10:1 
1 1 1:1 6:1 7:1 10:1 
1 1 1:1 4:1 9:1 
1 1 3:1 6:1 9:1 10:1 
1 1 3:1 6:1 9:1 10:1 
1 1 3:1 6:1 9:1 10:1 
1 1 1:1 6:1 7:1 10:1 
1 1 1:1 6:1 7:1 10:1 
1 1 3:1 6:1 9:1 10:1 
1 1 3:1 6:1 9:1 10:1 
1 1 2:1 5:1 8:1 
1 1 3:1 6:1 9:1 10:1 
0.01025363757320164 0.7838216619411564 1:1 5:1 7:1 
1 1 3:1 6:1 9:1 10:1 
1 1 1:1 4:1 9:1 
1 1 2:1 5:1 9:1 
1 1 3:1 6:1 9:1 10:1 
1 1 1:1 4:1 9:1 
1 1 1:1 4:1 9:1 
1 1 3:1 6:1 9:1 10:1 
1 1 3:1 6:1 9:1 10:1 
1 1 1:1 6:1 7:1 10:1 
1 1 1:1 4:1 9:1 
1 0 1:1 6:1 9:1 
1 1 1:1 6:1 7:1 10:1 
1 1 1:1 6:1 7:1 10:1 
1 1 2:1 5:1 9:1 
1 1 3:1 6:1 9:1 10:1 
1 1 2:1 5:1 9:1 
1 1 3:1 6:1 9:1 10:1 
0.6132744415949913 0.03126585851040113 1:1 6:1 7:1 10:1 
1 1 2:1 5:1 9:1 
1 1 1:1 4:1 9:1 
1 1 2:1 5:1 9:1 
1 1 1:1 4:1 9:1 
1 1 2:1 5:1 9:1 
1 1 2:1 5:1 9:1 
1 1 1:1 4:1 9:1 
1 1 3:1 6:1 9:1 10:1 
1 1 3:1 6:1 9:1 10:1 
1 1 1:1 4:1 9:1 
1 1 1:1 4:1 9:1 
1 1 1:1 4:1 9:1 
1 1 2:1 6:1 8:1 10:1 
1 1 3:1 6:1 9:1 10:1 
1 1 2:1 5:1 8:1 
1 1 3:1 6:1 9:1 10:1 
1 1 1:1 4:1 9:1 
1 1 1:1 4:1 9:1 
1 1 3:1 6:1 9:1 10:1 
1 1 1:1 4:1 9:1 
1 1 1:1 4:1 9:1 
1 1 1:1 4:1 9:1 
1 1 2:1 5:1 9:1 
1 1 1:1 4:1 9:1 
1 1 1:1 4:1 9:1 
1 1 1:1 4:1 9:1 
1 1 1:1 4:1 9:1 
1 1 1:1 4:1 9:1 
1 1 1:1 4:1 9:1 
1 1 1:1 4:1 9:1 
1 1 1:1 4:1 9:1 
1 1 2:1 5:1 9:1 
1 1 3:1 6:1 9:1 10:1 
1 1 2:1 5:1 9:1 
1 1 3:1 6:1 9:1 10:1 
1 1 3:1 6:1 9:1 10:1 
1 1 3:1 6:1 9:1 10:1 
1 1 1:1 4:1 9:1 
1 1 1:1 4:1 9:1 
1 1 1:1 4:1 8:1 
1 1 1:1 4:1 9:1 
0.9830344577243075 0.1611219198158997 1:1 4:1 9:1 
1 1 1:1 4:1 8:1 
1 1 1:1 4:1 8:1 
1 1 3:1 6:1 9:1 10:1 
1 1 2:1 5:1 9:1 
1 1 3:1 6:1 9:1 10:1 
1 1 3:1 6:1 9:1 10:1 
1 1 2:1 5:1 9:1 
1 1 3:1 6:1 9:1 10:1 
1 1 3:1 6:1 9:1 10:1 
1 1 3:1 6:1 9:1 10:1 
-1 0 1:1 4:1 9:1 
-1 0 1:1 4:1 9:1 
-0 1 2:1 5:1 9:1 
-0 1 2:1 5:1 9:1 
-0 1 2:1 5:1 8:1 
-1 0 1:1 4:1 9:1 
-0 1 2:1 5:1 9:1 
-1 0 1:1 4:1 9:1 
-0 1 2:1 5:1 9:1 
-1 0 1:1 4:1 9:1 
-0 1 2:1 5:1 9:1 
-1 1 1:1 4:1 7:1 
-0 1 2:1 5:1 9:1 
-0 1 2:1 5:1 9:1 
-0 1 2:1 5:1 9:1 
-0 1 2:1 5:1 9:1 
-0 1 2:1 5:1 9:1 
-1 0 1:1 4:1 9:1 
-0 1 2:1 5:1 9:1 
-0 1 2:1 6:1 8:1 10:1 
-0 1 2:1 6:1 8:1 10:1 
-0 1 2:1 5:1 8:1 
-0 1 2:1 6:1 8:1 10:1 
-0 1 2:1 6:1 8:1 10:1 
-1 0 1:1 4:1 9:1 
-0 1 2:1 5:1 9:1 
-1 0 1:1 4:1 9:1 
-0 1 2:1 5:1 9:1 
-1 0.8 1:1 4:1 9:1 
-1 0 1:1 6:1 7:1 10:1 
-1 1 1:1 4:1 9:1 
-0 1 2:1 5:1 9:1 
-0 1 2:1 5:1 9:1 
-0 1 2:1 5:1 8:1 
-0 1 2:1 6:1 8:1 10:1 
-0 1 2:1 5:1 9:1 
-0 1 2:1 5:1 9:1 
-0 1 2:1 5:1 9:1 
-0 1 2:1 5:1 9:1 
-1 0.4666666666666667 1:1 6:1 7:1 10:1 
-0 1 2:1 6:1 8:1 10:1 
-0 1 2:1 6:1 8:1 10:1 
-0 1 2:1 5:1 9:1 
-1 1 1:1 4:1 9:1 
-1 1 1:1 4:1 9:1 
-0 1 2:1 5:1 9:1 
-1 1 1:1 4:1 9:1 
-0 1 2:1 5:1 9:1 
-0 1 2:1 5:1 9:1 
-0 1 2:1 5:1 9:1 
-0 1 2:1 5:1 9:1 
-0 1 2:1 5:1 9:1 
-0 1 2:1 5:1 9:1 
-1 1 1:1 4:1 9:1 
-1 1 1:1 4:1 9:1 
-0 1 2:1 5:1 9:1 
-0 1 2:1 5:1 9:1 
-0 1 2:1 5:1 9:1 
-0 1 2:1 5:1 9:1 
-1 0 1:1 6:1 9:1 
-0 1 2:1 5:1 9:1 
-0 1 2:1 5:1 9:1 
-0 1 2:1 5:1 9:1 
-1 1 1:1 4:1 8:1 
-0.7142273129275094 1 2:1 5:1 9:1 
-1 1 2:1 5:1 9:1 
-1 1 1:1 4:1 9:1 
-1 1 2:1 5:1 9:1 
-1 1 2:1 5:1 9:1 
-1 1 1:1 4:1 9:1 
-1 1 2:1 5:1 7:1 
-1 1 1:1 4:1 9:1 
-1 1 2:1 5:1 9:1 
-1 1 2:1 5:1 9:1 
-0 1 2:1 5:1 8:1 
-1 1 2:1 5:1 9:1 
-1 1 2:1 5:1 9:1 
-1 1 2:1 5:1 9:1 
-1 1 1:1 4:1 9:1 
-0 1 2:1 5:1 8:1 
-1 1 2:1 5:1 9:1 
-1 1 2:1 5:1 9:1 
-1 1 2:1 5:1 9:1 
-0 1 2:1 5:1 8:1 
-1 1 2:1 5:1 9:1 
-1 1 1:1 4:1 9:1 
-1 1 2:1 5:1 9:1 
-0 1 2:1 5:1 8:1 
-0 1 2:1 6:1 8:1 10:1 
-1 1 2:1 5:1 9:1 
-0 1 2:1 5:1 8:1 
-0 1 2:1 6:1 8:1 10:1 
-1 1 2:1 5:1 9:1 
-1 1 2:1 5:1 9:1 
-0 1 2:1 6:1 8:1 10:1 
-1 1 1:1 6:1 7:1 10:1 
-1 1 2:1 5:1 9:1 
-0 1 2:1 6:1 8:1 10:1 
-1 1 2:1 5:1 9:1 
-1 1 1:1 4:1 9:1 
-1 1 2:1 5:1 9:1 
-0 1 2:1 6:1 8:1 10:1 
-1 1 2:1 5:1 9:1 
-1 1 1:1 4:1 9:1 
-1 1 2:1 5:1 9:1 
-1 1 2:1 5:1 9:1 
-1 1 1:1 4:1 9:1 
-1 1 1:1 4:1 9:1 
-1 1 1:1 4:1 9:1 
-1 1 1:1 6:1 7:1 10:1 
-1 1 1:1 6:1 7:1 10:1 
-0.8930648890482593 1 2:1 5:1 8:1 
-1 1 2:1 5:1 9:1 
-1 1 1:1 4:1 9:1 
-1 1 2:1 5:1 8:1 
-1 1 2:1 5:1 9:1 
-1 1 2:1 5:1 9:1 
-1 1 2:1 5:1 9:1 
-1 1 2:1 5:1 7:1 
-1 1 1:1 4:1 9:1 
-1 1 2:1 5:1 9:1 
-0 1 2:1 6:1 8:1 10:1 
-1 1 2:1 5:1 9:1 
-1 1 1:1 4:1 8:1 
-1 1 2:1 5:1 9:1 
-1 1 2:1 5:1 9:1 
-1 1 2:1 5:1 9:1 
-1 1 2:1 5:1 9:1 
-1 1 1:1 4:1 8:1 
-1 1 2:1 5:1 9:1 
-1 1 1:1 4:1 8:1 
-1 1 2:1 5:1 8:1 
-0 1 2:1 6:1 8:1 10:1 
-1 1 1:1 6:1 7:1 10:1 
-1 1 2:1 5:1 9:1 
-0 1 2:1 6:1 8:1 10:1 
-1 1 1:1 6:1 7:1 10:1 
-1 1 2:1 5:1 8:1 
-1 1 2:1 5:1 9:1 
-1 1 1:1 4:1 9:1 
-1 1 1:1 4:1 9:1 
-1 1 2:1 5:1 9:1 
-0 0.264039837122377 3:1 6:1 9:1 10:1 
-0 1 3:1 6:1 9:1 10:1 
-0 1 3:1 6:1 9:1 10:1 
-0 1 3:1 6:1 9:1 10:1 
-0 1 3:1 6:1 9:1 10:1 
-1 1 2:1 5:1 9:1 
-0 1 3:1 6:1 9:1 10:1 
-1 1 2:1 5:1 9:1 
-0 1 3:1 6:1 9:1 10:1 
-1 1 1:1 4:1 8:1 
-0 1 3:1 6:1 9:1 10:1 
-0 1 3:1 6:1 9:1 10:1 
-1 1 2:1 5:1 9:1 
-0 1 3:1 6:1 9:1 10:1 
-1 1 2:1 5:1 9:1 
-0 1 3:1 6:1 9:1 10:1 
-0 1 3:1 6:1 9:1 10:1 
-0 1 3:1 6:1 9:1 10:1 
-0 1 3:1 6:1 9:1 10:1 
-0 1 3:1 6:1 9:1 10:1 
-1 1 2:1 5:1 9:1 
-0 1 3:1 6:1 9:1 10:1 
-0 1 3:1 6:1 9:1 10:1 
-0 1 3:1 6:1 9:1 10:1 
-1 1 2:1 5:1 9:1 
-0 1 3:1 6:1 9:1 10:1 
-0 1 3:1 6:1 9:1 10:1 
-0 1 3:1 6:1 9:1 10:1 
-0 1 3:1 6:1 9:1 10:1 
-1 1 2:1 5:1 9:1 
-0 1 3:1 6:1 9:1 10:1 
-1 1 2:1 5:1 9:1 
-0 1 3:1 6:1 9:1 10:1 
-0 1 3:1 6:1 9:1 10:1 
-1 1 2:1 5:1 9:1 
-0 1 3:1 6:1 9:1 10:1 
-0 1 3:1 6:1 9:1 10:1 
-0 1 3:1 6:1 9:1 10:1 
-1 1 1:1 4:1 9:1 
-0 1 3:1 6:1 9:1 10:1 
-0 1 3:1 6:1 9:1 10:1 
-1 1 2:1 5:1 9:1 
-0 1 3:1 6:1 9:1 10:1 
-1 1 2:1 5:1 9:1 
-0 1 3:1 6:1 9:1 10:1 
-0 1 3:1 6:1 9:1 10:1 
-0 1 3:1 6:1 9:1 10:1 
-1 1 2:1 5:1 9:1 
-0.07673836259583219 1 2:1 6:1 8:1 10:1 
-0 1 3:1 6:1 9:1 10:1 
-1 1 2:1 5:1 7:1 
-0 1 3:1 6:1 9:1 10:1 
-0 1 3:1 6:1 9:1 10:1 
-1 1 1:1 4:1 9:1 
-0 1 3:1 6:1 9:1 10:1 
-0 1 3:1 6:1 9:1 10:1 
-1 1 2:1 5:1 9:1 
-0 1 3:1 6:1 9:1 10:1 
-0 1 3:1 6:1 9:1 10:1 
-0 1 3:1 6:1 9:1 10:1 
-0 1 3:1 6:1 9:1 10:1 
-0 1 3:1 6:1 9:1 10:1 
-0.148383543893748 1 3:1 6:1 9:1 10:1 
-1 1 3:1 6:1 9:1 10:1 
-1 1 3:1 6:1 9:1 10:1 
-1 1 1:1 6:1 7:1 10:1 
-1 1 3:1 6:1 9:1 10:1 
-1 1 3:1 6:1 9:1 10:1 
-1 1 3:1 6:1 9:1 10:1 
-1 1 3:1 6:1 9:1 10:1 
-1 1 3:1 6:1 9:1 10:1 
-1 1 3:1 6:1 9:1 10:1 
-1 1 3:1 6:1 9:1 10:1 
-1 1 3:1 6:1 9:1 10:1 
-1 1 3:1 6:1 9:1 10:1 
-1 1 3:1 6:1 9:1 10:1 
-1 1 2:1 5:1 9:1 
-1 1 3:1 6:1 9:1 10:1 
-1 1 2:1 6:1 8:1 10:1 
-1 1 3:1 6:1 9:1 10:1 
-1 1 3:1 6:1 9:1 10:1 
-1 1 3:1 6:1 9:1 10:1 
-1 1 3:1 6:1 9:1 10:1 
-1 1 3:1 6:1 9:1 10:1 
-1 1 3:1 6:1 9:1 10:1 
-1 1 3:1 6:1 9:1 10:1 
-1 1 3:1 6:1 9:1 10:1 
-1 1 3:1 6:1 9:1 10:1 
-1 1 3:1 6:1 9:1 10:1 
-1 1 3:1 6:1 9:1 10:1 
-1 1 2:1 5:1 9:1 
-1 1 3:1 6:1 9:1 10:1 
-1 1 3:1 6:1 9:1 10:1 
-1 1 3:1 6:1 9:1 10:1 
-1 1 3:1 6:1 9:1 10:1 
-1 1 3:1 6:1 9:1 10:1 
-1 1 3:1 6:1 9:1 10:1 
-1 1 3:1 6:1 9:1 10:1 
-1 1 3:1 6:1 9:1 10:1 
-1 1 2:1 6:1 8:1 10:1 
-1 1 3:1 6:1 9:1 10:1 
-1 1 3:1 6:1 9:1 10:1 
-1 1 3:1 6:1 9:1 10:1 
-1 1 3:1 6:1 9:1 10:1 
-1 1 3:1 6:1 9:1 10:1 
-1 1 3:1 6:1 9:1 10:1 
-1 1 3:1 6:1 9:1 10:1 
-1 1 2:1 6:1 8:1 10:1 
-1 1 3:1 6:1 9:1 10:1 
-1 1 2:1 5:1 9:1 
-1 1 3:1 6:1 9:1 10:1 
-1 1 3:1 6:1 9:1 10:1 
-1 1 3:1 6:1 9:1 10:1 
-1 1 3:1 6:1 9:1 10:1 
-1 1 1:1 4:1 9:1 
-1 1 1:1 6:1 7:1 10:1 
-1 1 3:1 6:1 9:1 10:1 
-1 1 2:1 5:1 9:1 
-1 1 3:1 6:1 9:1 10:1 
-1 1 3:1 6:1 9:1 10:1 
-1 1 1:1 4:1 9:1 
-1 1 3:1 6:1 9:1 10:1 
-1 1 3:1 6:1 9:1 10:1 
-1 1 3:1 6:1 9:1 10:1 
-1 1 3:1 6:1 9:1 10:1 
-1 1 3:1 6:1 9:1 10:1 
-1 1 3:1 6:1 9:1 10:1 
-1 1 3:1 6:1 9:1 10:1 
-1 1 3:1 6:1 9:1 10:1 
-1 1 3:1 6:1 9:1 10:1 
-1 1 2:1 5:1 9:1 
-1 1 3:1 6:1 9:1 10:1 
-1 1 3:1 6:1 9:1 10:1 
-1 1 3:1 6:1 9:1 10:1 
-1 1 3:1 6:1 9:1 10:1 
-1 1 3:1 6:1 9:1 10:1 
-1 1 3:1 6:1 9:1 10:1 
-1 1 3:1 6:1 9:1 10:1 
-1 1 2:1 6:1 8:1 10:1 
-1 1 2:1 6:1 8:1 10:1 
-1 1 2:1 5:1 9:1 
-1 1 2:1 5:1 9:1 
-1 1 2:1 5:1 9:1 
-1 1 2:1 5:1 9:1 
-1 1 3:1 6:1 9:1 10:1 
-1 1 1:1 6:1 7:1 10:1 
-1 1 3:1 6:1 9:1 10:1 
-1 1 3:1 6:1 9:1 10:1 
-1 1 3:1 6:1 9:1 10:1 
-1 1 3:1 6:1 9:1 10:1 
-1 1 2:1 6:1 8:1 10:1 
-1 1 3:1 6:1 9:1 10:1 
-1 1 1:1 4:1 9:1 
-1 1 3:1 6:1 9:1 10:1 
-1 1 3:1 6:1 9:1 10:1 
-1 1 2:1 5:1 9:1 
-1 1 3:1 6:1 9:1 10:1 
-1 1 1:1 4:1 9:1 
-1 1 3:1 6:1 9:1 10:1 
-1 1 3:1 6:1 9:1 10:1 
-1 1 3:1 6:1 9:1 10:1 
-1 1 3:1 6:1 9:1 10:1 
-1 1 3:1 6:1 9:1 10:1 
-1 1 3:1 6:1 9:1 10:1 
-1 1 3:1 6:1 9:1 10:1 
-1 1 1:1 4:1 9:1 
-1 1 3:1 6:1 9:1 10:1 
-1 1 3:1 6:1 9:1 10:1 
-1 1 3:1 6:1 9:1 10:1 
-1 1 1:1 4:1 9:1 
-1 1 3:1 6:1 9:1 10:1 
-1 1 3:1 6:1 9:1 10:1 
-1 1 3:1 6:1 9:1 10:1 
-1 1 3:1 6:1 9:1 10:1 
-1 1 3:1 6:1 9:1 10:1 
-1 1 3:1 6:1 9:1 10:1 
-1 1 2:1 5:1 9:1 
-1 1 3:1 6:1 9:1 10:1 
-1 1 3:1 6:1 9:1 10:1 
-1 1 3:1 6:1 9:1 10:1 
-1 1 3:1 6:1 9:1 10:1 
-1 1 3:1 6:1 9:1 10:1 
-1 1 2:1 5:1 9:1 
-1 1 1:1 4:1 9:1 
-1 1 3:1 6:1 9:1 10:1 
-1 1 3:1 6:1 9:1 10:1 
-1 1 3:1 6:1 9:1 10:1 
-1 1 3:1 6:1 9:1 10:1 
-1 1 2:1 6:1 8:1 10:1 
-1 1 3:1 6:1 9:1 10:1 
-1 1 3:1 6:1 9:1 10:1 
-1 1 3:1 6:1 9:1 10:1 
-1 1 3:1 6:1 9:1 10:1 
-1 1 1:1 4:1 9:1 
-1 1 3:1 6:1 9:1 10:1 
-1 1 3:1 6:1 9:1 10:1 
-1 1 3:1 6:1 9:1 10:1 
-1 1 3:1 6:1 9:1 10:1 
-1 1 3:1 6:1 9:1 10:1 
-1 1 3:1 6:1 9:1 10:1 
-1 1 2:1 5:1 9:1 
-1 1 3:1 6:1 9:1 10:1 
-1 1 3:1 6:1 9:1 10:1 
-1 1 3:1 6:1 9:1 10:1 
-1 1 3:1 6:1 9:1 10:1 
-1 1 3:1 6:1 9:1 10:1 
-1 1 3:1 6:1 9:1 10:1 
-1 1 3:1 6:1 9:1 10:1 
-1 1 3:1 6:1 9:1 10:1 
-1 1 2:1 5:1 9:1 
-1 1 3:1 6:1 9:1 10:1 
-1 1 1:1 4:1 9:1 
-1 1 2:1 5:1 9:1 
-1 1 2:1 6:1 8:1 10:1 
-1 1 3:1 6:1 9:1 10:1 
-1 1 3:1 6:1 9:1 10:1 
-1 1 3:1 6:1 9:1 10:1 
-1 1 3:1 6:1 9:1 10:1 
-1 1 3:1 6:1 9:1 10:1 
-1 1 1:1 6:1 7:1 10:1 
-1 1 3:1 6:1 9:1 10:1 
-1 1 3:1 6:1 9:1 10:1 
-1 1 3:1 6:1 9:1 10:1 
-1 1 3:1 6:1 9:1 10:1 
-1 1 3:1 6:1 9:1 10:1 
-1 1 3:1 6:1 9:1 10:1 
-1 1 3:1 6:1 9:1 10:1 
-1 1 3:1 6:1 9:1 10:1 
-1 1 3:1 6:1 9:1 10:1 
-1 1 3:1 6:1 9:1 10:1 
-1 1 2:1 5:1 9:1 
-1 1 2:1 5:1 9:1 
-1 1 2:1 5:1 9:1 
-1 1 3:1 6:1 9:1 10:1 
-1 1 1:1 4:1 9:1 
-1 1 3:1 6:1 9:1 10:1 
-1 1 3:1 6:1 9:1 10:1 
-1 1 3:1 6:1 9:1 10:1 
-1 1 3:1 6:1 9:1 10:1 
-1 1 3:1 6:1 9:1 10:1 
-1 1 3:1 6:1 9:1 10:1 
-1 1 2:1 6:1 8:1 10:1 
-1 1 3:1 6:1 9:1 10:1 
-1 1 3:1 6:1 9:1 10:1 
-1 1 2:1 5:1 9:1 
-1 1 1:1 4:1 9:1 
-1 1 3:1 6:1 9:1 10:1 
-1 1 3:1 6:1 9:1 10:1 
-1 1 3:1 6:1 9:1 10:1 
-1 1 2:1 5:1 9:1 
-1 1 3:1 6:1 9:1 10:1 
-1 1 2:1 5:1 9:1 
-1 1 3:1 6:1 9:1 10:1 
-1 1 2:1 5:1 9:1 
-1 1 2:1 6:1 8:1 10:1 
-1 1 3:1 6:1 9:1 10:1 
-1 1 3:1 6:1 9:1 10:1 
-1 1 3:1 6:1 9:1 10:1 
-1 1 3:1 6:1 9:1 10:1 
-1 1 3:1 6:1 9:1 10:1 
-1 1 3:1 6:1 9:1 10:1 
-1 1 3:1 6:1 9:1 10:1 
-1 1 3:1 6:1 9:1 10:1 
-1 1 3:1 6:1 9:1 10:1 
-1 1 3:1 6:1 9:1 10:1 
-1 1 1:1 4:1 9:1 
-1 1 2:1 5:1 9:1 
-1 1 3:1 6:1 9:1 10:1 
-1 1 3:1 6:1 9:1 10:1 
-1 1 1:1 4:1 9:1 
-1 1 3:1 6:1 9:1 10:1 
-1 1 3:1 6:1 9:1 10:1 
-1 1 2:1 6:1 8:1 10:1 
-1 1 2:1 5:1 9:1 
-1 1 3:1 6:1 9:1 10:1 
-1 1 2:1 5:1 9:1 
-1 1 2:1 5:1 9:1 
-1 1 2:1 5:1 9:1 
-1 1 3:1 6:1 9:1 10:1 
-1 1 2:1 5:1 8:1 
-1 1 2:1 5:1 9:1 
-1 1 2:1 5:1 8:1 
-1 1 2:1 5:1 9:1 
-1 1 2:1 5:1 9:1 
-1 1 3:1 6:1 9:1 10:1 
-1 1 2:1 5:1 9:1 
-1 1 2:1 5:1 9:1 
-1 1 2:1 6:1 8:1 10:1 
-1 1 3:1 6:1 9:1 10:1 
-1 1 3:1 6:1 9:1 10:1 
-1 1 3:1 6:1 9:1 10:1 
-1 1 3:1 6:1 9:1 10:1 
-1 1 3:1 6:1 9:1 10:1 
-1 1 2:1 5:1 9:1 
-1 1 3:1 6:1 9:1 10:1 
-1 1 2:1 5:1 9:1 
-1 1 3:1 6:1 9:1 10:1 
-1 1 3:1 6:1 9:1 10:1 
-1 1 3:1 6:1 9:1 10:1 
-1 1 3:1 6:1 9:1 10:1 
-1 1 2:1 6:1 8:1 10:1 
-1 1 3:1 6:1 9:1 10:1 
-1 1 3:1 6:1 9:1 10:1 
-1 1 2:1 6:1 8:1 10:1 
-1 1 3:1 6:1 9:1 10:1 
-1 1 3:1 6:1 9:1 10:1 
-1 0.4758283024954866 1:1 4:1 9:1 
-1 0.7286496449808456 1:1 6:1 7:1 10:1 
-1 1 1:1 6:1 7:1 10:1 
-1 0 1:1 4:1 9:1 
-1 1 3:1 6:1 9:1 10:1 
-1 1 3:1 6:1 9:1 10:1 
-1 1 3:1 6:1 9:1 10:1 
-1 1 3:1 6:1 9:1 10:1 
-1 1 2:1 5:1 9:1 
-1 1 3:1 6:1 9:1 10:1 
-1 1 3:1 6:1 9:1 10:1 
-1 1 3:1 6:1 9:1 10:1 
-0.8518941784208748 1 3:1 6:1 9:1 10:1 
-0.9803035741189909 1 2:1 6:1 8:1 10:1 
-1 -1 1:1 4:1 9:1 
-1 -0 2:1 4:1 8:1 
-0 -1 3:1 6:1 9:1 10:1 
-0 -1 3:1 6:1 9:1 10:1 
-0 -1 3:1 6:1 9:1 10:1 
-0 -1 3:1 6:1 9:1 10:1 
-1 -1 1:1 4:1 9:1 
-0 -1 3:1 6:1 9:1 10:1 
-0 -1 3:1 6:1 9:1 10:1 
-0 -1 3:1 6:1 9:1 10:1 
-0 -1 3:1 6:1 9:1 10:1 
-0 -1 3:1 6:1 9:1 10:1 
-0 -1 3:1 6:1 9:1 10:1 
-0 -1 3:1 6:1 9:1 10:1 
-0 -1 3:1 6:1 9:1 10:1 
-0 -1 3:1 6:1 9:1 10:1 
-0 -1 3:1 6:1 9:1 10:1 
-0 -1 3:1 6:1 9:1 10:1 
-0 -1 3:1 6:1 9:1 10:1 
-0 -1 3:1 6:1 9:1 10:1 
-1 -1 1:1 4:1 8:1 
-0 -1 3:1 6:1 9:1 10:1 
-0 -1 3:1 6:1 9:1 10:1 
-0 -1 3:1 6:1 9:1 10:1 
-1 -1 1:1 4:1 9:1 
-0 -1 3:1 6:1 9:1 10:1 
-0 -1 3:1 6:1 9:1 10:1 
-1 -1 1:1 4:1 9:1 
-1 -1 1:1 4:1 9:1 
-1 -1 1:1 4:1 9:1 
-0 -1 3:1 6:1 9:1 10:1 
-0 -1 3:1 6:1 9:1 10:1 
-0 -1 3:1 6:1 9:1 10:1 
-0 -1 3:1 6:1 9:1 10:1 
-0 -1 3:1 6:1 9:1 10:1 
-0 -1 3:1 6:1 9:1 10:1 
-0 -1 3:1 6:1 9:1 10:1 
-0 -1 3:1 6:1 9:1 10:1 
-0 -1 3:1 6:1 9:1 10:1 
-0 -1 3:1 6:1 9:1 10:1 
-0 -1 3:1 6:1 9:1 10:1 
-0 -1 3:1 6:1 9:1 10:1 
-0 -1 3:1 6:1 9:1 10:1 
-1 -1 1:1 4:1 9:1 
-0 -1 3:1 6:1 9:1 10:1 
-0 -1 3:1 6:1 9:1 10:1 
-1 -1 1:1 4:1 9:1 
-1 -1 1:1 4:1 9:1 
-0 -1 3:1 6:1 9:1 10:1 
-0 -1 3:1 6:1 9:1 10:1 
-0 -1 3:1 6:1 9:1 10:1 
-1 -1 1:1 4:1 9:1 
-1 -1 3:1 6:1 9:1 10:1 
-1 -1 1:1 4:1 9:1 
-1 -1 1:1 4:1 9:1 
-1 -0 2:1 5:1 7:1 
-1 -1 3:1 4:1 8:1 
-1 -1 3:1 6:1 9:1 10:1 
-1 -1 3:1 6:1 9:1 10:1 
-1 -1 3:1 6:1 9:1 10:1 
-1 -1 3:1 6:1 9:1 10:1 
-1 -1 3:1 6:1 9:1 10:1 
-1 -1 3:1 6:1 9:1 10:1 
-1 -1 3:1 6:1 9:1 10:1 
-1 -1 3:1 6:1 9:1 10:1 
-1 -1 3:1 6:1 9:1 10:1 
-1 -1 3:1 6:1 9:1 10:1 
-1 -1 3:1 6:1 9:1 10:1 
-1 -1 1:1 4:1 9:1 
-1 -1 3:1 6:1 9:1 10:1 
-1 -1 1:1 4:1 9:1 
-1 -1 3:1 6:1 9:1 10:1 
-1 -1 3:1 6:1 9:1 10:1 
-1 -0 2:1 5:1 7:1 
-1 -1 1:1 4:1 9:1 
-1 -1 1:1 4:1 9:1 
-1 -1 3:1 6:1 9:1 10:1 
-1 -1 3:1 6:1 9:1 10:1 
-1 -1 1:1 4:1 9:1 
-1 -1 1:1 4:1 9:1 
-1 -1 1:1 4:1 9:1 
-1 -1 3:1 6:1 9:1 10:1 
-1 -1 3:1 6:1 9:1 10:1 
-1 -1 1:1 4:1 9:1 
-1 -1 3:1 6:1 9:1 10:1 
-1 -1 1:1 4:1 9:1 
-1 -0 2:1 5:1 7:1 
-1 -1 3:1 6:1 9:1 10:1 
-1 -1 3:1 6:1 9:1 10:1 
-1 -1 3:1 6:1 9:1 10:1 
-1 -1 3:1 6:1 9:1 10:1 
-1 -1 1:1 4:1 9:1 
-1 -1 3:1 6:1 9:1 10:1 
-1 -1 3:1 6:1 9:1 10:1 
-1 -1 3:1 6:1 9:1 10:1 
-1 -1 1:1 6:1 7:1 10:1 
-1 -1 3:1 6:1 9:1 10:1 
-1 -1 1:1 4:1 9:1 
-1 -1 3:1 6:1 9:1 10:1 
-1 -1 3:1 6:1 9:1 10:1 
-1 -1 3:1 6:1 9:1 10:1 
-1 -1 3:1 6:1 9:1 10:1 
-1 -1 3:1 6:1 9:1 10:1 
-1 -1 3:1 6:1 9:1 10:1 
-1 -1 1:1 6:1 7:1 10:1 
-1 -1 3:1 6:1 9:1 10:1 
-1 -1 3:1 6:1 9:1 10:1 
-1 -1 3:1 6:1 9:1 10:1 
-1 -1 3:1 6:1 9:1 10:1 
-1 -1 3:1 6:1 9:1 10:1 
-1 -1 3:1 6:1 9:1 10:1 
-1 -1 3:1 6:1 9:1 10:1 
-1 -1 3:1 6:1 9:1 10:1 
-1 -1 3:1 6:1 9:1 10:1 
-0 -0.1372640466793139 2:1 5:1 9:1 
-1 -1 3:1 6:1 9:1 10:1 
-1 -1 3:1 6:1 9:1 10:1 
-1 -1 1:1 6:1 7:1 10:1 
-1 -1 3:1 6:1 9:1 10:1 
-1 -1 3:1 6:1 9:1 10:1 
-0 -1 2:1 5:1 9:1 
-1 -1 3:1 6:1 9:1 10:1 
-1 -1 3:1 6:1 9:1 10:1 
-1 -1 3:1 6:1 9:1 10:1 
-0 -1 2:1 5:1 9:1 
-0 -1 2:1 5:1 9:1 
-1 -1 3:1 6:1 9:1 10:1 
-1 -1 3:1 6:1 9:1 10:1 
-0 -1 2:1 5:1 9:1 
-1 -1 3:1 6:1 9:1 10:1 
-0 -1 2:1 5:1 9:1 
-1 -1 3:1 6:1 9:1 10:1 
-0 -1 2:1 5:1 9:1 
-1 -1 3:1 6:1 9:1 10:1 
-1 -1 3:1 6:1 9:1 10:1 
-0 -1 2:1 5:1 9:1 
-1 -1 3:1 6:1 9:1 10:1 
-0 -1 2:1 5:1 9:1 
-1 -1 3:1 6:1 9:1 10:1 
-0 -1 2:1 5:1 9:1 
-1 -1 3:1 6:1 9:1 10:1 
-0 -1 3:1 5:1 7:1 
-1 -1 3:1 6:1 9:1 10:1 
-0.7307592055686436 -1 3:1 5:1 7:1 
-1 -0 2:1 4:1 8:1 
-1 -1 3:1 6:1 9:1 10:1 
-1 -1 3:1 6:1 9:1 10:1 
-1 -1 1:1 6:1 7:1 10:1 
-1 -1 3:1 6:1 9:1 10:1 
-1 -1 3:1 6:1 9:1 10:1 
-1 -1 1:1 4:1 9:1 
-1 -1 3:1 5:1 7:1 
-1 -1 3:1 6:1 9:1 10:1 
-0 -1 2:1 5:1 9:1 
-1 -1 3:1 6:1 9:1 10:1 
-1 -1 1:1 6:1 7:1 10:1 
-0 -1 2:1 5:1 9:1 
-1 -1 3:1 6:1 9:1 10:1 
-1 -1 3:1 6:1 9:1 10:1 
-0 -1 2:1 5:1 9:1 
-1 -1 3:1 6:1 9:1 10:1 
-1 -1 3:1 6:1 9:1 10:1 
-0 -1 2:1 5:1 9:1 
-0 -1 2:1 5:1 9:1 
-0 -1 2:1 5:1 9:1 
-1 -1 3:1 6:1 9:1 10:1 
-0 -1 2:1 5:1 9:1 
-1 -1 3:1 6:1 9:1 10:1 
-1 -1 3:1 6:1 9:1 10:1 
-0 -1 2:1 5:1 9:1 
-1 -1 3:1 6:1 9:1 10:1 
-0 -1 2:1 5:1 9:1 
-0 -1 2:1 5:1 9:1 
-1 -1 3:1 6:1 9:1 10:1 
-0 -1 2:1 5:1 9:1 
-0 -1 2:1 5:1 9:1 
-0 -1 2:1 5:1 9:1 
-0 -1 2:1 5:1 9:1 
-0 -1 2:1 5:1 9:1 
-1 -1 3:1 6:1 9:1 10:1 
-1 -1 3:1 6:1 9:1 10:1 
-1 -1 3:1 6:1 9:1 10:1 
-1 -1 3:1 6:1 9:1 10:1 
-0 -0.2177981068766272 2:1 6:1 8:1 10:1 
-0 -1 2:1 5:1 9:1 
-0 -1 2:1 6:1 8:1 10:1 
-1 -1 1:1 4:1 9:1 
-0 -1 2:1 5:1 9:1 
-0 -1 2:1 6:1 8:1 10:1 
-0 -1 2:1 5:1 9:1 
-0 -1 2:1 6:1 8:1 10:1 
-0 -1 2:1 5:1 9:1 
-0 -1 2:1 5:1 9:1 
-0 -1 2:1 5:1 9:1 
-1 -1 1:1 4:1 9:1 
-1 -1 3:1 6:1 9:1 10:1 
-0 -1 2:1 5:1 9:1 
-1 -1 1:1 4:1 9:1 
-0 -1 2:1 5:1 9:1 
-0 -1 2:1 5:1 9:1 
-0 -1 2:1 5:1 9:1 
-0 -1 2:1 5:1 9:1 
-1 -1 3:1 6:1 9:1 10:1 
-0 -1 2:1 6:1 8:1 10:1 
-1 -1 3:1 6:1 9:1 10:1 
-0 -1 2:1 5:1 9:1 
-0 -1 2:1 6:1 8:1 10:1 
-0.2255150835987825 -1 2:1 5:1 9:1 
-1 -1 3:1 6:1 9:1 10:1 
-1 -1 3:1 6:1 9:1 10:1 
-1 -1 3:1 6:1 9:1 10:1 
-1 -1 3:1 6:1 9:1 10:1 
-1 -1 3:1 6:1 9:1 10:1 
-1 -1 3:1 6:1 9:1 10:1 
-1 -1 2:1 5:1 9:1 
-1 -1 2:1 5:1 9:1 
-1 -1 2:1 5:1 9:1 
-1 -1 2:1 5:1 9:1 
-1 -1 3:1 6:1 9:1 10:1 
-1 -1 2:1 5:1 9:1 
-1 -1 2:1 5:1 9:1 
-1 -1 2:1 5:1 9:1 
-1 -1 3:1 6:1 9:1 10:1 
-1 -1 2:1 5:1 9:1 
-1 -1 3:1 6:1 9:1 10:1 
-1 -1 2:1 5:1 9:1 
-1 -1 3:1 6:1 9:1 10:1 
-1 -1 2:1 5:1 9:1 
-1 -1 1:1 4:1 9:1 
-1 -1 1:1 4:1 7:1 
-1 -1 2:1 5:1 9:1 
-1 -1 2:1 5:1 9:1 
-1 -1 2:1 5:1 9:1 
-1 -1 3:1 6:1 9:1 10:1 
-1 -1 3:1 6:1 9:1 10:1 
-1 -1 3:1 6:1 9:1 10:1 
-1 -1 2:1 5:1 9:1 
-1 -1 3:1 6:1 9:1 10:1 
-1 -1 2:1 5:1 9:1 
-1 -1 3:1 6:1 9:1 10:1 
-1 -1 3:1 6:1 9:1 10:1 
-1 -1 2:1 5:1 9:1 
-1 -1 2:1 5:1 9:1 
-0 -1 2:1 6:1 8:1 10:1 
-1 -1 2:1 5:1 9:1 
-1 -1 2:1 5:1 9:1 
-1 -1 2:1 5:1 9:1 
-1 -1 2:1 5:1 9:1 
-1 -1 2:1 5:1 9:1 
-1 -1 2:1 5:1 9:1 
-1 -1 2:1 5:1 9:1 
-1 -1 2:1 5:1 9:1 
-1 -1 2:1 5:1 9:1 
-1 -1 2:1 5:1 9:1 
-1 -1 3:1 6:1 9:1 10:1 
-1 -1 2:1 5:1 9:1 
-1 -1 2:1 5:1 9:1 
-1 -1 3:1 6:1 9:1 10:1 
-0 -1 2:1 6:1 8:1 10:1 
-1 -1 1:1 6:1 7:1 10:1 
-1 -1 2:1 5:1 9:1 
-1 -1 2:1 5:1 9:1 
-1 -1 3:1 6:1 9:1 10:1 
-0 -1 2:1 6:1 8:1 10:1 
-1 -1 2:1 5:1 9:1 
-1 -1 2:1 5:1 9:1 
-1 -1 3:1 6:1 9:1 10:1 
-1 -1 2:1 5:1 9:1 
-1 -1 3:1 6:1 9:1 10:1 
-1 -1 2:1 5:1 9:1 
-1 -1 3:1 6:1 9:1 10:1 
-1 -1 2:1 5:1 9:1 
-1 -1 3:1 6:1 9:1 10:1 
-1 -1 3:1 6:1 9:1 10:1 
-1 -1 3:1 6:1 9:1 10:1 
-1 -1 3:1 6:1 9:1 10:1 
-1 -1 2:1 5:1 9:1 
-1 -1 3:1 6:1 9:1 10:1 
-1 -1 2:1 5:1 9:1 
-1 -1 2:1 5:1 9:1 
-0 -1 2:1 6:1 8:1 10:1 
-1 -1 3:1 6:1 9:1 10:1 
-0 -1 2:1 6:1 8:1 10:1 
-1 -1 2:1 5:1 9:1 
-1 -1 3:1 6:1 9:1 10:1 
-1 -1 1:1 4:1 9:1 
-1 -1 3:1 6:1 9:1 10:1 
-1 -1 3:1 6:1 9:1 10:1 
-1 -1 3:1 6:1 9:1 10:1 
-0 -1 2:1 6:1 8:1 10:1 
-1 -1 3:1 6:1 9:1 10:1 
-1 -1 3:1 6:1 9:1 10:1 
-1 -1 3:1 6:1 9:1 10:1 
-1 -1 2:1 5:1 9:1 
-1 -1 3:1 6:1 9:1 10:1 
-1 -1 3:1 6:1 9:1 10:1 
-1 -1 3:1 6:1 9:1 10:1 
-0 -1 2:1 6:1 8:1 10:1 
-1 -1 2:1 5:1 9:1 
-1 -1 3:1 6:1 9:1 10:1 
-1 -1 2:1 5:1 9:1 
-1 -1 2:1 5:1 9:1 
-1 -1 2:1 5:1 9:1 
-1 -1 2:1 5:1 9:1 
-1 -1 2:1 5:1 9:1 
-1 -1 1:1 6:1 7:1 10:1 
-1 -1 2:1 5:1 9:1 
-1 -1 2:1 5:1 9:1 
-1 -1 3:1 4:1 8:1 
-1 -1 1:1 4:1 9:1 
-1 -1 3:1 6:1 9:1 10:1 
-1 -1 2:1 5:1 9:1 
-0 -1 2:1 6:1 8:1 10:1 
-1 -1 2:1 5:1 9:1 
-1 -1 2:1 5:1 9:1 
-1 -1 2:1 5:1 9:1 
-1 -1 3:1 6:1 9:1 10:1 
-1 -1 1:1 4:1 9:1 
-0 -1 2:1 6:1 8:1 10:1 
-1 -1 2:1 5:1 9:1 
-1 -1 1:1 6:1 7:1 10:1 
-1 -1 3:1 6:1 9:1 10:1 
-1 -1 2:1 5:1 9:1 
-1 -1 3:1 6:1 9:1 10:1 
-1 -1 3:1 6:1 9:1 10:1 
-1 -1 3:1 6:1 9:1 10:1 
-1 -1 3:1 6:1 9:1 10:1 
-1 -1 3:1 6:1 9:1 10:1 
-1 -1 1:1 4:1 9:1 
-1 -1 3:1 6:1 9:1 10:1 
-1 -1 2:1 5:1 9:1 
-1 -1 3:1 6:1 9:1 10:1 
-1 -1 3:1 6:1 9:1 10:1 
-1 -1 3:1 6:1 9:1 10:1 
-1 -1 3:1 6:1 9:1 10:1 
-1 -1 3:1 6:1 9:1 10:1 
-1 -1 3:1 6:1 9:1 10:1 
-0 -1 2:1 6:1 8:1 10:1 
-1 -1 2:1 5:1 9:1 
-1 -1 2:1 5:1 9:1 
-1 -1 3:1 6:1 9:1 10:1 
-1 -1 2:1 5:1 9:1 
-1 -1 2:1 5:1 9:1 
-1 -1 3:1 6:1 9:1 10:1 
-1 -1 3:1 6:1 9:1 10:1 
-0 -1 2:1 5:1 8:1 
-1 -1 2:1 5:1 9:1 
-0 -1 2:1 5:1 8:1 
-1 -1 3:1 6:1 9:1 10:1 
-1 -1 3:1 6:1 9:1 10:1 
-1 -1 3:1 6:1 9:1 10:1 
-1 -1 2:1 5:1 9:1 
-1 -1 3:1 6:1 9:1 10:1 
-1 -1 2:1 5:1 9:1 
-0 -1 2:1 6:1 8:1 10:1 
-0 -1 2:1 5:1 8:1 
-0 -1 2:1 6:1 8:1 10:1 
-1 -1 3:1 6:1 9:1 10:1 
-1 -1 3:1 6:1 9:1 10:1 
-0 -1 2:1 6:1 8:1 10:1 
-0 -1 2:1 6:1 8:1 10:1 
-1 -1 3:1 6:1 9:1 10:1 
-1 -1 2:1 5:1 9:1 
-1 -1 1:1 6:1 7:1 10:1 
-1 -1 3:1 6:1 9:1 10:1 
-1 -1 3:1 6:1 9:1 10:1 
-1 -1 3:1 6:1 9:1 10:1 
-1 -1 1:1 4:1 9:1 
-1 -1 1:1 6:1 7:1 10:1 
-1 -1 2:1 5:1 9:1 
-1 -1 3:1 6:1 9:1 10:1 
-1 -1 3:1 6:1 9:1 10:1 
-1 -1 3:1 6:1 9:1 10:1 
-0 -1 2:1 5:1 8:1 
-1 -1 3:1 6:1 9:1 10:1 
-0.2120050568740733 -1 2:1 6:1 8:1 10:1 
-1 -1 3:1 6:1 9:1 10:1 
-1 -1 3:1 6:1 9:1 10:1 
-1 -1 3:1 6:1 9:1 10:1 
-1 -1 3:1 6:1 9:1 10:1 
-1 -1 2:1 5:1 9:1 
-1 -1 2:1 6:1 8:1 10:1 
-1 -1 2:1 5:1 9:1 
-1 -1 3:1 6:1 9:1 10:1 
-1 -1 3:1 6:1 9:1 10:1 
-1 -1 1:1 4:1 9:1 
-1 -1 2:1 6:1 8:1 10:1 
-1 -1 3:1 6:1 9:1 10:1 
-1 -1 2:1 6:1 8:1 10:1 
-1 -1 2:1 6:1 8:1 10:1 
-1 -1 2:1 6:1 8:1 10:1 
-1 -1 2:1 6:1 8:1 10:1 
-1 -1 2:1 6:1 8:1 10:1 
-1 -1 3:1 6:1 9:1 10:1 
-1 -1 3:1 6:1 9:1 10:1 
-1 -1 3:1 6:1 9:1 10:1 
-1 -1 2:1 6:1 8:1 10:1 
-0 -1 2:1 5:1 8:1 
-1 -1 2:1 6:1 8:1 10:1 
-1 -1 2:1 6:1 8:1 10:1 
-0 -1 2:1 5:1 8:1 
-1 -1 3:1 6:1 9:1 10:1 
-0 -1 2:1 5:1 8:1 
-0.8916666666666672 -1 2:1 5:1 8:1 
-1 -1 2:1 5:1 8:1 
-1 -0 2:1 5:1 7:1 
-1 -1 2:1 5:1 9:1 
-1 -1 3:1 6:1 9:1 10:1 
-1 -1 3:1 6:1 9:1 10:1 
-1 -1 2:1 6:1 8:1 10:1 
-1 -1 2:1 5:1 9:1 
-1 -1 2:1 5:1 9:1 
-1 -1 1:1 4:1 9:1 
-1 -1 3:1 6:1 9:1 10:1 
-1 -1 1:1 4:1 9:1 
-1 -1 1:1 4:1 9:1 
-1 -1 2:1 5:1 8:1 
-1 -1 3:1 6:1 9:1 10:1 
-1 -1 3:1 6:1 9:1 10:1 
-1 -1 2:1 5:1 9:1 
-1 -1 3:1 6:1 9:1 10:1 
-1 -1 2:1 5:1 9:1 
-1 -1 2:1 5:1 9:1 
-1 -1 3:1 6:1 9:1 10:1 
-1 -1 3:1 6:1 9:1 10:1 
-1 -1 1:1 4:1 9:1 
-1 -1 3:1 6:1 9:1 10:1 
-1 -1 2:1 5:1 9:1 
-1 -1 3:1 6:1 9:1 10:1 
-1 -1 2:1 5:1 9:1 
-1 -1 2:1 5:1 9:1 
-1 -1 3:1 6:1 9:1 10:1 
-1 -1 2:1 5:1 9:1 
-1 -1 2:1 5:1 9:1 
-1 -1 2:1 5:1 9:1 
-1 -1 2:1 5:1 9:1 
-1 -1 3:1 6:1 9:1 10:1 
-1 -1 3:1 6:1 9:1 10:1 
-1 -1 3:1 6:1 9:1 10:1 
-1 -1 1:1 6:1 7:1 10:1 
-1 -1 3:1 6:1 9:1 10:1 
-1 -1 2:1 5:1 9:1 
-1 -1 2:1 5:1 9:1 
-1 -1 1:1 4:1 7:1 
-1 -1 2:1 5:1 9:1 
-1 -1 2:1 5:1 9:1 
-1 -1 2:1 6:1 8:1 10:1 
-1 -1 3:1 6:1 9:1 10:1 
-1 -1 2:1 6:1 8:1 10:1 
-0.9360390413054129 -1 3:1 6:1 9:1 10:1 
-1 -0.3801222977094345 2:1 5:1 8:1 
-1 -1 2:1 5:1 9:1 
-1 -0 2:1 5:1 8:1 
-0 -1 3:1 6:1 9:1 10:1 
-1 -1 2:1 6:1 8:1 10:1 
-0 -1 3:1 6:1 9:1 10:1 
-1 -1 2:1 6:1 8:1 10:1 
-1 -1 2:1 6:1 8:1 10:1 
-0.3365385129247917 -0 2:1 5:1 8:1 
