solver_type L2R_LR_DUAL
nr_class 2
label 1 2
nr_feature 4048
bias -1
w
0.3081330245253423 
-0.2940772384388543 
-0.1533049170457917 
-0.0855342609283187 
-0.08929247440806179 
-0.2942165150516284 
-0.2378501898459288 
-0.2464906294923624 
-0.01635479926469051 
-0.405682134297103 
-0.0238830595670987 
-0.003468724174203764 
-0.002536986634847325 
-0.003556536129298104 
0.02420335666665752 
0.002190047614085825 
-0.05275739602934908 
-0.003711542461503244 
-0.005571080054228635 
-0.001556611590891617 
0.09398581293992937 
-0.00191752692310633 
-0.0008443370777952862 
-0.01263118371848168 
-0.001622120724162661 
-0.002156482791235211 
-0.001315212684138461 
-0.0005871105380155505 
-0.03126309604871548 
-0.2587067458236204 
-0.008978443538874024 
0.2969158497377781 
-0.001769502910699554 
-0.001119250572684478 
-0.002577718127380759 
0.3795733778098704 
0.001319975128338339 
-0.08988858270177459 
-0.0008190005563817291 
-0.0003425645555119908 
-3.619740704345066e-005 
-0.001258446599790575 
-0.0006321688324794079 
-0.02136682362404963 
0.002857712615092745 
0.06808870562687316 
0.002806886333425101 
-0.002589473131205895 
-0.01739898097886613 
-0.006387886082250293 
-0.0007245853440721287 
0.1546901327559838 
-0.0002703062800318058 
-0.06723018764538465 
0.1428684478654586 
-0.01526923925499359 
-0.001612410933997175 
-0.1755533494833253 
-0.08919978323885566 
-0.1115925029276484 
-0.06274033989766341 
-0.01979354330690699 
-4.058995849452498e-005 
-0.00315819742116256 
-0.007742485833066053 
0.3457220764375704 
-0.1824048165718678 
-0.08569615229716235 
-0.01076466779771995 
0.005088779514141403 
-0.001133124219672701 
-0.001853808014013035 
-0.001747719583115571 
-0.0008838308720425219 
-0.008005525825599979 
0.07423962109035848 
0.01422693590814713 
-0.0003353354650140652 
-0.6473272560112793 
-0.00142039597784575 
0.03099480693048646 
-0.001828552507977024 
-0.1275131713526255 
-0.003183601197894477 
-0.03121383025652887 
-0.001420355149078472 
-0.00321879790690468 
-0.0163982827592831 
-0.02073026753796108 
-0.00164111478365249 
-0.003579593770117613 
-0.0005110450919505879 
-0.03400940912946324 
-0.006573306149892896 
-0.002805574268496748 
0.0115721783172533 
0.02270637993406138 
-0.02262693776841261 
-0.004102607514863091 
-0.008458654157362064 
-0.1558136159369703 
-0.2712719658072482 
-0.001815904661342416 
0.05704663119655066 
-0.1020396639089295 
-0.0005871105380155505 
-0.003264480824966296 
-0.0006723945907951518 
-0.0008190856345990699 
-0.00269745003113133 
0.01329993495223316 
-0.01076466779771995 
-0.002700095565735927 
-0.001082801072060363 
-0.0002731016230956818 
-0.2702708842296487 
0.2075307972556371 
-0.01531142333067959 
0.05278706758372978 
-0.001486796715531541 
-0.0006858615902461162 
-0.000596329870997891 
0.1168314141554761 
-0.05061529468631089 
-0.00214939436694972 
0.1426938012184066 
-0.2829307221479854 
-0.2454571573231537 
-0.05733617245030997 
-0.3200861814385293 
0.005085154664363743 
-0.4645387174483136 
-0.005039420396080446 
-0.01633574785194858 
-0.04662725720998204 
-0.0795018423040376 
-0.2411442077385383 
-0.04792058737810988 
-0.01119987688831511 
-0.01076466779771995 
-0.1819921636815598 
-0.236084647036748 
0.2757895495156406 
-0.2976501643714945 
0.5333030144381362 
-0.2556926610567195 
0.04599791170397032 
-0.1654425231749784 
-0.01437912778860068 
0.05856147676225637 
0.009297244812071797 
0.1475172488705646 
-0.004562092589153056 
0.0502833786897032 
0.5175068562505483 
-0.2398819447741901 
0.05273875592690448 
-0.003931202447697828 
-0.008956395963805599 
0.3362771594597148 
-0.04510705500552927 
-0.1682953146013424 
0.109599701408496 
-0.002249079422214347 
-0.009310329333857673 
-0.3307911630826231 
-0.004407411225978661 
-0.03661549624650153 
-0.03686776079394213 
0.1406811311435546 
-0.04662016884225809 
-0.00191752692310633 
-0.01076466779771995 
-0.01723586756367907 
-0.04662016884225809 
0.3693729276163471 
0.1873885962385264 
0.03671984708442182 
-0.2453500794414332 
-0.007549075687065985 
-0.5732925747541087 
-0.003487044495628462 
-0.01437912778860068 
-0.0769934618663959 
-0.2894553772660604 
-0.1049265434833452 
-0.06275715138386172 
-0.02572769546700679 
-0.002241058749554156 
-0.00379395223083011 
-0.02381363061137742 
-0.02048861048697237 
-0.01103425139350072 
-0.01105471356861805 
-0.04133969826047687 
-0.02597622579365811 
-0.01018706433991111 
-0.02379984440178126 
-0.08216317137459926 
-0.1069635232344689 
-0.5818957440395719 
-0.9586935864479516 
-0.1414306557560495 
-0.2669217312007191 
-0.2347956048917682 
-0.05668737442561526 
0.01773170007475828 
-0.1039890507026208 
-0.01539430726602941 
0.3335136466199655 
-0.3689236849651732 
0.03124968932794047 
0.2349636943293335 
0.2539038593770409 
-0.05774925141783115 
0.01148620290105024 
0.3389382983107633 
-0.07863077972610504 
-0.01042477016023308 
-0.01043722190095529 
0.164012130432332 
0.0003298398572989511 
0.3615720562024903 
0.4113303196175862 
-0.09528614583649564 
-0.03648662186390907 
-0.01437912778860068 
-0.3427795817940025 
-0.0756520377892029 
-0.03572565410829221 
0.007697037103549235 
-0.006699250889917349 
-0.6514632156577755 
-0.5505242610637554 
-0.1668646751122292 
-0.04327799872999415 
-6.284190783519718e-005 
-0.008978443538874024 
-0.00772665866106604 
0.8002613287818466 
0.4205455424231587 
-0.398985782521305 
0.2166222278402647 
0.5323560549552187 
-0.004769864495618499 
-0.1255499962496122 
-0.01082366987741804 
-0.01437912778860068 
-0.04002610431931741 
-0.7527742092575555 
-0.02466657378869389 
0.5569848709510981 
-0.2821647818876684 
-0.3293265530272541 
-0.06980153527021482 
-0.4374610327957248 
0.06537530759212297 
-0.4370329391148071 
-0.02769363222697517 
-0.01086044872587426 
-0.4766049318218559 
-0.06934002827821155 
0.4556901123937217 
-0.02311999379334146 
-0.02318155963329844 
-0.1438784371267319 
0.009530639289474903 
0.1105147867868501 
-0.006720257655195744 
-0.07730911350957848 
-0.4643978084638268 
0.05319807102581323 
0.1093326239023019 
0.7157191348760381 
0.3006894672499532 
0.03400090056940773 
0.3267717449017872 
0.1430862673816266 
-0.0149269247734738 
0.01020651168027923 
0.2328449797647995 
0.1518248655235942 
-0.2718640944679132 
-0.1173304757822901 
-0.2873441355578287 
-0.01345163590877373 
-0.3171474481601067 
0.002788071550939756 
-0.2017742747807806 
0.5028125116119102 
0.640055893089622 
0.4310479591729217 
-0.09989859122973784 
0.06312597419617598 
-0.01956850324156802 
-0.1023493571078744 
-0.1575803869402244 
0.01239012606695842 
-0.02307963980014975 
0.1566114156268344 
0.004710578934454139 
-0.002237357953277818 
0.3705445402108504 
-0.03768341313675015 
0.000427291455870277 
-0.02176592828026831 
0.02354288370298219 
-0.1909564066006195 
-0.04907114764773047 
-0.01720917864787305 
-0.4326042463376852 
0.06032692886592749 
-1.690518486729066 
-0.007710026884496338 
-0.0232342441196444 
-0.1435763459771923 
-1.437201107117424 
-0.267612127846536 
-0.3691101686983541 
0.18700526554387 
-0.01075875360260334 
1.107911891251884 
-0.1409410389703432 
0.04809708481097166 
0.01746970356323167 
0.05374370896903222 
-0.4080291170413827 
0.01570850104892422 
-0.06710641132090656 
-0.0383482755811513 
-0.1192020191992117 
-0.06669066364996078 
0.05262208680009742 
-0.03480809510645609 
-0.01404075081869148 
0.0005419797833943253 
-1.120426533889356 
0.002305639058402132 
0.003563349013235299 
0.2668202944134358 
0.07088289486758767 
-0.03043399123178726 
0.07798179876214874 
-0.6867172546361343 
0.1057111548349783 
0.01390437310055298 
-0.3874313847150288 
-0.1821960320741959 
-0.08727958716471329 
-0.1277712471406994 
-0.05291833428041502 
0.006245932003184825 
0.1433915990712002 
0.09529510195389324 
-0.1272113887790425 
-0.04272254604737794 
-0.0002557686478749774 
-0.0112939048842262 
-0.05143530793835205 
0.01587195457010411 
-0.05767686810137643 
-0.01919012269722106 
-0.1658321838991721 
-0.1926668251970861 
0.001741066395378711 
0.4386699076589382 
0.0004053875731724238 
0.01229482091773419 
0.03726157530713697 
1.500773980252408 
0.001698992068776224 
-0.03675456819346355 
0.6191117376169028 
-0.007667588480548966 
-0.08489589341272896 
0.03320556719613482 
-0.4902061460355349 
-0.4891510610442814 
0.3772067511460622 
0.2038515837720516 
1.076316861114496 
0.1983625208716685 
-0.01909516736814596 
1.109076204423152 
-0.028704451281603 
0.2303704509795379 
0.06177386851697389 
-0.4608076745798739 
-0.02289711109307866 
0.5592790065312692 
0.4875128944553789 
-0.4461478378792411 
1.222186759716883 
0.06487747467536123 
0.9755225098637989 
-0.2894198603510922 
-0.1910338180767786 
-0.01187346653790262 
0.0959242076950423 
0.08088257645894847 
0.6021037784828885 
0.1672470754927762 
0.0007717550004609627 
-0.5422006843288922 
0.04261252949797691 
0.001532606536781018 
0.6410797705842751 
0.2769793146968076 
0.3058733996782733 
0.2502980998979815 
0.1748365450928253 
0.03205052725672451 
0.686262573749243 
-0.1238998173475135 
0.1813377641656389 
0.01696740273547549 
0.007309382643905504 
1.399857413270247 
0.1089544520681661 
0.3640623761694961 
-0.0120312301240711 
0.6951766341092509 
1.198381536133035 
0.4956879039512908 
0.01160529844079541 
0.1450112887549274 
-0.0466097341767731 
0.5142161550995396 
0.2595333397114135 
0.001045921124527712 
-2.467432077082325 
-0.04234693646264987 
1.035797497083073 
0.1920835596332416 
0.1218977013147863 
1.133335727791395 
0.4461112048433709 
-0.005807670738702565 
0.2432358560259907 
-0.006827733127665978 
-0.1442112558707718 
-0.08225753837160138 
-0.04058697855449335 
-0.03308945925427803 
-0.0004617320482195308 
-0.002895585277855853 
-0.1113198489807723 
-0.05621587968261633 
0.2753928962598226 
0.4228751535786595 
-0.003487044495628462 
-0.3258009919981904 
-0.2008635159155685 
-0.006549503541210149 
-0.008333337752884791 
-0.02793388528923551 
-0.01385060869058263 
-0.05069907299515068 
0.2908051859284825 
0.08340671992498991 
0.008463119864895638 
0.346647660022267 
0.0001659462544281897 
0.2774587073729445 
-0.004867668750160918 
-0.4115251235904058 
-0.220225258397018 
-0.009296902431650492 
-0.02428887263366335 
-0.3337492133456512 
0.892549335413843 
0.5226236687769812 
0.04002149144885839 
0.1508175457091738 
-0.1033160823417913 
0.0001194517667474035 
-0.1543114070106818 
0.002404574339557388 
-0.3324644634425275 
0.2966755416121468 
0.1178450709176791 
0.5138873487834824 
0.03480552254621303 
-0.00222466366310447 
0.0007721929911196843 
0.03002841925901637 
-0.3395237663031646 
-0.007029315512702728 
-0.1883802870461033 
-0.1189824787767238 
-0.008958925755853348 
-0.0009710957909400424 
-0.1165157995877523 
0.1821578417328557 
1.088598609039337 
0.2160412877742159 
-0.1290189723224143 
0.008894954200667091 
0.009727969512770818 
0.367100243072588 
-0.3922322513452418 
-0.01930304273244632 
-0.1412933166351392 
-0.1435831815241987 
0.033312918496482 
-0.03113704339755968 
0.9668193517721025 
-0.5110950778694154 
-0.004365595831907227 
0.01427893151220262 
0.09728623765160707 
-0.00177037943017139 
-0.1212102100287387 
-0.2351832537212071 
0.1796148354669337 
-0.03042739066469656 
-0.02542563141639793 
-0.360658240253566 
0.4052682168049497 
0.5697924798582819 
-0.2662769676761617 
0.1134254974320511 
-0.1010885613563547 
0.002088383971098987 
0.02027872216729298 
0.2183311594003458 
-0.005532036398440335 
0.1589770026230705 
0.001436390584544846 
-0.08864862935046078 
-0.5574620178099062 
-0.004413806867247363 
-0.04159543657509753 
-0.003544972561333873 
0.03423496652858718 
0.2273796307671663 
0.3274921861493647 
0.1939320025717456 
0.2538457416324295 
-0.5635548556974359 
0.00435607433612845 
0.05513348877506797 
0.05016179859627967 
-0.004716226911097826 
-0.1691588368696901 
-0.01689668112324066 
-0.1957832077109014 
0.1569536998575397 
-0.002415603671309509 
0.05374370896903222 
-0.0170711848661258 
0.7163590570415306 
0.05374370896903222 
0.0001207696296018129 
-0.00652926726079035 
-0.01757207893153661 
0.01271962214913709 
0.002752392446084375 
0.1115426939197279 
-0.02893988211412425 
-0.1858564916251221 
-0.2102174763573743 
-0.1353168350099684 
-0.009765970563319211 
-0.03792290369151299 
-0.02222679674347826 
-0.1669529631565692 
-0.01087645495007113 
-0.3171991199105876 
0.06027721749564733 
-0.00487336891946389 
-0.001967456747819257 
-0.5135342584039553 
0.1990329028426444 
0.2462819652941253 
0.001162518138151452 
-0.3758064767500967 
0.0340473916205034 
-0.02950122350902013 
-0.003595498761108978 
0.4903490908473758 
0.2312599009078159 
-0.09764204472293656 
0.2201870597275739 
0.6449642818175299 
-0.1072840386012421 
0.002148009139138658 
-0.1589400081842018 
-0.6246877724834505 
0.2450927338173254 
0.009418964716800057 
0.6249374821000654 
-0.01365260753900459 
-0.1031262827314308 
0.09346153126430358 
-0.723598811708758 
-0.3796084837868897 
-0.02154962718941331 
0.08672214253243961 
0.4730861633524817 
-0.1422006869521205 
0.2680289991283387 
-0.04639889194378714 
-0.320669005028726 
0.1577354555465843 
0.06098237395506279 
0.07987527271645432 
0.09412320412519279 
-0.2686558169643153 
0.09396025663503912 
0.1190469259496519 
0.3170570040278408 
0.4522236004279104 
0.01386867574056522 
-0.1633214332803497 
0.2900262186486689 
-0.02686927460125626 
0.1117386501547259 
0.2872215561122946 
-0.001645967748424982 
-0.001007704561308165 
0.1555468148798576 
-0.1431407547815301 
-1.025502739005606 
-0.1281359062409498 
0.8257334500028327 
-0.06310554691004967 
-0.007532503897528139 
-0.007740049172030438 
0.01852125029704358 
-0.0006079771717278594 
-0.06497786514082718 
-0.04924538120225205 
-0.04758061133980684 
0.04009470587452073 
-0.2012142827331839 
-0.2405719331007085 
-0.09481482799383946 
-0.1007162336115915 
-0.008411627222469107 
-0.02508405470408166 
-0.3370121879987952 
-0.2150584354307743 
-0.2211592875255705 
-0.0310937402042237 
-0.1453901960795415 
-0.06885666819190799 
-0.01010828057075636 
-0.02533855669846492 
-0.002620853453034696 
-0.1261720568208808 
0.2533374626405094 
0.9195106029243081 
0.002328327821014265 
0.1095514602591519 
0.6129840384246368 
-0.01714746185999262 
-0.04994836795173963 
-0.06807462444964686 
-0.04031372185403134 
-0.07715486977862979 
0.3535806960831585 
-0.06667248758374529 
0.2606798474341511 
-0.1188715512717794 
-0.3372576222558644 
-0.1123517603213081 
-0.05225176728371848 
0.5956280048132445 
0.119798308473467 
0.1018197413071422 
-0.02921098154710387 
0.2269539257229985 
-0.3953843185263824 
0.1704928496035065 
0.2909911474685025 
-0.1509483496445821 
0.2447708614322706 
0.2188661328256895 
0.0246466528422246 
-0.01823420937352822 
-0.07160010768546561 
-0.02284931717083473 
-0.01552033196992872 
-0.07528653264115835 
-0.009324593976910421 
-0.3157469199405106 
-0.01096408025707673 
0.8646971942688948 
0.4417115678781333 
0.0260339959722255 
-0.02053404891967971 
-0.1666612437273687 
-0.341893151985382 
-0.01572860511077137 
-0.03839820453109767 
0.01182577532048654 
-0.05553006205306178 
-0.1664894366095547 
-0.1474743364836949 
-0.05174910819397095 
0.1895744664950192 
-0.1745975912889928 
-0.8764173961767987 
-0.03010844692750458 
-0.007360553749166139 
-0.02256874332695472 
-0.03393521049242962 
-0.006042939803809928 
-0.6923963383020664 
0.007139557973268776 
0.004159709689098882 
0.06695513441387357 
-0.03731784628089076 
-0.003823467080452774 
-0.09642434541975185 
-0.04832054927299839 
0.0003773940311813437 
0.1507730729295274 
0.03786285200404555 
0.2510199675144666 
1.010152387234297 
0.08256624043034501 
2.464090692877878 
0.3428835069887314 
0.0002837247169917803 
0.02234454633616844 
0.0008851174100153487 
1.13543004564546 
0.182663126967294 
0.01144308198329531 
0.3088741433671463 
0.5063050906251533 
0.3496391434227903 
0.08987278764909303 
0.5874328738183509 
0.03914572082916006 
0.07529485627356 
0.08110527279360398 
0.04584057330564392 
-0.01388708484866779 
-0.1540675876814028 
-0.04929372473870446 
-0.08588123122431343 
-0.0170389489161164 
0.001017919798312444 
0.001691809211543867 
0.1540622102494533 
-0.7398521587386899 
0.05716804486914721 
0.5029177697160606 
-0.04506372186541785 
-0.003042842171537469 
0.09399135227496711 
-0.245714342577613 
-0.01866659012629093 
0.1407709118156838 
0.002060989746105072 
0.08686834945391597 
-0.003167186385727202 
0.0173491894632337 
-0.06444494211548835 
0.4527355098023231 
-0.04297173164474772 
0.07325406645941016 
0.5705271294597415 
-0.0004173507510320454 
1.073653751654055 
0.06609873624284623 
-0.00222466366310447 
0.2746454628223431 
-0.3119825905062856 
-0.05532722444188707 
0.04816796756378893 
0.05867889460076872 
-0.1782799955449982 
-0.02358762211671257 
0.0113898389310141 
0.008743884161183329 
-0.2220611484958413 
-0.02613286790523345 
-0.01858019221601907 
-0.04940442143036758 
-0.1697205317984696 
-0.04346973919654856 
-0.004092005355629469 
-0.0004173507510320454 
-0.00560998699678952 
-0.05182902960071862 
-0.08237502605062669 
0.09613423918042865 
0.07942118576959185 
-0.2561717929239693 
-0.03587097309963841 
-0.5287933369778242 
-0.1977582695818385 
0.0508461880485061 
0.1543162392454803 
0.1152615120638571 
0.1297491122093372 
0.06903080011192292 
0.001698513651159047 
0.0302716323007531 
0.02980353531041984 
-0.03982030181260141 
0.05356007415392364 
-0.2892960828561988 
0.0525523930052787 
0.01603097676730959 
0.124195019078399 
0.03686209990605822 
0.02091870890873724 
-0.01174868360089506 
-0.01338676277274252 
-0.1579226908542604 
0.1856145875010158 
0.1106721636398077 
-0.3991885876558547 
-0.2467050625434833 
0.1046490522553203 
-0.3098483573584971 
0.11559772133304 
-0.1271200216730938 
-0.07218556836693588 
-0.0156304963156667 
0.01378080058418951 
-0.008677403204147475 
-0.17217142244944 
0.1959388950097703 
1.949841605195035 
0.02602853073123939 
0.148212729830401 
-0.006231795649352424 
0.1550038790067662 
-0.2989006085546243 
0.09104307753323931 
-0.1519789572782588 
0.4467250546043004 
0.06959798671189169 
0.1694423853967265 
-0.003592160767008436 
-0.208577484488216 
-0.2220557151784936 
-0.007891176551024452 
-0.005058791872927923 
0.2177330895129322 
0.5081605290334207 
0.3723527345602847 
0.03313923456354258 
0.03802508272559007 
0.1770194977851287 
0.001962567926455897 
-0.1444191058518239 
-0.06754881489289062 
-0.002154134045584676 
-0.05179492033319495 
-0.1957902430594027 
-0.05950983750108001 
-0.01967994991267666 
-0.0383955678791179 
-0.1502045819417112 
-0.04015950958119835 
-0.8674337952013937 
-0.2729091446090242 
-0.07873085023642293 
-0.005455081712201002 
-0.02014590091203022 
-0.01437912778860068 
0.01451186570414136 
0.02144793745951142 
-0.04488026028641592 
0.04048670755662485 
-0.01609879732820272 
0.1208003526139603 
-0.008286562790394145 
-0.01909040082570799 
-0.0004044500490362615 
-0.002055714113280673 
-0.02099302503467245 
-0.007782792032668881 
0.6544830256464144 
0.6802041716837201 
-0.0655985852099614 
-0.03085522492042977 
0.09285582831777585 
0.005096146105092154 
0.01534699200441782 
0.373331625197166 
-0.02893078307128692 
0.06395835859671198 
0.1538922865034977 
0.0279750278998582 
0.03841034795741582 
-0.01148790788507129 
-0.1152879628128645 
-0.05994289555210291 
-0.06573541877206469 
-0.001126827825108695 
0.2007351799393631 
0.0001218766198557757 
0.0007219016053522409 
0.07659877798353167 
-0.03695978758874268 
0.1813383758179894 
-0.001600840334282899 
0.3731747934326282 
0.03345786332628198 
0.007359810913908323 
0.2888096552122837 
0.249507544211959 
-0.002775884207243537 
0.06023088835828916 
0.09577052576855274 
-0.01386880096531107 
0.004491468770280374 
0.06452544755564371 
0.002463557313918681 
0.2594376871931946 
0.5252410156134297 
0.7049869256288122 
-0.02952680140615163 
0.004203879508164929 
0.0205859946630256 
0.003077389377241939 
0.296163767240151 
0.2418085521524551 
0.02987592313467886 
-0.720768956997919 
0.172536957797538 
0.005424903798743296 
0.1060228644349819 
0.55013340732778 
-0.4441720300340777 
0.02802372199875874 
-0.002943598349651696 
0.0328810827276042 
-0.006583067854985199 
0.1156091894639971 
-0.06193177564288236 
0.1313594622789655 
-0.7681044547083729 
0.3707752679675133 
0.1008713101364736 
0.03377232842889561 
-0.1123541284653149 
0.3338527599758742 
-0.007027020962576047 
0.08926621346351066 
-0.002830207990847325 
-0.1615322047110558 
-0.1673059819521751 
-0.003801468027987502 
0.1537637375002415 
-1.051689029151586 
0.2012086111602163 
0.005449550254273189 
-0.3058411930646225 
-0.2585548802410632 
-1.466185879677898 
-0.7684550770745846 
0.09691162295685869 
-0.05973192950668754 
-0.03991690767821349 
-0.01602976887500719 
-0.3065465755243311 
0.01205571900272039 
-0.5513901626939761 
-0.1588658134837724 
0.2499870967417287 
-0.005243721123621373 
-0.01289078360176444 
-0.03648593981226429 
-0.0120222906511555 
-0.005511681296128707 
0.7876190739505509 
0.05989326208975399 
0.05989326208975399 
-0.01384448152433493 
0.3465012088114582 
0.139803766668983 
0.5857662857873695 
1.012289248091284 
0.01137320789052485 
0.207232804227404 
-0.02627198907005129 
-0.007963260856606362 
0.0475072923152708 
0.006112005358033188 
-0.007451190932031098 
0.3895830716311661 
0.001520289767379621 
-0.1324993451519246 
0.1061165265008913 
-0.004354626862842275 
0.7578709985226524 
-0.07554712720449713 
0.2526765230476127 
9.460042598380554e-005 
0.05821622906634717 
0.3442709184658733 
0.001892043273117564 
0.03644535556271231 
0.01653402939139103 
0.2590873862113984 
0.01890698115921011 
0.1886155606140191 
0.04346401826005499 
-0.03528490787122398 
0.07789465411849805 
0.004687173783608677 
0.05790684192272359 
-0.03813333328137576 
0.04767925626594574 
0.2477342460994588 
1.50989549751292 
-0.009117530202268751 
0.005575714454774177 
-0.2436299378296435 
-0.007599003953363144 
-0.02924659282601262 
0.02756404626769073 
-0.1204455137485012 
0.09160919249365897 
0.005355262674904236 
0.2187098065560577 
-0.005147861897030592 
-0.4740190545636197 
0.02861600109985797 
0.01885731911086869 
0.2385511285990637 
0.01520036374283436 
0.2058455248066867 
0.0549339618483215 
-0.1783633616086414 
0.1253680523573291 
0.003919251578032829 
-0.3474783989889994 
-0.02685935688079156 
-0.1628955426795043 
-0.0141463809631397 
-0.06864765901497524 
-0.006705894393618983 
-0.1177534389096483 
0.7086954377276358 
0.01346908924167673 
-0.04019524085095833 
0.4218189677852198 
-0.009376838758249973 
-0.002159677905716993 
0.06599764782356665 
0.1630562073493522 
0.5614099030619485 
-0.0005210880226725228 
0.3717407118119951 
-0.007673504304855777 
-0.004336884111717431 
-0.01076466779771995 
5.07382791772104e-005 
-0.01918812803549911 
-0.005223363793560878 
-0.07132225806615704 
-0.005697392874734656 
0.108988721998511 
0.02203175440356908 
0.02561547433931726 
0.01594149027241928 
0.104210594474169 
-0.2628892006341316 
0.1494107295884082 
0.194563096686122 
-0.01157997164559412 
0.3376873234843111 
0.1395527159193998 
0.03898212853929253 
0.01438326770557573 
-0.08474651467503799 
0.07053373333077156 
0.3951134026676986 
-0.04976882992666245 
-0.009349215212748773 
0.1415701851875331 
0.8249681367159935 
0.1810601991649943 
0.09659025973677964 
0.1560399067963723 
0.02702476711097546 
0.04371024048376572 
-0.1340122148697725 
0.01932356142631907 
0.1735583430567508 
0.09651590357374236 
0.856093138658977 
0.1053808877037121 
-0.0004173507510320454 
0.001521600203554639 
-0.07194589272057847 
-0.01041730661595487 
-0.006314732214701396 
-0.07045844852660041 
0.07686149343716613 
-0.160614429447288 
0.7321919120960544 
0.1102850228737193 
0.0453372342546182 
1.164084918783038 
1.138275882454893 
0.4638190916127929 
-1.075229133079519 
0.2418938218810645 
0.1398378798703205 
0.0867177970870477 
0.7315488279940473 
0.248864749186147 
-0.06228209641452961 
-1.103199067112956 
-0.0004926237872993648 
0.04646276455207656 
0.4662825130969348 
0.05989326208975399 
-0.1287970071238553 
-0.1353234863859714 
-0.02250298191624351 
-0.05810208442104778 
-0.1097942182637237 
-0.007828142978501661 
-0.01943014006675655 
0.09520933615353053 
0.02132482093634244 
0.6533408510452158 
0.1213745026807487 
0.00137652172799489 
0.5266552873571814 
0.1170870321020825 
-0.03603198536825685 
-0.003657526375769609 
0.1477902849670106 
0.0296194106981609 
0.0002067718999188051 
-0.2899866392330777 
-0.03734380859959234 
0.03319089306523641 
-0.317831230006337 
-0.006094868546544213 
-0.07818349503329167 
-0.232314196492747 
-0.01520562941771516 
0.2877168274709362 
-0.3075298899940654 
0.2333128682312998 
-0.07130584167565085 
0.07950792039271053 
0.03195615062229826 
-0.03806527704383814 
0.280595087407124 
0.2361042312008624 
1.035803560996337 
-0.2984671239100717 
0.02585886926057171 
0.1904264520542352 
-0.007373606353247412 
0.1566777199150036 
-0.02828529122027196 
-0.01464714536598341 
-0.02007957723166393 
0.001528768954330036 
0.9657076903933017 
-0.08809569084800276 
-0.1972566001119467 
0.06538661053850525 
-0.01433648848803119 
-0.00222466366310447 
-0.0549315638807507 
0.3034600156663305 
0.05914538651932196 
0.006947672356437105 
0.1523894321836608 
0.03908432343718723 
0.08983734754507324 
-0.06169117593722674 
-0.03520464172009986 
0.1299698146812256 
0.1520635810546231 
-0.03471864939590213 
-0.01506825537269244 
0.04240815954413593 
0.033194324105931 
0.04832128895403681 
0.129946274692109 
-0.453926967198684 
-0.01384418581423541 
-0.01593095967685433 
-1.097177128544809 
0.1593067048520832 
-0.1166273249918212 
0.09479768233392188 
-0.3326435408016706 
-0.01361660440007912 
-0.03987915908085241 
0.1771823624615319 
-0.05163623056224956 
0.01022975730611857 
0.1817010028072951 
-0.01367480519430069 
-0.03800525135297892 
0.1410080785391389 
-0.06564912058146834 
0.00995540778066804 
-0.04149213746181453 
0.01308490094953144 
-0.6982082694120659 
-0.4595649962619987 
-2.358291973555143 
0.05282394302385287 
-0.08539644222217452 
0.6637332733221573 
-0.2476011375793734 
-0.9972236145657071 
-0.1313589061203766 
0.0218944753736221 
-0.2571191825385902 
0.1601137041868238 
0.3715049699002183 
0.2065275775998994 
-0.0259850178833572 
0.8158995766562889 
-0.270331587916737 
-0.07703055560615441 
0.04091919235480226 
0.08784292481015553 
0.8130793333506882 
-0.005750507092728625 
0.6343709118857877 
0.06366134379041982 
0.003629189085136569 
0.006879222287307192 
0.001930956051079375 
-0.004905823195481824 
-0.01232381408391427 
-2.24247578749708 
-0.3326001070900634 
-0.02382972448510203 
-0.3249659820574328 
-0.002252871407618877 
0.132146685737874 
0.01617190545512105 
-0.03069777826324399 
-0.1660299429707113 
-0.4821299874349282 
-0.4579419948277984 
-0.00408106955125658 
0.00319577177305321 
-0.1653129602504291 
0.04257678436047552 
-0.03831388432631732 
-0.4675635247822498 
0.6447076270218146 
0.001007292192300797 
-0.1311162849624139 
0.0007525756508613868 
0.06551747708580641 
0.0501089928474132 
-0.3549511387557858 
-0.005611269081223091 
-0.4146142468886742 
0.05128188168277017 
-0.006723744364455477 
-0.2850238423703873 
0.09072557604448585 
0.502562783852141 
-0.1571118519317067 
0.3797071764225037 
-0.1806752656942826 
-0.014375256434134 
0.1386242742975359 
-0.02778479066472567 
-0.05341339175043958 
-0.003064245706707755 
-0.001147232273368091 
-0.09700057539024544 
-0.1527785539575949 
-0.02320551339766563 
-0.024608511497908 
-0.0004408945205615455 
0.157142861671732 
-0.0004044500490362615 
-0.01312713178537856 
-0.0515344638573423 
-0.2304332946603005 
-0.1145631222880531 
-0.09648865502738392 
0.1200217929236949 
0.3132344974601974 
-0.094123625135596 
-0.4515529639408577 
-0.001553176220392165 
-0.03281883992339825 
-0.07278037984762661 
-0.1903851686322959 
-0.003622335971242999 
-0.110147561314965 
1.630464037037687 
0.1786816542683887 
1.453493902344366 
0.6719547837374216 
0.0001791256714901398 
-0.01346902526022776 
0.01351431113286423 
-0.2595439027500573 
0.1992403346325775 
0.2392116317987424 
-0.9900457625286305 
-0.558186782589243 
-0.4486381093055876 
-0.05128668962782644 
2.099785805050694 
0.01929710356755674 
0.004693590937573342 
0.06312747467622144 
0.1225718360332199 
-0.02298675055287063 
0.2840024420256476 
0.7148642014538648 
-0.2825753743846775 
2.067326233778281e-005 
-0.003908703787933409 
-0.2314508080769897 
-0.101562578245002 
-0.00976751485412434 
-0.08293586090093988 
-0.534798012905539 
-0.4414540382677902 
0.01022801388694882 
0.3118606274669777 
-0.00323244640908562 
0.259552948646754 
0.3518905118152454 
0.09197023361196376 
0.07012722521174736 
-0.4608076745798739 
-0.2038144959980569 
-0.0174672867941293 
-0.06854145683019305 
-0.01344396792868379 
0.08811860420631014 
-0.3922688639632168 
-0.02153538258399777 
-0.0199029833240388 
-0.005583986008262399 
0.6083233495796234 
0.2358271524264853 
0.1966382825469233 
0.009942418988865238 
-0.1416368876008395 
-0.04750816953857898 
-0.1363683871998688 
-0.01704208727248132 
-0.04191933018113481 
-0.06608642557155803 
-0.5809581929906132 
-0.1238478286063433 
-0.074911932383929 
-0.00285053760303889 
0.07571665008040875 
-0.05492424517531935 
0.001255245998303061 
0.03259025475761786 
-0.0004825049796045313 
0.01261770029565967 
-0.1618960764338161 
0.002954266399242702 
-0.6603050249704828 
-0.1248881816267903 
-0.01825487935643115 
-0.3526860391094296 
-0.2863195124751444 
-0.03598182102890059 
-0.01340505302714749 
-0.06661075525012841 
-0.1615250050535793 
-0.4280166982182133 
0.01996198149091539 
0.1182335443838867 
0.0007768654676928347 
0.2133901767051284 
0.03247632601868175 
-0.01156101164791255 
-0.3719810082344061 
-0.002633706447422746 
-0.0396550274623881 
-0.04821262855121167 
0.1248282050104924 
0.2197999168498025 
0.02487947013693376 
0.3119745029149363 
0.8384366285897094 
-0.1112364871481003 
0.3218003176041539 
0.005904956247999683 
-0.1761316943366012 
-0.2546061897702409 
-0.5001334705786954 
0.1117096805269761 
-0.1833152038844335 
-0.2315723852726078 
0.001799703318888819 
1.141605095973398 
1.048597138643174 
-0.04168553714997792 
0.04960225936173612 
0.05948043031785336 
0.1014934480283471 
0.09095080628393563 
0.0100804580827487 
0.8090150035580125 
-0.761138672416479 
0.1751218033468481 
-0.4364404412208888 
1.328923787944691 
0.1401393464285211 
-0.6322010253361489 
-0.2814186741094675 
0.3522822296668642 
0.2091047523387839 
0.6238235563244752 
0.198375559698538 
0.8443727654366345 
0.00619602470564275 
0.02212974963065446 
0.243412335029306 
-0.1595398124574498 
-0.05179492033319495 
-0.1633214332803497 
0.1413929148500578 
-0.02924641921792268 
0.04091775150283654 
-0.009111006487376406 
-0.1834551790087427 
0.8003797596277825 
-0.004512536437906219 
-0.2027215806898736 
-0.007669686172051711 
-0.0251932830131284 
-0.09139942538478138 
0.1824307664129711 
-0.2068055284987549 
-0.1836716029844846 
-0.01323641463405056 
0.1962953452624872 
0.290097310019832 
-0.971657438321741 
0.4732334890434203 
0.003959434425711701 
0.0008713312392522423 
0.009832569111505117 
0.346824163731575 
-0.5346066268385 
-0.1888746630054738 
0.2610321972570879 
0.01679376454678116 
-0.3865777029714305 
0.1611101202580634 
-0.5071358352608166 
-0.2609320822572447 
-0.03369647092124181 
-0.003452587485580217 
-0.6794708400351516 
-0.2989312551507836 
-0.2404159058126378 
0.09632712479008809 
-0.2965526120178885 
0.4367400599557129 
-0.006309773975274408 
-0.4181140937015294 
-0.2580566497652393 
0.001589222753050569 
-0.006598546641587683 
0.6363439494438994 
0.00789072801461845 
-0.03585876481554345 
0.006359729913713268 
-0.01159968134279272 
-0.004808644473238772 
-0.4767179894019812 
-0.001321123695129234 
-0.02482044698028563 
-0.008633444572859885 
-0.0151060580519388 
-0.1430731950207982 
-0.03458724657212298 
-0.01867951693719804 
-0.01206710931563622 
0.1938233261980318 
0.4636445628177521 
-0.1793225360638611 
-0.2833353974690743 
-0.02091160397415394 
-0.0004926237872993648 
-0.0636968905870408 
0.0012204484706507 
0.1115067177396001 
0.002721545518345613 
0.2662165430501665 
0.1544761021561873 
-0.1677925815803533 
-0.01861235434189627 
0.009524639404828684 
0.2493276725773115 
-0.2977148145282041 
0.177462660067022 
-0.1182264958662616 
0.05879588807481207 
-0.3892847866757215 
0.1679156019723697 
0.0633678038702476 
-0.00573107923301678 
-0.01036031460544725 
-0.2841892153625173 
0.08127975435326323 
0.4182911483525408 
0.1459107994254483 
-0.5085514567811282 
-0.001385691081874629 
0.1553546598597864 
-0.7306215827569933 
0.03666194166682671 
0.003612335008760086 
0.5650690266113019 
0.00873519300636692 
-0.02435601970234501 
0.1193085180422022 
0.08528369997757039 
0.01891102801956126 
-0.004396962679239228 
-0.007185524339027356 
-0.09619208267921153 
-0.02056646333884552 
-0.006583745863755141 
-0.03052375962804493 
-0.03002706622096726 
0.007916288664319071 
-0.1953120762362248 
0.1651628723513179 
-0.03349035118154164 
0.3856545412909906 
-0.06078675028589552 
-0.07727111239001547 
-0.1097231116319394 
-0.02786516992266914 
0.02571133513686791 
-0.2365828492272616 
0.5949678249225482 
0.1919661134203629 
0.06483516423058766 
0.3209506059072636 
0.000269010698709602 
0.4384939344126523 
-0.04995422566722359 
-0.02925956133218534 
0.4939524131341868 
0.06954664199498024 
0.7446780966376818 
-0.6145385865837628 
-0.0192941768987579 
-0.04960713067828919 
-0.115356178662699 
-0.06411229086846233 
-0.05179492033319495 
-0.05179492033319495 
-0.2303639376335154 
-0.5735087066154802 
0.00123446000260463 
0.3985448975175453 
-0.06561182942903213 
-0.02040995049212149 
-0.1646910588880147 
0.1504772525669568 
-0.0313033964784912 
-0.008854414849065705 
-0.05890953339059333 
-0.0449261680620652 
-0.03007134937938826 
-0.2665753008296948 
-0.03562336675248611 
-0.3017428899670146 
-0.009248545194729327 
0.03423961266017195 
-0.06721147127770866 
-0.104003472894417 
-0.06876780537093162 
-0.1529306976700878 
-0.005377509558229695 
0.350870926372748 
0.1120019787628172 
-0.07042800244125907 
-0.1530653753563085 
-0.03334469691021062 
0.05349151156960639 
-0.04484656087824844 
-0.09739037069624908 
-0.006978943546185794 
0.9005475962211837 
0.4124490089690445 
0.1555495841671618 
0.1177298315570952 
0.2219718535578227 
-0.3068150370227064 
-0.03547543312582539 
0.00711165538065862 
-0.04630169874972261 
1.453165233103593 
0.01515438930488619 
0.0009748873100217741 
0.0481124986315877 
-0.004956831596331793 
-0.06249321904061211 
0.2187264467188141 
0.2387944724586922 
0.2749521003148319 
-0.1287021987501864 
-0.2095025630302338 
0.264675848680313 
-0.009371781758904327 
-0.2946180977362001 
-0.00694309706537682 
-0.01048949894123942 
-0.0147701409534802 
-0.03557694596030794 
-0.00298919443706647 
-0.1870783973345846 
0.7321945408636188 
-0.535365912007519 
-0.06192515012163018 
-0.05934353355001338 
-0.08431302650234905 
0.07228243786920012 
-0.006367923654581359 
-0.2037539053305913 
-0.2136988457398577 
0.03005989070209936 
0.1900716460762453 
-0.1193045449584827 
-0.05313135576568791 
0.02611424991293715 
-0.01935446931433079 
-0.01108696817413464 
-0.07235311815222091 
0.454529101529799 
-0.008955119895927365 
0.1890567657554134 
1.300801094308886 
0.01355229450931342 
0.0005421616640021216 
-0.0251899075351265 
0.09176701417867847 
-0.1775619325950145 
-0.0115613083150232 
-0.04525262284392954 
-0.09519407848128067 
-0.06579030335416383 
-0.2314876245347486 
-0.06526153173191941 
0.04279374087474571 
-0.07274076676358668 
-0.01396243632641344 
-0.3610900897760637 
-0.04854824689104829 
-0.00742388016720175 
0.008649623131142675 
-0.2167429910091306 
0.01909687830510462 
0.2369540541681156 
-0.3703028855862718 
-0.005925377079994564 
-0.3925965002577239 
0.7948887269673752 
-0.03329664952314793 
-0.7484234672334715 
-0.006925333038787474 
-0.3433485180480755 
0.03418639552146382 
-0.005216801973485266 
-0.038906303498443 
-0.00566364556923705 
-0.3978869881716077 
-0.03222741514708875 
0.1371232300742181 
-0.5921687430829312 
-0.1745163501296334 
-0.1633214332803497 
-0.005985953258844765 
-0.1708721772112736 
-0.002391070942868541 
0.08218413456285911 
-0.004188663662156607 
0.165753915049262 
-0.1029151923723063 
-0.01959900098801798 
-0.1447546113197085 
0.1259437763847294 
0.02703926962922423 
0.04286145471963733 
-0.2894240827402349 
0.09119289803140593 
-0.8475004012893191 
0.1569699974358643 
0.07027683342504762 
0.6106161835816629 
-0.009055381249733555 
0.6529949104429346 
0.0002786909131377753 
-0.006624815226969998 
-0.05665645198551997 
0.04019745898974698 
0.6211081966270766 
-0.4966940764403736 
-0.01373144421612438 
0.2635281310807373 
0.2052203451276826 
0.08580492887277191 
0.7192367299603809 
0.01924900314379853 
0.009678300793177504 
0.08991497930517577 
-0.01978906206317404 
-0.04674548687558834 
-0.01708937669872515 
-0.008718051983190044 
-0.209024446080765 
-0.08193473975847708 
-0.3372211631756679 
-0.6364212812247969 
-0.01391404393677772 
0.124250352535556 
-0.3834710327684479 
0.0002626010964551485 
-1.593789232584074 
0.09588391850178077 
-0.2398667628858216 
0.1336934266592659 
0.02918339914530121 
0.008565457063915084 
0.001626962701684726 
0.0005413375058709597 
-0.0580935380294926 
0.003147335890534431 
0.01147038251050419 
-0.006817516805859832 
-0.2467264373371803 
0.01865432404533191 
0.05953520854554122 
-0.3965625687929673 
0.1542842659499112 
-0.2483424650850199 
-0.0308733180447241 
-0.01118935436039813 
-0.09131107803583999 
-0.0979705166581505 
-0.01339627820904312 
-0.2397450489935214 
0.4179247947769698 
0.03399897986243984 
-0.5005847664191099 
-0.07113427758637109 
-0.6982754625096761 
-0.4166874544458196 
-0.9271417074992866 
0.1855168891865718 
-0.2161622017827231 
-0.05965804383446061 
-0.05289104355627083 
0.003097000315642847 
-0.007543292271627635 
-0.04143401692723074 
-0.07963843853082406 
0.002417910153360486 
0.009002493540364727 
0.1111977604603342 
0.2987355591920272 
-0.007875952801526412 
-0.5265181956851325 
0.2817254675576781 
-0.06145815907116649 
-0.3256023874313639 
-0.02106900568662749 
0.06367179574668168 
0.6173573266752954 
0.001394233066211648 
-0.02799069481486026 
-0.09803939205389456 
-0.01468526067522473 
-0.001740679033174279 
-0.03590204328353414 
-0.009737687119515361 
0.06536951186803668 
-0.006925333038787474 
-0.01369875667820151 
-0.03096616219723478 
-0.06525136805716778 
0.08337823181781512 
0.2158943679356315 
0.4601243669605599 
-0.0936887752628517 
-0.1377908640756166 
0.4547239397645163 
-0.07793051602376483 
0.9190783906048715 
-0.0308147060769796 
-0.1725256463340375 
0.0240060433021805 
-0.03329494295028403 
0.6261325587767385 
0.9319230588055552 
0.01495492540053548 
0.487007962895945 
0.04256851273742451 
0.05846622254174357 
-0.02580228975120965 
-0.0880823558543244 
-0.00322219170196384 
0.03176761669875201 
-0.7117687556873936 
-0.4753733975739645 
-0.1345253702270747 
0.01468154336782402 
-0.05166769202253018 
0.009740340493398843 
0.4007673066075762 
-0.01881914882535346 
-0.03874266309216675 
0.4401385467370054 
0.003267594887879296 
0.1141458533066802 
0.8607036010937715 
0.009348211593296001 
-0.03372825885150634 
0.08954170907975395 
0.8973553188779825 
0.1886966014531815 
0.6174231056040667 
-0.2064889929026536 
-0.04196225982267876 
-0.009872114095607527 
0.03709599996767432 
0.9358599655839283 
0.4383630575134379 
0.1244012066792598 
0.3420425883842749 
-0.03137618189801249 
-0.009071667844820124 
-0.003010781240658039 
-0.01790370894197767 
-0.01826436953171511 
-0.06142904091918108 
-0.0876693400396433 
-0.352735115675201 
-0.01923581648893012 
-0.02407301590927555 
0.1541477058703837 
0.1403770226340385 
0.202337363760832 
0.0261201180037444 
0.06788082452661783 
0.1616175592100404 
0.8436233691860064 
0.3132648234581418 
-0.5345230828056466 
0.009696871823696558 
-0.06720217486814285 
0.0362790253901305 
-0.08213777412728512 
-0.001752714363313595 
0.1155067521056867 
-0.00475813492585212 
-0.05073442139353973 
-0.1311047898019453 
-0.4276590225974356 
-0.5372277152261517 
0.1711421708449675 
-0.07933478761829428 
-0.1775951611290905 
-0.009618552949858699 
0.05000549645304885 
0.4653297327896201 
-0.02698732284742764 
0.1891037459017632 
0.1502475465851655 
-0.01863118225767714 
0.3143439217607338 
-0.03790559171374598 
-0.2487544703642234 
-0.01466442470311634 
-0.1013922404311153 
-0.006216621154919195 
0.0180022356550955 
-0.04536350205384379 
-0.02777354904509951 
0.008278541546388912 
0.002838191174868492 
-0.3214321118913711 
0.22735164966647 
-0.03032370233286634 
0.000167274094575451 
-0.3772568598133108 
0.1483066470484468 
-0.026920354150953 
0.005290012951232019 
0.05289104242491081 
-0.1106645837893012 
-0.003264148624434907 
0.00521192216390249 
0.03056607681002611 
0.009030799025648552 
0.007645414924591521 
-0.06377668754039464 
-0.0006429555983643527 
-0.4691545433463125 
-0.08134397387378116 
-0.01041051287726438 
-0.2947360139644018 
-0.008412337275728883 
0.09631819404864857 
-0.1176670382562306 
0.01668675633915355 
0.02666846745749293 
0.3735079041989398 
-0.01509102881015038 
0.1685905272678679 
-0.002255490819059835 
-0.002492656514175663 
-0.02660980374288764 
0.2178917540450518 
-0.003831705527565024 
0.06104747902268833 
0.02143308453412295 
0.1236288888735574 
-0.2576417510233681 
0.6156006746929894 
0.07732097585787154 
0.005384926166217159 
-0.2191180927899769 
0.02271306990383592 
0.005682830523762734 
0.2168781300914215 
0.2511855650599963 
0.01967876172301993 
-0.2066936156883855 
-0.02005050400258383 
-0.02083432334907102 
-0.0246321528417298 
0.0003922015926512769 
-0.3930518509784168 
0.2285137977005828 
0.3854876628731783 
0.0004499047263559264 
0.002434520537996073 
0.8842874904696509 
0.1145067854798121 
0.001872231544751642 
-0.005993125237952657 
-0.01060101253768861 
-0.01512793207460115 
-0.03124546423839514 
-0.1635949505417335 
-0.1086096009003476 
-0.002314972418691675 
0.6195531326395851 
-0.363113107384608 
-0.03432184250687853 
0.2461513135612692 
0.1812172019582607 
-0.2755023907752182 
0.246525104626895 
-0.08900880370486243 
-0.01418107585947987 
-0.04038779022612213 
0.373651319484693 
-0.1462474678246166 
-0.07917628766595847 
0.07623173929156202 
0.2263847702283741 
-0.009772392583578864 
-0.01476805846526097 
-0.679031006122423 
0.04250636344042454 
0.06779664892308404 
-0.1633214332803497 
0.007304069638797209 
-0.01352035011757389 
-0.008912527332579599 
-0.4978030862066283 
0.04830819210460429 
1.799572118314088e-005 
0.08180226627883805 
0.3726151295772764 
-0.2793292263530476 
0.05156210537524825 
-0.003378549377321668 
0.02930077764964261 
-0.01894233873484274 
0.001315799855666412 
-0.001161858872964717 
0.1951825122802057 
0.05989326208975399 
-0.3269339286368696 
-0.0080684875254019 
-0.3279215162188268 
-0.06791283517944836 
0.01944093185690505 
-0.2839219276485971 
-0.03014524350532698 
0.1071079825079669 
0.006720428063431035 
0.1818839451278471 
0.01473294687284467 
0.04664022336344669 
-0.1146591761507064 
-0.03154186499057821 
0.0001403565453933706 
-1.103805437614843 
0.03415566097364827 
0.4386777470415156 
-0.03040862180578891 
-0.2198892734337487 
-0.487442124210034 
-0.562584069826309 
0.05116724440338259 
-0.005777166688401142 
-0.003882840635006173 
-0.01530206808954803 
-0.0007390810997816616 
0.001047234788289428 
0.2157706511631209 
-0.003916359522588627 
0.09660671089774661 
-0.70783574720071 
-0.0118650317239352 
0.1363319099697711 
-0.02219153661487089 
-0.06377002575583897 
0.0006913617948568668 
-0.6840412635986609 
-0.7610720524078422 
-0.1126749622943589 
-0.0635087289903923 
0.1326710877099474 
0.0008638730989170626 
0.1129423013793154 
0.01980062514562082 
-0.2392383103806711 
0.1923600711468037 
0.002437795674792733 
0.3341615482573932 
0.01347085997647385 
0.01987911708585027 
-0.005860520489205275 
0.02340680907169088 
-0.3736256427331029 
-0.5594814054285051 
-0.08264705706884855 
0.04499939661961407 
0.1350472627102306 
-0.1009799945778834 
0.0503365707332812 
0.08275944803555478 
-0.1191694214397789 
0.0110844203299165 
-0.01544487529127663 
0.07568380527555782 
-0.3376848764198993 
0.8117085732238042 
0.3700526754067318 
-0.0004173507510320454 
-0.01001230108681305 
0.1489758149066168 
0.01037971376505195 
0.280764884012956 
0.1696470053028876 
0.1339979972445199 
0.1826590571609599 
0.05242322432698727 
0.2888955631623953 
-0.00191752692310633 
-0.006975288287803281 
0.2915652329723921 
0.1064898595330655 
0.05226800770330944 
0.1707838916331042 
-0.005044604867905487 
-0.06995413576216616 
-0.00191752692310633 
-0.02412319384229445 
-0.4295434549173604 
-0.2481253089088508 
0.01801913199502706 
0.2016631440651518 
-0.0448058146886977 
-0.3253809656476892 
-0.4667659256705472 
-0.5516935300262594 
0.0125612092654116 
-0.01481977910248808 
-0.009077485427061646 
-0.2532956870449272 
0.185436698250826 
-0.04833891144248462 
-0.08683185752502309 
0.1245186305670698 
0.07586024952535754 
0.01366791223816407 
0.1909783431070151 
0.07935403910399042 
0.2385410415348198 
-0.2649810203453655 
0.3208935972832004 
0.6278234533963883 
0.1794195151888037 
-0.4623331434248776 
-0.0005508704463724571 
0.12826072280229 
-0.7959480341158032 
-0.03425660587902431 
-0.04302143513059802 
-0.00460201310908058 
-0.04072809566512823 
-0.01672519758828447 
0.03154296437654523 
-0.6725673018238092 
0.0254112195631386 
0.2715948737052335 
-0.7499931388969297 
0.3728080395596278 
0.1913667986835402 
0.1668257104278073 
0.006104561484974173 
0.3414715627462278 
0.05175749777573929 
-0.01396579983123814 
-0.07183659533314901 
0.06638178835356061 
0.4069165160188414 
-0.4103914702488087 
0.02285525167861075 
0.03886951164434022 
0.01160488424557921 
0.0909857410391422 
0.5880664094269161 
0.02815337953182024 
-0.1566542372294489 
-0.04415644002931643 
-0.003470493850950877 
-0.265074926350571 
0.3356772488073834 
-0.0868514560961627 
-0.01588217711037468 
0.3280749958772699 
-0.01697031894273661 
0.0424711055220955 
0.2239220743902896 
0.01489159535127923 
0.004597528010231194 
-0.01343754063319817 
-0.03375484575848374 
-0.0129768905619139 
-0.01836112713745976 
-0.2139020584134762 
0.05889847996885544 
-0.8305397321750719 
0.4525046906761592 
-0.0109789795557603 
-0.01773105013302714 
-0.1429666259391492 
-0.01532211739177544 
-0.04580264253319925 
-0.1756599062124178 
-0.005472611375459823 
0.2276064006545567 
-0.1208070275975726 
0.3397143931873435 
-0.0437920599340462 
-0.01093410026069789 
-0.1113198489807723 
0.2190064611792605 
-0.06701941398119868 
-0.02698672416458962 
-0.2484638625536393 
0.6717602104250038 
-0.03360854462424043 
0.07025642216745781 
0.02438600155223972 
-0.03373028234454411 
-0.01265521766861634 
0.309551428614632 
-0.1348563243456912 
-0.05134033205913569 
-0.007557951828031368 
-0.006843047237669872 
-0.1482681379375452 
0.040342577197599 
0.5871962690285415 
0.3491447240402976 
-0.04178416212190508 
-0.0664334846477861 
-0.001268391092564924 
0.4540657842947496 
0.0008297376160025134 
0.2657072167846163 
-0.002765747046953494 
-0.02263851063694932 
-0.10780119487271 
-0.0007524533127373235 
-0.008290815483371508 
0.2919922759003578 
0.04419078510554054 
-0.3217592411945562 
-0.8459730019527066 
0.3637341592296141 
-0.003807390957977283 
0.02834336798257107 
-0.2010273206074565 
-0.02965215759492842 
-0.005648036701761922 
0.04983104264701459 
-0.00681481126073771 
-0.02024026171402539 
-0.1013234297402179 
-0.2959134781338746 
0.03028637398379425 
0.07545229261139057 
-0.5744902575099556 
0.005558464770138007 
0.1969376260850206 
-0.01613081450347869 
-0.02380243642631949 
-0.01565070487073687 
-0.006278355536169334 
-0.09082048167843407 
-0.01539204213635187 
-0.03980730574162406 
-0.001547284725454102 
-0.01306833021400098 
0.3620974056784437 
-0.1106883273520093 
0.01370801554172721 
0.06447695138935269 
-0.1487432453466637 
-0.5961318698846249 
-0.1515469769437245 
-0.1551152762106485 
0.6983802848896377 
-0.07044836678585265 
-0.3329110324381243 
-0.627354552614353 
0.1273603861844203 
0.135965493565629 
0.0009450221201861947 
-0.02746735775630757 
-0.01088707630593188 
-0.1151373106989512 
-0.01437912778860068 
-0.01374051501218634 
-0.06985553228923318 
-0.1208886614889001 
-0.1813793851972567 
-0.2418575611394288 
-0.4445104494077977 
-0.158204439933622 
0.2254475754408544 
0.04057589712822061 
0.05308364573509528 
0.003015284456533066 
-0.1329727987270197 
-0.03971427860874428 
-0.02355624901761167 
-0.2059487444008471 
-0.0325802028494335 
0.115267343477587 
0.3092424705502412 
0.1697975365862917 
-0.028704451281603 
-0.0179635429702507 
-0.07268453510573318 
0.08414509147362694 
-0.1325405700835914 
-0.03086610175665244 
-0.001756983496967656 
0.4595513137355753 
-1.102678766856056 
-0.04739642182228385 
0.1227657758279539 
-0.104939195067507 
-0.2646712842294002 
-0.006385547613797142 
0.01305223660278379 
0.02979270223350507 
-0.767562873948754 
-0.004521038625686326 
-0.08652413120519506 
-0.2663696746082034 
0.3345502644368291 
0.09123747084559739 
0.1615127119190951 
-0.3937824673635839 
0.2625134954373762 
-0.002357622329255554 
0.04103860103089284 
0.05989326208975399 
-0.07502232610841392 
-0.06387273397492785 
-0.3523369442486644 
-0.1642753352874531 
-0.06547428609449585 
-0.2693493434003814 
0.09001681382193501 
0.123698291293216 
0.04416151697819833 
0.0002333577939643112 
0.06863301968480697 
0.004033378047661762 
0.06344552109245935 
-0.02901160640434224 
-0.0004173507510320454 
-0.6699229364704067 
-0.02555177903703655 
-0.00317011222538193 
0.08996855205293709 
-0.00480987737652824 
-0.02787624704100997 
0.02880725847932432 
0.03176445252852211 
0.002576001505587719 
0.4452149442441843 
-0.006301998726993377 
-0.0004173507510320454 
0.2797850619289489 
0.03495293509795996 
0.003691785610993048 
-0.002713679614197345 
-0.08736798495646901 
-0.002909254511038144 
0.02696849607307246 
0.02660961781088424 
-0.1286208170437523 
0.001340945701634842 
0.0001212080347826331 
0.02071424965610326 
0.06026217712886222 
-0.009228137535831895 
-0.006920649980897322 
0.09538685902595794 
-0.0171489959638932 
0.2988585851879421 
-0.7068291046037234 
0.3177368727319134 
-0.0505259935940166 
-0.00833628346512302 
0.2043817456784517 
-0.03306863255412409 
-0.01605426887178209 
-0.2990344024039974 
-0.03334315222969825 
-0.01611485700868384 
-0.04768709568416062 
-0.8385682750269976 
-0.04312214943299694 
-0.05834726925870128 
-0.03224506073838435 
0.2010931514396327 
-0.03614481302977062 
-0.06864370667752752 
-0.06633242642306202 
-0.01138104909952268 
-0.0491626381277448 
-0.1582629984373623 
0.02922563471009115 
0.02280096279026103 
0.05007358849898917 
0.6644694576912396 
-0.08008637005691702 
-0.05369817452105455 
0.09838852408326494 
-0.1493433017396226 
0.1047378088376551 
0.2935327348280518 
-0.05004203789943833 
-0.1970651539725481 
-0.1344916747675505 
-0.2392298149712948 
0.03197809236128258 
0.09238717994877238 
0.2023694502516007 
0.03597781588773519 
-0.01688288160093045 
-0.008826832805668403 
0.02779695609098896 
-0.002350651125975575 
-0.04375966162450564 
-0.2926416138689583 
-0.4680270248537282 
-0.01567637506748777 
0.01593704112752457 
0.06674819592468111 
-0.03142274341608893 
-0.6814242565031298 
-0.4096026151143337 
0.1986211558683754 
-0.121476156855895 
0.5464472829335648 
-0.00546748041591299 
0.20616083348033 
0.08096065384547838 
0.01352802385578202 
-0.02831637499953658 
-0.05598147665759821 
-0.1477138564385309 
-0.1248425290138558 
-0.1187807433570786 
-0.03617506221732326 
0.003176428234170762 
-0.05951808924986253 
0.03210847857342888 
0.08721806168050218 
0.2871903105598535 
-0.7737586744417219 
-0.275733880040618 
0.04518264166967873 
-0.0357280639272212 
-0.4691218463134504 
-0.1930187102593818 
-0.1241199141738742 
-0.3150796713013909 
0.007293205754817513 
-0.04086471477926548 
-0.0149659707554765 
-0.02121221350423494 
0.2416625400928177 
0.7499988710594856 
0.1277134421870979 
0.0105246412744506 
0.139897806928335 
0.02316823188654669 
-0.01274092725866773 
-0.007714181601746994 
-0.3706556186613315 
0.09823385038300847 
0.1371558516859261 
0.3055281308028939 
-0.5580493741183241 
-0.07752400952583108 
-0.1049413284987303 
-0.6474900250955014 
0.1232673398934373 
0.4361674565750358 
0.2661064086292328 
-0.004309985179047788 
-0.103254522826673 
0.2838307015189982 
-0.1398443555953903 
-0.0210108636153898 
0.01627630221441806 
0.2825523528929199 
0.06727814927814445 
0.3783427865794946 
-0.3219338772784249 
-0.04998612960321514 
-0.007901543562883879 
-0.5685357409440125 
-0.1104986990549278 
-0.01006456900430431 
-0.006979933898481129 
-0.1773667725603006 
-0.06368547995702324 
-0.007112611864227339 
-0.2405483404001379 
-0.1239321831238568 
-0.005248167588155599 
-0.1187303032316809 
-0.05484147977286765 
-0.02251511422062852 
-0.01146190863352275 
-0.311121090035806 
-0.06573541877206469 
-0.0310041491586961 
-0.01854738541318154 
0.2488267850749156 
0.7409739384671269 
0.01509679620598274 
-0.03777539826623607 
-0.0226346360211715 
-0.004046115066193125 
0.3313682801081876 
-0.01072948316526248 
-0.028704451281603 
-0.02070624173242538 
-0.1327594656047362 
0.4930777911161801 
0.2897579060305041 
0.08495430452885291 
0.5803551997717747 
0.2918057708442791 
0.1213957893201215 
0.02916299669542193 
0.05842550687598612 
0.003626068497130773 
0.1866020429486297 
-0.2526233454762989 
0.3234990826759678 
1.137662842281298 
0.4593109145774228 
0.04793530430503762 
0.02384406131032275 
0.05034488249907609 
0.09409531464660431 
-0.009688733659640389 
-0.02488613952649784 
-0.06726137255223064 
0.04427133713748373 
0.202889553662561 
-0.03592906240264133 
-0.008382597119388739 
0.1925576628467169 
0.08081439217248816 
-0.6248776121304319 
0.5337747605534172 
0.2619327318359345 
-0.01054203422720841 
0.1417299479018887 
0.01399142735610038 
-0.006846508919056328 
0.1996087407515583 
-0.09307291016599788 
-0.1338615474384282 
0.07344113562584242 
-0.02048391153213978 
-0.06771192715594604 
0.1524917012835245 
-0.2837180422035855 
-0.05665367590557856 
-0.1757528301651031 
0.03957694304250793 
-0.02055638282524695 
-0.2202924829595828 
-0.2583345912537692 
0.007155846642538398 
-0.06113530954989069 
-0.05471837380868171 
-0.1455601935710112 
0.5442695340804575 
-0.03751562437169916 
-0.00155599488162579 
-0.00497500050291123 
-0.1694194941473053 
-0.01174834064184207 
-0.02417975324267099 
-0.01124364802529953 
-0.04733096340620777 
-0.0224383618824593 
-0.00531937615865721 
0.04433628027348767 
-0.03979075258165321 
0.6934243307757841 
0.06236073167419277 
0.4325355559284012 
0.1563572212946713 
-0.3940139508713323 
-0.09204292468796509 
-0.02126908251290863 
-0.07141202399660303 
-0.06772435352176544 
-0.08009145278807078 
-0.05815784164519555 
-0.2042462176705627 
-0.01580296073578346 
-0.02167699999665257 
-0.01100368308725504 
-0.1139585009299243 
-0.0001490899612237028 
-0.00222466366310447 
-0.008192483285455826 
-0.05612816229042867 
-0.006693365451269977 
0.1363719551269041 
-0.1641932652009493 
-0.1638165227340704 
-0.05566352422719945 
-0.01038287595923302 
-0.1615374565195648 
0.2555094244883733 
-0.02800653256889518 
-0.06876982669800327 
-0.002518317237133034 
-0.002458864453765747 
-0.1592965532245366 
-0.02794595802436156 
-0.004250520060326916 
-0.1441516841961165 
0.03499614311755236 
-0.05647427473125391 
-0.0008142946896958936 
-0.0443165259315286 
-0.004576367333455747 
-0.01551595404090513 
-0.003047710013938541 
0.06393504996610837 
-0.02610609682539273 
-0.02896987280803106 
0.3655148914035017 
-0.01030979085791751 
-0.2193160362548438 
-0.007252474539253334 
-0.001560698524891582 
-0.00222466366310447 
-0.1847240426497745 
-0.01800283132234698 
-0.1262931475928277 
-0.02785640513045867 
0.009975420585717208 
-0.004367821053138969 
-0.01605426887178209 
-0.1625382600848889 
-0.08968962121758783 
-0.07731233775225301 
-0.1430070391887822 
-0.3933573507923948 
-0.02061384493476045 
-1.5642924934239 
-0.01866152036191867 
0.4269499878776148 
-0.006132028459138197 
-0.005481070228027171 
-0.01452833208893129 
-0.2117386939228333 
0.2660655656608458 
0.01654762202213474 
0.06292957598426914 
-0.04552224138229351 
-0.1905913610858027 
-0.01075417699928894 
-0.2035685106632386 
-0.09065113950287508 
-0.002682710643293204 
-0.001826875128991851 
-0.04629352346084977 
-0.01866219644587268 
-0.02577710941620293 
-0.000526123308790154 
0.6009817828635716 
-0.0256810476442849 
-0.1749231368768983 
-0.04941771835968881 
-0.1859971371863558 
-0.02092410715306408 
-0.003483595341529139 
-0.01037140467645622 
1.718331985198507 
-0.01729899187000006 
0.6048779920181071 
0.7433322857204576 
0.7087121910624196 
0.334530457288457 
0.2811308353037997 
0.02603046168107115 
0.5120435972463134 
0.06274669743827295 
0.2042576729520687 
-0.02931770844160566 
-0.1611514223979554 
0.2840521383327798 
-1.188386660190563 
-0.2732983668452835 
-0.2186075274064379 
-0.006700636522796516 
-0.09745045852377178 
-0.006613760212655654 
-0.05736197266215508 
-0.04792789526605019 
0.3203724197332132 
0.2021323999516752 
0.552102665300434 
1.699487142009208 
0.154856381537164 
0.2192003527287819 
-0.001629029108187459 
-0.09682536594883254 
-0.05638039197941641 
-0.3416603934825449 
0.3292728929603165 
-0.04559827645646478 
-0.3969493271307923 
-0.02147300329253609 
-0.03634156835106905 
-0.06438388957685005 
-0.2997461900166829 
0.07356823217407535 
-0.02280432218550697 
0.1205264071318653 
0.1740348199511505 
0.004144850921992827 
0.1256910400580905 
0.3631040414811781 
0.01397148815951946 
0.4172291896787103 
0.227848933751274 
-0.03725536016101413 
-0.01234883603895696 
-0.1924827691163363 
0.05430130360791119 
0.0001703198870038063 
0.04420901243764576 
-0.1367868147382417 
0.6314781457009536 
-0.0003242368786594748 
0.3882076938147938 
-0.09154017294886947 
-0.003446741718067176 
-0.005985953258844765 
0.02643351532129065 
0.04761128946173358 
-0.0127870865006369 
-0.03091580495730183 
-0.003405055893036116 
-0.2840885000723912 
-0.02813318280130862 
-0.05179492033319495 
-0.1221229757834484 
-0.0006979905967649088 
-0.05681295563223082 
-0.0003192033900516907 
0.05712744457133655 
-0.01360699362092289 
-0.01605426887178209 
-0.06425170637382092 
-0.006587656815342301 
-0.08957130896263821 
-0.05993728467914924 
-0.0156868663151118 
-0.02998838559912486 
-0.2547834882054281 
-0.163230003427051 
0.4639959056662441 
-0.009538895182546216 
0.380292719423845 
-0.002024516298051865 
9.588566087870743e-005 
0.2098623800321119 
-0.323294814367118 
-0.05519812425201036 
0.03959028058432741 
-0.01713128337775588 
0.3254443291309321 
0.3547025863812928 
0.03309356127962861 
-0.0005672959677984729 
-0.01376048781682536 
-0.05426981360309328 
-0.4496890120829397 
-0.03605929664679514 
-0.14565682003789 
0.0839762084689092 
-0.02625166992477353 
-0.009076411390248198 
-0.1042191137636639 
-0.06501861517610073 
-0.02838872698376159 
-0.1654122426945395 
-0.4909549882227788 
-0.04580688785879011 
-0.02391534835083863 
-0.05629662564823151 
-0.01394626288890619 
-0.1219122128494268 
0.4342780489665952 
0.02918305920586484 
-0.02322280542217068 
-0.06270558288959831 
-0.01916775492129936 
-0.069293529604375 
-0.1000216212296023 
-0.00535459234634449 
-0.1964106861772658 
-0.0133187004444712 
-0.01119370286149547 
-0.003393381908385479 
-0.01115752051243606 
-0.1335703828715074 
0.005935435228684598 
0.026111269910468 
0.01140474432833488 
-0.01593246126750754 
-0.08087442428009369 
-0.04712499175631577 
0.0004239996323019084 
0.1187202270678975 
-0.01649238308727417 
0.02143423164332827 
0.09288523255522629 
0.05555157649461535 
0.3886164618923679 
0.00606787380536801 
-0.3119311581344439 
0.01084426175578291 
0.6182792378415832 
0.0155484289258062 
0.2695234807673881 
-0.01076466779771995 
-0.2536201975997423 
0.1394232940233091 
-0.1580956012469488 
1.318121720475788 
0.03732176636446435 
0.01493279595924015 
-0.001032409915045319 
-0.03829990598144972 
-0.02509017411087433 
-0.1602529242898473 
-0.2355525928369103 
-0.2068930844664701 
0.09314069030282872 
-0.001049635191924188 
-0.006876339277231042 
0.0216925876710823 
-0.03864956424079637 
-0.08223823271134685 
0.3050159736725073 
0.0006511684979515238 
-0.08799883579822584 
0.1075083376140391 
-0.1633214332803497 
0.1767187374853786 
-0.1227390734016584 
0.04830906131608554 
0.4414788197721981 
0.2223856181054921 
0.01980745687465613 
0.008849331770238895 
0.08891738447187189 
0.01287141814793534 
-0.08666021727895393 
-0.02583722997584267 
-0.0009618791271862747 
0.03555757049968578 
-0.2618426912149772 
0.2886451293331552 
-0.5070246947377703 
0.2129433676425807 
-0.1279433358856027 
-0.02143003506775061 
-0.1578937883089812 
-0.01772871834414259 
0.3418084006796012 
0.001947428148036018 
-0.06760153229475419 
-0.004948423944294351 
-0.02556198291018381 
0.1983502081095137 
0.0002934561580551884 
-0.03601110282792548 
-0.01881367269665264 
-0.01768072232060585 
0.1978604068275461 
-0.005999658496754875 
-0.1808978987415944 
-0.06446472384722794 
0.1691937457057553 
-0.05621617552208051 
-0.537575239376253 
-0.0009690702074473853 
-0.004536987502084061 
0.3323819366376347 
-0.1660258424577004 
0.495657197532308 
-0.06451015967251694 
-0.002196819963969203 
-0.9042752783478179 
-0.02460038491499977 
-0.1854810013716156 
-0.007415917321566167 
-0.02272633884476985 
-0.5392525791251235 
-0.2660614323519533 
0.1246610671998398 
0.2758920624176183 
-0.6807363644399459 
-0.03001608189399812 
0.5770161857751179 
0.009433635783417615 
0.2280392628863608 
-0.1349552446610214 
-0.1688755916571884 
0.9123418642849579 
0.6593337400326278 
0.1308814295299248 
0.01081968253310269 
-0.9324759585128073 
0.1826119648403171 
0.01541011079836011 
0.04980012664272621 
0.05191729560775846 
0.01243236229236062 
-0.02747039386161928 
0.5719433779781206 
0.3515790325371881 
0.04974674223429809 
0.2298416479668959 
-0.2358158314110431 
0.2449492157467564 
-0.393345449311459 
-0.1727987658346321 
0.3725127424373148 
-0.002013869428395496 
-0.1841304446962391 
-0.05155808376465492 
-0.01636990845644649 
-0.01183435992471884 
-0.004541663076670548 
-0.03686196220669738 
-0.09560261793485875 
0.02660580909662491 
0.3111956653158718 
0.5628281411921655 
-0.2234386934917923 
0.002832599844280965 
0.0007570915008840565 
0.2003267064565842 
0.3349437191939192 
-0.2564682583543458 
-0.04620308764173449 
-0.0216409388844262 
-0.0377173887404187 
-0.01536879252715178 
0.05989326208975399 
0.06421923656321502 
1.709462541255917 
0.1401730376778794 
-0.009245637747764546 
0.02681431650372393 
-0.06486635319537834 
-0.5565872155851488 
-0.007164454750618149 
-0.02973601428105568 
-0.008560762373349275 
-0.02288002726102343 
0.5664563208562191 
-0.1485888103032798 
-0.006667820754692005 
-0.0004173507510320454 
0.3108446293245436 
0.01594251504660517 
-0.1766173628979284 
-0.02393268794861266 
-0.008521039962295671 
-0.4398880797756596 
9.448752649445339e-005 
-0.007276641928449627 
1.002284416416613 
0.2425436626807241 
0.8582559107115638 
0.02700721130404876 
0.08967648075913917 
-0.08057524799028555 
0.1306369054444866 
-0.06216601745692937 
-0.4458504732451856 
-0.001318355280694107 
-0.02470083318618512 
-0.1221653689750488 
0.2118736215431682 
-0.003692771699833574 
-0.004928972802541579 
-0.006875598370047401 
-0.01488769209217832 
-0.2128611978918044 
0.03808201356102799 
-0.02046865550095788 
-0.1026337328186873 
-0.1241513122554406 
-0.01658337848106326 
-0.003200854808772076 
-0.04847262322614056 
-0.04188895589905738 
-0.003787977702990132 
0.6659443051620213 
0.2951760048569211 
-0.09396687167400315 
-0.002186504847665225 
-0.1345846273297933 
-0.01461642413878846 
-0.01597194280646526 
-0.03242496622647051 
-0.004187035960378895 
-0.6096162663117638 
-0.01573590332630658 
-0.02379621414183689 
-0.004262294949106373 
-0.09801277904363376 
-0.02365816827392277 
-0.04058240216315817 
-0.2330203695259142 
-0.009511504877220373 
-0.1230831747620494 
-0.007270176532538451 
-0.1813310611702448 
-0.6899281296140816 
-0.1633214332803497 
0.01354780136273124 
-0.01961136942373819 
-0.02699837026443232 
0.37635177565206 
-0.6832298478795751 
-0.1714854950099664 
-0.003747260445273378 
0.008811690167409399 
-0.002297202616541262 
-0.005985953258844765 
0.3118282511650314 
0.0002307280664414943 
-0.05045782671047513 
0.06828237942192482 
-0.02867422512206997 
-0.01071064366339985 
-0.006151663300395117 
-0.02255602068469931 
-0.06027383823921562 
-0.03577124919012997 
-0.2103727022781664 
-0.0127547338830035 
-0.2584071538479525 
0.3315897235031799 
-0.3269040664538151 
0.01440872367780111 
-0.00535459234634449 
-0.05249465858656797 
-0.09593448820345238 
-0.04763325414981645 
0.1237986876620008 
0.1218848911529438 
-0.3955712831032425 
0.04561957896658727 
-0.008219218268361049 
0.2491095874700461 
-0.04712039501031033 
0.001932440338857024 
0.342909515523941 
0.05652219202052115 
-0.0100963146946081 
-0.5954564629757236 
-0.07825735443170873 
-0.00508767598489814 
-0.4354201931922118 
-0.1192604404228385 
-0.006583745863755141 
-0.04572636967947628 
-0.07941536736371414 
-0.05288709500548199 
0.06010471887789809 
0.03885106968419415 
-0.06935418975258212 
-0.296824321266923 
-0.2914058412838387 
-0.05092999680260978 
-0.01268089386130538 
-0.04023012648936324 
-0.002064857305028542 
-0.07072007076686956 
0.05053388003788945 
0.2955272803452367 
-0.1514944304358452 
-0.09681456629713781 
-0.3052289025763811 
0.3090048617153738 
-0.07365993446701503 
0.06770480206659012 
-0.03323756331994301 
0.1432812586394275 
0.2031262774966531 
-0.3691136767139409 
-0.02537401845281848 
-0.3458837139008855 
-0.006846254440265414 
-0.325480294983274 
-0.01893210932838785 
-0.005836050046869528 
0.1632823068145541 
0.01208089230946201 
-0.3593761762830003 
0.02937806130342142 
-0.0008315498456192173 
-0.144518084285863 
-0.01196390446531314 
-0.009491253418971439 
-0.03070878989775333 
-0.005965858550373082 
-0.01933921818590186 
-0.1002089501654618 
-0.08359991070894283 
-0.1486207305425483 
-0.3914116802665602 
-0.0006218167501438978 
-0.04813366438871702 
-0.08615579585500988 
-0.01586742546856336 
-0.01863794034412928 
-0.01705303335621293 
-0.08795798782469511 
-0.0253588582379372 
-0.02635075750854538 
-0.01939923852803505 
-0.3347481267622315 
-0.03525144991870442 
-0.01458808289990843 
-0.02181290595124701 
-0.4683603720672515 
-0.04031150529353389 
-0.08269732466520174 
0.3882796445489957 
-0.6103675200287971 
0.5138516269114807 
0.09699344296558954 
-0.03654935476763849 
-0.3144302149373821 
-0.008314062384092543 
-0.03100082892851415 
0.2632309699828027 
0.02531063771854797 
-0.04652149027675391 
0.02867918221601404 
-0.1448713991771986 
-0.03590782720952949 
0.04075343208494335 
-0.11513097833083 
0.043173565196932 
-0.02251151526311084 
-0.007390902160841278 
-0.7668361183744026 
-0.01076466779771995 
-0.04034977188967098 
0.0936369840662499 
0.01783223003561734 
-0.0004926237872993648 
-0.05990950022839089 
0.643229513990211 
0.07503367900689373 
0.2088424511676353 
0.03124105830555144 
0.03186178972066377 
-0.02252483963697751 
-0.5109286731826624 
-0.01513283219752835 
-0.0004044500490362615 
-0.0042386439512671 
-0.05049762137079568 
-0.1944533436973099 
-0.4150858087251486 
-0.02477440563056442 
-0.02226610233375205 
-0.05435522426924253 
0.3897553629627633 
-0.01734382235478226 
-0.01603311855998193 
0.01262235870126584 
-0.01042826172062164 
0.1385658658194402 
0.08400012878289215 
0.1101649590043643 
0.001693998624580581 
0.1551069705521658 
0.02447740613210987 
0.4488456999797825 
0.1715521327840198 
0.3854392318271762 
0.3434326475985779 
-0.2099230147504791 
0.008080151629614514 
0.02543802666508311 
-0.002186717146031094 
-0.0229628822045087 
-1.188082128530403 
-0.3234127818662387 
-0.3171870327700084 
0.4390611776178739 
-0.06514016618306534 
-0.002297609010678343 
-0.02975833804908645 
-0.249440647787622 
-0.002410134069659133 
-0.004722464197992188 
-0.1524481618610624 
-0.029565764903415 
-0.001706501101567737 
-0.006094868546544213 
-0.1133317833866374 
-0.8784177623506796 
-0.0004372141243431402 
-0.0486457863719332 
-0.2383890304143448 
-0.02421667071559121 
-0.2156874818819046 
-0.006098786870845114 
-0.03166449245292012 
-0.02373091204632117 
-0.000700707474348763 
-0.02854232511348374 
-0.197279449454129 
-0.2303038805725578 
0.02504855871750083 
-0.01037778985829007 
-0.1641275727757894 
-0.005764925033540467 
-0.1083066040186419 
-0.00602046461598746 
-0.01463618394159603 
-2.422191854252695 
-0.1854345839872188 
-0.1810364790990054 
-0.006647773809564161 
-0.005441850453710763 
-0.1806716225080135 
0.1126413080513428 
0.4806308055227447 
0.001910243892444842 
0.03583478364857635 
0.5218236530335836 
-0.02411801104376973 
0.006162538595131638 
-0.01102555402495705 
-0.04294694861465473 
0.2484060366633894 
0.02763221855780141 
-0.02778424077156478 
0.03102415458379283 
-0.005036318419853939 
0.02593115960992959 
0.01983306448850408 
-0.005317083874745747 
-0.07975708521093486 
-0.2257766718490252 
0.2585306041466011 
0.013440436426071 
0.0003732530413535881 
0.04493211348305766 
0.0001669816625186395 
0.02532576931900827 
-0.04246214929893909 
0.02389774028217932 
0.206975545992786 
0.1265040055119858 
0.05362735007076196 
0.03329801919376801 
-0.4907922908747258 
0.05989326208975399 
-0.2927324133355376 
-0.02196818032945785 
-0.005763632407348287 
-0.01683914914367557 
0.06408851877873666 
0.7085778152010941 
0.002516755144331657 
0.1795091487021518 
0.1378867536331978 
0.1319327440965885 
0.000700474714926066 
0.06890707374784426 
-0.0008854003011687355 
-0.5109301678155405 
0.5866249812058115 
-0.1564405279555719 
-0.2923369829810305 
-0.6152599693501212 
0.0657410785685556 
0.6055562404569485 
0.05608225217090913 
-0.01076366930332567 
-0.02782369725061405 
-0.1155339680725923 
-0.01754672124449561 
-0.1591160263320576 
-0.142492421424875 
0.2812558019068602 
-0.02838881370473297 
-0.2585791454219347 
0.0610396557029259 
0.07540591699645161 
-0.2227814493057733 
0.03329228446056878 
0.3484152214518025 
-0.06159761495569249 
-0.03214040775238734 
-0.003605388673168546 
0.5603784779842795 
-0.02344611341245659 
-0.1205569453376253 
-0.004706063348567639 
-0.01095277279351127 
-0.01113805990518622 
0.02096412461975223 
-0.069143423584184 
-0.00558197989200757 
0.001152029455947376 
-0.3921995048876165 
-0.01517993181211238 
-0.217046413487263 
-0.4809104402424099 
0.07924428269070506 
-0.3211164001203197 
0.05474510126312401 
-0.07222724780878158 
-0.02766370518644869 
-0.02470083318618512 
-0.02524386069059289 
-0.04131011545888474 
-0.07678330892356446 
-0.006498118009102831 
-0.01599333172780658 
-0.06674237970685058 
0.1384187796268658 
-0.01058303292880095 
-0.06573541877206469 
-0.0357582124354907 
-0.01064877052277838 
-0.01557530811405291 
0.1758978788223174 
0.00492891105837806 
-0.2960629992205364 
-0.05381024941796569 
0.09623272685876166 
-0.003835717936570135 
-0.02832171613926298 
0.003438913977064002 
0.04561453252582069 
-0.09030328068235435 
0.07060531229052677 
-0.01127751630619365 
0.078554187310895 
0.02822194195383429 
0.2445795144941293 
-0.01825215166537859 
-0.04673966680862301 
-0.00508064401435369 
-0.05027952465687961 
0.1250152039108657 
-0.08165608108858466 
-0.09063710159612617 
-0.006190550783549276 
-0.1225842246526634 
-0.1335797151166279 
-0.05117210250041242 
0.04395440627480335 
-0.0572806923171408 
-0.2700706874229316 
-0.008100238302088428 
-0.04572397441703283 
-0.1429282951075853 
-0.01841986530369468 
-0.3439904733753195 
-0.01331787494407258 
0.1020710056740711 
-0.6339540209652261 
-0.954713892785538 
0.1856298712265046 
-0.03028106124114417 
-0.05412648321205313 
0.3362469274065171 
-0.08537075808708437 
-0.3105791078166405 
-0.02767494139823746 
-0.0224383618824593 
-0.04303538882941595 
-0.002416551608393239 
-0.05302068818776134 
-0.02411214526237256 
-0.002173022076065594 
-0.03925730652847274 
-0.007731896851215354 
0.008241382038830059 
0.000147962115734329 
0.1230412245991581 
0.01080659247375761 
-0.00222466366310447 
-0.05532510604319974 
-0.2352149378797451 
0.2716587722647359 
-0.3670904067802416 
0.00905588834650467 
-0.5186060669818131 
-0.3077986504789804 
-0.1763140318854114 
-0.02431938113481895 
-0.04345413566651935 
-0.1233041701089948 
0.3659046128449617 
-0.1899669091743051 
-0.01909008653730776 
0.002934640254455834 
0.0007844289914384822 
-0.007137270428964522 
0.1503597271244577 
0.08699258296580179 
-0.0002951395446848045 
-0.06568690997673593 
-0.0512978510959106 
0.03682859367972937 
0.04249449717312184 
0.003796479078431403 
0.02890097009709055 
0.11469927068078 
-0.1802794520035125 
-0.002407050118874954 
-0.003129790808986147 
-0.2457275070272646 
-0.04281553872588066 
0.02544508388683483 
0.00611999411195661 
-0.1106243425071457 
0.5856786002014702 
0.1145015351959921 
0.2206148354092929 
-0.09630273241386286 
0.04522924857741578 
-0.005793278490936803 
-0.1622238308114391 
0.01981493734167747 
-0.04783727406417719 
0.1295286248555533 
-0.04179989855926684 
1.33705580141036 
-0.000332705629934672 
-0.227203894275049 
0.07600463865059716 
-0.02330083717850263 
0.6366372842158131 
0.02446896137969788 
0.008539970432505234 
0.004325209304134531 
0.1393930940630101 
-0.01432365738072238 
-0.303565393660769 
0.2639753044931276 
0.02056767292924411 
0.06878808363898435 
-0.1926724589399286 
-0.004559287146463708 
0.007045489674247564 
-0.03392362145541918 
0.1930690589311246 
-0.04586378731328168 
0.06039460053222921 
-0.01465724670479027 
0.171463533525429 
-0.006153527150603667 
-0.01736039934208503 
-0.03426685612197501 
-0.00271527203958122 
0.4719546370894123 
-0.003931202447697828 
0.4889218009972841 
-0.0712642171376448 
0.3699017961370085 
0.009826040006998073 
0.07862174313355611 
-0.008052492534936217 
-0.2335430111535666 
0.0008366482010757934 
0.01250840739912006 
0.001919928968289567 
-0.4364196468704569 
0.03442301808183053 
-0.3516411269353257 
0.001356418581934546 
0.1388531772516785 
0.0386806542515956 
-0.4914538396198816 
-0.02465540338561766 
-0.007520961798324831 
-0.007089628893222397 
-1.160529577878755 
1.011733329884094 
-0.006925333038787474 
-0.03631525703476847 
-0.01468183597426857 
-0.009060031733743444 
-0.0730795204261705 
-0.05989778899943483 
-0.1387997958678411 
0.02104063299241737 
-0.009830057391189808 
0.1294855928275781 
0.02113055248261094 
-0.1771413087571013 
0.1488684117521094 
-0.004628316129531016 
-0.002251594079181509 
-0.001166518598770702 
0.01440455463014607 
0.009346483377044216 
0.02716438523836631 
0.08027107884831601 
0.01283603469753424 
0.3351841037228691 
-0.003184686374131359 
-0.001238459226699157 
-0.0008057062842134789 
0.1138130832608132 
-0.1333419241282886 
0.05366895701677218 
-0.1423772314246928 
0.07715152158801715 
-0.02241979854103724 
-0.02003237357384896 
0.004165321604646536 
0.2028168040199327 
0.001152538398296297 
-0.0003227554540701555 
1.103471257230591 
-0.03599162932665815 
-0.007865937290821337 
-0.01852229638963406 
0.02109454217929301 
0.0002279800160433095 
-0.1508605703717827 
0.08568420097102482 
0.2742118590574857 
0.1765332432785594 
-0.07813294109102059 
-0.03589489911371923 
0.2007020600388448 
0.01123342972586414 
-0.2893091711919362 
0.04622094305599933 
0.1997476602530794 
0.2139696410648303 
0.01528659700620551 
-1.283166838340542 
-0.01282863004440894 
-0.1453505072959569 
0.01062349330189653 
0.07589870860811952 
0.1497652935824693 
-0.1574921591842192 
0.01325619270055809 
0.4477728200602382 
-0.02150395524442346 
0.04941097022615654 
-0.06168106177331301 
-0.003563251793344025 
0.001813425170300489 
-0.005939915502514358 
-0.5357546105759474 
-0.004718497390984395 
-0.3599954790043614 
-0.04198577407255934 
-0.1249301085629397 
-0.07095858831082834 
-0.02141296838840442 
-0.05521587924427487 
-0.06566482709430008 
-0.01369812624092844 
-0.3439418465536008 
-0.2288826858065072 
-0.2738341012399303 
-0.2725060799695757 
0.3547859872782528 
-0.1052015070407306 
-0.003440578286648204 
-0.0006858615902461162 
-0.0005699057431312962 
0.2880825891077123 
0.02400766235622695 
-0.0891386496455383 
0.0006880459229419949 
0.0295648831281166 
0.006546764026633431 
0.03556808511241381 
-0.0238853564214869 
0.002564696161177843 
0.001063029719474483 
0.0189415608913314 
0.01137367353138515 
-0.01721720216025023 
-0.7282535902529219 
-0.2829034744197367 
-0.08198035724564393 
-0.1267674750205094 
-0.08295811841732931 
-0.006960626395934146 
0.2602958214386529 
0.5093681726678001 
0.03480869151360441 
0.002116717234828186 
0.008074698419324074 
0.173774215595572 
0.02544908234760286 
0.04398873256277384 
0.6414138402473278 
-0.009680892852802542 
0.03914197651388179 
-0.09831509492928675 
-0.02260645235965276 
0.06807711999684009 
-0.06486635319537834 
-0.004099841292187593 
-0.2461347442664522 
-0.0662272451577626 
-0.005221635634728438 
0.05605412953596581 
-0.06781124181434438 
-0.05352303608098152 
-0.005545250583239741 
-0.2414543873954444 
-0.003229203016354423 
0.02299041392558678 
0.002212567663921585 
-0.003964769694646305 
-0.08691652312863926 
-0.00222466366310447 
-0.01750103550004168 
0.07324772387349422 
0.03309356127962861 
-0.04904002506827015 
-0.2908226969473445 
-0.02177253575755754 
0.4908761014489977 
0.1953646429810652 
0.04660674031052953 
0.003610315575599497 
0.03232816345913119 
0.05233930741934664 
-0.05760992189579561 
0.489107890728519 
0.02931385715090199 
0.2243072675718442 
-0.05560621748650219 
-0.0005305068561250218 
0.05786698923408977 
-0.06430287765092985 
0.3935655986018003 
0.06709779863142963 
0.02476730063708814 
0.8030241838384469 
-0.3133804996580356 
0.1571458363054194 
0.2146711976457508 
-0.09548161376548225 
0.2729498284112744 
-0.1167213512934924 
0.2045122295997029 
0.02144879534607868 
0.004187497150605225 
0.4803401638839083 
0.2262810108810768 
0.002168116095636106 
-0.002357622329255554 
0.0874973215352484 
-0.006174802616442598 
-0.01393950760058987 
0.25631211553199 
-0.08227690441563249 
-0.02576737155017979 
0.02049548349145412 
0.03466208401209771 
-0.1080474439534368 
-0.02384539524789407 
-0.07536469386139655 
0.1351205429245366 
0.05811561793149857 
0.1111301341148434 
0.06027901074876993 
0.106700003624475 
-0.8635917919436001 
0.06274431516056798 
0.003372302062744909 
-0.02786431777446993 
-0.4935516003263851 
-0.1281705760683692 
-0.5685648334307215 
0.01783535443436879 
-0.2802776099989058 
-0.05300082304684797 
-0.8489021805503516 
-0.003422500330749223 
-0.01013120996218096 
-0.05301746439941216 
-0.2373420145221989 
-0.2795268364815888 
-0.1345232896757248 
-0.003944772783692978 
-0.0004044500490362615 
-0.03606058056289838 
-0.03912225890774967 
-0.007928216679806241 
-0.02503527511707462 
-0.03545745202244386 
-0.02850570015400087 
-0.003600993791648639 
-0.01859118800927111 
-0.08496501835350843 
-0.05956032870976159 
-0.1162601441676451 
0.148529442862059 
-0.01283160397234482 
0.03431183301377089 
0.06805564228592882 
0.03049144896095184 
0.06672284552965303 
-0.3573733638002199 
-0.1295444235046525 
0.04061674929054812 
-0.4152555764066182 
0.5904956104731 
0.0552760304732785 
-0.02393367979388511 
0.001330139909121528 
0.08987520980350237 
-0.01437912778860068 
0.2833278461122769 
0.1482948623245528 
-0.08528137714438068 
0.002341080835815391 
0.1121951264486626 
0.4314538331964513 
0.4148226150614596 
0.01784163305120445 
0.1682710310462814 
-0.5960663035965507 
0.1513642340431097 
0.001138738328101671 
0.004102665764315087 
-0.03512286730850179 
0.9181382312862514 
0.2001766742736399 
0.6326911414341074 
0.8627903665382312 
-0.003276960585827521 
-0.01849271807974736 
-0.02921995510328541 
-0.1325630990828212 
-0.01076466779771995 
-0.2515753007201607 
0.1078913474828428 
-0.0004173507510320454 
-0.02758534362188538 
-0.3249249152456969 
-0.0004173507510320454 
-0.06818893277694892 
0.006288963462009872 
0.03933473889031154 
-0.01176300197155368 
-0.08312585756183201 
0.2420471469194212 
0.1606141384001625 
0.01547554120642977 
-0.5294905754880281 
0.02778209196049788 
-0.03627626845693801 
0.02906983800172003 
-0.5266914833400344 
-0.01637500357073809 
-0.004618096961109811 
-0.01980967567998534 
-0.01168616457196254 
-0.07187805230521616 
-0.1263946942014916 
-0.01942016360132007 
-0.006150067515794729 
0.1628985798226784 
-0.006122586524804926 
-0.007212549407157516 
0.1657227018534685 
-0.0008775874110145894 
-0.02785771145040556 
-0.2657259084101848 
-0.02307606967709585 
-0.00410014977356062 
-0.05581767128165597 
-0.003112243475529232 
-0.1284319107190833 
-0.1102006239837575 
-0.05091578820489892 
0.2805163602184008 
-0.09124841941864618 
-0.02786279429481209 
-0.001666989158676 
-0.1105940604155285 
-0.007125808191372781 
0.2361142210805245 
-0.2524591505348596 
0.2304404220497578 
-0.03876272052522708 
-0.01774012977194206 
0.1477418415733257 
-0.007505078494705179 
0.1625284651256961 
0.03255473821444448 
-0.01268521943360284 
-0.0005537332380620141 
-0.04136867155780189 
-0.1408996793862722 
0.04260545595943658 
0.6162101641501689 
-0.06224691475349196 
-0.02883392681253973 
0.08293051942567374 
-0.002211748194272411 
0.4278210407015762 
-0.599415577656124 
-0.02704430275269412 
-0.005245434864603265 
0.0323210266296789 
-0.07691098723008895 
-0.3213843905884288 
-0.0451250331160868 
-0.01970393928037675 
0.3765161560848723 
-0.05079104599270438 
0.05223071320022088 
-0.02609086988352694 
-0.004598068950461817 
-0.004355309462374073 
-0.130072679768005 
0.02125180082689368 
-0.008420306452779674 
0.2009824720049085 
0.0118312161617228 
0.01647029727453617 
1.179728875750587 
0.1253888931740799 
-0.02464155677087169 
0.1575374853313707 
0.3099143749016695 
0.01051972200060558 
-0.09738117041371544 
-0.5056298486072576 
-0.02617297885295281 
-0.2314695518637042 
0.07819451352953166 
0.6545970227052712 
-0.01106765207193961 
0.0003235467279676148 
-0.00481806058368116 
0.09229210448195503 
0.2846536577504811 
-0.1204471561865021 
0.05594210517525452 
-0.001385691081874629 
-0.003453628029361836 
0.1562044314423645 
-0.2072476717072351 
0.001491975727624935 
-9.588867258847258e-005 
0.394972881240854 
0.2919790673547695 
0.001316715120985926 
-0.1280244908539209 
-0.03693546076551586 
-0.006659636030695266 
0.05321613537326996 
0.003087969951815326 
0.1765865536310661 
0.0646881330563162 
0.02598934953134582 
0.03827777844334144 
-0.3408801080882349 
-0.1584311205541386 
0.57634866495261 
1.064004135524791 
0.02056396441946278 
0.005278719894846813 
0.2018535615361501 
-0.01176515908502949 
-0.01127086856650765 
-0.2709711563387949 
-0.0100995918309699 
-0.01502082669882116 
-0.01077844434478667 
-0.04380162345005655 
-0.09088579149972942 
-0.1540730933153037 
-0.3032733437345734 
-0.3283660893490513 
-0.05104343852163795 
-0.02157994603482587 
0.07770227163725486 
-0.1925741885517476 
-0.1232062464447733 
-0.006286602253872277 
0.3527439299818143 
0.005813541151928017 
-0.7486081428805166 
-0.003492080731419542 
-0.6103217718265188 
0.2551534414067731 
-0.03508327031374447 
-0.9260884660438267 
0.2030071392554881 
-0.3550898070435163 
-0.1481823629847316 
-0.04228039169140006 
-0.01137684878777386 
-0.06261852739247824 
0.08911761539277269 
-0.05632062838470062 
-0.1963339088109791 
-0.07455922834938342 
-0.0723170777727795 
-0.03892380084740098 
0.05858035778451597 
-0.2514348928257308 
-0.02013972617088232 
-0.01076466779771995 
-0.8093569452589008 
-0.007606333681256026 
0.01032873621599081 
0.2576955514149848 
0.3344104021783413 
0.4104437010724694 
0.3373076977962073 
0.07364896581813328 
-0.03766732805791707 
-0.01829805489833369 
-0.08620825741844705 
-0.02405431681539384 
-0.2283684770220651 
-0.03532085297306903 
-0.04445946576485403 
0.0192181375078123 
-0.5226740460655511 
-0.001413250908168153 
-0.6388272684779704 
-0.004735473146507577 
-0.004688281415821808 
-0.1362566000199119 
-0.2854943124934369 
-0.09422805617079091 
-0.01229617560278022 
-0.3890328449372631 
-0.3182681599722658 
0.009025783954051778 
0.3232558448383202 
-0.002103132101493873 
-0.0009230310070541369 
0.0186847221368592 
0.08084179862903794 
0.0349703748179962 
-0.06616954074860855 
-0.0794423099468741 
-0.6371440530724094 
0.03766412508236618 
-0.452984794573861 
-0.05596802092589399 
-0.03828387787923471 
-0.2012031074272119 
-0.04810699557981812 
-0.006352615999958833 
-0.3308020579358232 
-0.00664466859341964 
-0.00234065041744665 
-0.1844160982388375 
-0.00333751079528073 
-0.2028684338673216 
0.2508763098695367 
-0.0041877428708346 
0.05894376187712165 
-0.00344364748674651 
-0.01437912778860068 
-0.133239690832888 
-0.01169294616414044 
-0.1211191818858308 
-0.08152678515327429 
-0.005242463168223063 
-0.1191299300259306 
-0.06024831660216688 
-0.001556808131841448 
-0.007236006864828839 
-0.02925147831963971 
0.4738964674466816 
0.02726232790001463 
0.06600575972553036 
0.06672811767363986 
0.9071839625129536 
1.170221575415407 
0.3234984874610221 
0.2061902421063647 
0.9002413447223361 
0.614143386238173 
0.4091029962542709 
0.7602240099391417 
0.1774278791654494 
0.1913824507721435 
-0.0857843587756357 
-0.02053477317151637 
-0.07652771503095644 
-0.02250970061510971 
-0.4267971904456487 
-0.1891467950203134 
-0.357590916501366 
0.01205836098932356 
0.02254437867385816 
-0.01300418101104203 
-0.274492778531591 
-0.009168132647827624 
-0.01076466779771995 
-0.01743769195081718 
0.0005318382856983658 
0.3548382019159283 
-0.3357628638356751 
-0.006333024801796625 
-0.04764268202517256 
-0.01499753879809495 
-0.01515965847265157 
-0.01090175843440439 
0.07235677582573249 
0.1594510741639617 
0.4694925650424244 
0.03985313334303942 
1.737735931222753 
0.1092043891550261 
0.3215448867990358 
-0.133661219733085 
-0.07423283103617934 
-0.01784546750088435 
-0.02995522188016435 
-0.004023143153100436 
-0.09121547436076671 
-0.2717012909400112 
0.05271584101753155 
0.3827429924681913 
0.4163749672990273 
0.1843300592553481 
0.05202421396723048 
-0.05612321486518102 
0.03991507387894781 
-0.08978771984643606 
-0.001560437748493564 
-0.03143962672061187 
-0.0001937393614192324 
-0.06584024840420859 
-0.005316403470441362 
-0.0008371889554513352 
-0.0221490139715943 
0.2643460581339279 
-0.1776365293104381 
-0.5667233874250823 
-0.03451251483935668 
-0.006713063496986745 
-0.1860912340091572 
-0.2791383063163556 
0.6758809886210556 
0.2552801775492377 
-0.3650209026579256 
-0.1401839064684076 
