solver_type L2R_LR_DUAL
nr_class 2
label 1 2
nr_feature 4077
bias -1
w
0.3328290524266866 
-0.09725805116912764 
-0.1508352252668666 
-0.1369973242388969 
-0.1658230334924908 
-0.3957053429326087 
0.05635487506545941 
-0.02611210984344742 
-0.3797046272998439 
-0.01553397051208968 
-0.006191737275627124 
-0.008032497986693254 
0.03788290577922817 
0.0003723968486320167 
0.001231774613918507 
0.2488819076547174 
-0.004773432288305728 
-0.004601378641444386 
0.1818530353085013 
-0.001454670900208093 
-0.0004863360626664959 
-0.006052791433569823 
-0.001762259708129914 
-0.000963802606315455 
-0.04665480945651656 
-0.003365142281678224 
-0.004878099893269378 
0.3305558316826739 
-0.1040251515087966 
-0.0002675559022801099 
-3.898514400102984e-005 
-0.0003913179576429329 
-0.03911694900557724 
0.002428129170873716 
-0.003966415242605097 
-0.002450907023864475 
-0.02009922645889563 
-0.001307893968676935 
-0.01101305913409171 
-0.0005305372936885517 
-0.0004573306060946953 
-0.0009589070102910373 
-0.1502889143829475 
-0.02965216824120708 
-0.3858633597573054 
-0.05692475412787511 
-0.02351170184295514 
-7.385089166852797e-005 
-0.0011469231728281 
-0.00706411550220371 
0.482577469567787 
-0.003311967542937181 
-0.09893056045213589 
-0.2450000977631712 
-0.003423019001862327 
-0.003389921846904189 
-0.001212302618903387 
-0.005991979955323398 
-0.1314387287643686 
0.01443092448685288 
-0.2570238143003339 
-0.6641664873060601 
-0.006730103440726738 
-0.002090018564282797 
0.03200331712826311 
-0.04125352027562581 
-0.0004784560196010924 
-0.0006807173464108064 
-0.01449932082952974 
-0.002647997478295721 
-0.006565169700512272 
-0.00982488907608611 
-0.003360562545886601 
-0.0009582949042641813 
-0.002911632960626916 
-0.004052369803358374 
0.2177797306139769 
0.06815008356116659 
0.01306422331127722 
-0.001387685061460294 
-0.006864230727162803 
-0.1955175342657959 
-0.003654483218322183 
0.1020654241181217 
-0.09860901127796436 
-0.2408883139158573 
-0.000834831781583818 
-0.0007060705154136848 
-0.0001287841957539267 
-0.004241427570442094 
-0.002074582792910049 
0.09930779892375316 
-0.0003400810815758759 
-0.0001078293403432842 
0.006449739293206118 
-0.01700980545458667 
0.02036232326788525 
0.001630806292173854 
-0.4209970634478935 
-0.0469549196886502 
-0.02049982104962806 
-0.008325622904151855 
0.04269141761680197 
0.002752128478248947 
-0.3447467922762107 
-0.002660622713504359 
-0.005198682655645858 
-0.07776275467051523 
-0.03637424821380461 
-0.04888831275065857 
0.000963472686676807 
-0.3361014898621448 
0.3246370411998077 
-0.1223932084931258 
0.2999817991788287 
-0.2807707833609085 
0.2519014006611871 
-0.2312597132420106 
-0.1897414435421111 
-0.002668407957821625 
0.01418804011482787 
0.1301175479050871 
-0.004116962182368928 
0.08550034206243856 
0.5185822911271563 
-0.2398771759640342 
-0.003161786560096028 
0.4173039255634656 
-0.4592293865317599 
-0.002566170577163493 
0.227751556757571 
-0.4817958262243585 
-0.04152279951430529 
0.02228995387023078 
-0.001926387798557215 
-0.0334768725271685 
-0.491256700021855 
0.1804542049509976 
-0.1141320275700778 
-0.1596980145594743 
-0.06614978044208739 
-0.02191342557490286 
0.07364328236469125 
-0.0762266437651945 
-0.001454670900208093 
-0.07676522095353904 
-0.0762266437651945 
0.148917027475153 
0.2425475002293435 
-0.05010711370049772 
0.0006716058746499932 
0.06781095363626591 
-0.02765595215220622 
-0.1239735594616479 
-0.001536110905320739 
-0.2949130883541043 
-0.002668407957821625 
-0.08007385195845876 
-0.1724751454304818 
-0.08072538112493546 
-0.03834751138235119 
-0.01621247935633468 
-0.007787428481081434 
-0.005149769931757729 
-0.01884538879574576 
-0.02211328067628357 
-0.02567860806659638 
-0.02148080749887965 
-0.09632411592268779 
-0.03768229382511822 
-0.005280065023413235 
-0.004095787136902973 
-0.03139558640159847 
-0.06515271503388045 
-0.0822988593999273 
-0.4064665777097273 
-0.1295213304389518 
-0.2066632640127134 
-0.2451339704473521 
-0.003161786560096028 
0.3683284194377108 
-0.1956355968807028 
0.4572167369067318 
-0.09298710033165647 
-0.01581942544438944 
-0.3833919279270225 
0.4205386458652534 
-0.4329412309956082 
0.3394386184188457 
-0.02436003971220803 
-0.8478117389470046 
0.1363166503708762 
0.009579438490823974 
-0.07734815602622483 
0.341535402160866 
-0.2411721934524944 
-0.1115546571727381 
0.3777675263511354 
-0.003580889849012448 
-0.003979513759881035 
-0.03283339827775274 
0.3296908896980357 
0.4985412403516339 
-0.1216126785463435 
-0.002668407957821625 
-0.3016803031295967 
-0.05227418585181611 
-0.1501477821917913 
-0.008083235088456327 
-0.2303885742899208 
0.1336653846505697 
-0.4176145088504332 
-0.7594341731100863 
-0.3792234600126652 
-0.004878099893269378 
-0.03254368967672192 
-0.06588766993394961 
-0.3315283406946148 
0.2548886174334314 
0.4308481289192678 
-0.1130605213618005 
-0.002668407957821625 
-0.01479447578674275 
-0.03881366256642285 
-0.875634520481911 
-0.01596250432822947 
-0.01495597040024333 
-0.1819064673313836 
-0.2151335011441825 
0.3620838930841205 
-0.4105869813360942 
-0.0006446424246604047 
-0.03224943439124198 
-0.03028897822085841 
-0.338153100994151 
0.0317653683162848 
0.585542301119085 
-0.02958540094756965 
-0.02958540094756965 
0.1392797390996989 
0.01387190273729817 
0.004430817856931146 
0.007421606474118027 
-0.357816918158067 
-0.0514132970531833 
-0.1092552598870099 
0.02749917385482243 
0.05230599898407182 
0.623173156474351 
0.3219045107287633 
-0.284592282503384 
-0.0962658036781392 
0.06585218866930345 
0.2065824125045025 
0.1221396036905595 
-0.4535202766180703 
-0.06873328211943501 
0.006475273018029948 
0.2558246107572015 
-0.102132210378642 
-0.1393873447397929 
-0.3187146579186861 
-0.03047944787227983 
-0.03061116981656628 
-0.3559686814892873 
-0.03258068318262657 
0.301355992591781 
0.4311597286620126 
0.4655060656226276 
0.3441310396533147 
-0.1243827947737329 
0.05460235793929587 
-0.01045403207677035 
-0.1320364407600063 
-0.06136672917852318 
-0.005700466847373133 
0.01174006382012127 
-0.0132882301330546 
0.02464383430604129 
0.002960622672267235 
-0.04866214505067852 
0.0002963027861013579 
0.008226003618695561 
0.01461443458066509 
-0.001454670900208093 
-0.4620917341008727 
0.3296638247400847 
-1.359300418690113 
-0.022624380110229 
-0.1424810839679382 
-0.2783301328527374 
-0.0378461107691877 
-0.1480869979732292 
-0.002840906708537928 
-0.005985272394841306 
0.1555225457579771 
-0.01687142933817545 
-0.3202221046521004 
-0.05640790467840259 
-0.03332078332053148 
-0.01315101823763945 
0.04813043575315146 
-0.3382833468298745 
0.01938069594119922 
-0.1028752763898107 
-0.04817334059342936 
-0.2179187220438104 
-0.02948248787687226 
-0.3322928545987722 
-0.09693228910385764 
-0.05430904195624146 
0.01658054674754306 
0.4043133925242428 
-0.02707799447036352 
0.3770232468442853 
-0.01356364695906777 
0.001032493725011577 
0.0006249988280348575 
0.01649238723173349 
0.359037523573143 
0.0115233069901085 
-0.1169722414047839 
0.07073548944337288 
-0.8672661036541693 
0.01711038733891427 
0.01703298856076164 
-0.3550370471592572 
-0.1858388047438122 
0.05499330608046876 
-0.07036400292231679 
-0.377996098358857 
-0.05509713705625992 
0.0044886624310281 
0.1852423921007295 
0.07241259835216975 
0.3767535940849415 
-0.3135206571114375 
0.1622819753155215 
-0.000378410534007978 
0.02142489773163572 
-0.05780312366565733 
-0.02199267031247481 
-0.2697955996213203 
0.382221428129113 
0.2195580718284921 
-0.2531474374619771 
-0.1219972389961491 
-0.02106884251514945 
-0.05042836896081022 
0.000391836225889424 
0.07200797051845548 
1.252791425846556 
0.07020469311690046 
0.008609743452278031 
-0.008893119069087326 
0.2189536219224954 
-0.05765446322865165 
-0.09154089081748927 
0.07092005694331703 
-0.6890273456372665 
-0.2258861960152986 
0.4444519989258673 
0.4973823689354244 
0.710536976074674 
0.1980574919078406 
-0.006146387895680028 
1.046206619771322 
0.08323490521663435 
0.05213677197258856 
0.08605916350839407 
0.0781274266476701 
0.182149196804175 
-0.4926545987505181 
-0.04422086223054229 
0.2527797481435142 
0.02181517015648661 
-0.2824369850188929 
1.893230971370535 
0.719083433686194 
-0.1724836011147495 
-0.01091334601814822 
0.05614130161842346 
0.0976584376532182 
-0.4066329245205035 
0.549008523088413 
0.2683867813592226 
-0.4350349429183339 
0.04886393690741002 
0.001757552590611827 
0.4337546700370356 
0.3366902445729892 
0.04840115174026059 
0.1908755106032201 
0.02359102141939208 
0.7033888795764497 
-0.1168964698449597 
0.3804304957917067 
0.0226892938912505 
0.004955320769619668 
1.101768151640229 
0.06551911129659478 
0.1841506137181323 
0.01115020558104643 
0.6515833785168449 
1.206546450165957 
0.3681862992385522 
0.007586662213219503 
0.1519231444498244 
0.1684997670908815 
0.005893287195691602 
0.04257235792926127 
0.0005555552607349238 
0.3201127128526304 
-0.3639893588883343 
0.1027883362804242 
-2.705986245813842 
1.045349267834845 
0.206158448963203 
0.8537182670969586 
-0.002335099582264044 
0.005602704644135055 
-0.0299138846809591 
0.2442829669949009 
-0.009600557791088505 
-0.1343094992629462 
-0.01927254486030516 
-0.002924023364049173 
-0.1366195264005702 
-0.1246699747486412 
-0.05452984859303927 
-0.02395029625734742 
0.2625660310592681 
0.0848086230854686 
-0.001536110905320739 
-0.2740543501140071 
-0.06384159633705389 
-0.037597756741127 
-0.06457184579226559 
-0.004504093215024416 
-0.0016262865440145 
-0.007965437433803058 
0.2770173119094495 
0.197012754115599 
-0.02166683786183173 
0.0004477428876723683 
0.3173156034905633 
-0.4670497178200063 
-0.2155084663038441 
0.05011582964196926 
-0.008684013928859681 
-0.01355055192197264 
-0.2421639246317854 
0.003447991278397427 
0.6479679652102256 
0.316210736842048 
-0.4949474842159449 
0.1228999318504577 
0.1162076181943637 
0.0007793782321918527 
-0.1472685128607408 
-0.4929484908439134 
0.07554624972751901 
-0.4983875365703289 
0.4776979108308147 
0.2435518825797154 
0.02646748452377678 
-0.003701662917666225 
-0.18929337442223 
0.04389730189455027 
0.007312519693218678 
-0.2718554206148066 
-0.008144961890150109 
-0.1481354831431531 
-0.008886907260961396 
-0.0006159317712719537 
-0.4856286385207826 
0.04914416914986905 
1.432236831958102 
0.4567419707187272 
-0.07204224870410153 
0.01405140857570054 
0.01347049295154425 
0.4368072295827657 
-0.6414429595038771 
0.007965371427681691 
-0.01417903286394939 
-0.1141634089620358 
-0.04332094174250335 
-0.01773410999668485 
0.1233371810649067 
-0.4483230670044387 
-0.002020221981622925 
0.4807317857549124 
-0.003618500676445554 
-0.2351944027737414 
-0.07341654978660461 
-0.4507047474455764 
-0.02771279211593798 
0.1379531950966047 
-0.02266063445667181 
0.002816065844025211 
0.0002924315133355106 
-0.2729497787808844 
0.02920289045942746 
0.5323782808517122 
0.8259153547335838 
0.1521506239120108 
-0.07558320126671908 
0.0007275524601908362 
0.004527424852768534 
0.008696065135313761 
0.05366705645040796 
0.1647031329928726 
-0.005700466847373133 
-0.008602388870337542 
0.2960177476048948 
0.0009115533800624421 
-0.1775087288792288 
-0.138516232402703 
-0.01403200637052271 
-0.03915492739643146 
0.0703901772847696 
0.01416731778405407 
0.1462742909611991 
-0.0760208172435408 
0.3647039390384433 
-0.7427146814812554 
0.1864401834085171 
0.04423088664530214 
0.1170388974486032 
0.02007149334162029 
-0.08925914324199971 
-0.01334961186106455 
-0.1623345274921956 
0.1173570404943233 
0.04813043575315146 
-0.006015462045058647 
-0.1481954283925304 
0.6349342649410718 
0.04813043575315146 
0.006222180403220207 
0.003795965886868569 
-0.01412876022792967 
-0.2397160493457528 
0.00981810684091183 
-0.00471384676379145 
0.002406710692521594 
0.1739049370510874 
0.003745748335800654 
-0.04648429696082691 
0.3055625187600373 
-0.1483464347449251 
-0.002706221044461367 
-0.005092554776134796 
-0.0077496858427495 
-0.3277989639562951 
-0.1316467642262688 
-0.004809687948824134 
-0.2506505199326441 
-0.005537512788925756 
-0.3903584663508385 
0.1809080615681386 
0.1765389652197796 
0.09425014915752952 
0.001473589471058851 
-0.4904786178671629 
0.02129095059688941 
-0.02936833904622783 
0.005866949925027108 
0.3470179041628498 
0.2583193134427379 
-0.04566282566253334 
0.729373925535563 
0.3775117813975624 
0.3569580990232636 
0.001252655360226677 
-0.2044168812624613 
-0.3995580267941123 
-0.02589649424022948 
0.4342659595935395 
-0.05550461669144658 
-0.5374332310202998 
0.1192091362074893 
0.2527344580032135 
-0.01964364732789069 
0.831748653315325 
-0.04519309127548602 
0.05231898845948726 
-0.7597972035817516 
0.06837904339997646 
0.08360802556358504 
-0.2482430781206787 
-0.3901479009717838 
0.12791815607382 
0.1839986163081014 
-0.6253816249249117 
0.4086453247149365 
0.4311268022248522 
0.01290785043167786 
0.07608607690598535 
-0.01030970422573822 
-0.2296981275887154 
-0.106525531104438 
-0.09000551928022242 
-0.0008006083450933044 
-0.2883340391498535 
-0.007197513842479702 
-0.8577936371179643 
-0.2147424042619215 
0.7115955860896699 
-0.0269108272979296 
-0.01242005417050228 
0.5444438288650904 
0.1956410392167391 
-0.1388771333065222 
-0.09238072368744606 
-0.02586588561420439 
0.01165774376196089 
-0.3673154426292014 
-0.1073476037045305 
-0.006649525013538924 
-0.002472749264688753 
-0.1900599459513112 
-0.04796551009320517 
-0.1957369518363232 
-0.02555822345752051 
-0.00875990168118973 
-0.03245660358498741 
-0.2044376805263685 
-0.01294034302803966 
0.1815521705514892 
0.9398654424912056 
0.00264331418131167 
0.1395973460840055 
0.8141672707551998 
-0.02179879103926044 
0.2335419859044211 
-0.04214204814432793 
-0.08058843284593134 
0.3777132885355945 
-0.06311418455204408 
-0.02874655803569346 
0.1870566080567501 
-0.02567523314486022 
-0.2581702882347319 
-0.08666727066923742 
-0.007114750795074355 
0.2771805118515909 
0.07286892841733558 
0.08663014907297603 
-0.006346539577837967 
-0.3113983443247835 
-0.1805822712596485 
0.1946823406486946 
0.04080171597647122 
-0.3412034772045406 
0.1976043534090368 
0.05587040376462243 
0.2151554490031434 
0.01931741407871729 
-0.09381650841829051 
-0.005444175656410611 
-0.009715479615924243 
-0.01603538677157014 
-0.009794840136745638 
-0.1558919264409717 
-0.05352534262208028 
-0.01356952866610097 
0.4754862438002855 
0.4122064957401042 
0.05367872418832986 
-0.02749264234734583 
-0.1267707855700777 
-0.3265261577353329 
-0.01670394212198933 
-0.02165502729689817 
-0.0007046498896504268 
-0.4294088215953494 
-0.1658107808261909 
-0.4960773453132882 
-0.0713597789563238 
0.1889498125088128 
-0.2812353299409836 
-0.8094932090604742 
-0.09103153160814373 
-0.05620379785324695 
-0.02966241556789354 
-0.01459111455543671 
-0.04689112835566418 
-0.6710124119829726 
0.005670332806137584 
-0.06973920367881625 
0.05603083993889058 
0.05263394747628042 
-0.06292853507377288 
-0.02201684130006049 
0.1522005587625774 
0.05590653404736089 
-0.08277702868143472 
-0.3119117764572422 
-0.02752358441212391 
0.0002929221292407404 
0.04917200155410519 
0.1729832185060511 
1.519672228023613 
0.3903432685310591 
0.0995357133251023 
0.4035701266188869 
2.859809956684046 
0.3236012678426692 
0.0002542219445137108 
0.1547542116558041 
0.01577096636706932 
0.7259893140225135 
0.1392877605354701 
0.06141342241913563 
0.3001905039298957 
0.4408035677169878 
0.01916186045092942 
0.4356386039810548 
0.06555416874527092 
0.1952422146823086 
0.005773825109770144 
-0.06675737880611847 
0.6453188147772409 
0.04498199890090469 
0.02212966619451146 
0.02465792931400937 
0.05600009224907931 
0.05009642737231726 
-0.04102172876378508 
-0.06653391418313814 
0.00804479405624004 
-0.08764942629261865 
-0.0286490731714395 
0.0009095274489936968 
0.007387492936777429 
0.1465828429960904 
-0.001507137783884115 
-1.198672225271805 
-0.007726477444171719 
0.8343499921225011 
0.103000052135722 
0.3504272875480783 
-0.03476053624166817 
-0.002496187652503248 
-0.006647743254721957 
-0.01743775624596895 
-0.08986406646973957 
0.0187269092877629 
0.00194629303571165 
0.0009571522401154999 
0.001604432834165093 
0.08868331144079718 
-0.01373855645535728 
0.03287409396175111 
-0.0290993544878305 
0.1569501030078363 
0.03505419714477773 
0.0408480263603849 
0.5217338382782687 
-0.0016262865440145 
0.7559075200154696 
0.06541469202577893 
-0.003701662917666225 
-0.07929534779943384 
0.224211245842738 
0.0002340144336049831 
-0.7798300448295429 
-0.07059727681137615 
-0.1687697115707592 
0.04076603139177385 
0.431197759463085 
0.06463911975966709 
-0.1947675567230989 
-0.0232122176203614 
-0.03238019088558949 
0.1656043674204188 
0.00716716790131434 
0.10738902504926 
-0.05004271777459789 
-0.04914597171892288 
-0.08600337856724825 
-0.02651338388484764 
-0.1300059328239603 
-0.0016262865440145 
-0.002781398062539474 
-0.04039895105436685 
-0.1133061101927131 
0.09134274367370812 
0.1481506326873799 
-0.01183606646727808 
0.005064130512800963 
-0.5333150302409635 
-0.1349810510714233 
0.3170462508341987 
0.005430639157393911 
0.04074533999768458 
-0.2602102577026432 
0.1439099358418046 
0.1613735522018105 
0.002862907768179464 
-0.005092050510265758 
0.02067904623993797 
0.00119587950985431 
0.0612685199027557 
-0.05004523323411571 
0.07866241843754926 
-0.1597751391060573 
0.05581872799902725 
0.1139372546555908 
-0.003701231183707261 
-0.01225926845315808 
0.02020631675861959 
-0.007140706315643676 
-0.01082668889889825 
0.1760854468224388 
0.07245568394733586 
0.02782123156151289 
0.6128663416805805 
-0.3564195616924166 
0.1643995174742931 
-0.4701871044851053 
-0.2369764510962949 
0.1623932152810473 
0.006818529138660505 
-0.3692139806891679 
-0.4656224772715992 
-0.1469560141095677 
-0.051425767463345 
-0.1094357835159177 
-0.02340212377506951 
-0.3342912684849751 
-0.033683272803466 
1.962884188797812 
0.04270846730523038 
0.2036498417009942 
0.0001132673804183278 
-0.2167744581323591 
0.2616100692834046 
0.09467189868210281 
0.2971788635709605 
-0.003323437102356718 
-0.02782889975307834 
-0.07437863632249825 
-0.01843332250760771 
0.02887280459997078 
0.3657587842326229 
0.05778282640781702 
0.3874833051650768 
0.03510225420711709 
-0.005385675385204635 
0.02778888890814852 
-0.1746849914263489 
-0.007103410352193553 
-0.003505546005855486 
-0.006608832313626171 
-0.03641647321556638 
-0.06028644906203128 
-0.01110456790599088 
-0.1585468160927717 
-0.04121318012453959 
-0.5771611410549122 
-0.07873842767800843 
-0.1175475789518806 
-0.0153348251123609 
-0.002668407957821625 
0.01740113859486613 
-0.0538376776810007 
-0.01142223296478273 
-0.02852399889179796 
-0.004880938932967045 
-0.01759657105053332 
-0.004363215533046301 
-0.05852510081827042 
0.5319250996507688 
0.3908464700573826 
-0.01672066340182752 
-0.2111104136657562 
0.2839182850302493 
0.02656155263738676 
0.01738569956929159 
0.4426527771224823 
-0.03362838509600874 
-0.04410310438846635 
0.04315605436879656 
-0.03968858889776376 
0.1883289002241309 
0.03403381950130325 
0.03779395356944836 
-0.03455229319378814 
-0.06009347919657462 
-0.002688230086290436 
-0.0007088759579942093 
-0.01806836374017586 
0.003875426554353 
0.0004750814884729662 
0.06703571423694926 
0.1170336865060948 
-0.0005851259740518678 
0.1611341132126847 
0.003424707124804966 
0.00546393132832486 
0.2843478070460705 
-0.1370276070481505 
-0.005883781110740739 
-0.05990827530858375 
0.006580428690435979 
-0.00622640915751174 
-0.02109996918332064 
0.003668495280637859 
0.08007543288044246 
0.001444341087136101 
0.3917812288240281 
-0.01534485965408856 
0.006171343292569235 
-0.5432467048730029 
0.07732145788162494 
0.4063520963072872 
0.1029035106585365 
-0.7582109970388073 
0.02172955317235931 
0.0001264970220082616 
0.3003611668690798 
-0.3113056324599998 
0.01443844515417359 
-0.001350803808658085 
0.0205359672195612 
-0.01147044858731422 
0.179646374185454 
-0.2443964370507731 
0.7769779473375791 
0.04731438571305533 
-0.03002783645875973 
0.1753964511292069 
-0.01663355011617537 
-0.1903001385597396 
0.06650783815848996 
-0.03884276148036079 
-0.7344418864091802 
-0.1859858187854235 
-0.2406152861640622 
-0.1323456203695037 
-0.006656739167236665 
0.3413030782991787 
0.02154006500579475 
-0.8075450460958501 
0.002036856106172046 
0.06809224788442338 
0.05664266887814631 
0.00673084333290409 
-0.05204055694183241 
0.003655460399829862 
-0.3942837638239108 
-0.1958118794511369 
-1.359894495448153 
-0.06588766993394961 
-0.07137833011835638 
-0.04058439245343655 
-0.02059295108448509 
0.04846466604075088 
-0.06224421217646684 
0.06684920685152607 
-0.3446223742373965 
-0.1820872021807783 
0.2778300327619332 
-0.003448331551272084 
-0.008830630777839318 
-0.01159824963757382 
-0.009426711594906212 
-0.004477116161198745 
-0.002158641518350468 
-0.003049219172831779 
0.6298564596094329 
0.1208502044397736 
0.1208502044397736 
-0.01479627482762545 
-0.03716973921122189 
0.1346604957156516 
-0.08935287779039591 
0.258417070680227 
0.02619831411520045 
0.6801249295746072 
1.135081909831074 
0.007006826363096092 
0.05699406129901292 
0.1317861754080498 
-0.007861788402366456 
0.00256200832747062 
0.01730175866463062 
0.01666380782546029 
-0.009995004596758363 
0.1539731092199281 
-0.06530535642133409 
0.2742240507809043 
0.002495069046431183 
0.01326250624647902 
-0.06162625565542773 
0.3360047539489547 
0.7933336957209373 
-0.01496753458946921 
0.3813093259272488 
0.5890666431397724 
0.0008210371313868708 
0.01210012743221329 
0.006388583519923101 
0.3444999580642165 
-0.04438546233771512 
0.0102068177140137 
0.1018068962285513 
0.03298927401112978 
-0.04982844455575389 
-0.4335722313449222 
-0.3597298262370738 
0.04326011511654777 
0.00178938973121819 
0.04342138535453127 
-0.01756408701911381 
-0.05284140458519483 
-0.2890303760142601 
0.06322185187290304 
-0.2895966663506066 
0.1810279196908584 
1.172600505598892 
-0.002825237676783633 
0.00485874760151268 
-0.06229861068324943 
-0.01307226449524239 
-0.06098808674453466 
-0.01072554030441344 
-0.2540009823116177 
0.1449066194542234 
-0.2862829095716226 
0.7523979144203703 
-0.391451066470689 
0.07648761777895015 
0.002838235626347876 
-0.01238766169651172 
0.01352834611660515 
0.189695603745931 
0.1682468713007911 
-0.1695286378737434 
0.1314088145301725 
0.005887148762019508 
-0.2477174883864861 
-0.02069560177572132 
-0.2128760242464856 
-0.05684335912096644 
-0.00149726464968404 
-0.06991066180616365 
-0.1456279423416339 
-0.004961740428161341 
-0.1596955325929369 
0.4398065609226218 
0.01513784069199407 
-0.1169278772170141 
-0.00399956148232471 
-0.0008938433351593599 
0.08778976357311852 
0.156373492149819 
-0.07310618404250009 
0.1121302888659018 
0.2781271655055602 
-0.06065861021392502 
-0.2553998432626224 
-0.005671109569986379 
-0.02078375155489186 
-0.001409404967533394 
0.2377908453951892 
0.01720809166218564 
0.03685731867268919 
0.01811476135413825 
0.0132015346940915 
-0.001069910326555258 
0.08874066577348866 
-0.3043157161592288 
0.1062157009689576 
-0.4565092297177705 
0.110012516771433 
0.002007833274693946 
-0.0939998314320861 
0.04996955258129581 
0.0725012031151106 
-0.07460704126989166 
-0.02953373295969972 
0.1304706927706566 
1.324966655785443 
0.1350378540971433 
0.04106543914142007 
-0.1445605107305642 
0.01817843586313319 
0.1395056819989444 
-0.09567319778484162 
-0.3995128882313716 
0.3950729597370177 
0.0574937129989202 
-0.0016262865440145 
0.001426718947078308 
0.0002634026253190413 
-0.0393385054303777 
-0.06161848605215994 
-0.01719657242806086 
-0.003472638667823484 
-0.02931568903033813 
0.04275778259881782 
0.09847548936729081 
0.9723564069063891 
1.345482470122095 
0.1448179622500854 
0.0003795126491639648 
-0.873948719777198 
-0.007803515506922515 
0.3368519902856262 
0.02304127370875014 
0.1091352778893166 
0.4883823552766238 
0.001185747629892278 
-0.9496117044018408 
0.004335247625277808 
0.08234907106537977 
0.3355130902506182 
0.1208502044397736 
0.1965718192309698 
-0.0324681650546051 
-0.2932937867574398 
-0.01138309167213699 
-0.04054055103409658 
-0.007863591210469062 
-0.008908170960814754 
0.1084810143507343 
0.03574353701307582 
0.6184521343191741 
0.07299389244760926 
0.0632761839524305 
0.3018010171919591 
0.3186991027002948 
0.1198768556194923 
0.225800063645682 
0.009928572478455272 
-0.003822968016847883 
0.0200510555752039 
0.02607263999414361 
0.008386493258291595 
0.0003328228449843715 
0.05409883311957601 
-0.1711958691215065 
-0.006305142902849061 
-0.0215130319804705 
-0.001300183294200725 
-0.3088882493549627 
-0.03084020019247706 
0.2577602106131122 
-0.3278716260089082 
0.3078478613030284 
-0.05278162528300402 
-0.02740798576507424 
0.0623518579145146 
0.08085761174746564 
0.06823233468021331 
-0.03475207710585838 
0.07527928581946211 
0.4050543252081444 
0.958061805841134 
-0.009573938729243843 
-0.04438546233771512 
0.02517305406065733 
0.135887889362643 
0.1924442376828009 
0.1573472676523488 
-0.04856659891731852 
-0.007654198660346312 
1.150011456839526 
-0.01651492483731037 
0.1833728457283436 
-0.009012956580254958 
-0.005632673819168994 
-0.0841893882300125 
0.316634523232846 
0.0178231236414886 
0.01516460523359511 
0.01726305688219645 
0.09133372981922272 
-0.0574967316966323 
-0.06090111251179697 
0.1350259688242249 
0.210126762703273 
-0.02864789151028964 
-0.003173116956399557 
-0.04724222731915802 
-0.02763210979765471 
0.1838078685346042 
0.03301159857364426 
-0.139876881745524 
0.130922390613913 
0.08240639806645084 
-0.1260579083556495 
0.004291960680659123 
-0.001934410499748813 
-0.006356206358142452 
-0.03921356390523975 
0.1320649536172634 
-0.2849605963630962 
-0.04082511921680558 
-0.04443009209602997 
-0.03529374629817773 
0.007308286969870088 
0.1787094808820452 
0.2728587316785954 
-0.0193074017608073 
-0.05202448497268732 
0.3515224021051943 
-0.04619374917265754 
0.01629199648240555 
-0.6805424051100186 
-0.5365315471371861 
-2.243847245787113 
-0.9579668494597169 
0.06627697439645885 
-0.08140599140735944 
0.4463931920451046 
0.09102430711736465 
-0.9573624284307792 
-0.2521306761629279 
0.002496125440032268 
0.02394058068333353 
0.1363677221876052 
0.1237633071777738 
0.2064712735498711 
0.2160840011013849 
0.3922963040754171 
-0.01437653871275321 
0.7713002627724621 
0.006857610136899517 
0.05730014288982334 
-0.003473997334907437 
-0.05864329518367219 
0.4190807069024939 
0.6189102738671017 
0.03055299446626577 
0.7915379210371071 
0.2728541947947921 
0.00470441540605538 
0.002866718208993903 
-0.3942456772838667 
0.001775974431534672 
0.006893231179663165 
0.002732563242443187 
-0.003347878305133198 
-0.008948382378974603 
-2.202521256496052 
-0.03016107141097837 
-0.1886477011484131 
-0.1387071549337181 
-0.1707140282101725 
-0.2346564271677699 
-0.003994979075823366 
0.001310167066712187 
-0.01883494064084499 
-0.6384435439030052 
0.04367520369332822 
0.02486195986683992 
0.06033114149791871 
0.001044415631447369 
-0.5883752468901039 
-0.003802581719776877 
-0.2011491680851931 
0.05355219431051746 
0.08005210770062367 
-0.4087442900434058 
0.07825343994381431 
0.1848058486049771 
-0.1633253159095016 
0.2086391039910133 
-0.007913828411435382 
-0.01455960752302159 
-0.1543705109881741 
-0.07492237610798745 
-0.001332272420580442 
-0.000731599352490086 
-0.08937290627159035 
-0.07782288224025089 
-0.01409331224606621 
-0.01527531023679992 
-0.000712451864064355 
-0.002358823528533384 
-0.2940482782227798 
-0.1561286652106101 
-0.07314533082433695 
0.09827234471997773 
-0.4062644134734117 
-0.002407888969329737 
-0.03084949684249465 
-0.01647900893919232 
-0.1516594259884549 
-0.01276992594196536 
-0.3057106548990171 
-0.07482053336359174 
1.495677259903614 
0.1110732894215717 
0.1640225006912121 
1.304234938441844 
0.8511758900501647 
0.00028448320313065 
0.0119350768679903 
0.01375012712637653 
-0.06155726631214674 
0.2161582902073769 
0.3219325510116685 
-0.7482839232509444 
-0.5553249374971526 
-0.4954698578684539 
-0.003222024499303666 
2.237101313117901 
0.02929330295868403 
0.02956687194382671 
0.08946526906633305 
0.04714645817950777 
0.001613725756002974 
-0.304371226899228 
-0.01663754138611225 
-0.03278669057242784 
0.03176352516469829 
-0.1185738129764797 
0.2622673484178379 
-0.07767421567748402 
0.0002830721609743858 
-0.001725692883440576 
-0.04749110398252289 
-0.2154482651850439 
-0.07460974287281885 
-0.08541239703462397 
-0.01208932775219457 
-0.04836263032756252 
-0.05727042472433822 
-0.4040229467289884 
0.06565607436861978 
-0.6463520961038991 
0.05985746635521668 
0.2786188640017556 
-0.03840459099099606 
0.05230691522485545 
0.0572933984352258 
-0.04673293925491694 
0.1173018054347998 
-0.4926545987505181 
-0.004453821816391894 
-0.01648948895520502 
-0.1071611578325362 
-0.006401720753916605 
0.002106123891858482 
-0.223296513304578 
-0.07791195206908223 
-0.1445911725582469 
-0.1610470200164714 
-0.005700466847373133 
0.5663775068443842 
-0.2232316189460379 
0.2433895534163611 
0.4425023711133574 
-0.1879889250336184 
0.1328330072028685 
0.06708419565044697 
-0.02867896797685689 
-0.08133799974697324 
-0.3093392734551473 
-0.04110873525035859 
0.3666752112894731 
-0.02951747903166372 
-0.03497527253537948 
-0.01004549870023823 
-0.5762592670924849 
-0.06168547794204744 
-0.04707727170175676 
0.008924354731309089 
-0.005856797689090776 
0.1030845246858776 
-0.09270910066071507 
0.1392701280403169 
0.003408138484612416 
0.01308259670703721 
0.05224712296812362 
-0.06290762406755167 
0.002394744424846503 
-0.5766146757230304 
-0.2577936301825921 
-0.004505684946400619 
-0.4006783477409202 
-0.2997452109532607 
-0.1518411115252814 
-0.07831850853559048 
-0.008645740230139856 
-0.08248368895716297 
-0.02605482551438344 
-0.261704319876566 
-0.1800460311807847 
0.01340479265483952 
0.001184058972857854 
0.5323778079049524 
-0.0329892953257649 
0.02205698216360611 
-0.2706938382392111 
-0.03117181885246743 
-0.002514303786440443 
-0.06588766993394961 
-0.0207193725182631 
0.1889704115805259 
0.06551324059147914 
0.1269931705381966 
0.6056787118852188 
-0.003716334800254247 
-0.08251954807486202 
0.4345776453261558 
-0.161272366729436 
-0.6173037584297932 
-0.1380106925308474 
-0.1334030073245832 
0.0002161852430875975 
0.8253147521178078 
0.6890609049689978 
-0.03916178570993266 
0.02199699364753793 
0.1539303106407699 
0.1555215684074517 
-0.04862531447720341 
0.599186796794114 
-0.4432297264470332 
0.2634109455614884 
-0.5685094472774143 
-0.1819625782782368 
0.855361004432733 
0.09957284959929669 
-0.4270345900657924 
0.01166760560095968 
-0.334652881500168 
0.2030135953833867 
0.1524893144462804 
0.6839160619137573 
0.8135355822652015 
0.06160569180062133 
0.1800860177716653 
-0.01409111676036218 
-0.1086283820714323 
-0.03433428356253242 
-0.2498698676738475 
0.08787607751383332 
-0.2576304806648097 
0.047421908628898 
-0.004049412381993483 
-0.09018191715859915 
0.5870112603362993 
-0.00276964717664848 
-0.1195816733982229 
-0.1827149246289553 
-0.007673576701446513 
-0.008746170861515353 
-0.09907696168212139 
-0.03677241477583414 
0.1741081535315557 
-0.1867733151458657 
-0.1645064391320263 
-0.02216488695741477 
0.373021634181431 
0.1372412294358696 
-0.02666416840946612 
-1.096181827662522 
0.3115472345530527 
0.06778184012433589 
-0.2287368625910367 
0.00010181978636265 
0.4825090456344403 
0.1820727332879168 
-0.6122570934973624 
-0.5919890349392911 
-0.1786405185854239 
0.3109992342732674 
-0.1728825905074138 
0.1023059076868269 
-0.4110168214272406 
-0.4849494896364883 
-0.7736510503130702 
-0.007278223900092228 
-0.1065045708258783 
-0.2311590697869144 
0.06804515596185877 
-0.1950981409715073 
-0.2100148233013838 
-0.09060749014374708 
0.6723041239086608 
-0.5951754757246754 
-0.0129588981627465 
0.5501243441260157 
-0.06118031856449804 
-0.01820258725569182 
7.597678706117142e-005 
-0.00944514179923186 
-0.02609372423302233 
-0.2832537958255074 
-0.01004143139630369 
-0.03766758240639218 
-0.05279350323732325 
-0.01317539892257503 
0.007402476816214862 
-0.04593078752027956 
-0.05951346561622058 
-0.02565114560585634 
0.08980285068384221 
-0.3398061628526886 
-0.2350769914475462 
-0.3031756424051006 
-0.01238995354823865 
-0.05124737220166212 
-0.001859747047927699 
0.3913717910194925 
0.05374547385936446 
0.002760080010453085 
-0.0110279683157622 
0.02324947998072243 
0.277833912400151 
-0.301340413262449 
0.005038979941027953 
0.05011425174288008 
0.3196528710822618 
0.04870512274595808 
-0.02753365014079049 
-0.5462381751659604 
0.02373115329453971 
0.08595264674642346 
0.0003437454226273723 
-0.01225106204940595 
-0.009952538538383493 
-0.07493514452034081 
-0.401269330700482 
0.04332203693258422 
0.1396292661606145 
-0.3415831259902636 
-0.5760269295409801 
-0.001664565304659681 
0.1370350406060341 
-0.8644617143369446 
0.570645296608808 
0.02849484689393753 
-0.02642311840839588 
0.1116252679758277 
-0.1791632720419961 
0.04082720601415427 
-0.003534511970586174 
-0.008983513120593969 
-0.09001647960581413 
-0.01242187754520581 
-0.05505061047735958 
-0.02436308269526186 
0.07296215776797824 
-0.297195566202953 
-0.0800140734428353 
-0.2228459645248878 
0.1701626742030828 
-0.01108229242707736 
0.5359887171438734 
-0.01736299535356612 
0.114113672561306 
-0.1951322202228049 
-0.4006692854655404 
0.7075068550412406 
0.1119406836107321 
0.08662722037023525 
0.2592239016790223 
0.6265118292432422 
-0.02460293300490978 
-0.01456435213063759 
0.5957249233157052 
0.01393613086704096 
-0.1045095376897979 
-0.5696981837052323 
-0.003973259340860756 
-0.04438546233771512 
0.4195870300154717 
-0.4083559941270425 
-0.004125433665028724 
-0.16953988631083 
-0.03825360630729384 
-0.09690203514847359 
-0.09324341944917224 
-0.006472140774119149 
-0.003666562427744248 
0.01913355192534941 
-0.2843791407167186 
-0.7383477701283443 
-0.06877292265843249 
0.0453675715060339 
0.2433270875768918 
0.007311932312994202 
-0.07473511025346452 
-0.01658680439515451 
0.1645417816570804 
-0.01099220164528375 
-0.02902490582456896 
-0.01018928368011643 
-0.09210706077036666 
-0.365224492494602 
-0.01679405165607109 
-0.4358718787243642 
-0.0001092312557779635 
-0.2370889439093827 
0.00561016350676546 
-0.05366445571404395 
-0.03427725226110866 
-0.3107402826068612 
-0.2117746073512338 
-0.02765281135688548 
0.4230549415557319 
0.2220047455850978 
-0.08872264655925909 
-0.01372032159444411 
-0.01027045032669239 
-0.01416845315905295 
-0.004311765181691869 
-0.08198505894991552 
0.04817249063165555 
-0.00546872082785734 
0.8170323889686386 
0.03067941952471771 
0.1545908217033213 
0.1122682053267046 
0.03707277894832017 
-0.09262593932957935 
-0.1518757568432452 
0.01831999305365038 
-0.03049557998300354 
1.443281066317111 
0.1714891088863543 
-0.09859821259584409 
-0.016429588517994 
0.001501928024164238 
0.07643138227164498 
-0.00614652733834155 
0.2598549486813737 
0.1577242991396689 
-0.084111370208296 
0.1552874188979757 
0.194603813972339 
0.07426340181766347 
0.2437082284366032 
-0.02222975905023619 
-0.1907552476431092 
-0.1198369871618587 
0.1738620079975307 
-0.01263740091999712 
0.004862731928223306 
-0.01042234008986461 
-0.02162466639390653 
-0.01760304089862115 
-0.3179890016904891 
0.7295373256116373 
-0.0354336210381745 
-0.06703563833372565 
-0.2460210733873494 
-0.1361328930920736 
0.009986137576154837 
0.05675032102170496 
0.1875214103608655 
-0.06949500295910485 
-0.07051031743373637 
-0.01071966693748248 
-0.01163425915896569 
-0.06028252828012715 
0.0644960411784896 
0.007163073490558765 
1.802787045228014 
0.1613034603137289 
0.2464399162361758 
0.2069518699901161 
-0.1244889040114951 
-0.01253504905656166 
-0.153936352897719 
-0.1281709973551436 
-0.1486346598500241 
-0.072183661062795 
-0.2032283630095585 
-0.08256327742444934 
-0.0257128431151359 
-0.0293005744584849 
0.002612447686703441 
0.07708376582828459 
0.05703263730023081 
0.0185246171264483 
-0.0554343075713614 
0.03194602287877532 
0.2734510209714065 
-0.2382883588969914 
0.005795473111668764 
-0.01688959756804449 
-0.004820270829203317 
-0.4653762780402277 
0.6920446738203049 
-0.2840174699154533 
-0.008681918848791898 
-0.08130796509411332 
0.0172823784135729 
0.003259269753177009 
-0.04822687447960529 
0.04854520375805184 
-0.04070870598049092 
0.04376186755500564 
-0.005798652407492642 
-0.2231415733532243 
-0.9680133103047413 
-0.03047664245080399 
-0.09916553093923751 
-0.001377111383231894 
0.08105391096097504 
-0.04047423704265575 
-0.005976424689084206 
-0.02608206388985113 
-0.06588766993394961 
0.03051746806965356 
-0.03127965300513488 
-0.01254751336562299 
0.03787118805397859 
-0.09782349935409467 
0.09813137163022201 
0.3781503668884364 
0.007650401108817992 
0.007077865505559862 
0.4130356459144584 
0.1296204432937556 
-0.0134384336591033 
0.1316773137867134 
-0.007606269853552983 
0.5313968461644927 
0.0006380506716515469 
-0.05359684659035179 
-0.01767284732824395 
0.06094209884210516 
0.6256275874576767 
-0.3145966799796837 
-0.4093779555957227 
-0.02305527843572672 
0.03333852583835534 
0.2280538072762811 
0.9387481126288566 
-0.013594545424579 
-0.0136408895686277 
-0.01536703985455399 
-0.035366426079803 
-0.01056074143033419 
-0.08236653624456236 
-0.2248734328832671 
-0.8116758254835808 
-0.001919921387105447 
0.1441531942013868 
-0.04039620761039007 
0.0001286216999708826 
-1.689132801220508 
0.09696291989662959 
-0.1669436122242723 
-0.02518252693762119 
0.04326579986965575 
0.1139796885515333 
0.02151453276133632 
0.03791415425342178 
0.00261593282446348 
0.01417597398973359 
-0.001938801803242441 
0.001720474926623793 
0.00350510189447549 
-0.003571603184856143 
-0.3185096173142454 
0.01623408065105287 
0.103713105327671 
0.04708546996936588 
-0.4387552682147918 
0.04055688163320941 
0.1709151407186029 
-0.140178937480416 
-0.01902332311104206 
0.1433108961114229 
-0.008765763667495588 
-0.04941252787245414 
-0.09044191425608482 
-0.1035749712840329 
-0.02191231089496709 
-0.01316258537984367 
-0.07974309784026086 
0.04447961421139562 
-0.2993183933486303 
0.007468524133913675 
-0.8253860046185295 
-0.1172448513085712 
-0.7611509718483255 
-0.2149657577874603 
-0.1434549426150167 
0.1612050791768469 
-0.2730933416417578 
-0.74469348431793 
0.1736458158718961 
-0.2211127064610203 
-0.07183953844126316 
-0.04016050590151447 
0.01061231530064791 
-0.008886907260961396 
-0.006818197821414632 
-0.1771943108009506 
-0.03979009672949454 
0.001806380370492921 
0.0324136707639676 
0.001184203630184178 
-0.001964275938615208 
0.130975225225948 
-0.007720965247451738 
-0.6853834671964619 
0.07194948438589625 
-0.2593652808558254 
-0.1403883902449112 
-0.1159420870718632 
-0.58190601549204 
-0.00708722035737286 
0.0003922139272187178 
-0.03404119167277318 
-0.02347644904052913 
-0.2021512711281891 
-0.005252864481552613 
0.1300750484261853 
0.3935647115317639 
-0.02170789091686014 
-0.008681918848791898 
-0.004956616302731561 
-0.02333560977509006 
-0.05423748090994374 
0.03639920410371303 
-0.1934254455319143 
-0.05582632106005684 
0.08568512582342171 
0.7815231925759506 
-0.3330334421227787 
-0.004040132273929567 
-0.2953026244947769 
0.0310480843684229 
0.908081831739265 
0.7340185092133386 
0.005309563032494581 
0.5209543638583352 
0.03260907210779147 
0.04797751849682443 
-0.01561327313499948 
-0.1076307481276026 
-0.02913481900775039 
0.02902987337752116 
-0.5258704861012487 
-0.04051793074636055 
-0.5226226454157322 
0.01649318422219731 
0.03596360304513605 
0.2223751168619975 
-0.01377946393706621 
0.3747893689294896 
-0.06588766993394961 
0.006517949455825509 
0.002488329469933154 
0.1976809475184063 
0.04963932873640501 
0.05103918510525787 
-0.02434359605273901 
-0.001021883996543487 
0.2462634088343537 
1.133752071393588 
0.7074012519346026 
0.02776909221712757 
-0.1938933611206775 
-0.019427320684758 
-0.02599265903617982 
-0.01113905876403118 
0.02898467956145525 
0.700214368666135 
0.4560529306421035 
0.1007019341565769 
0.2471454491214522 
0.2255005805658386 
-0.01617037934802181 
-0.0005435158380624253 
-0.01309273191234037 
-0.00494753994751519 
-0.3146119053609601 
-0.001417035241440215 
-0.1976900818085939 
-0.0400325504923294 
0.1692001861164377 
0.008674414771882466 
-0.2826503312045176 
-0.7895001079072368 
0.002903023242128791 
-0.1004027950869311 
-0.0387991472634177 
0.04858008561937032 
-0.001210352478772471 
0.1833044768705321 
-0.02636802930622528 
-0.02416536102930725 
-0.001938801803242441 
-0.1217052055873808 
-0.5310390374965852 
-0.4692011535454935 
0.2676327505895648 
-0.07500776492878977 
-0.1776237184276405 
0.007668473913521908 
0.3004826847576432 
0.07254003116097371 
-0.01758654330178185 
0.138608674718283 
-0.2161111882730523 
-0.01210234526409172 
-0.4779312111767123 
-0.05702803541210342 
0.00684502850278508 
-0.2574084997139416 
0.1084930563790901 
0.07841256121334447 
-0.0107524497166367 
-0.0732948263099216 
0.03122038541016045 
0.02436550676798561 
0.001510256658005911 
-0.5720753553308976 
0.3536169444829929 
0.000203205643565218 
-0.347156338223895 
0.2112982324929358 
0.1087742772179857 
0.01571368751670657 
-0.05923758768363356 
0.01973292432177793 
0.001871063852997917 
0.03529794332778564 
0.03562863785168068 
0.07281287563715816 
0.01147603374934452 
0.2499855668835616 
-0.16895892017959 
-0.08602483552093367 
-0.02803319855578427 
-0.01337534833668683 
-0.02110307205339594 
0.1904798829053627 
0.1064067170574233 
-0.3864303206409927 
0.1779534193308981 
0.2824362411001987 
-0.002768940924874847 
0.3184811335539914 
0.3948085817781629 
-0.2314923017951675 
0.01580857896684814 
-0.02909877590807831 
-0.2840647600787928 
0.3071147180104218 
0.7177679114560928 
0.07553640113466362 
0.01270229898129824 
-0.300269102172947 
0.006700991367751052 
0.1642490156127369 
0.2245758178224166 
0.01652520005049856 
-0.2151448960618323 
-0.0272678215453726 
0.0008586902432275075 
-0.1706106075914005 
0.5683262163871568 
0.1799371647567671 
-0.003253952012780023 
-0.07083652807237921 
0.0166556132453813 
0.00180074693934108 
-0.3433104576000991 
0.8108291728254045 
0.07993838841249788 
0.02245324453483974 
0.005022933951712195 
-0.03204072079915687 
-0.04039912197391494 
-0.2499337290458142 
-0.04986614934403406 
-0.0004731307801995098 
0.1701887592811385 
0.5711132643637796 
-0.01477588973193924 
0.3048945833159393 
0.1591831295355564 
0.1120782106769753 
0.0904956217249034 
-0.04442609345092519 
-0.06031989344385587 
0.4294526899083737 
0.2679006624610434 
-0.1356562669741306 
0.12045908701269 
0.1838928160909489 
-0.01264733776576266 
-0.01264075758417268 
-0.2331893681461105 
0.04954466100387136 
0.03042443705095528 
-0.01055153543840058 
-0.3064967362469138 
0.01848242297494572 
2.833361781181394e-005 
0.002335121308131628 
0.06447751672557744 
0.01807334695951417 
0.08234959403677891 
0.1528051428849439 
-0.0357520006807696 
0.0004795849089694057 
0.01684874114309127 
0.1208502044397736 
-1.06088492973737 
-0.00997008526240975 
-0.02785284934681594 
-0.2800295444088443 
0.07251007332821424 
0.05937240493694786 
0.09247759435389143 
0.03462893608573026 
0.04261004241915069 
-0.1631381983659833 
0.01343258890975528 
-0.9502735813489551 
0.004675831491689771 
0.0515410024313496 
-0.03399159241548904 
0.01214662731166081 
-0.1160947843918 
-0.3173921550934391 
-0.5318538607438728 
0.01885847863537208 
-0.003675050898953576 
-0.004228416936431814 
-0.0002739924499422529 
0.02044139414164674 
0.01323791590731391 
-0.004575959119101429 
0.101129396341563 
-0.5904121563199292 
-0.04122140102289114 
0.2254391046122017 
0.002275462786527365 
-0.7456862058228519 
-0.8863484675148526 
-0.9869896029695235 
-0.2693371993632843 
0.01177868559431574 
0.01904356353080499 
0.03413022521476145 
0.2141927570523891 
0.01144016259284746 
0.2321096843622483 
0.001414965637754261 
0.1758127078413956 
0.005415622681846484 
-0.00675435618985268 
-0.08740788868599193 
-0.260310831804467 
0.05064725168180979 
-0.05421323519393935 
0.04817075337906474 
0.2393713093707426 
0.003326439980146518 
0.1445435410306285 
0.01549086692260397 
0.1883832620019417 
0.117010220665438 
0.2760835499301902 
0.00525500166110621 
-0.02253820254339484 
-0.4046637569099923 
0.671374418079068 
0.1892569826153052 
-0.0016262865440145 
-0.01021063186325059 
0.02254136677594197 
0.01336118403557919 
0.01731027096926199 
-0.1750788623948118 
-0.05872013711340342 
0.1417256712012999 
0.1652663703408016 
0.2171858663476429 
0.2727219390309083 
0.3220680641319723 
-0.001454670900208093 
0.3358827095435302 
0.00560194629132919 
-0.1370276070481505 
0.3262691486650675 
0.1262646638535352 
0.2652029424333982 
-0.005700466847373133 
0.1270046142123801 
-0.1126764069138436 
-0.001454670900208093 
0.05295273086284236 
-0.04657712106394461 
-0.2492393721584462 
-0.02359936343953134 
-0.5464940186838205 
-0.4856020195086 
-0.4248017500612901 
0.1186168933347109 
-0.0633867601133473 
-0.03388017291954264 
0.1313181053794593 
0.1088857465181608 
0.02177476100316156 
0.1706131814055765 
0.04246124345004036 
0.002495361249219091 
0.3080768743828464 
-0.3174908334008721 
0.3880745173863885 
0.4840021843846835 
-0.0144630433628665 
-0.2984752440946615 
-0.7124163502789552 
-0.1624249213673518 
-0.00760058275079145 
-0.1124445257672291 
-0.01205927101631269 
0.04459351868915822 
0.02167530410646668 
0.00232124030424436 
0.1330848664664815 
0.1882571951084576 
0.0738036318590566 
0.007264601186041728 
0.1127167087608667 
-0.003508179029009678 
0.189848771558756 
-0.1328203664540851 
0.06255936280476611 
0.01695812953911599 
-0.02245600103407192 
0.01877834784932782 
0.07036965832341902 
0.375885557936588 
0.03493931863342327 
-0.04064089203845213 
-0.02175703338931544 
-0.02679540533823584 
-0.2197331061845027 
0.06676449402940878 
0.244398257522594 
-0.07502362222229547 
0.2076325426538498 
-0.1457732607191093 
0.01645233046699501 
-0.01412190100691695 
-0.02976295382623019 
0.04297793778056804 
0.08249480782816603 
-0.01060932089970119 
0.05679120029406921 
-0.01274806173255507 
-0.1841924362546425 
0.02466196075756211 
-0.8425049040965628 
0.3495065443095266 
-0.007826496788903962 
-0.0198184999986926 
-0.1079341297304778 
-0.01786234924815722 
-0.07548745122138174 
-0.009480112900342229 
-0.1164150851781772 
0.2947050543220256 
-0.0658248740494192 
-0.1246699747486412 
0.1989940364726964 
-0.01372032159444411 
-0.01239698920848678 
-0.09112387231229419 
-0.030012430859837 
-0.006620690986307751 
-0.2652909244320478 
0.4396949069625812 
-0.2027466085123182 
-0.005344557154773773 
0.1068204280212621 
-0.6014036167438045 
-0.02737005896077977 
-0.0174767068425286 
0.8822378280338237 
-0.06943444902065998 
-0.0139017691831717 
-0.01357161313151543 
-0.1216873998939011 
0.01225178819842503 
0.6740126599582914 
0.1227311183057853 
-0.0559329811602885 
-0.009776009173267559 
-0.003359266256205978 
0.3804515424607066 
0.02368399333603117 
0.2100840083381421 
0.01727723348152273 
0.007299528218867757 
-0.01570261037378689 
0.5173768152170403 
0.07424287310001394 
0.3817581035490522 
-0.008753669763464297 
0.07489868431989601 
-0.8911033389749349 
0.08171143976990079 
-0.006270260729919249 
-0.003490586362501986 
-0.007569546695790655 
-0.02591588458035723 
-0.0002242224175354238 
0.0404984759429858 
0.2094587246919053 
-0.001439685462036202 
-0.05042479225124162 
0.3973500378029553 
0.0706561965573636 
0.3029543145306864 
-0.04589486471488718 
0.3895989957410964 
-0.00576939620245039 
-0.006161648888224053 
-0.02918811342588005 
-0.02519376302853326 
-0.001612805027328311 
-0.03413374118181662 
-0.01899752701755039 
0.3875640613162418 
0.09977476260909714 
0.04738219914452457 
-0.250373378878184 
-0.2277122322749682 
-0.08756293660946563 
0.7222136368068466 
-0.04275480604571812 
-0.4406196469110697 
0.007954723961304836 
0.1365449832989121 
0.8344138248434159 
-0.1037855109659012 
-0.002668407957821625 
-0.006312994495365277 
-0.05926995055849249 
-0.002980980112012951 
-0.00826611890070238 
-0.1068200225115785 
-0.2074956537724508 
-0.3262657235419778 
-0.2438899503706017 
-0.577390621562372 
-0.1305017241201049 
0.2389328930167474 
-0.003293108875618628 
-0.005532613922396773 
0.02509181987896948 
0.0880513037794094 
-0.01033336699265862 
-0.08883110021863697 
-0.02046150785535652 
-0.07611789881275798 
-0.8639704505103119 
0.07786843809596718 
0.2318429586053238 
-0.02728360069913897 
-0.03403842037736198 
-0.3493712017878011 
-0.02158886149757235 
-0.001254255223298336 
-0.04438546233771512 
0.4225612474342694 
0.0446334809047904 
-1.175388840183892 
0.08151394048201233 
-0.006992231833041004 
0.03072347004014609 
0.03317402542404224 
-0.4146746194784627 
-0.0194532529098934 
-0.2381290226362257 
-0.1025204437347891 
0.468791032520552 
0.1828582034675031 
-0.4864522734579073 
0.2106954297657633 
-0.001445545999735508 
0.05422966895682601 
-0.02306519318692463 
0.06116182962290557 
-0.002773561270996729 
-0.01724902188868528 
0.1208502044397736 
-0.08254101254450952 
-0.1827323475963134 
-0.05950872279212523 
-0.2768772028348799 
-0.03731780145654923 
-0.08240162609323964 
-0.04943609788632611 
0.04036727667337693 
-0.2820887410259555 
-0.002688981294710502 
0.04997456432100352 
0.2535455622576622 
0.0001746461638639928 
0.04869038878221327 
0.04083425855569899 
-0.02322505352647665 
-0.01005653907966665 
-0.3069548190382426 
-0.003975509223363488 
-0.002160418953553709 
-0.02384419196991109 
-0.03642902038825047 
0.04344426889200941 
0.006227293114560047 
0.469349765763497 
0.004933652873722933 
-0.003380999087859503 
-0.0016262865440145 
0.04067338205405986 
0.003440388123434911 
-0.05897741210141266 
-0.07965349246497279 
0.2227320683510964 
0.0639607807918131 
0.003005178365401715 
-0.01332098165757618 
0.01323930144625888 
-0.002466251677197126 
-0.02301607754159721 
-0.007337883538363041 
-0.08779901394715421 
0.2885860678391292 
-0.43655560604521 
0.1873208797116338 
-0.4815108628646149 
-0.008876290158897397 
-0.04438546233771512 
-0.1213975819678018 
-0.1928426366115123 
-0.006429883268304138 
-0.2516403836845695 
-0.02048933471209342 
-0.03928916981135383 
-0.5522140249920516 
-0.03714047801739009 
-0.05024262622829615 
-0.03311509563113381 
-0.005797502318736197 
0.1094245004518056 
-0.1257701301073261 
-0.003028052849740114 
-0.07463208591233191 
-0.01587722085508489 
-0.1065856863227082 
-0.2006353050943604 
-0.4676801358627131 
-0.1114326860170717 
-0.01696332777708687 
0.003198032084561379 
0.02206024868630268 
0.05037394304312145 
-0.04680363680119899 
-0.06238252283803646 
-0.005256860351774948 
-0.005018173882571715 
-0.04513511517098778 
0.1305549067521362 
-0.1791700126602651 
0.06227717007200403 
0.0007362867562669607 
-0.0496407452212055 
-0.143260787303933 
-0.02096635991021419 
0.02057457422211562 
0.006963549266821668 
-0.007388380663966836 
0.3588210298510309 
0.1719378240462926 
-0.03294699741727376 
0.1015374198248584 
-0.02005080254142307 
-0.01923833283573818 
-0.01076609981107073 
-0.08895521295717911 
-0.002294323337845803 
-0.006376205347579583 
-0.01096960555948253 
-0.284429284517548 
-0.4223407743670324 
-0.03841117874843009 
0.4797457253525805 
-0.01526185151726707 
-0.01311688150864416 
-0.8860621429827336 
-0.3418258513238946 
0.0274333523916286 
0.2206871484833661 
-0.1791345582867246 
0.002031731181249694 
0.2354172731936324 
0.00700909309348949 
-0.01392853524200489 
-0.1004702582020282 
-0.1278082026962543 
-0.1526866820232996 
0.00289647258284865 
-0.2590290037360891 
0.002575113690622729 
-0.003555607986956674 
-0.08879663921409529 
0.02268192223844526 
0.07365841275285487 
0.2305037069622345 
-0.5637412073052436 
-0.06900045325242779 
0.007264601186041728 
-0.04135437224593784 
-0.6049341155900745 
-0.1765380689253507 
-0.116110453402791 
-0.1890538401499995 
-0.3115116331574409 
-0.0034710499402864 
0.008570944553692495 
-0.1158255506268009 
0.03856110976088238 
-0.01059135760510737 
0.05681742546090567 
0.1826440790478706 
0.4479198495189585 
1.104651833545963 
0.1680649960751261 
0.006755729848597731 
0.1563538425465762 
0.06242619187569812 
-0.0327740058276516 
-0.002865199371763957 
-0.02066152443447303 
0.1396484968392613 
0.1735992546767692 
0.2082694824307798 
0.1882571951084576 
-0.6238210216001141 
-0.4026991446314635 
0.01634042132097175 
0.1712394169441202 
0.3233999162668296 
0.6252590668653617 
-0.007417950076769699 
-0.08363226642783567 
-0.01281732113966986 
0.01563038724743603 
0.01216093054509536 
0.05251257476363359 
0.01146366808950474 
0.32539539272045 
-0.2935938336967529 
-0.03120607190449245 
-0.007827572299686336 
-0.5608073469417363 
-0.03005345881757042 
-0.1864573807354101 
-0.04205794749358897 
-0.009062445358844788 
-0.2405698688938334 
-0.1576208421698473 
-0.07064993900438282 
-0.005390759367464684 
-0.01705310667644009 
-0.06025413497621168 
-0.07001691987298116 
-0.3379298887147749 
-0.01818627811234823 
-0.02259117774566384 
-0.004121098269370797 
-0.01261044266320363 
0.210206058790676 
0.01093094351805141 
-0.00441833678523521 
-0.02190502055773412 
-0.008818364487031612 
0.1915539137028434 
-0.006724246700418593 
-0.008680184469709249 
-0.0121166922810648 
0.8017948621346904 
0.181959351535507 
0.08880270737164805 
0.4271383962334404 
0.03070182177129495 
0.6226964517564508 
0.1583356699154701 
0.1761129241707473 
0.04679043482612509 
0.0355766129038457 
6.784775539374113e-005 
0.001114913340896826 
0.1885547440980981 
0.8089275240644471 
0.8624834974999717 
0.07623374180448164 
0.1559995859385964 
0.2296077307366443 
0.03394336069883758 
-0.02904689921025056 
0.01085442708959018 
0.0008072154308028767 
0.1310290862495118 
-0.01109449816906571 
0.002672682854262979 
-0.02092196216790577 
-0.002886859043383486 
-0.2399424179034964 
0.1245627818047398 
-0.01083711464720666 
-0.00663844574254493 
0.2071451708675621 
0.05231614401097166 
-0.4285353277336353 
-0.00931391585739753 
-0.1116351349667676 
0.04125509575073875 
-0.01279556252903472 
0.003485047627372861 
0.06471221062272931 
-0.06209313132831611 
-0.05160912149137204 
0.0226438304218936 
-0.07655176073012154 
-0.1866748629449451 
-0.000987361768709702 
0.05573116388401034 
-0.09470464968669465 
0.02838862678003783 
-0.2443832964680128 
-0.3913399601121308 
-0.1526192743131535 
-0.03455469106582464 
-0.1957086959258351 
0.5947926154532274 
-0.03367694757261236 
-0.004926682774474976 
-0.24569184101137 
-0.009349333975722698 
-0.01604102494325279 
-0.006493490238905994 
-0.01492615662628235 
-0.02819699905383783 
-0.01445700340189431 
-0.00723251729688225 
-0.02912386879745802 
0.1573415085078732 
0.09586461335889923 
-0.1175475789518806 
-0.03431259643706311 
0.1764349286804492 
0.2032890568322715 
-0.005532613922396773 
0.0660662858484932 
-0.2134975292062551 
-0.09572203124461173 
-0.000736107859495615 
-0.0557294859542932 
-0.06270968855711231 
-0.1310673171538867 
-0.01497558644883831 
-0.02485196143699678 
-0.01014030951231345 
-0.07351531476252909 
-0.0001137403997895584 
-0.3356725668964038 
-0.003701662917666225 
-0.387236031894608 
-0.09875946917037355 
-0.1191738654958951 
-0.103129356787108 
-0.007400665730706389 
0.1560167790848065 
0.03500899852120931 
-0.1428415405335969 
-0.1297038686904306 
-0.04926877013834417 
0.1153516714081396 
-0.2302705805423712 
-0.0101478763102762 
-0.002325107240761617 
-0.002306307420922713 
-0.05296178311281539 
-0.04375605552739988 
-0.0538661195479485 
0.02003825877619798 
-0.07262432908031521 
-0.0551881229981986 
-0.00423109036603211 
-0.006429883268304138 
0.5104580549928778 
-0.03874684685787443 
-0.01199993619780239 
0.003431521599985203 
-0.007046376370013577 
-0.3269002644376616 
-0.09839662576320646 
-0.4488737700519877 
-0.003701662917666225 
-0.1073039434450503 
-0.005700466847373133 
-0.09536036391198406 
-0.0148305054379091 
-0.01429333063548097 
-0.005727738482657309 
0.003649918031621037 
-0.007132509651838792 
-0.006429883268304138 
-0.5189031277286763 
-0.245742258122737 
0.01755741864589298 
-0.07880867120504691 
-0.08607670295173589 
-0.05583317578251119 
-0.1974518414305729 
-0.03571154512509939 
-1.626404274221655 
-0.006529695281632047 
0.0848715389507701 
0.4844949661209146 
-0.002142863586955957 
-0.02509085699953896 
-0.002741621654244829 
-0.1641977226750403 
0.01967789108765406 
0.07917336461465337 
-0.002371914542777635 
-0.01236534573960024 
-0.2154592928701033 
-0.02524522497273101 
-0.004315992486772569 
-0.2420501357988636 
-0.004190405372402647 
-0.002352983197639284 
-0.0435777978156773 
-0.008910530437228708 
-0.02357408451038483 
0.06159500829511967 
-0.000469964407667678 
0.2958187992554149 
-0.1641572926690345 
-0.1235397299778343 
-0.05802862707412736 
0.4137469745051355 
0.01463556084361621 
-0.01817262616295932 
-0.01248367020935305 
1.652849469557252 
-0.003002919985335993 
-0.02687031111521164 
0.5341590722118416 
0.591586685263822 
0.616632327733001 
0.3934520166821693 
0.032527977649641 
0.3259335099801871 
-0.02395438915864357 
0.1212354160452611 
-0.7343799139103859 
-0.528986176633071 
-0.003583356373243142 
-0.002751331551942047 
-0.1610099206064461 
0.317350091057283 
-1.691133242620055 
-0.2607056096168567 
-0.07655176073012154 
-0.06426223506087753 
-0.259711456313598 
-0.04626356242822496 
-0.06622979387368687 
-0.05039207019820909 
-0.030294718674762 
-0.3450938708194691 
0.3332245583863313 
1.450656341913184 
-0.002111902111854359 
-0.08030645208632251 
-0.002780339577516351 
0.005619272399361266 
-0.02178063949369337 
-0.1539957458520377 
-0.2757186355446133 
0.2145547085103839 
-0.01780308670821252 
-0.3586818542530261 
-0.00909605707120415 
-0.0394773915270559 
-0.1687327727230685 
-0.201382534671091 
-0.2527430152032052 
-0.1060406704560993 
-0.01097600702388917 
0.07170271749623651 
0.6049007530195089 
0.07033989968406042 
0.004510161250786543 
0.3798878900824511 
-0.06605856336343824 
-0.2018064795489398 
0.0237116250572623 
0.04101443819786818 
-0.2017749938049751 
0.7078491291183522 
0.1635976641245782 
-0.1323147135638891 
-0.005324682262986196 
0.0427331509721523 
-0.008706840822154007 
-0.1878285396552881 
-0.3033452643326123 
-0.02371388721143838 
-0.2255658091148551 
0.3739162732942973 
-0.0003953693217022945 
-0.0645142407365949 
-0.1131978343419112 
0.1902002116113182 
-0.01025029395258965 
-0.006429883268304138 
-0.05620994862273306 
-0.007854755747296107 
-0.3807959402929412 
-0.08211510892409683 
-0.02400007431025083 
-0.1631160205463563 
-0.156452024134239 
0.3757996633591266 
-0.01052430822241673 
0.4701311634774327 
-0.004130466535587814 
0.05989840313401468 
-0.05611746288625058 
-0.2327925377928251 
-0.0720242253386225 
-0.02130981708934511 
0.600453545032379 
0.4708751663197983 
0.0704769729506263 
-0.0006105599917582823 
-0.005686686987074911 
-0.006964682200594793 
-0.2336983281983284 
-0.1552061398224186 
-0.119338521251302 
-0.06780748395117626 
-0.1158298564866801 
-0.05189122583869839 
-0.04185504829884362 
-0.02112009802010369 
-0.1985117660520321 
-0.3181587094466931 
-0.07723148913447132 
-0.03884689954532354 
-0.451452157316323 
0.04336696309027978 
0.195362546957231 
0.6436177884351272 
0.0008332959200341336 
-0.01306255157289401 
-0.08414625414367945 
-0.04230869347262241 
-0.01927254486030516 
-0.06477176393568124 
-0.1000822098671908 
-0.01647163918868386 
0.104664095734267 
-0.1387799543358626 
-0.007840923823015626 
-0.0007479876998769047 
-0.01505912953483211 
0.1018734232194845 
-0.1900276301152867 
0.01788650934885015 
-0.1086484361057764 
-0.01561310080773366 
-0.0221583083659582 
-0.03527522090978941 
-0.2523551230550996 
0.0003208922853225143 
-0.1604672157500679 
0.1622819753155215 
-0.01550382533623416 
0.3155016161688448 
0.6858320523376884 
0.04795132157616912 
0.03128749721161295 
-0.2098708973460756 
0.2241578944891383 
0.2331773476442992 
-0.3151892299229676 
0.172090383884343 
-0.005733900924909203 
-0.3848665537286204 
1.260833599792975 
0.04466050686590471 
-0.0004807837391226314 
-0.01945913048426859 
-0.2578711564180565 
-0.09645718057983205 
-0.1370276070481505 
-0.4289256386957928 
0.1830509888828219 
-0.001947197571853787 
-0.1043866773013995 
-0.0001527926041535461 
0.0369673219253191 
-0.0868063938514467 
0.1977565923919283 
9.466721229283658e-005 
0.05054857068018453 
0.04906096763057938 
0.1533204341109983 
-0.03358116793353238 
0.04077933490874856 
0.3402864259271533 
0.04865926944388801 
0.1163483192279235 
0.0107556418642621 
0.007038244260368331 
0.04690016366805715 
-0.01618024409730886 
-0.0293724751272142 
-0.0004273017978934269 
0.03686104520867615 
-0.3325384595014411 
0.2193278699109079 
-0.00211354485597444 
-0.33697810875418 
0.2176539105405809 
-0.1057636089186022 
-0.01188184232963627 
-0.01620401635150176 
0.340911054446865 
-0.01242187754520581 
0.1690053204369 
0.005580394148976164 
0.0180774808467133 
0.215484685664102 
-0.04409491167766068 
-0.02551317347677558 
0.05272381154469678 
-0.01183289347533365 
-0.01692165745150654 
0.1181399236103149 
-0.01514719919202043 
-0.1379396348370514 
-0.02639291555816564 
0.1811123754899795 
-0.4129224498684888 
-0.001408821718120195 
-0.006700175718293721 
0.3717275546764948 
-0.02740078965720115 
-0.539633237424257 
-0.003846663256807693 
-0.005700466847373133 
-1.196388833320293 
-0.02384639164441229 
-0.2610207813980482 
-0.001046994632450703 
0.002772126728564289 
-0.3208987099665422 
0.165820607225002 
0.1764360913488758 
0.1764774343516968 
0.005741022145982038 
-1.133028612713974 
0.08978972057303916 
-0.04356637166753874 
0.08508382044337427 
-0.02694941719003277 
0.003328320165083859 
-0.4115946965120094 
-0.01037477895327251 
-0.01037477895327251 
-0.4410737176572742 
1.016668489296272 
0.838587110095919 
0.1243074042533888 
0.02517334949585395 
0.3541477781980091 
-1.03523132102826 
0.3487401408627106 
0.03759290465707083 
0.03979304756307858 
-0.02880451137292493 
0.04515020361815372 
0.01159193293435744 
-0.1074384101335266 
0.1267513176136071 
0.3439167820644 
0.2422480905142941 
-0.802796398233309 
0.1983033411769101 
0.3419628279792311 
0.410080520159349 
0.04765793412778743 
0.05712452848053989 
0.3388601397456115 
-0.09743379368215296 
-0.1050508683044201 
0.3207012460581856 
-0.2097672498446382 
-0.01665450726758166 
-0.06344172511329947 
-0.01027345206762586 
0.1271435478036065 
0.005562763841716178 
-0.05554835216231167 
-0.113067950451706 
0.1130746549221608 
0.01048711866151329 
0.4714931242871254 
-0.1211538354630145 
-0.09291961229402451 
0.004224980522247828 
0.05391577902477012 
0.4614965597061251 
-0.2007580206333953 
-0.06429033738666064 
-0.02585372774029762 
-0.02454124929205392 
0.1208502044397736 
0.05788170453076115 
1.722170079227863 
0.0241929737535127 
0.3191400556683547 
0.001135562221923847 
0.002677249585480439 
-0.002841536586028523 
-0.07063612354093571 
-0.6848230328965921 
-0.01313168087067377 
-0.031864595365109 
-0.006814780758078153 
0.4992043841388023 
-0.1485078533923687 
-0.007548528209502366 
0.340771077643075 
-0.0016262865440145 
0.02656811774353778 
0.1663221728880879 
-0.01079577564440788 
-0.3399578020422904 
0.0003371393879811419 
0.2144675315312457 
1.022780887196116 
0.2678766314292285 
0.6825648093592058 
0.02044222328420032 
0.0558975641664748 
-0.02221783994396919 
0.1539731092199281 
0.2413566830318773 
-0.04707427613221486 
-0.1426584036902367 
-0.4561365181154707 
-0.1217696740192145 
-0.004777293642453224 
-0.009983264680922914 
-0.02385562510534063 
-0.2374002969947005 
0.1717897814005295 
0.5853304195861739 
-0.005661659485584366 
-0.01218405810870179 
-0.2872708557674602 
-0.006561200984858556 
-0.0604201047123738 
-0.09502232194182157 
-0.02319688798081288 
-0.005085742356018344 
-0.05199140376894029 
-0.08040290744335117 
-0.01280199598684869 
0.7440985367266058 
0.01197022139128668 
-0.0115122278092023 
-0.02005929833186605 
-0.01322034844415317 
-0.02123728137167323 
-0.01971235085497537 
-0.0396805512641014 
-0.5409991064624287 
-0.003694506313092104 
-0.08739867535335122 
-0.02867866773313963 
-0.1300185504102649 
-0.01548693932950722 
-0.09236145741721825 
-0.1998396204837495 
-0.4914149609448146 
0.008987560266145948 
0.1279614172690458 
-0.008185068749353134 
-0.02089153970411789 
-0.06401082730400179 
0.302926673045584 
-0.02706229063443853 
-0.006307748888891339 
-0.08055160559033439 
0.001291766393491442 
0.01057753097414145 
-0.00214792953128168 
0.2252731921694807 
0.02270099255426471 
-0.008829381068716703 
-0.03774388960264058 
-0.001055418530958537 
0.09739515135552543 
0.02978582572116732 
0.4910472421363142 
-0.01850589115479537 
-0.007885530330721983 
-0.005477837589140018 
-0.0210103721052427 
-0.09592015976171296 
-0.002935648741142931 
-0.0369451007248677 
-0.003050265100607103 
0.09441018066352735 
0.211386274737993 
-0.009600557791088505 
-0.07747829863855356 
0.1899786106483758 
0.217295373073189 
-0.1487524279265444 
0.01973901443289085 
-0.0391756090405112 
0.0449999076443828 
0.01542467760400644 
-0.3125663546182551 
0.03874447917493457 
-0.05242688987980115 
0.4662300938522983 
0.03612930869571943 
-0.01702624894741778 
-0.4954160767673148 
-0.06614438107612121 
-0.005230066882987413 
-0.00712328920683367 
-0.01252408064327353 
-0.009504818617181568 
-0.3847992239218946 
-0.1060297130497409 
-0.01091263093427747 
-0.003720959890674296 
-0.07516822296071195 
0.04703800573275983 
0.03428127669749623 
-0.1385654477556112 
-0.3475492714505942 
-0.05849760882537477 
-0.226793949930748 
-0.02954583618414122 
-0.01020800027122224 
-0.03836134277619021 
-0.003095977345122397 
-0.03579346926432903 
0.03212358130568545 
0.6264862419162448 
0.406283258058867 
-0.1447784909546473 
-0.09990206745000425 
-0.02070979367892138 
0.1127640660539062 
0.1616221928172316 
0.03563856025081849 
-0.01735825595971818 
0.0732119580883506 
-0.2752529583737119 
-0.02463438211259961 
-0.3140437113336281 
-0.005545897069767681 
-0.2836363425939147 
0.004240418353036222 
-0.008865990186952579 
-0.01376073918092553 
-0.04438546233771512 
0.4064070945197582 
-0.2395783476286465 
0.05856098629111264 
-0.0761606896625804 
-0.1186378172807817 
-0.001938801803242441 
-0.01438285776265219 
-0.003380999087859503 
-0.3148134871362489 
-0.01456701497093318 
-0.1275881645521972 
-0.05433626090794962 
-0.08660328968145904 
-0.3827807989093704 
-0.01592782922205524 
-0.02877778284253789 
-0.06737194151166549 
-0.01642478072618977 
-0.002105212112825196 
0.0606981583895426 
-0.07390070369010064 
-0.01372032159444411 
-0.008148325324408623 
-0.04884216780580985 
-0.0243478664425494 
-0.009175743964255209 
-0.02480702155779827 
-0.1984804560405561 
-0.07340378734429147 
-0.02041228201681366 
-0.0006308927136800376 
-0.4069885424157319 
-0.02396030766928823 
-1.067090101484119 
-0.4274421598260264 
0.3045028185956844 
-0.5423518577881268 
0.1033407118380851 
-0.02706241885051043 
-0.3247346239732133 
-0.01127722506562779 
-0.008572003415129601 
-0.02246186482544623 
0.2669806753452201 
0.02867289003574847 
-0.04626572452643264 
0.05998043653088536 
-0.3756990746163189 
-0.003203371738723015 
-0.006600278930624593 
0.03793059368331264 
0.2192575278853047 
-0.0867450983849607 
0.01544833058044766 
-0.01798020799951024 
-0.005542097613024138 
0.04200970045015343 
-0.02971555379174174 
0.08529319346360947 
-0.02013052971729715 
0.7148276712537534 
0.2153398286643808 
0.1036281399723998 
0.3136451930928558 
0.002815498366149442 
0.05156612169208431 
-0.02811126799560447 
-0.3095333253146614 
-0.02293171656557858 
-0.03325463715444681 
-0.010653788226856 
-0.004545617730501697 
-0.05408677969432851 
-0.1340096934956521 
-0.5480225313633148 
-0.001934788600026089 
-0.01543101741007993 
-0.05847430871693598 
-0.02044812429072017 
-0.006605571978759347 
0.008056282930384882 
-0.006564382637978902 
0.1809346416944085 
0.2989717577552595 
0.12308174923115 
0.0002384456950994913 
0.1825232607801058 
0.03467696581273828 
0.08670598376226027 
0.3756065897584335 
0.1567945793721106 
0.1588253003358393 
-0.157768604990666 
0.008270902484014646 
0.0111520061684632 
-0.002534998725424462 
-0.03376418478572212 
-0.7660085850881815 
-0.3393208042026729 
0.1411359309667418 
-0.004979625455173044 
-0.06151015755496229 
-0.07407869751355063 
-0.05916814526298519 
-0.007742043797313293 
-0.006305142902849061 
-0.1070193924059814 
-0.6175464585874361 
-0.2701874631695087 
-0.0003953693217022945 
-0.05466200529611212 
-0.1453744356431596 
-0.02076186401096613 
-0.2187777266895108 
0.03229006694584731 
-0.01156845936903999 
-0.004670596338318711 
-0.1349796748860568 
-0.004284005812968597 
-0.07537409323003094 
-0.03510579601791571 
-0.1819438243780289 
-0.1714006899285669 
-0.01240611342806574 
-0.139919732371865 
-0.005385675385204635 
-0.09150575283499493 
-0.004120502752390409 
-2.560552789976081 
-0.1292926690173717 
-0.2407480329277505 
-0.01133671118940232 
-0.1121765881894602 
-0.04045957290831546 
-0.5056627736053632 
-0.2124922701941244 
0.006957905034142725 
0.05181012289282808 
0.1158130942036229 
0.6601668682133226 
-0.2758191614218229 
0.03804481220297491 
0.4522079248587395 
-0.07864956013861149 
0.001253607458648409 
-0.01255076042473682 
-0.1512547339265186 
0.2733397272343743 
0.467660180401401 
-0.06300338203585346 
0.07344523414910914 
0.05660595064363345 
0.01381414083037343 
-0.01014768686750199 
0.3855044938786408 
-0.1404027419759583 
-0.05797008128597559 
0.366234284611178 
0.007579331811626414 
0.0007153798984658431 
0.03136831842443897 
-0.005700466847373133 
-0.189027490405307 
0.01137245369950832 
-0.03057325020799799 
-0.03888490942401755 
-0.06126507365549437 
0.01232611485992115 
0.04364262976490689 
0.1208502044397736 
-0.3082762769106464 
0.1767806302598402 
0.1795733353279516 
-0.02385366253769797 
-0.005002171483490416 
-0.02978615171884977 
0.02456468406646922 
-0.007205662411475209 
0.5310430216823573 
0.01090552431686773 
0.08741442200929343 
0.2120108455905605 
0.002139877045250223 
0.01628282933137781 
-0.0008557213431004692 
-0.7802160453252619 
0.4770071015662155 
0.05278673445917459 
-0.006964682200594793 
-0.1894541319489939 
0.02453536795681804 
0.6519756714717985 
0.2191031120425101 
-0.0222489471524104 
-0.006846809793201139 
-0.05789202505314731 
-0.2028864630346728 
-0.4174106233894289 
-0.1782889734865249 
-0.03836619777885578 
-0.500932016583223 
-0.2306014061994579 
0.2192309963896068 
-0.01524611326597399 
-0.1820304520192405 
0.04521578235147862 
0.05836639084644943 
-0.1831208661920698 
-0.2970351261806026 
0.004079879346949889 
0.04900694834475905 
0.08817005059635165 
-0.06288577161744118 
-0.02900190405882221 
0.08936752457508082 
-0.02137029398014869 
0.5533109902245125 
-0.03516176962725416 
-0.1383697471294658 
-0.03996470485742273 
-0.003458200285424524 
-0.008226334719512833 
-0.02772050931997007 
0.09332693529336091 
-0.0843198358199017 
0.02638032826206007 
0.2626172396040154 
-0.5381243172529612 
-0.3071665653946115 
-0.01374627058123822 
-0.2534894271744926 
-0.4637232931071567 
-0.0396481382252376 
0.04827415005508273 
-0.2570351868107414 
0.05158910466935994 
-0.04670988485770469 
-0.02385562510534063 
-0.2796191301568561 
-0.1055128317389114 
-0.01406728208976603 
-0.01675358444851208 
-0.03087265341064504 
-0.02378405594441587 
-0.01049646294216537 
-0.0005673118134219024 
0.1293395298627684 
-0.004066383910679642 
-0.01361900880267211 
-0.03977967531488231 
0.03045523308216202 
-0.005373124001604326 
0.1999285146324679 
-0.002216597644551212 
0.1637172669602684 
0.01725798700790632 
-0.3502434323042541 
-0.04438546233771512 
-0.01096997162182416 
0.01439303512383601 
0.07363894322252393 
-0.1209194304097194 
0.05072973567996755 
-0.009991422430899483 
0.1144115048091877 
0.2174539731919075 
-0.02815339613122957 
-0.004670717045775073 
-0.1757603058183675 
0.2074223868182041 
-0.04861109825186096 
-0.07469359155084697 
-0.001277384122411787 
-0.08169434402822651 
-0.05005699734904571 
-0.004950440139712399 
-0.6245130306859266 
0.01608697492765683 
-0.06381743453171906 
-0.01357133753519433 
-0.1041522479471927 
0.1270930372364907 
-0.04293719857435071 
-0.08223958485518387 
-0.09260275969747216 
-0.006841518074318847 
-0.01161511055001001 
-0.00134423202651248 
-0.2177774916860006 
0.06002528737165822 
-0.5174003611920879 
-0.6419428493619803 
0.1851694607391596 
-0.06149724279145994 
0.1576320140236139 
-0.1374134184994689 
-0.8785552800818206 
-0.01662825726093126 
-0.0166396235669377 
-0.05885367118702878 
-0.003959245144046094 
-0.04473452241438543 
-0.004553506325051659 
-0.004597062688060247 
-0.03148982059521261 
-0.01574550426491642 
0.001661711246417059 
-0.003701662917666225 
-0.06734278995433549 
-0.229502077835155 
0.1395968175393493 
-0.5826033337733312 
0.01810464156294512 
0.02122583750449267 
0.00405187956743933 
-0.2715957470730479 
-0.1389560595708115 
-0.2366052107427134 
-0.03374488368184298 
-0.0474659775347422 
-0.1817325887573392 
0.2001531129858786 
-0.01376073918092553 
0.6578473589764642 
0.07986840502923463 
0.001577840951823633 
-0.03194352134228921 
-0.01020324773865458 
0.2858767690276601 
-0.0007935639223670708 
0.05811443772470874 
-0.0112771507421739 
0.05250570664981919 
0.0919810505049818 
-0.04127630335891358 
0.461497754289493 
0.3212859760116903 
0.06417442571298637 
0.1755498597658463 
0.05785247745691314 
0.002936464828562442 
-0.1633056524797314 
0.0007967889332392361 
-0.1935515257089656 
-0.0003798722725254168 
-0.01706799487225508 
-0.02853874542546833 
-0.2664949898979104 
0.0005413451175400646 
0.1366662828370393 
0.008118293149572794 
-0.03343494462635617 
0.01225836913587992 
-0.04563253652113444 
-0.001548023389999548 
-0.04152279951430529 
-0.4556319505426663 
0.05327841475640445 
0.2665053361182869 
-0.003291947888787088 
0.005674476675989836 
-0.09467182874021485 
0.05295273086284236 
0.1970436817313997 
1.550725717552562 
-0.0006371740097675996 
-0.434091298053272 
0.1025378226292658 
-0.0160648515378998 
-0.01727745804515134 
0.5685607002772867 
0.3598929215512539 
0.001161411164107977 
0.005023305264757466 
0.003370921386043073 
-0.004504769084634775 
-0.0009562323848523959 
0.1358653771414393 
-0.2089149428868273 
0.008103164811579288 
-0.09038174479540392 
-0.005700466847373133 
0.05033895971015787 
0.1112097054664342 
-0.05465014845679841 
-0.007252916880343718 
0.1385876947259324 
-0.007651581243702766 
-0.05234983735682009 
0.2133775913180178 
-0.0288200163051797 
-0.02126245262378856 
0.3921984859846485 
-0.07982197799198644 
0.5589514792430744 
-0.03106232462567989 
0.4206082626930919 
0.002092988567782041 
0.02512189042858126 
-0.03786246225956885 
-0.072275122173726 
-0.07152494022724756 
0.001006860062354203 
0.005700824562112769 
0.1231826644985711 
0.0009751299036823005 
0.2523883938989642 
0.01483056622234402 
0.1169541230317569 
0.009395667884471841 
-0.002472823589879681 
0.00762509791847015 
0.09958142512080409 
-0.01483432264194179 
-0.432507983563752 
0.02825281447463614 
1.055954564572852 
-0.008681918848791898 
-0.02459173067771334 
-0.02356218478212585 
-0.05245345442320302 
-0.2519738805233858 
-0.01073109095778446 
-0.1201501044982287 
0.04473505583407534 
-0.005373124001604326 
0.04402233629728802 
0.04256992503441229 
-0.2628275324953288 
0.1024066836800987 
-0.009499083321785824 
-0.01535755342202856 
-0.003505194805347528 
0.2740818072701875 
0.007980392121920027 
0.007561333394205074 
0.02963758137961916 
0.09619796363594109 
0.01187418837599685 
0.1586950505141881 
-0.002619767488051168 
-0.0363226677284017 
-0.0003341127733252896 
-0.0004781371635133103 
-0.1715035258725864 
-0.1003271295509079 
0.02285317049297534 
-0.1938948675303684 
0.02640012988220377 
0.1872443231278649 
0.07300071013090453 
0.04401936903589865 
0.1250659305773976 
0.01981092216533912 
-0.0004022077977561584 
1.413078194405119 
-0.02612250297975676 
0.01238592555556237 
-0.01013802041437542 
0.2244417963701177 
0.0001899451865362742 
-0.1543182017706923 
-0.2589661193796247 
-0.103935209970325 
-0.01506412932888026 
0.1100158085699513 
0.03875229524326675 
-0.3589180800384886 
0.04027177846344761 
0.2083255618127197 
0.008785604053582374 
-1.210904177953691 
-0.006176371120108004 
0.04629212235789526 
-0.1295722989120128 
-0.2062402761443801 
0.01324447049324409 
-0.07375051987262347 
0.3993080253100479 
-0.02133865696962962 
0.03237651167208251 
0.04779929906846205 
0.05327315668811519 
-0.07279561686780307 
-0.001892808173708136 
0.001949745090099818 
-0.06497888592910703 
-0.4152640551564087 
-0.2978693530886183 
-0.02674191671188076 
-0.2851167262792941 
-0.03893644523712635 
-0.004168042872029662 
-0.03391878914747767 
-0.03259200342563449 
-0.03394944259068029 
-0.001938801803242441 
-0.1415318022770529 
-0.5308987794528479 
-0.07549735791729019 
-0.3246021006589396 
-0.0009643878708092446 
0.3578566719625059 
-0.06204386041113973 
-0.03341649505500009 
0.2131050521317543 
0.03197626196067367 
-0.1490948687880281 
0.002191428202551558 
0.02585808771071537 
-0.04092322412219649 
0.001451565971695818 
0.001928662208253399 
0.00624280712425518 
-0.001938801803242441 
-0.04552785323159633 
-0.1514933274301077 
-0.1470400844376535 
-0.1082693348488642 
-0.02610840714017578 
-0.02039849903643933 
-0.02812167487398911 
0.3713494648628993 
0.08933237101488871 
0.001084065099950264 
0.01311959364478582 
0.06339398127246257 
0.0001839010783448469 
0.422257383197334 
0.07515867190500439 
-0.01309793113957943 
0.007668451368115273 
-0.168461761904348 
-0.1369506185924252 
-0.050284758787129 
-0.008703326743969606 
0.08094961835436795 
-0.0034710499402864 
-0.2999774075331834 
-0.06278012932981139 
0.06660201854694714 
-0.1534580673498504 
-0.04496439108264897 
-0.04248245232575304 
-0.01284966809790904 
-0.3058730664790431 
-0.0360153637178583 
0.04083227679168396 
0.005312744216070314 
-0.00100117376296581 
-0.03363619584123231 
-0.003701662917666225 
-0.01586376435562318 
0.08866811010703432 
-0.01440771730293066 
0.07710436204251329 
0.0704769729506263 
-0.1866345370530196 
-0.01525898034214748 
0.05976937645927787 
-0.2409823469928409 
0.00114316229623432 
0.05761478484474513 
0.2469857496022318 
0.06370336578874918 
-0.4192147432512902 
0.4066625766509959 
0.2894147178805541 
0.01577597388260111 
-0.05506763023161564 
-0.03467476151146887 
0.02061736581402027 
0.006023257005356007 
-0.03130587628538847 
-0.06846986616924189 
0.1002441175300406 
0.4491402408521731 
-0.09272828627582568 
0.1665805391671543 
0.02381302446351995 
-0.07498650095363485 
0.2906689454153085 
-0.08695965948476692 
-0.1355527254911535 
0.01294306997673448 
0.02068215755568709 
0.7581098339021256 
0.2801864654718609 
-0.001445545999735508 
-0.001801786416690345 
0.07908168387330992 
-0.07554809389767216 
-0.04470413487762363 
0.2057479438363687 
0.265661886542651 
-0.02942615895585085 
-0.1091645319483022 
-0.03555932395178512 
0.01816254915231339 
-0.434443387061144 
-0.07771915217897692 
-0.06672675949530746 
-0.04438546233771512 
0.09400113872430065 
0.04414440375392573 
0.04178608656468707 
0.02075000733334781 
0.1004643536006137 
-0.1872560626626673 
0.04573897371387328 
0.008052698972662045 
-0.02196491085614927 
-0.4547925437716576 
0.2022660613191577 
-0.07110321404014383 
-0.6852482312079051 
0.01574977820868268 
0.004832274796680816 
-0.006520689519383631 
-0.0350630004506523 
-0.1342594487099217 
-0.2751976482846874 
-0.05752056522424525 
-0.009876427819967622 
-0.1124753205512586 
-0.07927998282881202 
-0.002996992744970658 
-0.02840068536750392 
-0.01360416995986442 
-0.02440590672078414 
-0.0140738317699461 
-0.004257081053022527 
-0.03716397587525271 
-0.2383583799034762 
-0.05892512383792584 
-0.1025995431113769 
0.2158474357888458 
-0.01217116498813653 
-0.001938801803242441 
0.08289005859491672 
0.0257513106876852 
0.09650579244372978 
-0.394949493484625 
-0.1446675882304473 
0.06240697679754725 
0.7674717098158699 
0.06590801953560604 
-0.0209382166422433 
0.0663689083328874 
0.001681228095268287 
-0.009506508408896178 
-0.002668407957821625 
0.255997004014711 
0.05479282163025814 
-0.1352700244742411 
0.1849903349593458 
0.03353462395675107 
0.34202721529841 
0.01060922345286339 
0.01231396462201257 
-0.01118824503033314 
0.09900389416100526 
-0.2752254005562689 
-0.02949216522741269 
0.9048383675692915 
0.1256687927708846 
0.0001427413864948236 
0.1208502044397736 
0.2094936954734833 
0.6718221066535222 
0.3380763313611908 
0.8692179195355541 
-0.07062981614366487 
-0.03199626097192115 
-0.02882064848208029 
-0.2025254964625933 
-0.009847280364656451 
0.1188934253714172 
-0.0016262865440145 
-0.1082629113953616 
-0.0016262865440145 
-0.003977963423369745 
-0.03756953335510229 
0.01995978783093138 
-0.008956656954146398 
-0.2892103096382831 
-0.0372784431074743 
-0.0260920178043224 
0.4589423252157958 
0.1407203049590469 
0.01890694959281951 
0.009652549767290972 
-0.06859810727944078 
-0.04690874968851726 
-0.04990124325642972 
-0.01444943353165574 
-0.0207812202399251 
0.1074878346486054 
-0.1110672601938951 
-0.06315492286420196 
-0.01338308517528638 
-0.00391117046075585 
0.08726718501788705 
-0.005949220219240537 
-0.002373679630256931 
-0.005852787547529539 
0.1072583079054487 
-0.003941983279655565 
-0.02154167461287008 
-0.08380231655108096 
-0.006154792682581555 
-0.04867622387565517 
0.1209619920289912 
-0.004720602299261017 
-0.1710207525160568 
-0.008660915065481519 
-0.1599532515936888 
-0.07156285242924901 
0.01152501896138529 
-0.1076878810609033 
-0.008139749516307433 
-0.4442466102885262 
-0.009680527771814747 
0.5227526597263686 
0.02786327485292522 
-0.2803886998260605 
0.436417100662012 
-0.009899874019361644 
-0.003812502438741412 
0.04245358208625587 
0.02430642389014121 
-0.0005051099097820872 
-0.0008613823344455981 
-0.02390646602985114 
-0.06969834296746229 
0.4736220930751545 
-0.04547153699534436 
0.137289219620817 
-0.316873150720038 
0.01287008842381489 
-0.03871328679705549 
-0.1163084239141345 
0.004816224111499317 
0.341211191356171 
-0.1194047495305935 
-0.1023921916674002 
-0.01041310525371133 
-0.004508760838252853 
0.6356195875320327 
-0.07809523999076466 
-0.03079448931037506 
-0.002061108194270172 
-0.1603322829341911 
0.09150018023472156 
-0.007407882624111231 
0.1811899959747604 
0.007265811298360681 
0.006637176013162696 
1.267257182373702 
0.1732522456826955 
-0.02707595530855295 
0.01142955658045259 
0.1417954057962211 
0.1811095446940752 
0.1539654754022547 
-0.01476626855386876 
-0.1193077853307862 
-0.5896388115117681 
-0.009007996729459993 
-0.2139718923115712 
0.04836603071812987 
-0.2319824322372742 
-0.1336962167001078 
-0.01049716706559699 
0.001066163895285225 
0.2304197700123377 
0.08725745464791573 
0.03022621332468396 
-0.001664565304659681 
-0.02723689519539627 
-0.005091686623387015 
-0.5167512223065426 
0.01591484623693465 
-0.05975425842964476 
0.1281362842859423 
-0.01878425667847486 
0.4557079443935162 
-0.1780121670206025 
-0.03871791645333689 
-0.004402126873301432 
0.1969281181622296 
0.05114021049686553 
0.05268579116336322 
0.08662429824556048 
-0.301109855983887 
-0.1920307973125925 
1.077412010925691 
0.407582329248228 
0.00614516649383546 
0.2777922509793558 
-0.009344194273566132 
-0.04306483234238066 
-0.2241930473677599 
-0.009494796349968479 
-0.01432901879956198 
-0.04727342759555921 
-0.06796239490658505 
-0.2253104383624164 
-0.3620429567951053 
-0.1918976273087001 
-0.01385267051806326 
0.07064841592142029 
-0.3136209915591969 
-0.1295297386563337 
0.0525489191822476 
0.02548832579936899 
-0.3224412905027471 
0.2159852709555109 
-0.2719639776773439 
-0.08366393635602751 
-1.082970546855908 
0.1829461613018453 
-0.1906044108304121 
-0.01528178903227943 
-0.01187249668665654 
-0.07849010572491992 
0.1722408870597156 
-0.04180561398411826 
-0.1380481131180887 
-0.05543675052664509 
-0.1587645028282732 
-0.2533161425153846 
-0.01584426778406147 
-0.9930014165346063 
0.0216815506733435 
0.5758473625648154 
0.4657718520986307 
0.03117144610833278 
0.2674323888446739 
-0.01300168360741359 
0.007646495770205401 
-0.01297194743635024 
-0.6495792956641401 
-0.005233410508254236 
-0.07320436634148103 
-0.08316263296811152 
-0.03107593524846265 
-0.01198284008193047 
-0.02390622917922776 
0.002890024107583361 
-0.4236592621311081 
-0.002139402370192866 
-0.53022761077596 
-0.01673879635125113 
0.1873144580420116 
-0.5167032673063399 
-0.2791192562235147 
-0.09998759395175537 
-0.009510199678413935 
0.05730979075659754 
-0.3004973520016363 
0.01939596786901403 
0.008841268351410893 
-0.01514079696498828 
-0.001868692823541438 
-0.007965437433803058 
0.01822000678936905 
0.05947551042862152 
0.1032260133094086 
0.05282037667650497 
-0.06990573713187231 
-0.00666221094268409 
-0.1066399196759576 
-0.555486636162067 
0.03055716842142514 
-0.09978820134298287 
-0.05884224019585378 
-0.08421714386325749 
-0.1470100842879088 
-0.4051473655910466 
-0.005065704238801864 
-0.1354636388503314 
-0.004373821463168961 
-0.01176909146442349 
-0.2659898876720717 
-0.004885666016322549 
-0.001888269753779708 
-0.01816565753089151 
0.2754665381169883 
-0.004504015167376843 
0.04695609499490921 
-0.002668407957821625 
-0.110666311483152 
-0.022283765179947 
-0.1335980885200566 
-0.02385562510534063 
-0.06290669500079339 
-0.1751354121251912 
-0.1122945649031208 
-0.2567891304332247 
-0.03753238123115543 
-0.01403866876855759 
0.4884978370602882 
0.01024077007576285 
-0.007402704877159931 
0.09471674661215727 
0.00918742961540892 
-0.5127008839756466 
0.827797186133268 
0.9573499821965227 
0.07577667443543307 
0.152687752081418 
0.05911173692362688 
0.8766418346335143 
0.5324347803190724 
0.3170347213312565 
0.6179369628331463 
0.05563036084619239 
0.3959444397439612 
-0.05482554808376236 
-0.02215437495795623 
-0.1078040120201649 
-0.04369856775727143 
-0.1711718788431289 
0.0003850964241899028 
-0.3297908373717848 
0.009788367002219515 
-0.02068282174206733 
-0.1712733135657789 
-0.01236444803766502 
-0.009836297926206692 
0.02376919870863586 
0.3617085549597635 
-0.3343394808113346 
-0.01587753509750089 
0.05344351881778502 
-0.03784368801861501 
-0.09865675893391818 
-0.1667081981481709 
-0.00562263193746661 
-0.02371196448149206 
-0.01180409871980521 
-0.01504550050079596 
0.000932798075094073 
0.2002357573471454 
0.2035276545245988 
0.03490759148342557 
1.524940962155195 
0.06105089889189328 
0.4157168814169518 
-0.1229181508206682 
-0.1928963101817701 
-0.03403429236236554 
-0.003711428671594976 
-0.03951579968049939 
-0.008814401336182467 
-0.01528777625081195 
-0.06205482179196504 
-0.01094837575191067 
0.02519963020327639 
0.424334341577626 
0.5327052218313938 
-0.08458805498154526 
0.041689796461282 
-0.06416937566699303 
0.07915087105852435 
-0.05219376510790806 
-0.001405517504222468 
-0.009455558772863335 
-0.04115713711038359 
-0.005588250608725288 
-0.0009419593490431507 
-0.03010012437641994 
0.1601613249507939 
-0.1793346449604672 
-0.3180336190960288 
-0.1728572472418202 
-0.5037365499622393 
-0.4523720232535665 
0.6501570110351903 
0.1152993201844864 
-0.3116528752974097 
-0.06688234547013618 
